tree
version=v4
num_class=1
num_tree_per_iteration=1
label_index=0
max_feature_idx=33
objective=binary sigmoid:1
feature_names=ema_9 ema_21 ema_50 ema_200 rsi_14 stoch_k stoch_d macd macd_signal macd_hist atr_14 bb_upper bb_middle bb_lower bb_width tenkan_sen kijun_sen senkou_a senkou_b chikou_span fib_618 fib_50 fib_382 pivot_point resistance_1 support_1 regime_trend regime_volatility spread_bps depth_imbalance realized_vol funding_rate open_interest sentiment_score
feature_infos=[4363.7909954058578:68550.73501484975] [4703.3883083421952:68226.987353124496] [4879.838491811036:67744.05075698279] [5134.401914836496:66888.382233057142] [4.0921831157629693:95.667023333045947] [1.0920166357723944:98.767379053642017] [2.1954634340650157:98.051729248279386] [-1690.9010900630092:1231.6490948089122] [-1511.8091391656872:1106.7134824979451] [-672.6284392682735:589.85614023042251] [5.8099914732755016:2096.1047762312287] [4922.2621191479457:69828.550657794549] [4659.0429999999606:68466.85750000026] [3640.3057257531614:68094.201355129175] [0.0007798999407469167:0.52655440989586932] [4245.625:68690.904999999999] [4575.8900000000003:68164.790000000008] [4543.2649999999994:68107.627500000002] [4661:67988.050000000003] [3761.0999999999999:68805.5] [4519.2005799999997:67207.311119999998] [4796.4049999999997:67524.350000000006] [4999.26152:67919.496599999999] [3909.5366666666669:68660.793333333335] [4093.5633333333335:69135.893333333326] [3577.0733333333337:68595.306666666671] [-1:1] [0:2] none none [0.016433653856624198:7.2391364662854816] none none none
tree_sizes=3354 3491 3507 3499 3493 3490 3477 3501 3468 3485 3505 3507 3492

Tree=0
num_leaves=31
num_cat=0
split_feature=4 15 19 19 27 14 4 12 19 24 16 0 19 19 4 19 2 19 16 17 19 1 19 21 4 19 16 19 18 15
split_gain=125.497 54.1338 188.918 88.549 44.739 61.9158 43.0969 39.3677 52.3782 98.466 49.0397 41.2727 44.1315 38.3726 36.1004 35.6775 35.1938 35.3189 72.3412 34.7829 35.8998 32.9686 77.7461 56.7865 30.9247 34.6096 55.6174 45.6488 33.4058 32.7491
threshold=72.567386231902034 57499.220000000008 57778.965000000004 56948.025000000009 1.5000000000000002 0.037274064472886927 55.705685212533744 64989.372500000267 61040.505000000012 61172.750000000022 60660.842500000006 58885.593476379814 59319.855000000003 54638.895000000011 38.461756618024218 58530.140000000007 55945.799435604153 54638.895000000011 54345.087500000001 51178.253750000003 46725.235000000008 5369.6761487646609 6158.1200000000008 6155.9650000000011 60.324409079248873 18889.750000000004 36375.227500000008 36569.040000000008 39436.522500000006 7232.9225000000006
decision_type=2 2 2 2 2 2 2 2 2 2 2 2 2 2 2 2 2 2 2 2 2 2 2 2 2 2 2 2 2 2
left_child=1 3 -3 4 14 6 -6 8 9 11 -10 15 -13 19 -1 -4 17 18 21 20 24 -16 -23 -24 25 -7 -27 -28 -29 -26
right_child=-2 2 7 -5 5 13 -8 -9 10 -11 -12 12 -14 -15 16 -17 -18 -19 -20 -21 -22 22 23 -25 29 26 27 28 -30 -31
leaf_value=0.37337325617289091 0.38365832137447325 0.30361956417473479 0.35661886690821087 0.39374087617463771 0.3595765796937398 0.33342906847435688 0.37008760953480102 0.32958717782015023 0.42786849486588607 0.29951287316480035 0.37082228271293838 0.32400836617376894 0.36514181131859136 0.39874117362917283 0.40098374919537411 0.39957860293731229 0.33761680460212012 0.38640552779357384 0.29934738694405016 0.31689205053884845 0.37971790274772615 0.30095931359517819 0.4263962945649995 0.36397008612873399 0.41594619817775191 0.36352743256071435 0.29092494397451563 0.37079089130853904 0.33240536844833485 0.35874120750317157
leaf_weight=1089.1179781854153 748.01261407136917 169.34308856725693 92.171023920178413 238.28991748392582 3568.5427135080099 375.21590052545071 1341.9230175465345 94.348292201757431 41.610016047954559 74.269040271639824 398.198176831007 107.41190189123154 165.95622679591179 41.368097350001335 60.237755790352821 101.60585314035416 126.0396416336298 176.1168121099472 43.303446933627129 75.720552459359169 105.71847100555897 48.867576986551285 36.529723390936852 13254.4835421592 27.820650264620781 438.84051808714867 47.657983496785164 81.284682512283325 187.24507221579552 248.45050279796124
leaf_count=4502 3092 700 381 985 14751 1551 5547 390 172 307 1646 444 686 171 249 420 521 728 179 313 437 202 151 54789 115 1814 197 336 774 1027
internal_value=0.363505 0.362846 0.352707 0.36343 0.363092 0.359647 0.362449 0.360436 0.363402 0.35299 0.376219 0.361492 0.34898 0.351201 0.364611 0.379145 0.363916 0.36416 0.363868 0.349962 0.351618 0.364077 0.36391 0.364142 0.349506 0.345841 0.352008 0.336021 0.344025 0.364502
internal_weight=23605.7 22857.7 1244.91 21612.8 21374.5 6539.79 4910.47 1075.57 981.222 541.414 439.808 467.145 273.368 1629.32 14834.7 193.777 13745.6 13619.5 13443.4 1587.95 1512.23 13400.1 13339.9 13291 1406.52 1130.24 755.028 316.188 268.53 276.271
internal_count=97577 94485 5146 89339 88354 27033 20298 4446 4056 2238 1818 1931 1130 6735 61321 801 56819 56298 55570 6564 6251 55391 55142 54940 5814 4672 3121 1307 1110 1142
is_linear=0
shrinkage=1


Tree=1
num_leaves=31
num_cat=0
split_feature=4 0 19 19 13 19 2 19 25 17 25 19 2 19 17 19 24 25 30 11 10 10 19 12 19 24 17 0 7 19
split_gain=113.681 47.3617 161.321 86.812 43.7668 72.2423 76.0187 45.3989 155.028 74.31 47.8057 150.861 73.4921 119.581 84.0249 55.1476 48.312 47.459 42.274 41.1422 53.9636 35.9722 35.5782 35.4258 46.7134 88.2033 46.3954 37.4863 43.9937 41.9164
threshold=72.567386231902034 57477.662415622828 57778.965000000004 56948.025000000009 55112.903961569747 54976.840000000004 54675.583062806712 49891.535000000011 50170.20666666668 49186.590000000004 48858.663333333338 48541.220000000008 47266.790270776597 46494.120000000003 46249.693750000006 47453.745000000003 47750.16333333333 46968.821666666678 0.64587887153007084 5531.9953363072591 392.68515475229486 146.9018943310646 55939.340000000004 64989.372500000267 61040.505000000012 61172.750000000022 60601.991250000006 58885.593476379814 -43.979624815796335 60651.985000000008
decision_type=2 2 2 2 2 2 2 2 2 2 2 2 2 2 2 2 2 2 2 2 2 2 2 2 2 2 2 2 2 2
left_child=1 3 -3 4 5 6 7 8 10 -9 11 12 13 14 18 21 -17 -15 -1 -20 -21 -14 -6 24 25 27 -26 -4 -29 -30
right_child=-2 2 23 -5 22 -7 -8 9 -10 -11 -12 -13 15 17 -16 16 -18 -19 19 20 -22 -23 -24 -25 26 -27 -28 28 29 -31
leaf_value=0.00032515964176616619 0.01918964008430964 -0.054621332775736213 0.014761945645001646 0.030511696022145492 -0.043111968771976969 0.031434054967369875 -0.041415347273341598 0.05786230326720139 -0.076639617755575484 0.0062517479131813831 -0.02254522807410695 0.042068587826931868 0.057538837009517521 0.041264260943082852 -0.033626641724377966 0.03109945256604485 -0.01641574994776759 0.0035242411247032989 0.03312801209306241 -0.022465587074744164 0.00088536496556830427 -0.043647469884134503 -0.0057562964404588657 -0.032058669304713051 0.063367622499861428 -0.060168093826156246 0.0069260529122017484 0.012078884508849181 -0.037099365536486344 0.049171329408025488
leaf_weight=17620.209874495864 745.23838287591934 175.05762158334255 197.99870820343494 229.06147363781929 105.65820595622063 179.17446845769882 112.6397148668766 81.983017489314079 66.83205708861351 467.20551031827927 239.97310665249825 209.91962559521198 9.1917777061462385 240.42574502527714 190.57620972394943 68.946333333849907 238.7436488866806 127.46550457179546 52.62518335878849 564.14588388800621 440.69336549937725 197.70339977741241 160.66086587309837 94.899409711360931 40.068853586912155 75.054138243198395 398.69340237975121 102.73118939995766 155.83569493889809 15.478317260742186
leaf_count=72837 3092 717 821 952 436 743 464 339 276 1931 992 868 38 994 787 285 987 527 218 2328 1820 817 663 390 167 307 1651 424 642 64
internal_value=-2.79709e-05 -0.000654477 -0.010094 -0.000105762 -0.000433872 -0.000179737 -0.000450381 -0.000228718 -0.000613087 0.0139562 -0.00036156 -9.48608e-05 -0.000542993 -4.41447e-05 -0.000594617 -0.0191909 -0.00576867 0.0281882 -0.000257577 -0.00996755 -0.0122245 -0.039152 -0.0205766 -0.00288164 -7.30494e-05 -0.00981991 0.0120804 -0.00181464 -0.0137913 -0.0293048
internal_weight=23604.9 22859.7 1255.82 21603.8 21374.8 21108.5 20929.3 20816.6 20267.5 549.189 20200.6 19960.6 19750.7 19236.1 18868.3 514.585 307.69 367.891 18677.7 1057.46 1004.84 206.895 266.319 1080.76 985.86 547.098 438.762 472.044 274.045 171.314
internal_count=97577 94485 5183 89302 88350 87251 86508 86044 83774 2270 83498 82506 81638 79511 77990 2127 1272 1521 77203 4366 4148 855 1099 4466 4076 2258 1818 1951 1130 706
is_linear=0
shrinkage=0.05


Tree=2
num_leaves=31
num_cat=0
split_feature=4 15 19 19 4 13 19 2 19 25 2 25 19 23 19 24 19 22 19 0 19 21 24 19 26 19 19 22 19 25
split_gain=103.595 43.867 154.04 73.0031 39.1132 40.1217 63.1457 60.0495 40.7081 136.472 67.415 43.8678 134.69 71.7881 86.3242 63.856 79.4076 66.0508 51.0836 68.2924 42.1967 89.3626 72.8436 55.2591 52.352 37.0261 36.799 35.6588 34.6517 34.5299
threshold=73.318363450860815 57499.220000000008 57778.965000000004 56948.025000000009 26.860111944196834 55112.903961569747 54976.840000000004 54675.583062806712 49891.535000000011 50170.20666666668 49934.659260490494 48858.663333333338 48541.220000000008 47620.138333333343 47453.745000000003 47220.465000000004 46494.120000000003 46464.938600000001 45168.515000000007 44691.940751585935 43470.650000000009 42537.75250000001 44106.94666666667 42662.915000000008 1.0000000180025095e-35 47818.970000000008 52062.56500000001 51143.082870000006 49214.370000000003 42091.150000000001
decision_type=2 2 2 2 2 2 2 2 2 2 2 2 2 2 2 2 2 2 2 2 2 2 2 2 2 2 2 2 2 2
left_child=1 3 -3 4 -1 6 7 8 9 11 -10 12 13 14 15 16 17 18 19 20 21 23 -22 29 -24 -15 27 -12 -13 -6
right_child=-2 2 -4 -5 5 -7 -8 -9 10 -11 26 28 -14 25 -16 -17 -18 -19 -20 -21 22 -23 24 -25 -26 -27 -28 -29 -30 -31
leaf_value=-0.013607676844553232 0.019647080949683319 -0.053520350345503925 -0.0026684426539426223 0.027537373055417647 0.00020507606912092968 -0.019540122584411998 0.029912180631328934 -0.038701865585127171 0.047041509216743084 -0.072166218748893216 0.0048961554268573395 -0.035753465148681725 0.040520256926932161 -0.039017435446653037 0.037696255032761881 -0.032870882821837463 0.02915963220910411 -0.031164819320318643 0.026286864024529306 -0.042962736839126742 0.038599852022857588 -0.027302425666600488 0.038578704012202002 0.037869372786529666 -0.029460970829645355 -0.0061523819311487251 0.020463390123420407 -0.036650436336203594 0.0038581993017013576 -0.028077764044266658
leaf_weight=543.30660682916641 650.7394377887249 172.74511656165123 1079.848081573844 237.0456425845623 17178.719730094075 259.94373492896557 177.60032866895199 99.897197797894478 118.32845206558704 65.677657961845398 153.36093482375145 151.29187634587288 205.840202704072 173.83633229136467 152.8241231739521 146.90280115604401 234.12607084214687 170.01125359535217 184.98280112445354 92.550016403198242 184.10503534972668 299.61086712777615 39.942157939076424 97.012188956141472 96.757275357842445 169.02951194345951 193.33545753359795 77.869281530380249 86.934674322605133 108.59907668828964
leaf_count=2240 2710 702 4462 991 71011 1069 741 409 493 268 635 623 858 716 635 605 973 699 764 382 761 1238 165 401 400 697 800 322 358 449
internal_value=-2.56275e-05 -0.000583391 -0.00968143 -5.82097e-05 -0.000362995 -1.90062e-05 0.000226618 -3.07923e-05 0.000158747 -0.000210903 0.0136667 2.81018e-05 0.000288175 -0.000140268 0.000269214 -3.44897e-05 0.000223653 -0.000143492 0.000144982 -0.000122229 9.79849e-05 -0.000228037 0.0180695 0.000238578 -0.00958048 -0.0228153 0.00436501 -0.00909511 -0.0212982 2.7403e-05
internal_weight=23602.8 22952 1252.59 21699.4 21462.4 20919.1 20659.1 20481.5 20381.6 19838.8 542.894 19773.1 19534.8 19329 18986.1 18833.3 18686.4 18452.3 18282.3 18097.3 18004.7 17683.9 320.804 17384.3 136.699 342.866 424.566 231.23 238.227 17287.3
internal_count=97577 94867 5164 89703 88712 86472 85403 84662 84253 82003 2250 81735 80754 79896 78483 77848 77243 76270 75571 74807 74425 73099 1326 71861 565 1413 1757 957 981 71460
is_linear=0
shrinkage=0.05


Tree=3
num_leaves=31
num_cat=0
split_feature=15 19 19 2 19 18 19 19 25 19 23 19 25 19 17 24 19 17 19 15 30 27 1 19 24 16 19 2 19 19
split_gain=41.0208 143.784 71.0346 68.3046 66.3849 96.4709 49.1184 43.454 68.6139 45.9209 67.4602 106.813 56.606 50.0992 53.222 48.1365 84.8689 69.2946 41.7382 49.5545 39.1636 42.7924 35.2593 44.9933 81.8545 46.6615 37.1453 34.0547 118.523 67.8214
threshold=57499.220000000008 57778.965000000004 56330.885000000002 54675.583062806712 52062.56500000001 50921.082500000011 54976.840000000004 50319.585000000006 50170.20666666668 48992.500000000007 47620.138333333343 47453.745000000003 48858.663333333338 47818.970000000008 47793.482500000006 47220.465000000004 46494.120000000003 46249.693750000006 45168.515000000007 44771.000000000007 0.66529206326724621 1.5000000000000002 65000.216894100842 61040.505000000012 61172.750000000022 60660.842500000006 64953.380000000012 6854.9981849629903 7082.3100000000004 6857.2600000000011
decision_type=2 2 2 2 2 2 2 2 2 2 2 2 2 2 2 2 2 2 2 2 2 2 2 2 2 2 2 2 2 2
left_child=2 -2 3 4 5 7 -5 8 9 10 11 15 -11 -12 -15 16 17 18 19 20 27 -22 23 24 -3 -25 -27 29 -29 -1
right_child=1 22 -4 6 -6 -7 -8 -9 -10 12 13 -13 -14 14 -16 -17 -18 -19 -20 -21 21 -23 -24 25 -26 26 -28 28 -30 -31
leaf_value=0.0065313676169680111 -0.050398454302544964 -0.0011534593364119752 0.021311521859439464 -0.042045595552987029 0.025829459024595589 -0.040255421758360097 -0.0051427930445281213 0.023577784733935663 -0.051602955789550792 0.048227120617675701 -0.037469507459243136 0.039076958224071215 0.0019236092449735735 0.029125648515644628 -0.016683695388415392 -0.028169769778057397 0.02980569915241817 -0.030036137715463925 0.023712621544937321 -0.038507941009996702 0.0057625712118238269 -0.01626137923315658 -0.030632664199035382 0.060564264783452629 -0.056755502727589113 0.0029583849570718589 0.061716293292629301 -0.037689422498819146 0.00095756507443823342 0.063462187704472248
leaf_weight=346.49613338708878 178.08761927485466 485.43349784612656 401.81440332531929 160.50544168055058 254.82687465846539 146.65687109529972 205.77170318365097 200.94741849601269 63.688721746206284 111.10226337611675 195.86467777192593 178.54706110060215 162.608781427145 82.830368667840958 270.35986299812794 148.08614087104797 243.0740257948637 189.17917774617672 189.66625684499741 82.577806085348129 323.71504157781601 692.09428703784943 98.217423290014267 45.2879838347435 76.641821905970573 382.43492265045643 28.932312175631523 200.67555505037308 17391.787901505828 61.61589740216732
leaf_count=1434 720 2006 1678 654 1061 601 853 838 260 467 802 748 672 344 1116 607 1016 774 787 339 1338 2851 402 191 311 1585 120 829 71918 255
internal_value=-2.34419e-05 -0.00867463 0.00047886 9.6676e-05 0.000460813 0.000157047 -0.0213139 0.000437473 0.000215346 0.000373477 0.000103106 0.000576665 0.0207187 -0.0171878 -0.00594046 0.000230693 0.000443955 7.75339e-05 0.000372883 0.000141103 0.000308935 -0.00924285 -0.00202213 0.000736255 -0.00873508 0.0123941 0.00709095 0.000847962 0.000516723 0.0151267
internal_weight=23599.5 1295.04 22304.5 21902.7 21536.4 21281.6 366.277 21134.9 20934 20870.3 20596.6 20047.5 273.711 549.055 353.19 19869 19720.9 19477.8 19288.6 19099 19016.4 1015.81 1116.95 1018.73 562.075 456.655 411.367 18000.6 17592.5 408.112
internal_count=97577 5335 92242 90564 89057 87996 1507 87395 86557 86297 85158 82896 1139 2262 1460 82148 81541 80525 79751 78964 78625 4189 4615 4213 2317 1896 1705 74436 72747 1689
is_linear=0
shrinkage=0.05


Tree=4
num_leaves=31
num_cat=0
split_feature=4 24 19 19 23 4 9 18 0 19 3 7 24 19 7 16 19 24 11 19 0 19 23 19 16 11 19 19 10 4
split_gain=92.2324 34.8522 133.257 69.7561 39.4217 34.5918 33.368 33.1503 39.6849 56.2533 65.6176 58.1203 38.8097 38.7842 34.2831 33.5522 28.5511 40.6213 27.8996 142.552 91.4614 88.0822 79.0473 87.6514 92.8172 67.3816 50.4181 47.4619 42.8502 42.4311
threshold=73.318363450860815 57640.813333333346 57490.595000000008 56948.025000000009 56945.283333333347 26.860111944196834 -10.645522205657558 56717.825000000004 58885.593476379814 61040.505000000012 62005.451194854213 -11.847679466195585 61172.750000000022 60651.985000000008 -43.979624815796335 57275.552500000013 62824.115000000005 61627.903333333343 9140.7940521166547 9239.6850000000031 9184.3591801928396 8763.840000000002 9295.1316666666698 9359.1500000000015 9386.8700000000008 8885.6746323225398 9162.9950000000008 9505.3800000000028 13.828147780205905 56.28237921580476
decision_type=2 2 2 2 2 2 2 2 2 2 2 2 2 2 2 2 2 2 2 2 2 2 2 2 2 2 2 2 2 2
left_child=1 3 -3 4 5 -1 -7 15 -9 12 16 -12 13 14 -10 -4 17 -11 21 20 26 25 -21 -24 -25 -8 -20 -26 -23 -30
right_child=-2 2 7 -5 -6 6 18 8 9 10 11 -13 -14 -15 -16 -17 -18 -19 19 22 -22 28 23 24 27 -27 -28 -29 29 -31
leaf_value=-0.01270957595032831 0.018586429807892931 -0.058319770569915719 0.028049625215236958 0.027422213861012897 -0.038892929634015333 0.0037835969392933759 0.00078560270331355306 0.017936708472633293 0.0056155882214652952 0.03738911116987606 0.010879140021868064 -0.032163588641415469 -0.053375430853791497 0.032976018120014057 -0.034332113839376781 -0.075838860743290978 0.058436422832647855 -0.011701116440842088 -0.024516901813728197 0.029290345380754108 -0.051530212834916572 -0.034958808485651173 -0.036766894474641765 0.041092891416386529 -0.025826472470231829 -0.062561326614187202 0.020015176999995773 -0.0010404534489687736 0.038799040035337712 0.0053382774638540756
leaf_weight=542.98122608661652 647.65243515372276 121.89292162656784 10.595263689756392 228.17855350673199 66.205029293894768 4696.2773035615683 2661.0605672895908 208.72240599989891 81.658165246248245 93.343723312020302 156.38011649250984 157.33296911418438 76.132206365466118 39.251430749893188 156.90920257568359 29.165574595332146 49.307403489947319 76.823675140738487 180.24015106260777 212.08484420180321 227.85672172904015 29.257864430546761 173.66537082195282 129.61458815634251 196.35920961201191 42.651640996336937 98.182403087615967 11779.666057541966 283.00365333259106 142.42530818283558
leaf_count=2232 2710 492 44 962 271 19415 11003 865 337 392 646 648 307 163 642 119 205 319 745 877 942 121 718 536 812 176 406 48713 1170 589
internal_value=-2.14504e-05 -0.000546631 -0.00863927 -7.74402e-05 -0.000369816 -0.000250611 7.3812e-05 -0.00330677 -0.00167955 -0.00629478 0.00396362 -0.0107076 -0.0217479 -0.0130809 -0.0206586 -0.0481552 0.0249344 0.0152269 -0.00100456 -0.0020288 -0.0280385 0.00321047 -0.000974617 -0.00149735 -0.000991374 -0.000213709 -0.00881319 -0.00144685 0.0235717 0.027597
internal_weight=23594.9 22947.2 1257.52 21689.7 21461.5 21395.3 20852.3 1135.62 1095.86 887.139 533.188 313.713 353.951 277.819 238.567 39.7608 219.475 170.167 16156.1 12997.7 506.279 3158.4 12491.4 12279.3 12105.6 2703.71 278.423 11976 454.687 425.429
internal_count=97577 94867 5179 89688 88726 88455 86223 4687 4524 3659 2210 1294 1449 1142 979 163 916 711 66808 53749 2093 13059 51656 50779 50061 11179 1151 49525 1880 1759
is_linear=0
shrinkage=0.05


Tree=5
num_leaves=31
num_cat=0
split_feature=4 4 0 19 19 9 0 30 8 30 19 14 22 19 20 23 9 19 6 18 17 19 4 3 19 17 19 23 19 11
split_gain=71.3409 33.9857 31.9957 99.7486 71.7991 31.6667 38.4127 32.1904 29.5276 29.7024 51.826 30.7861 63.1501 75.9001 38.9231 46.8821 37.1666 34.8256 27.8747 27.6668 41.84 26.8339 26.3326 29.7951 67.939 26.1967 25.1483 45.29 71.7527 45.4163
threshold=73.318363450860815 27.758914428928868 57477.662415622828 57231.005000000012 57490.595000000008 10.179661915183571 56642.652588161764 0.23746582055304011 231.76876134451581 0.3538535607105861 56330.885000000002 0.0062336876321952847 19446.126000000004 39640.380000000012 16923.096400000002 16832.283333333336 -4.5497964949866363 16834.750000000004 53.783119124109525 56717.825000000004 57470.120000000003 56330.885000000002 50.67110115590723 62005.451194854213 62077.035000000011 39667.798750000009 6410.2200000000012 6856.2449999999999 6951.5950000000003 7142.5000828546672
decision_type=2 2 2 2 2 2 2 2 2 2 2 2 2 2 2 2 2 2 2 2 2 2 2 2 2 2 2 2 2 2
left_child=1 -1 4 -4 5 8 21 -8 9 11 -11 12 14 25 15 17 -17 -3 -10 -5 -21 -7 -22 24 -24 -14 -13 -28 -29 -30
right_child=-2 2 3 19 -6 6 7 -9 18 10 -12 26 13 -15 -16 16 -18 -19 -20 20 22 -23 23 -25 -26 -27 27 28 29 -31
leaf_value=-0.011334201865073199 0.016821603108757046 -0.00021327226931734013 -0.058099329527994098 -0.042322943005333631 0.039608333151926259 -0.0030330956943965745 0.035710319725914361 -0.057035496185717363 0.0314682888120138 -0.0043460748212393735 0.051873506652647942 -0.033984008262816244 -0.024456884473591123 0.012494470278480064 0.017282310329589538 -0.097874353284568394 -0.019814027753662155 0.050259436445337091 0.0046246803042981647 0.048559347972526014 0.0036464014678959985 0.029766558176784693 -0.015194970309699863 -0.030930092212827359 0.038630625821588743 -0.11579182133655502 0.030569562473851543 -0.048591738640831203 0.046323288383332939 0.0033228172348472164
leaf_weight=659.10486924648285 636.78622409701347 1826.8479155749083 90.699345484375954 44.425574943423271 117.5809640288353 4705.4795258194208 11.298335939645765 54.413996309041977 154.79331637918949 2767.0761188715696 41.609727904200554 44.54662974178791 482.74384777247906 173.96988137066364 338.11977969110012 18.622187942266464 84.174518659710884 34.827875018119812 257.72901652753353 39.338426306843758 551.09369587898254 63.194512084126472 292.40424665808678 148.97555136680603 73.326164409518242 7.9805777668952933 154.01860983669758 66.309867352247238 61.801203563809395 9583.9236474186182
leaf_count=2706 2675 7551 364 180 500 19457 47 226 643 11433 174 184 1996 719 1398 77 348 144 1069 163 2274 266 1206 611 308 33 639 273 255 39641
internal_value=0.000313405 -0.000144634 0.000186216 -0.00761798 0.000646015 0.000427169 -0.00312163 -0.0410891 0.00149283 0.00114558 -0.0035132 0.00216167 -0.00230615 -0.0158822 0.00161289 -0.00108409 -0.0339551 0.000730962 0.0146974 -0.00363506 -0.00207984 -0.00259843 -0.00394892 -0.0120812 -0.00440335 -0.0259423 0.00349936 0.0036686 0.00324199 0.00359833
internal_weight=23587.2 22950.4 22291.3 1240.26 21051.1 20933.5 4834.39 65.7123 16099.1 15686.6 2808.69 12877.9 2967.29 664.694 2302.59 1964.47 102.797 1861.68 412.522 1149.56 1105.14 4768.67 1065.8 514.706 365.73 490.724 9910.6 9866.05 9712.03 9645.72
internal_count=97560 94885 92179 5106 87073 86573 19996 273 66577 64865 11607 53258 12266 2748 9518 8120 425 7695 1712 4742 4562 19723 4399 2125 1514 2029 40992 40808 40169 39896
is_linear=0
shrinkage=0.05


Tree=6
num_leaves=31
num_cat=0
split_feature=12 19 8 23 30 11 10 24 19 11 19 19 24 13 19 24 23 3 19 11 19 2 19 23 24 13 19 24 23 19
split_gain=33.0306 35.753 35.0818 35.1862 35.1086 34.2086 42.4209 32.2864 35.3653 31.4015 214.682 148.762 72.7618 37.9288 32.0332 136.674 85.9835 41.1814 52.7225 90.7618 66.2489 78.2411 60.8083 90.4291 65.3263 42.2606 38.7326 35.1775 33.9923 30.8285
threshold=64989.372500000267 64953.380000000012 231.76876134451581 63701.498333333344 0.66529206326724621 5531.9953363072591 401.22982090211434 34747.985000000008 35716.895000000011 39534.082278315465 39430.715000000004 39198.680000000008 39150.433333333334 39384.672333004222 37156.035000000011 37000.006666666668 37949.646666666675 37885.4512688459 35716.895000000011 35613.233967745713 34333.275000000009 33752.731121602228 30013.750000000004 29730.000000000004 30096.549999999999 35406.463587723956 38725.025000000009 34747.985000000008 38888.945000000007 34029.05000000001
decision_type=2 2 2 2 2 2 2 2 2 2 2 2 2 2 2 2 2 2 2 2 2 2 2 2 2 2 2 2 2 2
left_child=1 2 4 -4 9 -6 -7 -8 -9 11 12 14 -11 -12 15 17 -16 18 19 20 21 22 23 -1 -24 -20 -18 -22 -28 -23
right_child=-2 -3 3 -5 5 6 7 8 -10 10 13 -13 -14 -15 16 -17 26 -19 25 -21 27 29 24 -25 -26 -27 28 -29 -30 -31
leaf_value=0.00084087864886740749 -0.029197901709836983 0.056111973466130949 0.01110812708677148 -0.084646870844879984 0.03269027659440623 -0.020783765499986454 0.019852425818287823 -0.05296271810775649 -0.0027094657719715261 -0.0072225672658393974 0.031076980219253782 0.053822568405735863 -0.069505483532867549 -0.001379518897480649 0.036276983676528048 -0.054081928062827328 -0.014310276687377272 -0.066816239804258534 0.05171618427203304 -0.038734245388910987 0.052126138838201663 -0.048971176366552613 0.061523403390845055 -0.042002094158019219 0.010457198678862155 0.0080797645635023972 0.040874882201902218 0.0018829249311153669 -0.0076022651076007161 -0.000681682095603747
leaf_weight=13514.847996100783 94.531739503145218 28.779934987425804 883.37109391391277 9.6991138309240323 47.094595715403557 522.22114872932434 141.57698258757591 39.623427659273148 300.67621217668056 66.953202530741692 91.57832545042038 134.85588957369328 156.50778269767761 5266.5411986708641 232.38038355112076 113.30050593614578 244.29874612390995 22.326330244541168 89.265604257583618 144.00444433093071 96.929353222250938 109.12854205071926 69.361837446689606 124.29822738468647 644.98101124167442 146.62100480496883 77.61405573785305 54.384071424603462 67.707309976220131 47.409948572516441
leaf_count=55909 384 121 3679 40 196 2143 584 163 1240 276 379 558 646 21798 961 468 1010 92 369 595 401 451 287 514 2668 606 321 225 280 196
internal_value=0.000298383 0.000417095 0.000348769 0.0100682 -3.58776e-05 -0.00895819 -0.0109116 -0.000212896 -0.0085608 0.000400048 -0.00282734 0.0015306 -0.0508443 -0.000824788 0.00108425 0.000628462 0.0122055 0.00103997 0.00114069 0.000767035 0.00115502 0.000811794 0.00119522 0.000450436 0.0154157 0.0245929 -0.00215144 0.0340681 0.0182887 -0.034346
internal_weight=23582.9 23488.3 23459.6 893.07 22566.5 1051.19 1004.1 481.877 340.3 21515.3 5581.58 15933.7 223.461 5358.12 15798.9 15176.9 622 15063.6 15041.2 14805.3 14661.3 14510 14353.5 13639.1 714.343 235.887 389.62 151.313 145.321 156.538
internal_count=97560 97176 97055 3719 93336 4326 4130 1987 1403 89010 23099 65911 922 22177 65353 62781 2572 62313 62221 61246 60651 60025 59378 56423 2955 975 1611 626 601 647
is_linear=0
shrinkage=0.05


Tree=7
num_leaves=31
num_cat=0
split_feature=4 4 24 19 19 23 3 19 3 13 1 19 25 19 23 19 1 24 19 18 19 23 7 30 8 27 3 19 19 12
split_gain=64.353 29.1749 29.054 109.761 67.2937 49.2635 28.9773 30.292 95.4853 50.7271 31.6682 46.9237 96.694 69.9795 57.345 86.8492 55.5346 41.3254 61.1683 59.2223 36.9202 36.3358 30.1735 26.2387 33.7888 30.5945 30.5352 72.8033 64.5122 72.1643
threshold=75.372002272595182 27.758914428928868 57640.813333333346 57490.595000000008 56948.025000000009 56945.283333333347 59688.36321209887 54638.895000000011 54025.140777438981 54688.275910619523 54670.822310691532 49891.535000000011 49058.405000000006 48788.010000000002 47620.138333333343 47453.745000000003 49522.786851806217 47220.465000000004 46285.235000000008 46486.305000000008 47818.970000000008 48769.095000000008 63.898080988938098 0.64587887153007084 220.7730834375306 1.5000000000000002 42917.281861474883 44002.430000000008 41967.965000000004 41771.570000000283
decision_type=2 2 2 2 2 2 2 2 2 2 2 2 2 2 2 2 2 2 2 2 2 2 2 2 2 2 2 2 2 2
left_child=1 -1 4 -4 5 6 7 8 10 -9 11 12 13 14 15 17 -13 18 19 23 -16 -15 -11 24 26 -25 28 -28 29 -3
right_child=-2 2 3 -5 -6 -7 -8 9 -10 22 -12 16 -14 21 20 -17 -18 -19 -20 -21 -22 -23 -24 25 -26 -27 27 -29 -30 -31
leaf_value=-0.010434985958494904 0.019007001928328895 0.00091269884750825681 -0.052129327748188792 -0.002299901108341842 0.027633450760971925 -0.042452101573252812 -0.12198346553756151 0.033314676826807298 -0.038118077450683449 0.0084599440918529199 -0.061812847101878114 0.057165413896502142 -0.033674736515525147 0.048937591460771084 -0.034833033830385329 0.036722544889589114 0.0089811214560147953 -0.026240176432039998 0.022663083476173185 -0.036662266969801412 -0.0048153852035950672 0.0046987991669805752 -0.033623273788584145 0.0042227852470394693 0.017940236452089083 -0.013972984926126954 -0.024648958035118525 0.0076171685115478359 0.022554202436637583 -0.037050302285913286
leaf_weight=660.7977359443903 450.19661310315132 15870.052726075053 122.51570457220078 1128.1101613640785 228.75224977731705 66.95803165435791 4.8274104148149481 185.95251309871674 160.79619114100933 175.78978990018368 20.327412515878677 71.119033738970757 207.64963760972023 112.57768213748932 183.16285589337349 166.13590291142464 375.68403553962708 144.32220663130283 309.46814115345478 108.03827674686909 232.41703689098358 78.979543194174767 56.21469908952713 361.54800836741924 286.78304161131382 639.86987853050232 374.20214861631393 328.11258465051651 342.18653917312622 126.17713171243668
leaf_count=2706 1900 65654 492 4659 976 272 20 780 656 726 83 301 848 477 746 702 1563 589 1296 440 960 329 233 1495 1193 2626 1542 1357 1418 521
internal_value=0.000284347 -8.00738e-05 0.000224461 -0.00718137 0.000660971 0.000367012 0.000504046 0.000532314 0.000260625 0.0138579 0.000564042 0.000626447 0.000266149 0.000624561 0.00032872 0.00072941 0.0166508 0.000412866 0.000618058 0.000248028 -0.0180454 0.0306978 -0.00173682 0.000465593 0.000920384 -0.00740366 0.000633953 -0.00957463 0.00107277 0.000613249
internal_weight=23579.7 23129.5 22468.7 1250.63 21218.1 20989.4 20922.4 20917.6 20499.6 417.957 20338.8 20318.5 19871.7 19664 19472.5 19056.9 446.803 18890.8 18746.4 18437 415.58 191.557 232.004 18328.9 17327.5 1001.42 17040.7 702.315 16338.4 15996.2
internal_count=97560 95660 92954 5151 87803 86827 86555 86535 84796 1739 84140 84057 82193 81345 80539 78833 1864 78131 77542 76246 1706 806 959 75806 71685 4121 70492 2899 67593 66175
is_linear=0
shrinkage=0.05


Tree=8
num_leaves=31
num_cat=0
split_feature=12 8 30 27 2 25 18 10 16 16 18 1 30 6 10 6 10 30 13 16 18 30 30 30 1 18 30 8 12 13
split_gain=29.4542 29.3342 29.349 34.2579 29.2207 29.4167 29.1207 26.2907 35.9309 45.7353 25.8885 25.2146 25.116 24.3136 22.286 21.9749 21.7069 27.7574 21.2952 43.731 33.0229 47.1709 35.0658 26.9403 21.7481 26.0737 28.2345 23.7089 20.9919 44.4886
threshold=64989.372500000267 231.76876134451581 0.66529206326724621 1.5000000000000002 6854.9981849629903 6930.1800000000012 62853.36250000001 392.68515475229486 36110.727500000008 39988.625000000007 7595.817500000001 5369.6761487646609 0.7591103184233684 28.756136241645482 71.068428883633814 72.72423601581481 262.63043235263075 0.83112050716711972 38236.082894569139 38475.637500000004 40133.125000000007 0.11722765572598089 0.54197212449588739 0.1220006819407556 39157.64511362122 38914.952500000007 0.3538535607105861 -154.89429558315479 40059.523000000139 38713.876645057797
decision_type=2 2 2 2 2 2 2 2 2 2 2 2 2 2 2 2 2 2 2 2 2 2 2 2 2 2 2 2 2 2
left_child=1 2 4 11 -1 -6 13 10 15 -10 12 -4 -5 -3 -12 -9 17 -15 19 -7 21 -20 24 -22 25 -23 -27 -28 29 -25
right_child=-2 6 3 7 5 18 -8 8 9 -11 14 -13 -14 16 -16 -17 -18 -19 20 -21 23 22 -24 28 -26 26 27 -29 -30 -31
leaf_value=0.013671772203833877 -0.027534037972116555 0.044151384082367212 0.049888462730576413 0.042407765144617797 -0.027744469471796759 0.0010749534438493538 -0.10997926971420213 0.027321060955252566 -0.05683817331305481 -0.0029334852474797546 -0.072034922153475095 0.0013567848788773008 -0.014667792783027543 0.025776668545644345 -0.025435686310973617 -0.022065001612132745 0.0031755345604903827 -0.052239826002351386 -0.058787265890590905 0.035218434640216088 0.021453808636537116 -0.0096634657473817272 -0.069077887372225033 -0.060350411834084405 -0.015956493557695225 0.034437043300356539 0.050569909869989917 -0.071177384608353891 -0.0019778523506072477 0.037897619457020644
leaf_weight=408.72401471436024 94.861727699637413 49.086576387286186 29.69728909432888 25.270722761750221 93.93244406580925 15076.458525344729 5.0908939242362967 104.67625385522842 52.628713741898537 155.95023107528687 28.287352219223976 270.90546192228794 81.237270519137383 207.02521438896656 275.98568080365658 28.700489938259125 621.13369828462601 12.065547630190848 52.069355383515358 94.367793753743172 130.47231101989746 144.40735273063183 23.294042676687241 13.636925667524336 281.91952462494373 89.62563793361187 5.8111992627382305 12.821918591856955 5027.9984756559134 74.307756513357162
leaf_count=1699 384 206 125 104 385 62391 21 431 215 640 115 1120 333 868 1125 118 2595 50 214 391 540 598 96 56 1164 372 24 53 20820 307
internal_value=0.00027093 0.000383277 3.15511e-05 -0.00811757 0.000430244 0.000174001 0.00926418 -0.0138158 -0.00357417 -0.0165347 -0.0223415 0.00615135 -0.0011257 0.00994679 -0.0297679 0.016694 0.00794853 0.0214802 0.000298718 0.00128734 -0.00226229 -0.0132738 -0.00902586 -0.000982083 -0.00640915 0.00424358 0.0227943 -0.0332075 -0.00155427 0.022663
internal_weight=23572.5 23477.6 22583.2 1053.34 21529.8 21121.1 894.402 752.737 341.956 208.579 410.781 300.603 106.508 889.311 304.273 133.377 840.224 219.091 21027.2 15170.8 5856.36 609.949 557.88 5246.42 534.586 252.666 108.259 18.6331 5115.94 87.9447
internal_count=97560 97176 93436 4326 89110 87411 3740 3081 1404 855 1677 1245 437 3719 1240 549 3513 918 87026 62782 24244 2521 2307 21723 2211 1047 449 77 21183 363
is_linear=0
shrinkage=0.05


Tree=9
num_leaves=31
num_cat=0
split_feature=12 19 30 11 19 2 2 19 19 11 19 23 3 30 19 19 1 1 3 19 23 13 19 19 19 0 1 7 30 10
split_gain=26.5092 33.1354 24.5143 26.6068 37.7468 49.553 25.3194 89.1256 67.1987 51.795 49.6751 58.5377 43.3029 35.9372 35.5449 32.4211 141.3 95.8168 41.4925 103.641 148.752 76.1329 100.795 55.9381 52.3398 52.0812 44.3415 39.9823 39.4115 37.5559
threshold=64989.372500000267 64953.380000000012 0.66529206326724621 5531.9953363072591 30740.700000000004 31651.175945019542 6854.9981849629903 7082.3100000000004 6857.2600000000011 7245.342359393434 7275.0750000000016 7314.6583333333338 7156.2646503720589 0.17104084904271491 7230.505000000001 8102.9700000000003 8103.0230575069518 8103.0230575069518 8926.7135180347886 9239.6850000000031 9185.2883333333357 9294.4298203051858 9418.0050000000028 8763.840000000002 8763.840000000002 8810.2584330520494 9415.7448556399777 -2.565019213255709 0.35129900418405796 28.286817934658512
decision_type=2 2 2 2 2 2 2 2 2 2 2 2 2 2 2 2 2 2 2 2 2 2 2 2 2 2 2 2 2 2
left_child=1 2 6 -4 -5 -6 8 12 13 14 -11 -12 -8 -1 -9 17 -17 29 23 20 24 -21 -23 28 -20 -25 -24 -26 -18 -13
right_child=-2 -3 3 4 5 -7 7 9 -10 10 11 15 -14 -15 -16 16 18 -19 19 21 -22 22 26 25 27 -27 -28 -29 -30 -31
leaf_value=-0.091980749516758317 -0.026084655856407974 0.054295567405446069 0.030464675531181696 -0.018483360291225298 0.052631928020566501 -0.003819839820134742 -0.01913780878650001 0.013391237709723371 0.061593980268118631 -0.025703673157234447 0.039823008832513232 0.0085978746916817676 -0.072365812833064647 0.0072210976369509045 0.058449059363604089 0.065154340604437117 0.0065582814178428636 -0.059650785933511044 -0.044947144776878604 0.023476684945370602 -0.051526500070295217 -0.03205154867655309 0.048256905490208619 0.05453493379437694 0.018043712364933795 0.013181091109292728 0.00067798904463524335 -0.011823654077807435 -0.029724624701957643 -0.014735658313674158
leaf_weight=9.3831673115491849 95.119102880358696 28.446455210447311 46.540530383586884 499.94630734622478 41.433886274695396 629.10487653315067 151.53397536277771 229.92685902118683 60.622792094945908 179.70118680596352 95.162925988435745 336.71777115762234 51.093364074826241 337.62538288533688 54.061387553811073 85.209248423576355 645.26029731333256 84.869798451662064 65.539338082075119 363.93789990246296 230.89586634933949 236.46017779409885 49.104650169610977 113.45687662065029 220.846067532897 231.45489649474621 17730.295969113708 227.45360186696053 84.664539515972137 353.47954398393631
leaf_count=39 384 121 196 2042 171 2596 621 953 256 744 394 1394 209 1404 224 354 2671 351 270 1513 948 975 204 472 914 962 73423 942 350 1463
internal_value=0.000257806 0.000364548 0.000299114 -0.00661053 -0.0080847 -0.000331576 0.000677417 0.000446777 0.0130239 0.000756141 0.000473776 0.000696142 -0.0325595 0.00453866 0.0219687 0.000519339 0.000902821 -0.00951691 0.000631781 9.45494e-05 -0.0181911 0.000835468 0.000378093 0.0101907 -0.00321162 0.0267842 0.000809397 0.00288992 0.0023498 -0.00335222
internal_weight=23569.3 23474.2 23445.8 1217.03 1170.49 670.539 22228.8 21821.1 407.631 21618.5 21334.5 21154.8 202.627 347.009 283.988 21059.6 20284.6 775.067 20199.4 19124.5 744.735 18379.8 18015.9 1074.84 513.839 344.912 17779.4 448.3 729.925 690.197
internal_count=97560 97176 97055 5005 4809 2767 92050 90351 1699 89521 88344 87600 830 1443 1177 87206 83998 3208 83644 79189 3074 76115 74602 4455 2126 1434 73627 1856 3021 2857
is_linear=0
shrinkage=0.05


Tree=10
num_leaves=31
num_cat=0
split_feature=4 15 19 19 23 19 2 19 18 19 19 23 24 19 24 19 15 18 19 20 24 19 2 23 19 24 19 24 19 13
split_gain=62.8475 30.2589 95.5918 63.5752 41.7875 39.4523 60.3332 52.6226 35.0103 82.6554 67.1233 53.6981 45.2708 36.1314 65.8292 106.249 61.992 48.3322 38.3414 88.6074 77.0696 49.7275 107.927 53.7823 51.19 120.534 105.756 146.231 70.036 146.233
threshold=76.579084439498985 57499.220000000008 57778.965000000004 56948.025000000009 56651.116666666676 55939.340000000004 54675.583062806712 54638.895000000011 49067.37750000001 49214.370000000003 50319.585000000006 49201.011666666673 50863.010000000002 48016.935000000005 47220.465000000004 46494.120000000003 47820.290000000008 46486.305000000008 43709.950000000004 42548.973060000011 44106.94666666667 41556.55000000001 41544.435766939612 41546.150000000009 40100.000000000007 39742.945 39039.30000000001 39006.116666666676 37156.035000000011 35406.463587723956
decision_type=2 2 2 2 2 2 2 2 2 2 2 2 2 2 2 2 2 2 2 2 2 2 2 2 2 2 2 2 2 2
left_child=1 3 -3 4 5 6 7 8 9 11 12 13 -10 14 15 17 -15 18 19 21 -20 22 24 -23 25 26 27 28 29 -1
right_child=-2 2 -4 -5 -6 -7 -8 -9 10 -11 -12 -13 -14 16 -16 -17 -18 -19 20 -21 -22 23 -24 -25 -26 -27 -28 -29 -30 -31
leaf_value=0.00037681292984550834 0.020682579125533486 -0.041086348780281452 -0.0020906356946406102 0.026443508966109072 -0.030148568561091407 0.02637308408481456 -0.023977178427729319 0.040510357800289297 -0.01947725780410027 0.037050776490332907 0.0040016794902260197 -0.063176980128388335 -0.072800148221498592 0.051763723424380473 -0.019705260331083305 0.031437690691578542 0.0031591910459100162 -0.028146058734608844 0.045913500853751447 -0.026677306469131096 0.0024409973671610241 0.049288433869866671 -0.051423201868264913 0.007904229896014801 0.018930895098901796 -0.035669496639467856 0.031430801800642331 -0.04635371224425635 0.016920835022740149 -0.029764401866471252
leaf_weight=15489.535545349121 366.15317770838737 183.28879909217358 1102.1816011220217 229.09534528851509 114.5907836407423 142.21843312680721 260.23508955538273 80.833899363875389 304.09303596615791 153.30114682018757 374.46304546296597 33.369492277503014 45.799244120717049 91.365597307682037 413.64829379320145 272.77870525419712 232.65368340909481 151.20086285471916 136.02116501331329 309.51279832422733 407.03604145348072 95.912397339940071 102.04234990477562 432.62038588523865 355.38328450918198 236.76147426664829 267.71421201527119 170.20791998505592 605.39317506551743 413.13908971846104
leaf_count=64088 1555 735 4553 985 467 595 1065 343 1246 651 1558 136 185 388 1695 1156 970 614 568 1270 1685 398 419 1792 1474 975 1113 699 2510 1699
internal_value=0.000129201 -0.000195093 -0.00765084 0.000242122 -3.46009e-05 0.000125326 -4.88242e-05 0.000245252 9.09524e-05 0.000475078 -0.0107111 0.000197723 -0.026457 0.000302504 3.22773e-05 0.000452143 0.0168645 1.12925e-05 0.000235116 -0.00014972 0.0133297 0.00030219 -0.000150594 0.0154142 0.000147726 -0.000240758 0.000254236 -0.0002462 0.000229196 -0.000406232
internal_weight=23572.6 23206.4 1285.47 21920.9 21691.8 21577.2 21435 21174.8 21094 20369.6 724.355 20216.3 349.892 20182.9 19858.9 19445.3 324.019 19172.5 19021.3 18478.2 543.057 18168.7 17640.2 528.533 17538.1 17182.8 16946 16678.3 16508.1 15902.7
internal_count=97587 96032 5288 90744 89759 89292 88697 87632 87289 84300 2989 83649 1431 83513 82155 80460 1358 79304 78690 76437 2253 75167 72977 2190 72558 71084 70109 68996 68297 65787
is_linear=0
shrinkage=0.05


Tree=11
num_leaves=31
num_cat=0
split_feature=4 5 18 19 19 23 19 25 19 16 18 25 19 13 19 0 19 19 13 19 19 0 0 9 19 19 3 19 25 19
split_gain=57.0172 29.708 33.2293 81.8029 71.6301 49.4657 32.0148 65.7654 107.616 55.4707 50.976 28.7027 32.4557 32.0161 82.0995 45.9339 53.6989 39.0557 35.4809 45.6811 42.1744 39.9549 33.6105 32.0194 29.1893 28.6666 34.5606 82.1233 63.0612 44.6478
threshold=76.579084439498985 15.068831899836278 49067.37750000001 49214.370000000003 49214.370000000003 49201.011666666673 47818.970000000008 46968.821666666678 46494.120000000003 47851.170000000006 46486.305000000008 49362.55000000001 50319.585000000006 54688.275910619523 56330.885000000002 57477.662415622828 58094.255000000012 54638.895000000011 60486.943587580317 60651.985000000008 61040.505000000012 58885.593476379814 54268.828918849526 69.172688696088443 59319.855000000003 45665.605000000003 42917.281861474883 42196.895000000011 42091.150000000001 39039.30000000001
decision_type=2 2 2 2 2 2 2 2 2 2 2 2 2 2 2 2 2 2 2 2 2 2 2 2 2 2 2 2 2 2
left_child=1 -1 4 -4 5 6 7 8 10 -8 25 -5 -13 17 -15 -16 -17 22 19 21 -20 -18 -14 -21 -23 26 27 28 29 -3
right_child=-2 2 3 11 -6 -7 9 -9 -10 -11 -12 12 13 14 15 16 18 -19 20 23 -22 24 -24 -25 -26 -27 -28 -29 -30 -31
leaf_value=0.0074449346706028478 0.019751000772659136 -0.0008239400460910342 -0.040482365818805287 0.037570214359572855 0.034658496621365657 -0.061428829099139853 0.038818810526196026 -0.022187518861558831 0.033710316945309245 -0.00061907203704588049 -0.031247717078180855 -0.028560883437651161 0.0056270965285785852 -0.034954183250395475 0.014948981125168934 -0.031080980737481192 0.018536234533060671 0.025250339717808181 -0.043493734782844892 0.048680540305854156 -0.0048501324044218736 -0.03539756920134203 -0.029697533421382184 -0.014781260954988558 0.0019991282887507939 0.022881126096507737 -0.011656026744168269 0.025439465465215555 -0.051787840964146153 0.010062759342642573
leaf_weight=1209.4333170950413 364.30028007924557 15921.600271180272 160.2619706839323 41.572531178593636 148.91695815324783 32.879323244094849 143.6858251541853 338.19571617245674 234.60859796404839 234.96244169771671 132.69896042346954 130.77492056787014 313.45063516497612 219.85911387205124 308.74630568921566 189.74400235712528 151.64087270200253 196.88926658034325 84.222442001104355 91.628057152032852 436.67483367025852 96.316052719950676 85.761836379766464 25.381775930523872 113.86579571664333 134.17258763313293 647.69107662141323 314.14382919669151 59.400814041495323 1000.9859799593687
leaf_count=4987 1555 65872 651 174 638 133 612 1382 1001 978 537 533 1304 896 1313 767 633 837 341 387 1803 392 349 106 467 560 2664 1315 244 4156
internal_value=0.000123733 -0.000184464 -0.000604061 -0.00585846 0.000114888 -0.000153105 -4.79652e-05 -0.000338136 6.24741e-05 0.0143464 -0.000371011 -0.00362688 -0.00432737 -0.00295793 -0.00642206 -0.00223506 -0.00669544 0.00702636 -0.00206718 0.00775732 -0.0110983 -0.00102501 -0.00196161 0.0349144 -0.0151379 -0.000144365 -0.000316535 0.000108096 -0.0003605 -0.000179982
internal_weight=23564.5 23200.2 21990.7 2646.79 19343.9 19195 19162.1 18783.5 18445.3 378.648 18210.7 2486.53 2444.96 2314.18 1718.08 1498.22 1189.47 596.102 999.73 478.833 520.897 361.823 399.212 117.01 210.182 18078 17943.8 17296.1 16982 16922.6
internal_count=97587 96032 91045 10953 80092 79454 79321 77731 76349 1590 75348 10302 10128 9595 7105 6209 4896 2490 4129 1985 2144 1492 1653 493 859 74811 74251 71587 70272 70028
is_linear=0
shrinkage=0.05


Tree=12
num_leaves=31
num_cat=0
split_feature=4 18 4 5 18 10 9 25 18 0 3 5 1 18 14 22 10 30 21 10 13 30 14 13 21 18 10 3 4 10
split_gain=51.7269 29.0923 26.9386 42.3134 28.3839 35.9946 34.4203 33.2385 25.7138 40.2075 39.781 22.0344 23.7112 39.0274 24.7439 22.4678 40.2955 22.7535 25.2743 32.7217 26.2825 21.8448 21.0699 20.7751 29.3625 24.609 20.0362 19.6071 19.0638 18.6849
threshold=76.579084439498985 6154.9950000000008 26.860111944196834 15.933141554464703 49067.37750000001 640.84813621793137 -10.992959060911341 49362.55000000001 6419.7425000000012 6648.7275953519684 7119.0489519389421 44.112059760525561 39157.64511362122 40133.125000000007 0.0072822450278038379 38858.501610000007 120.18692507722967 0.64587887153007084 7411.8525000000009 78.348954730907366 35681.725837566941 0.15039215942496215 0.027982154029570477 39607.419054371843 39630.100000000006 39246.18250000001 181.20917845023112 39371.34516633812 63.077506285258643 353.89066858344557
decision_type=2 2 2 2 2 2 2 2 2 2 2 2 2 2 2 2 2 2 2 2 2 2 2 2 2 2 2 2 2 2
left_child=1 -1 29 -4 6 -6 7 22 -8 10 -10 -11 15 23 -15 17 -17 -13 -19 -20 -21 -16 28 24 25 -14 -24 -18 -5 -3
right_child=-2 2 3 4 5 -7 8 -9 9 11 -12 12 13 14 21 16 27 18 19 20 -22 -23 26 -25 -26 -27 -28 -29 -30 -31
leaf_value=0.019687550667936177 0.018860581069955338 -0.01461148098570824 0.0094156927124201522 0.0058829946834760621 -0.0045446146072426708 -0.043130694510439015 -0.030335968666480945 0.059303727061859268 0.046046574450959298 -0.0040801717292104278 -0.094523068431740701 0.001396965174157618 -0.01173082123453458 0.016044041664988792 -0.031965057266375628 -0.071770678737059709 0.034952680844972071 0.048110702521552841 -0.070931027864688787 -0.0054958659138557575 -0.053274583970523051 -0.0032146202077517443 -0.012668792379729369 -0.051693576751809356 0.016484413849287432 -0.067198344525672957 0.0028134979614321078 -0.00084535307127623293 0.028580931444791041 0.012433486572263907
leaf_weight=182.90462802350521 362.47179941833019 492.64203724265099 1119.1889135688543 2260.4691155105829 2524.2049934566021 61.921523466706276 73.757175773382187 27.63462196290493 69.316715180873871 4052.6251951754093 5.4271270334720603 8798.864016905427 51.855537429451942 161.42429652810097 69.409388273954391 11.695317938923834 125.06169120967388 17.24129156768322 23.484520137310028 310.75434675812721 31.721273154020309 1372.9902512729168 300.00539779663086 57.339501619338989 46.140957877039909 32.547686725854874 688.65638872981071 55.103923723101616 96.454903930425644 73.376310080289841
leaf_count=763 1555 2013 4632 9380 10456 253 305 118 289 16761 22 36437 215 670 288 48 522 71 95 1275 130 5710 1238 236 191 133 2849 229 405 298
internal_value=0.00011824 -0.000174659 -0.000332533 -6.08641e-05 -0.000558191 -0.00546851 0.000119435 0.00469307 -0.000884543 -0.0007425 0.0358399 -0.000922173 0.000224039 -0.00504622 -0.00252049 0.00123138 0.0181656 0.000877538 -0.0110493 -0.0138364 -0.0099213 -0.00459811 0.00424199 -0.0266065 -0.0155875 -0.0331203 -0.00188454 0.0240038 0.00681189 -0.0111055
internal_weight=23556.7 23194.2 23011.3 22445.3 21326.1 2586.13 18740 3373.22 15366.8 15293 74.7438 15218.3 11165.6 1791.71 1603.82 9373.93 191.861 9182.07 383.201 365.96 342.476 1442.4 3345.59 187.884 130.544 84.4032 988.662 180.166 2356.92 566.018
internal_count=97587 96032 95269 92958 88326 10709 77617 13990 63627 63322 311 63011 46250 7443 6668 38807 799 38008 1571 1500 1405 5998 13872 775 539 348 4087 751 9785 2311
is_linear=0
shrinkage=0.05


end of trees

feature_importances:
chikou_span=125
resistance_1=22
rsi_14=20
pivot_point=19
senkou_b=18
realized_vol=18
support_1=14
ema_9=13
ema_50=13
atr_14=13
bb_lower=13
ema_200=11
ema_21=10
kijun_sen=10
bb_upper=9
senkou_a=8
bb_middle=7
tenkan_sen=7
macd=5
macd_signal=5
macd_hist=5
bb_width=4
fib_50=4
fib_382=4
regime_volatility=4
stoch_k=3
stoch_d=3
fib_618=2
regime_trend=1

parameters:
[boosting: gbdt]
[objective: binary]
[metric: auc]
[tree_learner: serial]
[device_type: cpu]
[data_sample_strategy: bagging]
[data: ]
[valid: ]
[num_iterations: 1000]
[learning_rate: 0.05]
[num_leaves: 31]
[num_threads: 0]
[seed: 0]
[deterministic: 0]
[force_col_wise: 0]
[force_row_wise: 0]
[histogram_pool_size: -1]
[max_depth: -1]
[min_data_in_leaf: 20]
[min_sum_hessian_in_leaf: 0.001]
[bagging_fraction: 0.8]
[pos_bagging_fraction: 1]
[neg_bagging_fraction: 1]
[bagging_freq: 5]
[bagging_seed: 3]
[bagging_by_query: 0]
[feature_fraction: 0.8]
[feature_fraction_bynode: 1]
[feature_fraction_seed: 2]
[extra_trees: 0]
[extra_seed: 6]
[early_stopping_round: 0]
[early_stopping_min_delta: 0]
[first_metric_only: 0]
[max_delta_step: 0]
[lambda_l1: 0]
[lambda_l2: 0]
[linear_lambda: 0]
[min_gain_to_split: 0]
[drop_rate: 0.1]
[max_drop: 50]
[skip_drop: 0.5]
[xgboost_dart_mode: 0]
[uniform_drop: 0]
[drop_seed: 4]
[top_rate: 0.2]
[other_rate: 0.1]
[min_data_per_group: 100]
[max_cat_threshold: 32]
[cat_l2: 10]
[cat_smooth: 10]
[max_cat_to_onehot: 4]
[top_k: 20]
[monotone_constraints: ]
[monotone_constraints_method: basic]
[monotone_penalty: 0]
[feature_contri: ]
[forcedsplits_filename: ]
[refit_decay_rate: 0.9]
[cegb_tradeoff: 1]
[cegb_penalty_split: 0]
[cegb_penalty_feature_lazy: ]
[cegb_penalty_feature_coupled: ]
[path_smooth: 0]
[interaction_constraints: ]
[verbosity: -1]
[saved_feature_importance_type: 0]
[use_quantized_grad: 0]
[num_grad_quant_bins: 4]
[quant_train_renew_leaf: 0]
[stochastic_rounding: 1]
[linear_tree: 0]
[max_bin: 255]
[max_bin_by_feature: ]
[min_data_in_bin: 3]
[bin_construct_sample_cnt: 200000]
[data_random_seed: 1]
[is_enable_sparse: 1]
[enable_bundle: 1]
[use_missing: 1]
[zero_as_missing: 0]
[feature_pre_filter: 1]
[pre_partition: 0]
[two_round: 0]
[header: 0]
[label_column: ]
[weight_column: ]
[group_column: ]
[ignore_column: ]
[categorical_feature: ]
[forcedbins_filename: ]
[precise_float_parser: 0]
[parser_config_file: ]
[objective_seed: 5]
[num_class: 1]
[is_unbalance: 0]
[scale_pos_weight: 1]
[sigmoid: 1]
[boost_from_average: 1]
[reg_sqrt: 0]
[alpha: 0.9]
[fair_c: 1]
[poisson_max_delta_step: 0.7]
[tweedie_variance_power: 1.5]
[lambdarank_truncation_level: 30]
[lambdarank_norm: 1]
[label_gain: ]
[lambdarank_position_bias_regularization: 0]
[eval_at: ]
[multi_error_top_k: 1]
[auc_mu_weights: ]
[num_machines: 1]
[local_listen_port: 12400]
[time_out: 120]
[machine_list_filename: ]
[machines: ]
[gpu_platform_id: -1]
[gpu_device_id: -1]
[gpu_use_dp: 0]
[num_gpu: 1]

end of parameters

pandas_categorical:[]
