{"learner":{"attributes":{"best_iteration":"284","best_score":"0.5583587729136107"},"feature_names":["ema_9","ema_21","ema_50","ema_200","rsi_14","stoch_k","stoch_d","macd","macd_signal","macd_hist","atr_14","bb_upper","bb_middle","bb_lower","bb_width","tenkan_sen","kijun_sen","senkou_a","senkou_b","chikou_span","fib_618","fib_50","fib_382","pivot_point","resistance_1","support_1","regime_trend","regime_volatility","spread_bps","depth_imbalance","realized_vol","funding_rate","open_interest","sentiment_score"],"feature_types":["float","float","float","float","float","float","float","float","float","float","float","float","float","float","float","float","float","float","float","float","float","float","float","float","float","float","int","int","float","float","float","float","float","float"],"gradient_booster":{"model":{"gbtree_model_param":{"num_parallel_tree":"1","num_trees":"335"},"iteration_indptr":[0,1,2,3,4,5,6,7,8,9,10,11,12,13,14,15,16,17,18,19,20,21,22,23,24,25,26,27,28,29,30,31,32,33,34,35,36,37,38,39,40,41,42,43,44,45,46,47,48,49,50,51,52,53,54,55,56,57,58,59,60,61,62,63,64,65,66,67,68,69,70,71,72,73,74,75,76,77,78,79,80,81,82,83,84,85,86,87,88,89,90,91,92,93,94,95,96,97,98,99,100,101,102,103,104,105,106,107,108,109,110,111,112,113,114,115,116,117,118,119,120,121,122,123,124,125,126,127,128,129,130,131,132,133,134,135,136,137,138,139,140,141,142,143,144,145,146,147,148,149,150,151,152,153,154,155,156,157,158,159,160,161,162,163,164,165,166,167,168,169,170,171,172,173,174,175,176,177,178,179,180,181,182,183,184,185,186,187,188,189,190,191,192,193,194,195,196,197,198,199,200,201,202,203,204,205,206,207,208,209,210,211,212,213,214,215,216,217,218,219,220,221,222,223,224,225,226,227,228,229,230,231,232,233,234,235,236,237,238,239,240,241,242,243,244,245,246,247,248,249,250,251,252,253,254,255,256,257,258,259,260,261,262,263,264,265,266,267,268,269,270,271,272,273,274,275,276,277,278,279,280,281,282,283,284,285,286,287,288,289,290,291,292,293,294,295,296,297,298,299,300,301,302,303,304,305,306,307,308,309,310,311,312,313,314,315,316,317,318,319,320,321,322,323,324,325,326,327,328,329,330,331,332,333,334,335],"tree_info":[0,0,0,0,0,0,0,0,0,0,0,0,0,0,0,0,0,0,0,0,0,0,0,0,0,0,0,0,0,0,0,0,0,0,0,0,0,0,0,0,0,0,0,0,0,0,0,0,0,0,0,0,0,0,0,0,0,0,0,0,0,0,0,0,0,0,0,0,0,0,0,0,0,0,0,0,0,0,0,0,0,0,0,0,0,0,0,0,0,0,0,0,0,0,0,0,0,0,0,0,0,0,0,0,0,0,0,0,0,0,0,0,0,0,0,0,0,0,0,0,0,0,0,0,0,0,0,0,0,0,0,0,0,0,0,0,0,0,0,0,0,0,0,0,0,0,0,0,0,0,0,0,0,0,0,0,0,0,0,0,0,0,0,0,0,0,0,0,0,0,0,0,0,0,0,0,0,0,0,0,0,0,0,0,0,0,0,0,0,0,0,0,0,0,0,0,0,0,0,0,0,0,0,0,0,0,0,0,0,0,0,0,0,0,0,0,0,0,0,0,0,0,0,0,0,0,0,0,0,0,0,0,0,0,0,0,0,0,0,0,0,0,0,0,0,0,0,0,0,0,0,0,0,0,0,0,0,0,0,0,0,0,0,0,0,0,0,0,0,0,0,0,0,0,0,0,0,0,0,0,0,0,0,0,0,0,0,0,0,0,0,0,0,0,0,0,0,0,0,0,0,0,0,0,0,0,0,0,0,0,0,0,0,0,0,0,0,0,0,0,0,0,0,0,0,0,0,0,0,0,0,0,0,0,0],"trees":[{"base_weights":[2.5198823E-3,-9.123037E-3,4.1995132E-1,1.8566003E-3,-2.0032562E-1,4.3089777E-1,-1.363875E0,-4.6485635E-3,8.0814135E-1,-1.0884246E0,-5.806165E-2,2.9340753E-1,5.348977E-1,-2.1368934E-2,-8.021741E-2,-7.851845E-4,-5.699942E-1,6.253459E-1,1.3093805E0,-1.7534119E0,-8.373509E-1,-4.6818823E-4,-7.0353585E-1,3.89959E-1,-2.9243233E-2,3.7666705E-1,7.21985E-1,-6.221213E-3,6.50254E-1,9.723757E-1,-6.6901916E-1,-6.50358E-1,6.9856256E-1,1.3855834E0,-2.0829927E-2,4.6490595E-2,-1.8461257E0,3.5072696E-1,-9.492458E-1,-1.7863223E-1,2.2011389E-1,-1.3267388E0,-3.863146E-1,7.7132213E-1,3.0404708E-1,1.0318004E0,-1.5639831E-1,6.5216744E-1,-1.1289712E-1,7.8001904E-1,-5.085968E-1,-5.369732E-5,-3.1259596E-2,1.7415687E-2,5.067842E-2,1.616575E-3,6.508992E-2,9.970761E-3,-4.1249376E-2,5.339182E-2,-6.657881E-2,3.847384E-2,-2.2435604E-2,7.228202E-2,-1.0879307E-2,-9.747774E-2,-4.090177E-2,-3.1273242E-2,6.357382E-2,-1.788318E-2,-6.0939103E-2,-1.0567734E-3,-5.2361794E-2,5.8430094E-2,4.6313936E-3,5.028182E-2,-7.421852E-2,3.951112E-2,-3.1464014E-2,2.1613356E-2,5.5875815E-2,-6.764262E-2,1.663368E-2,9.507734E-3,6.0808074E-2,-5.80198E-2,-2.2211396E-3,3.538558E-2,-1.29619455E-2,-2.882564E-2,9.985967E-3,5.8863528E-2,3.1590823E-2,1.6201226E-2,-5.5638738E-2],"categories":[],"categories_nodes":[],"categories_segments":[],"categories_sizes":[],"default_left":[0,0,0,0,0,0,0,0,0,0,0,0,0,0,0,0,0,0,0,0,0,0,0,0,0,0,0,0,0,0,0,0,0,0,0,0,0,0,0,0,0,0,0,0,0,0,0,0,0,0,0,0,0,0,0,0,0,0,0,0,0,0,0,0,0,0,0,0,0,0,0,0,0,0,0,0,0,0,0,0,0,0,0,0,0,0,0,0,0,0,0,0,0,0,0],"id":0,"left_children":[1,3,5,7,9,11,13,15,17,19,21,23,25,-1,-1,27,29,31,33,35,37,39,41,43,45,47,49,51,53,55,57,59,61,63,-1,-1,65,67,69,71,73,75,77,79,81,83,85,87,89,91,93,-1,-1,-1,-1,-1,-1,-1,-1,-1,-1,-1,-1,-1,-1,-1,-1,-1,-1,-1,-1,-1,-1,-1,-1,-1,-1,-1,-1,-1,-1,-1,-1,-1,-1,-1,-1,-1,-1,-1,-1,-1,-1,-1,-1],"loss_changes":[1.1473751E2,4.8216988E1,1.3096443E1,1.1393222E2,1.575235E2,8.958E0,2.482872E-1,4.7064453E1,1.5110252E1,2.72753E1,4.0004547E1,8.632528E0,1.0435844E1,0E0,0E0,7.575136E1,2.2988346E1,1.2532009E1,6.5674667E0,1.3227432E1,1.7201218E1,3.8905563E1,1.691457E1,6.7464523E0,8.886405E0,2.6787134E1,1.2155472E1,6.762852E1,1.9090187E1,2.8165092E0,1.8859467E1,1.0243027E1,1.0333706E1,4.5364685E0,0E0,0E0,3.1966705E0,1.1268359E1,1.8098038E1,7.4896065E1,5.3377777E1,1.2274063E1,1.7599531E1,4.038826E0,8.776459E0,8.630147E-1,6.5383997E0,6.6068916E0,1.0575654E1,8.536568E0,4.3953414E0,0E0,0E0,0E0,0E0,0E0,0E0,0E0,0E0,0E0,0E0,0E0,0E0,0E0,0E0,0E0,0E0,0E0,0E0,0E0,0E0,0E0,0E0,0E0,0E0,0E0,0E0,0E0,0E0,0E0,0E0,0E0,0E0,0E0,0E0,0E0,0E0,0E0,0E0,0E0,0E0,0E0,0E0,0E0,0E0],"parents":[2147483647,0,0,1,1,2,2,3,3,4,4,5,5,6,6,7,7,8,8,9,9,10,10,11,11,12,12,15,15,16,16,17,17,18,18,19,19,20,20,21,21,22,22,23,23,24,24,25,25,26,26,27,27,28,28,29,29,30,30,31,31,32,32,33,33,36,36,37,37,38,38,39,39,40,40,41,41,42,42,43,43,44,44,45,45,46,46,47,47,48,48,49,49,50,50],"right_children":[2,4,6,8,10,12,14,16,18,20,22,24,26,-1,-1,28,30,32,34,36,38,40,42,44,46,48,50,52,54,56,58,60,62,64,-1,-1,66,68,70,72,74,76,78,80,82,84,86,88,90,92,94,-1,-1,-1,-1,-1,-1,-1,-1,-1,-1,-1,-1,-1,-1,-1,-1,-1,-1,-1,-1,-1,-1,-1,-1,-1,-1,-1,-1,-1,-1,-1,-1,-1,-1,-1,-1,-1,-1,-1,-1,-1,-1,-1,-1],"split_conditions":[7.3358246E1,5.7499445E4,6.5057945E4,5.725293E4,5.779217E4,7.659826E1,7.659826E1,5.668624E4,5.811524E4,5.669656E4,6.498957E4,8.9398315E1,1.8452592E2,-2.1368934E-2,-8.021741E-2,5.597999E4,-9.959348E1,9.050442E-3,3.6460388E2,1.3783763E-1,2.0522559E2,6.105054E4,6.497684E4,8.974601E3,1.9357133E-1,8.957143E1,4.7672018E2,5.5035047E4,2.2812266E-2,5.63553E4,2.2930825E-1,1.5811323E-1,2.918402E2,9.087798E1,-2.0829927E-2,4.6490595E-2,7.509266E1,5.8266656E4,3.2190884E1,6.10692E4,6.049284E4,1.6169678E-1,2.8325909E1,8.09264E3,9.345E3,1.4511234E-1,1.5094271E1,9.04081E1,1.722107E4,1.758451E2,7.9046295E1,-5.369732E-5,-3.1259596E-2,1.7415687E-2,5.067842E-2,1.616575E-3,6.508992E-2,9.970761E-3,-4.1249376E-2,5.339182E-2,-6.657881E-2,3.847384E-2,-2.2435604E-2,7.228202E-2,-1.0879307E-2,-9.747774E-2,-4.090177E-2,-3.1273242E-2,6.357382E-2,-1.788318E-2,-6.0939103E-2,-1.0567734E-3,-5.2361794E-2,5.8430094E-2,4.6313936E-3,5.028182E-2,-7.421852E-2,3.951112E-2,-3.1464014E-2,2.1613356E-2,5.5875815E-2,-6.764262E-2,1.663368E-2,9.507734E-3,6.0808074E-2,-5.80198E-2,-2.2211396E-3,3.538558E-2,-1.29619455E-2,-2.882564E-2,9.985967E-3,5.8863528E-2,3.1590823E-2,1.6201226E-2,-5.5638738E-2],"split_indices":[4,15,22,19,19,4,4,23,19,19,12,5,7,0,0,19,9,14,7,30,10,19,19,20,30,7,10,12,14,19,30,30,7,5,0,0,6,3,5,12,18,30,6,19,19,30,9,10,3,10,5,0,0,0,0,0,0,0,0,0,0,0,0,0,0,0,0,0,0,0,0,0,0,0,0,0,0,0,0,0,0,0,0,0,0,0,0,0,0,0,0,0,0,0,0],"split_type":[0,0,0,0,0,0,0,0,0,0,0,0,0,0,0,0,0,0,0,0,0,0,0,0,0,0,0,0,0,0,0,0,0,0,0,0,0,0,0,0,0,0,0,0,0,0,0,0,0,0,0,0,0,0,0,0,0,0,0,0,0,0,0,0,0,0,0,0,0,0,0,0,0,0,0,0,0,0,0,0,0,0,0,0,0,0,0,0,0,0,0,0,0,0,0],"sum_hessian":[2.3606168E4,2.2966568E4,6.39601E2,2.172029E4,1.2462778E3,6.3645386E2,3.1471663E0,2.1547438E4,1.7285207E2,1.7115742E2,1.0751205E3,2.757402E2,3.6071368E2,1.2104486E0,1.9367177E0,2.1402184E4,1.4525383E2,1.2830756E2,4.454451E1,4.527078E1,1.2588665E2,9.8796814E2,8.71523E1,2.1207059E2,6.3669598E1,1.9706104E2,1.6365265E2,2.1225941E4,1.7624132E2,8.2310505E0,1.3702278E2,6.5364223E0,1.21771126E2,4.284988E1,1.694628E0,1.2104486E0,4.406033E1,1.0651948E1,1.152347E2,5.466386E2,4.4132956E2,2.8324497E1,5.88278E1,3.7523907E1,1.7454669E2,6.0522428E0,5.761735E1,1.2588665E2,7.117438E1,1.5663205E2,7.0206017E0,2.1051879E4,1.7406252E2,9.732007E1,7.892125E1,2.4208972E0,5.810153E0,2.0819715E1,1.16203064E2,1.694628E0,4.8417945E0,1.14992615E2,6.778512E0,4.1397343E1,1.4525383E0,3.9218533E1,4.8417945E0,5.325974E0,5.325974E0,3.6797638E1,7.8437065E1,4.636018E2,8.303677E1,5.132302E1,3.9000653E2,1.4525383E0,2.687196E1,9.683589E0,4.9144215E1,2.0093447E1,1.743046E1,2.1788075E0,1.7236787E2,1.4525383E0,4.5997047E0,4.8417945E0,5.277556E1,1.1886605E2,7.0206017E0,2.8324497E1,4.284988E1,4.0671074E1,1.15960976E2,3.1471663E0,3.8734355E0],"tree_param":{"num_deleted":"0","num_feature":"34","num_nodes":"95","size_leaf_vector":"1"}},{"base_weights":[9.234799E-3,-1.8495452E-3,4.0249053E-1,-2.5619352E-1,6.613547E-3,4.149975E-1,-9.255234E-1,-6.583335E-1,-1.9776593E-1,1.8114183E-2,-1.9276367E-1,1.2799354E0,3.9470544E-1,-5.3345067E-3,-8.528375E-2,1.5363492E-1,-8.9389575E-1,-5.6528967E-2,-3.6189893E-1,1.1164361E-2,6.5628403E-1,-1.3026549E0,-7.580232E-2,6.588929E-1,1.4285475E0,4.2120722E-1,-2.20457E-1,-4.278745E-2,3.4835454E-2,6.5501153E-1,-1.0475804E0,-1.2448628E0,-5.819683E-1,9.874235E-2,-2.2661169E-1,-1.3303955E-1,-5.938161E-1,1.5028089E-2,-6.96425E-1,5.3742146E-1,1.1516253E0,-6.753109E-1,-1.4447963E0,-1.0067524E0,-4.5506503E-2,-2.210979E-2,5.8942575E-2,7.5119846E-2,2.3231346E-2,3.8193268E-1,8.788229E-1,3.0033118E-1,-5.001812E-1,-1.9965868E-2,4.720148E-2,-6.4195804E-2,1.2523712E-3,2.9896194E-2,-6.74008E-2,2.2652019E-2,-4.5176413E-2,-4.180578E-3,2.5561476E-2,5.793423E-3,-1.9267797E-2,-2.0218074E-2,1.7705524E-2,-3.6563452E-2,-1.2675965E-3,4.4240066E-4,1.7385958E-2,4.684606E-2,-3.92826E-2,-3.876398E-2,3.0271951E-2,6.470466E-2,1.1856948E-3,1.7939324E-2,-4.516385E-2,3.3851873E-2,-7.456165E-2,2.2911694E-2,-6.1717845E-2,1.7395332E-2,-7.174529E-3,2.9208506E-2,1.3327196E-2,7.954964E-3,5.111149E-2,-6.7191474E-2,3.4128375E-2,-5.299778E-2,1.9849714E-2],"categories":[],"categories_nodes":[],"categories_segments":[],"categories_sizes":[],"default_left":[0,0,0,0,0,0,0,0,0,0,0,0,0,0,0,0,0,0,0,0,0,0,0,0,0,0,0,0,0,0,0,0,0,0,0,0,0,0,0,0,0,0,0,0,0,0,0,0,0,0,0,0,0,0,0,0,0,0,0,0,0,0,0,0,0,0,0,0,0,0,0,0,0,0,0,0,0,0,0,0,0,0,0,0,0,0,0,0,0,0,0,0,0],"id":1,"left_children":[1,3,5,7,9,11,13,15,17,19,21,23,25,27,-1,29,31,33,35,37,39,41,43,45,47,49,51,-1,-1,53,55,57,59,61,63,65,67,69,71,73,75,77,79,81,83,-1,-1,-1,-1,85,87,89,91,-1,-1,-1,-1,-1,-1,-1,-1,-1,-1,-1,-1,-1,-1,-1,-1,-1,-1,-1,-1,-1,-1,-1,-1,-1,-1,-1,-1,-1,-1,-1,-1,-1,-1,-1,-1,-1,-1,-1,-1],"loss_changes":[1.0275282E2,4.9353523E1,1.1117226E1,1.7218018E1,5.0884254E1,1.0742935E1,4.541337E0,1.7970703E1,1.4957399E1,9.304554E1,1.5701012E2,3.734455E-1,1.0324951E1,2.9314497E0,0E0,1.3827467E1,7.203491E0,9.224877E0,1.5772121E1,5.6755123E1,1.2687759E1,9.307373E0,3.0863968E1,3.1586504E0,5.9223175E-2,1.0484695E1,4.0220714E0,0E0,0E0,5.255446E0,1.7585492E0,7.116638E0,1.3794883E1,1.3797135E1,9.102283E0,2.0181267E1,1.1549171E1,4.2442024E1,1.7166672E1,1.6910965E1,6.8569107E0,5.788375E0,1.0186569E1,1.2067104E1,4.1005363E1,0E0,0E0,0E0,0E0,1.2824402E1,4.669548E0,7.1466103E0,9.29304E0,0E0,0E0,0E0,0E0,0E0,0E0,0E0,0E0,0E0,0E0,0E0,0E0,0E0,0E0,0E0,0E0,0E0,0E0,0E0,0E0,0E0,0E0,0E0,0E0,0E0,0E0,0E0,0E0,0E0,0E0,0E0,0E0,0E0,0E0,0E0,0E0,0E0,0E0,0E0,0E0],"parents":[2147483647,0,0,1,1,2,2,3,3,4,4,5,5,6,6,7,7,8,8,9,9,10,10,11,11,12,12,13,13,15,15,16,16,17,17,18,18,19,19,20,20,21,21,22,22,23,23,24,24,25,25,26,26,29,29,30,30,31,31,32,32,33,33,34,34,35,35,36,36,37,37,38,38,39,39,40,40,41,41,42,42,43,43,44,44,49,49,50,50,51,51,52,52],"right_children":[2,4,6,8,10,12,14,16,18,20,22,24,26,28,-1,30,32,34,36,38,40,42,44,46,48,50,52,-1,-1,54,56,58,60,62,64,66,68,70,72,74,76,78,80,82,84,-1,-1,-1,-1,86,88,90,92,-1,-1,-1,-1,-1,-1,-1,-1,-1,-1,-1,-1,-1,-1,-1,-1,-1,-1,-1,-1,-1,-1,-1,-1,-1,-1,-1,-1,-1,-1,-1,-1,-1,-1,-1,-1,-1,-1,-1,-1],"split_conditions":[7.3358246E1,2.8433552E1,6.36565E4,8.09264E3,5.7659688E4,-1.5524736E1,2.7444315E2,1.6387915E1,3.7410446E-2,5.69763E4,5.751085E4,2.4702926E4,8.3397985E-1,2.610487E-1,-8.528375E-2,7.951925E3,3.484994E1,-4.8452625E1,1.5980374E1,5.668624E4,5.811524E4,5.8111473E4,5.6300023E4,-2.7704473E1,7.952226E1,1.483039E2,9.071462E3,-4.278745E-2,3.4835454E-2,-3.9471745E1,-7.5158296E0,7.7837976E-3,3.5788018E-1,-2.9705828E1,1.7629088E-1,2.8601038E2,4.7672018E2,5.467599E4,-1.0831489E2,9.050442E-3,5.7507715E4,4.8706467E1,1.8248468E2,-8.166121E1,5.890202E4,-2.210979E-2,5.8942575E-2,7.5119846E-2,2.3231346E-2,4.9266205E1,2E0,7.96905E1,4.229147E4,-1.9965868E-2,4.720148E-2,-6.4195804E-2,1.2523712E-3,2.9896194E-2,-6.74008E-2,2.2652019E-2,-4.5176413E-2,-4.180578E-3,2.5561476E-2,5.793423E-3,-1.9267797E-2,-2.0218074E-2,1.7705524E-2,-3.6563452E-2,-1.2675965E-3,4.4240066E-4,1.7385958E-2,4.684606E-2,-3.92826E-2,-3.876398E-2,3.0271951E-2,6.470466E-2,1.1856948E-3,1.7939324E-2,-4.516385E-2,3.3851873E-2,-7.456165E-2,2.2911694E-2,-6.1717845E-2,1.7395332E-2,-7.174529E-3,2.9208506E-2,1.3327196E-2,7.954964E-3,5.111149E-2,-6.7191474E-2,3.4128375E-2,-5.299778E-2,1.9849714E-2],"split_indices":[4,4,18,19,24,9,8,6,14,19,19,0,30,30,0,18,10,8,6,23,19,11,20,9,6,9,0,0,0,9,9,14,30,9,30,10,10,19,9,14,0,4,10,9,0,0,0,0,0,8,27,10,22,0,0,0,0,0,0,0,0,0,0,0,0,0,0,0,0,0,0,0,0,0,0,0,0,0,0,0,0,0,0,0,0,0,0,0,0,0,0,0,0],"split_type":[0,0,0,0,0,0,0,0,0,0,0,0,0,0,0,0,0,0,0,0,0,0,0,0,0,0,0,0,0,0,0,0,0,0,0,0,0,0,0,0,0,0,0,0,0,0,0,0,0,0,0,0,0,0,0,0,0,0,0,0,0,0,0,0,0,0,0,0,0,0,0,0,0,0,0,0,0,0,0,0,0,0,0,0,0,0,0,0,0,0,0,0,0],"sum_hessian":[2.3571496E4,2.292629E4,6.4520734E2,7.373454E2,2.2188943E4,6.398687E2,5.3386526E0,9.223707E1,6.4510834E2,2.0979686E4,1.2092579E3,1.3244703E1,6.2662396E2,2.911443E0,2.4272094E0,2.0819916E1,7.141715E1,3.474612E2,2.976471E2,2.075468E4,2.2500597E2,1.14317535E2,1.0949404E3,3.6065896E0,9.638114E0,6.0104565E2,2.5578323E1,1.2175882E0,1.6938548E0,1.50097065E1,5.8102093E0,3.2198242E1,3.921891E1,1.818588E2,1.6560243E2,1.5060321E2,1.4704387E2,2.064294E4,1.1174018E2,1.831436E2,4.186237E1,2.21794E1,9.213813E1,3.349367E1,1.0614468E3,1.2048013E0,2.4017882E0,8.433372E0,1.204742E0,5.552282E2,4.5817444E1,8.9121275E0,1.6666195E1,3.1471965E0,1.186251E1,4.5997486E0,1.2104602E0,1.4525523E0,3.074569E1,9.199497E0,3.0019413E1,1.2666122E2,5.5197575E1,5.2533974E1,1.1306846E2,9.683832E1,5.3764893E1,1.1818154E2,2.8862335E1,2.0267479E4,3.7546255E2,5.295878E0,1.06444305E2,8.509855E0,1.7463374E2,3.703686E1,4.8255086E0,3.902601E0,1.8276798E1,1.6824363E0,9.0455696E1,4.367671E0,2.9126E1,2.1114276E2,8.50304E2,2.0023006E2,3.5499817E2,7.9629235E0,3.785452E1,1.2065482E0,7.7055798E0,1.0151153E1,6.515042E0],"tree_param":{"num_deleted":"0","num_feature":"34","num_nodes":"93","size_leaf_vector":"1"}},{"base_weights":[3.3464993E-3,-8.064135E-3,3.5824984E-1,4.1182013E-3,-2.1833082E-1,7.384233E-1,3.0911696E-1,-2.735863E-3,6.172909E-1,-1.0215393E0,-8.227081E-2,8.48672E-1,-9.5694107E-1,4.7163293E-2,3.951366E-1,2.8140008E-2,-7.2599754E-2,4.1865453E-1,9.833698E-1,1.8372605E-2,-1.1339465E0,4.412406E-2,-3.3041862E-1,5.8963484E-1,1.4192468E0,3.5374803E-3,-7.585352E-2,2.798795E-1,-8.0288005E-1,9.507994E-1,3.3390877E-1,8.0962855E-1,2.482348E-2,-1.2770128E-1,1.02011584E-1,4.9406305E-1,-6.30653E-1,1.0996665E0,5.1042247E-1,-8.531007E-1,1.1265645E0,-1.6469047E0,-9.2139E-1,-1.7753251E-1,5.348475E-1,-1.3996448E-1,-9.862887E-1,8.12813E-1,-1.34896E-1,1.4947661E0,-4.987028E-4,-6.085285E-1,4.3512017E-1,-1.300645E0,2.8671142E-1,1.1501653E0,4.305757E-3,3.4845188E-1,-1.2783675E0,1.6693803E-2,5.523724E-2,-5.736139E-2,1.4713662E-3,-1.3778274E-2,-3.9326767E-3,1.0487723E-2,-2.6363074E-3,-5.1528034E-3,3.1089783E-2,-7.638969E-2,6.9017163E-3,1.0608881E-2,5.958798E-2,-3.0203778E-2,3.7737533E-2,5.0695088E-2,-6.2135335E-2,7.185085E-2,-2.1650203E-2,-8.859827E-2,-3.534067E-2,-1.439991E-2,-6.128052E-2,1.1224006E-2,-2.2405045E-2,6.192798E-2,1.6749816E-2,-1.2727034E-2,1.8199712E-2,-2.3361277E-2,-6.4468466E-2,-1.5787346E-2,4.5830365E-2,2.6071021E-2,-3.130508E-2,7.666754E-2,2.1565186E-2,1.512772E-2,-4.5371685E-2,2.5879785E-2,-2.024078E-2,2.6641598E-2,-7.973437E-2,4.5082115E-2,-2.8105307E-2,-1.0874982E-2,6.459048E-2,-4.7998067E-2,1.8983914E-2,5.5258465E-3,2.3101004E-2,-2.0050451E-2,-7.5162925E-2],"categories":[],"categories_nodes":[],"categories_segments":[],"categories_sizes":[],"default_left":[0,0,0,0,0,0,0,0,0,0,0,0,0,0,0,0,0,0,0,0,0,0,0,0,0,0,0,0,0,0,0,0,0,0,0,0,0,0,0,0,0,0,0,0,0,0,0,0,0,0,0,0,0,0,0,0,0,0,0,0,0,0,0,0,0,0,0,0,0,0,0,0,0,0,0,0,0,0,0,0,0,0,0,0,0,0,0,0,0,0,0,0,0,0,0,0,0,0,0,0,0,0,0,0,0,0,0,0,0,0,0,0,0],"id":2,"left_children":[1,3,5,7,9,11,13,15,17,19,21,23,25,27,29,31,33,35,37,39,41,43,45,47,49,-1,-1,51,53,55,57,59,61,63,65,67,69,71,73,75,77,79,81,83,85,87,89,91,93,95,-1,97,99,101,103,105,107,109,111,-1,-1,-1,-1,-1,-1,-1,-1,-1,-1,-1,-1,-1,-1,-1,-1,-1,-1,-1,-1,-1,-1,-1,-1,-1,-1,-1,-1,-1,-1,-1,-1,-1,-1,-1,-1,-1,-1,-1,-1,-1,-1,-1,-1,-1,-1,-1,-1,-1,-1,-1,-1,-1,-1],"loss_changes":[9.573675E1,5.8671684E1,1.3527E1,9.099542E1,1.3699977E2,1.6430298E1,1.4714512E1,4.6191734E1,1.6992737E1,2.1250824E1,3.369255E1,1.0837448E1,3.3148203E0,3.2423046E1,1.6423958E1,3.8470287E1,6.315903E1,1.2726435E1,4.028511E0,1.9021408E1,1.6354889E1,7.757159E1,4.513956E1,9.170464E0,2.6001472E0,0E0,0E0,1.799057E1,1.9486639E1,9.108902E0,1.0874393E1,8.438061E0,7.983399E1,3.6162422E1,2.6266918E1,1.1271397E1,7.7683034E0,5.150543E0,5.448868E0,9.28858E0,4.8167105E0,4.2442856E0,2.2416092E1,5.3552013E1,3.0789219E1,1.637975E1,1.2203941E1,5.3241806E0,4.8571033E0,2.7243805E-1,0E0,5.5943975E0,7.829012E0,1.3988716E1,6.7028065E0,8.008785E0,3.76947E0,1.1881443E1,2.239728E-1,0E0,0E0,0E0,0E0,0E0,0E0,0E0,0E0,0E0,0E0,0E0,0E0,0E0,0E0,0E0,0E0,0E0,0E0,0E0,0E0,0E0,0E0,0E0,0E0,0E0,0E0,0E0,0E0,0E0,0E0,0E0,0E0,0E0,0E0,0E0,0E0,0E0,0E0,0E0,0E0,0E0,0E0,0E0,0E0,0E0,0E0,0E0,0E0,0E0,0E0,0E0,0E0,0E0,0E0],"parents":[2147483647,0,0,1,1,2,2,3,3,4,4,5,5,6,6,7,7,8,8,9,9,10,10,11,11,12,12,13,13,14,14,15,15,16,16,17,17,18,18,19,19,20,20,21,21,22,22,23,23,24,24,27,27,28,28,29,29,30,30,31,31,32,32,33,33,34,34,35,35,36,36,37,37,38,38,39,39,40,40,41,41,42,42,43,43,44,44,45,45,46,46,47,47,48,48,49,49,51,51,52,52,53,53,54,54,55,55,56,56,57,57,58,58],"right_children":[2,4,6,8,10,12,14,16,18,20,22,24,26,28,30,32,34,36,38,40,42,44,46,48,50,-1,-1,52,54,56,58,60,62,64,66,68,70,72,74,76,78,80,82,84,86,88,90,92,94,96,-1,98,100,102,104,106,108,110,112,-1,-1,-1,-1,-1,-1,-1,-1,-1,-1,-1,-1,-1,-1,-1,-1,-1,-1,-1,-1,-1,-1,-1,-1,-1,-1,-1,-1,-1,-1,-1,-1,-1,-1,-1,-1,-1,-1,-1,-1,-1,-1,-1,-1,-1,-1,-1,-1,-1,-1,-1,-1,-1,-1],"split_conditions":[7.2603546E1,5.7499445E4,7.9986475E3,5.69763E4,5.779217E4,9.148301E1,1.606617E4,2E0,5.779217E4,2.0922766E2,6.201585E4,8.09264E3,2.8445156E1,3.852887E-1,7.475014E1,5.3666333E3,5.7084354E1,5.7511766E4,2E0,5.8266656E4,5.669656E4,6.105054E4,5.566016E1,8.631802E1,7.999868E3,3.5374803E-3,-7.585352E-2,1.4752306E-1,5.52122E-1,1.999137E4,6.5057945E4,5.9381527E-1,6.15452E3,1.029945E4,3.5001743E-1,2.635466E2,5.634702E4,5.5662023E4,2.4310613E-1,5.7511766E4,5.8437797E4,7.509266E1,5.779084E4,5.890202E4,6.049284E4,6.497684E4,5.606643E1,1.4008442E-1,7.807854E1,1.2173097E2,-4.987028E-4,7.832242E0,1.2517805E4,8.080262E3,6.4782214E-1,2.890061E1,1.6938293E1,3.02173E4,7.659826E1,1.6693803E-2,5.523724E-2,-5.736139E-2,1.4713662E-3,-1.3778274E-2,-3.9326767E-3,1.0487723E-2,-2.6363074E-3,-5.1528034E-3,3.1089783E-2,-7.638969E-2,6.9017163E-3,1.0608881E-2,5.958798E-2,-3.0203778E-2,3.7737533E-2,5.0695088E-2,-6.2135335E-2,7.185085E-2,-2.1650203E-2,-8.859827E-2,-3.534067E-2,-1.439991E-2,-6.128052E-2,1.1224006E-2,-2.2405045E-2,6.192798E-2,1.6749816E-2,-1.2727034E-2,1.8199712E-2,-2.3361277E-2,-6.4468466E-2,-1.5787346E-2,4.5830365E-2,2.6071021E-2,-3.130508E-2,7.666754E-2,2.1565186E-2,1.512772E-2,-4.5371685E-2,2.5879785E-2,-2.024078E-2,2.6641598E-2,-7.973437E-2,4.5082115E-2,-2.8105307E-2,-1.0874982E-2,6.459048E-2,-4.7998067E-2,1.8983914E-2,5.5258465E-3,2.3101004E-2,-2.0050451E-2,-7.5162925E-2],"split_indices":[4,15,20,19,19,5,19,27,19,10,3,19,8,30,10,1,4,23,27,3,19,19,4,7,3,0,0,30,30,11,22,30,19,19,30,10,13,13,30,23,2,6,15,0,18,19,8,30,6,10,0,8,18,13,30,10,8,19,4,0,0,0,0,0,0,0,0,0,0,0,0,0,0,0,0,0,0,0,0,0,0,0,0,0,0,0,0,0,0,0,0,0,0,0,0,0,0,0,0,0,0,0,0,0,0,0,0,0,0,0,0,0,0],"split_type":[0,0,0,0,0,0,0,0,0,0,0,0,0,0,0,0,0,0,0,0,0,0,0,0,0,0,0,0,0,0,0,0,0,0,0,0,0,0,0,0,0,0,0,0,0,0,0,0,0,0,0,0,0,0,0,0,0,0,0,0,0,0,0,0,0,0,0,0,0,0,0,0,0,0,0,0,0,0,0,0,0,0,0,0,0,0,0,0,0,0,0,0,0,0,0,0,0,0,0,0,0,0,0,0,0,0,0,0,0,0,0,0,0],"sum_hessian":[2.3638902E4,2.29035E4,7.3540204E2,2.1650125E4,1.2533749E3,8.255906E1,6.52843E2,2.141178E4,2.3834604E2,1.8061792E2,1.072757E3,7.798702E1,4.5720415E0,1.6176674E2,4.9107626E2,1.4849668E4,6.5621123E3,1.5589836E2,8.244767E1,1.7700655E1,1.6291727E2,7.1128424E2,3.6147266E2,5.503493E1,2.295209E1,1.9210703E0,2.6509712E0,1.27524994E2,3.424175E1,4.7298454E1,4.437778E2,6.1726192E1,1.4787941E4,4.988254E3,1.5738583E3,1.4593958E2,9.958799E0,6.511171E1,1.7335957E1,1.0037462E1,7.6631937E0,4.5753437E1,1.17163826E2,4.904083E2,2.2087598E2,2.8106833E2,8.040433E1,4.1981476E1,1.3053456E1,2.175662E1,1.1954694E0,1.8534758E1,1.08990234E2,2.3371225E1,1.0870523E1,3.889134E1,8.407115E0,4.4058746E2,3.1903288E0,2.4446953E1,3.7279236E1,5.6889E1,1.4731053E4,1.2413472E3,3.7469067E3,9.276123E2,6.462459E2,2.5751366E1,1.201882E2,4.1397405E0,5.8190584E0,6.4319344E0,5.867978E1,2.8523993E0,1.4483557E1,1.4563266E0,8.581136E0,6.4565196E0,1.2066741E0,3.9600483E1,6.1529517E0,3.8646946E1,7.8516884E1,1.9735179E2,2.930565E2,4.770404E1,1.7317194E2,2.2940703E2,5.166131E1,3.0577742E1,4.9826588E1,3.363873E0,3.8617603E1,5.561301E0,7.492155E0,2.0568504E1,1.1881155E0,4.5756536E0,1.3959105E1,9.959454E1,9.39569E0,3.117875E0,2.025335E1,6.2676525E0,4.602871E0,3.5995777E0,3.529176E1,1.9193306E0,6.487785E0,1.4298822E2,2.9759924E2,1.2187586E0,1.9715701E0],"tree_param":{"num_deleted":"0","num_feature":"34","num_nodes":"113","size_leaf_vector":"1"}},{"base_weights":[4.606457E-3,-5.5424506E-3,3.6950743E-1,2.201416E-2,-6.805826E-2,3.7896425E-1,-6.746089E-2,6.892503E-1,1.929095E-2,-1.1333254E-1,7.118796E-2,6.628241E-1,3.2315415E-1,-5.4839647E-1,9.0256906E-1,-1.0454121E0,2.3312423E-2,-2.9223895E-1,-7.388718E-2,7.9377234E-1,4.9984552E-2,-5.710907E-1,7.0366764E-1,-2.8444516E-2,4.1126972E-1,5.268524E-2,-9.9124867E-1,1.0276132E0,-3.534608E-1,3.1541362E-1,-1.1787461E0,4.76008E-1,1.5778057E-2,-2.1330221E-1,-1.3043432E0,3.2662402E-3,-1.8062428E-1,3.3536822E-1,1.1180615E0,1.53554E-1,-1.05164014E-1,7.666574E-3,-5.296294E-2,9.2217505E-1,3.7325585E-1,1.5859017E-1,-1.4152416E0,9.848822E-1,3.4697905E-1,-6.474267E-2,2.3061475E-2,2.3195355E-3,5.7314944E-2,-5.091113E-2,4.8949957E-2,3.86849E-2,-4.1923326E-2,-1.6200049E-2,-6.8720065E-2,1.6424334E-2,5.9948355E-2,-4.184027E-2,9.716616E-4,-1.6471032E-2,5.004749E-3,2.0286122E-2,-7.200029E-2,-1.2748718E-3,2.7601749E-2,-6.36728E-2,-6.0867066E-3,4.3261122E-2,-3.9161485E-2,7.7367485E-2,1.4808989E-2,9.160935E-3,-2.5428876E-2,2.4839118E-2,-8.1690885E-3,3.026527E-2,5.1706363E-2,3.776084E-3,5.195406E-2,-2.0848393E-2,1.926338E-2,-8.776343E-2,-2.4595113E-2,1.6338421E-2,5.622313E-2,-1.8345661E-2,2.0579465E-2],"categories":[],"categories_nodes":[],"categories_segments":[],"categories_sizes":[],"default_left":[0,0,0,0,0,0,0,0,0,0,0,0,0,0,0,0,0,0,0,0,0,0,0,0,0,0,0,0,0,0,0,0,0,0,0,0,0,0,0,0,0,0,0,0,0,0,0,0,0,0,0,0,0,0,0,0,0,0,0,0,0,0,0,0,0,0,0,0,0,0,0,0,0,0,0,0,0,0,0,0,0,0,0,0,0,0,0,0,0,0,0],"id":3,"left_children":[1,3,5,7,9,11,-1,13,15,17,19,21,23,25,27,29,31,33,35,37,39,41,43,45,47,-1,49,51,53,55,57,59,61,63,65,67,69,71,73,75,77,-1,-1,79,81,83,85,87,89,-1,-1,-1,-1,-1,-1,-1,-1,-1,-1,-1,-1,-1,-1,-1,-1,-1,-1,-1,-1,-1,-1,-1,-1,-1,-1,-1,-1,-1,-1,-1,-1,-1,-1,-1,-1,-1,-1,-1,-1,-1,-1],"loss_changes":[8.759692E1,3.9647972E1,1.0914749E1,2.9011421E1,4.4396824E1,9.882759E0,0E0,1.7629536E1,6.814526E1,3.7478302E1,2.643883E1,5.631531E0,1.6573559E1,8.255502E0,9.117195E0,1.1238251E1,5.405662E1,7.638708E1,3.5866478E1,6.9388504E0,2.7011831E1,1.5333976E0,6.939926E0,2.8253057E1,1.5424133E1,0E0,4.335785E0,5.879879E0,6.1259212E0,3.8919744E0,8.711746E0,2.7278076E1,4.8607887E1,3.2471245E1,1.6645538E1,3.9932148E1,1.1744491E2,1.36061945E1,9.55719E0,1.9889988E1,2.3670528E1,0E0,0E0,1.5042648E0,8.216211E0,1.2700735E1,3.2000694E0,3.5405426E0,1.7953888E1,0E0,0E0,0E0,0E0,0E0,0E0,0E0,0E0,0E0,0E0,0E0,0E0,0E0,0E0,0E0,0E0,0E0,0E0,0E0,0E0,0E0,0E0,0E0,0E0,0E0,0E0,0E0,0E0,0E0,0E0,0E0,0E0,0E0,0E0,0E0,0E0,0E0,0E0,0E0,0E0,0E0,0E0],"parents":[2147483647,0,0,1,1,2,2,3,3,4,4,5,5,7,7,8,8,9,9,10,10,11,11,12,12,13,13,14,14,15,15,16,16,17,17,18,18,19,19,20,20,21,21,22,22,23,23,24,24,26,26,27,27,28,28,29,29,30,30,31,31,32,32,33,33,34,34,35,35,36,36,37,37,38,38,39,39,40,40,43,43,44,44,45,45,46,46,47,47,48,48],"right_children":[2,4,6,8,10,12,-1,14,16,18,20,22,24,26,28,30,32,34,36,38,40,42,44,46,48,-1,50,52,54,56,58,60,62,64,66,68,70,72,74,76,78,-1,-1,80,82,84,86,88,90,-1,-1,-1,-1,-1,-1,-1,-1,-1,-1,-1,-1,-1,-1,-1,-1,-1,-1,-1,-1,-1,-1,-1,-1,-1,-1,-1,-1,-1,-1,-1,-1,-1,-1,-1,-1,-1,-1,-1,-1,-1,-1],"split_conditions":[7.3358246E1,2E0,6.5057945E4,5.3666333E3,5.7084354E1,9.14378E3,-6.746089E-2,2.2185741E-2,6.15452E3,9.37483E3,-4.759912E1,1.123886E-1,1.606617E4,1.9378511E-2,1.2209348E-1,3.6936897E1,6.869953E3,9.342996E3,3.6678E4,4.441E4,3.5509345E-1,1.2536311E1,5.88425E1,1.11900604E2,7.475014E1,5.268524E-2,5.436897E-1,3.7647675E1,2.3186908E2,6.158828E3,-9.319162E0,6.85399E3,6.94119E3,8.7505E3,2.1241156E1,3.479E4,3.70078E4,3.89557E4,5.6417973E4,5.693555E4,7.43395E3,7.666574E-3,-5.296294E-2,7.542047E1,8.60698E3,1.996615E-1,5.52122E-1,9.8971815E0,2.00159E4,-6.474267E-2,2.3061475E-2,2.3195355E-3,5.7314944E-2,-5.091113E-2,4.8949957E-2,3.86849E-2,-4.1923326E-2,-1.6200049E-2,-6.8720065E-2,1.6424334E-2,5.9948355E-2,-4.184027E-2,9.716616E-4,-1.6471032E-2,5.004749E-3,2.0286122E-2,-7.200029E-2,-1.2748718E-3,2.7601749E-2,-6.36728E-2,-6.0867066E-3,4.3261122E-2,-3.9161485E-2,7.7367485E-2,1.4808989E-2,9.160935E-3,-2.5428876E-2,2.4839118E-2,-8.1690885E-3,3.026527E-2,5.1706363E-2,3.776084E-3,5.195406E-2,-2.0848393E-2,1.926338E-2,-8.776343E-2,-2.4595113E-2,1.6338421E-2,5.622313E-2,-1.8345661E-2,2.0579465E-2],"split_indices":[4,27,22,1,4,25,0,14,19,19,9,30,19,14,14,4,24,2,16,19,30,7,7,7,10,0,30,4,10,0,9,19,19,19,4,19,19,21,12,2,16,0,0,4,19,30,30,9,19,0,0,0,0,0,0,0,0,0,0,0,0,0,0,0,0,0,0,0,0,0,0,0,0,0,0,0,0,0,0,0,0,0,0,0,0,0,0,0,0,0,0],"split_type":[0,0,0,0,0,0,0,0,0,0,0,0,0,0,0,0,0,0,0,0,0,0,0,0,0,0,0,0,0,0,0,0,0,0,0,0,0,0,0,0,0,0,0,0,0,0,0,0,0,0,0,0,0,0,0,0,0,0,0,0,0,0,0,0,0,0,0,0,0,0,0,0,0,0,0,0,0,0,0,0,0,0,0,0,0,0,0,0,0,0,0],"sum_hessian":[2.3651898E4,2.3012832E4,6.3906586E2,1.5972773E4,7.040059E3,6.3634406E2,2.7218075E0,6.3900402E1,1.5908873E4,5.312838E3,1.7272211E3,1.02768616E2,5.3357544E2,9.163608E0,5.4736794E1,5.888863E1,1.5849984E4,9.5860913E2,4.354229E3,4.8199768E1,1.6790214E3,2.876769E0,9.9891846E1,1.0706039E2,4.2651505E2,1.6857455E0,7.477862E0,4.9946247E1,4.790545E0,5.133175E0,5.3755455E1,2.584602E2,1.5591524E4,8.90377E2,6.8232155E1,2.5279238E3,1.8263049E3,2.0813162E1,2.7386608E1,1.0068852E3,6.7213617E2,1.4342713E0,1.4424975E0,5.9049995E1,4.084185E1,9.511769E1,1.1942698E1,4.1542908E1,3.8497214E2,6.274793E0,1.2030691E0,5.53954E0,4.4406708E1,3.3533814E0,1.4371635E0,3.909806E0,1.2233686E0,1.0507604E1,4.324785E1,2.1586655E2,4.259366E1,6.558521E1,1.5525938E4,6.496286E2,2.4074838E2,4.868805E0,6.336335E1,2.4029282E3,1.24995766E2,9.2328545E1,1.7339764E3,1.427699E1,6.5361714E0,1.7410172E1,9.976436E0,9.6440155E2,4.2483646E1,5.8609207E1,6.135269E2,1.708875E1,4.1961243E1,2.8991344E1,1.1850505E1,2.6638988E1,6.84787E1,8.069896E0,3.872802E0,7.8537965E0,3.3689114E1,3.1561668E1,3.5341046E2],"tree_param":{"num_deleted":"0","num_feature":"34","num_nodes":"91","size_leaf_vector":"1"}},{"base_weights":[1.4634231E-3,-5.895266E-3,4.537074E-1,-2.8964551E-3,-7.750688E-1,4.8081625E-1,-6.874694E-1,-2.690075E-1,4.646878E-3,-2.8317457E-1,-1.072005E0,5.0025624E-1,-1.1418521E0,-1.4638223E-1,-8.303058E-2,-3.1984222E-1,1.199357E-1,3.3195938E-3,1.2482188E0,8.455205E-1,-7.7535725E-1,-5.7294095E-1,-1.3191801E0,2.8070784E-1,6.659397E-1,-1.2625619E-2,-7.288211E-2,4.397082E-2,-8.7285995E-1,-2.4785687E-1,-7.862879E-1,-4.5912042E-1,3.2687208E-1,1.0803951E-2,-2.100858E-1,5.5733675E-1,7.646125E-2,7.420889E-2,-2.8599542E-1,-1.4165797E0,-5.698498E-2,-7.185209E-1,4.6910133E-2,2.4686111E-2,-1.39542E0,5.74075E-1,-2.4042404E-1,6.847984E-1,-3.8810585E-2,2.240332E-2,-7.348064E-2,-7.0473463E-3,-2.8810328E-2,5.3661842E-2,-4.2202625E-2,2.7370945E-2,-4.4385884E-2,4.5595076E-2,2.8127516E-3,1.5820598E-2,2.4124235E-4,-8.183493E-3,-5.0597627E-2,5.6618102E-2,-4.5817208E-2,-4.289029E-2,3.112173E-2,-9.524799E-3,-7.7642515E-2,4.564887E-2,-4.014093E-2,-5.0298717E-2,4.7106748E-3,-8.03859E-2,-2.0760518E-2,5.3942423E-2,2.137712E-2,-1.5485807E-3,-5.485616E-2,3.178348E-2,7.0734054E-2],"categories":[],"categories_nodes":[],"categories_segments":[],"categories_sizes":[],"default_left":[0,0,0,0,0,0,0,0,0,0,0,0,0,0,0,0,0,0,0,0,0,0,0,0,0,0,0,0,0,0,0,0,0,0,0,0,0,0,0,0,0,0,0,0,0,0,0,0,0,0,0,0,0,0,0,0,0,0,0,0,0,0,0,0,0,0,0,0,0,0,0,0,0,0,0,0,0,0,0,0,0],"id":4,"left_children":[1,3,5,7,9,11,13,15,17,19,21,23,25,27,-1,29,31,33,35,37,39,41,43,45,47,-1,-1,-1,49,51,53,55,57,59,61,63,-1,-1,65,67,69,71,-1,-1,73,75,77,79,-1,-1,-1,-1,-1,-1,-1,-1,-1,-1,-1,-1,-1,-1,-1,-1,-1,-1,-1,-1,-1,-1,-1,-1,-1,-1,-1,-1,-1,-1,-1,-1,-1],"loss_changes":[7.84858E1,5.3526268E1,1.201207E1,4.640648E1,1.2859692E1,1.2224785E1,4.587237E0,1.2638042E1,3.7102787E1,2.0256172E1,6.13221E0,1.3117477E1,9.457536E-1,5.9782767E0,0E0,1.8738197E1,9.0639105E0,3.587267E1,3.800583E0,8.512468E0,1.1477077E1,5.131823E0,5.7442474E0,2.4451603E1,6.18087E0,0E0,0E0,0E0,4.2806664E0,1.7117584E1,8.953976E0,9.114367E0,8.717633E0,3.964691E1,2.8158222E1,8.24306E0,0E0,0E0,3.0669842E0,1.9122105E0,1.0047481E1,4.5450096E0,0E0,0E0,6.6909027E0,7.086815E0,1.0370866E1,6.4720535E0,0E0,0E0,0E0,0E0,0E0,0E0,0E0,0E0,0E0,0E0,0E0,0E0,0E0,0E0,0E0,0E0,0E0,0E0,0E0,0E0,0E0,0E0,0E0,0E0,0E0,0E0,0E0,0E0,0E0,0E0,0E0,0E0,0E0],"parents":[2147483647,0,0,1,1,2,2,3,3,4,4,5,5,6,6,7,7,8,8,9,9,10,10,11,11,12,12,13,13,15,15,16,16,17,17,18,18,19,19,20,20,21,21,22,22,23,23,24,24,28,28,29,29,30,30,31,31,32,32,33,33,34,34,35,35,38,38,39,39,40,40,41,41,44,44,45,45,46,46,47,47],"right_children":[2,4,6,8,10,12,14,16,18,20,22,24,26,28,-1,30,32,34,36,38,40,42,44,46,48,-1,-1,-1,50,52,54,56,58,60,62,64,-1,-1,66,68,70,72,-1,-1,74,76,78,80,-1,-1,-1,-1,-1,-1,-1,-1,-1,-1,-1,-1,-1,-1,-1,-1,-1,-1,-1,-1,-1,-1,-1,-1,-1,-1,-1,-1,-1,-1,-1,-1,-1],"split_conditions":[7.659826E1,6.498957E4,4.7672018E2,2.7691208E1,2.4451564E-1,6.4990332E4,8.600343E1,3.6617743E2,6.497684E4,6.4514184E4,4.3159103E1,1.99008E4,6.5057945E4,1.01390794E-1,-8.303058E-2,5.708661E-1,4.3079644E-1,7.614575E-1,1E0,2.1274088E-1,1.9118105E-1,4.1637096E1,6.500509E4,3.9904367E-2,8.3397985E-1,-1.2625619E-2,-7.288211E-2,4.397082E-2,3.794456E4,3.9544004E4,2E0,3.4544197E-1,1.3200605E1,6.858775E3,5.12107E4,1.6661727E-1,7.646125E-2,7.420889E-2,3.022995E1,1.2133411E1,1E0,3.6922228E-1,4.6910133E-2,2.4686111E-2,6.5989235E1,8.080262E3,8.9398315E1,8.9158386E-2,-3.8810585E-2,2.240332E-2,-7.348064E-2,-7.0473463E-3,-2.8810328E-2,5.3661842E-2,-4.2202625E-2,2.7370945E-2,-4.4385884E-2,4.5595076E-2,2.8127516E-3,1.5820598E-2,2.4124235E-4,-8.183493E-3,-5.0597627E-2,5.6618102E-2,-4.5817208E-2,-4.289029E-2,3.112173E-2,-9.524799E-3,-7.7642515E-2,4.564887E-2,-4.014093E-2,-5.0298717E-2,4.7106748E-3,-8.03859E-2,-2.0760518E-2,5.3942423E-2,2.137712E-2,-1.5485807E-3,-5.485616E-2,3.178348E-2,7.0734054E-2],"split_indices":[4,12,10,4,30,0,5,10,19,20,5,19,22,14,0,30,30,30,27,30,30,5,1,14,30,0,0,0,25,17,27,30,5,16,17,30,0,0,5,5,26,30,0,0,9,13,5,14,0,0,0,0,0,0,0,0,0,0,0,0,0,0,0,0,0,0,0,0,0,0,0,0,0,0,0,0,0,0,0,0,0],"split_type":[0,0,0,0,0,0,0,0,0,0,0,0,0,0,0,0,0,0,0,0,0,0,0,0,0,0,0,0,0,0,0,0,0,0,0,0,0,0,0,0,0,0,0,0,0,0,0,0,0,0,0,0,0,0,0,0,0,0,0,0,0,0,0,0,0,0,0,0,0,0,0,0,0,0,0,0,0,0,0,0,0],"sum_hessian":[2.3582217E4,2.3205613E4,3.7660324E2,2.3116492E4,8.912153E1,3.684298E2,8.173446E0,6.362549E2,2.2480238E4,3.4283062E1,5.4838467E1,3.6475168E2,3.6781216E0,5.992123E0,2.1813219E0,5.628662E2,7.3388725E1,2.2457271E4,2.2966337E1,1.0192126E1,2.4090937E1,1.9263016E1,3.557545E1,1.5803392E2,2.0671776E2,1.4353778E0,2.2427435E0,2.3969994E0,3.5951238E0,4.889406E2,7.392557E1,1.9000961E1,5.4387764E1,2.1697273E4,7.599975E2,7.502945E0,1.5463391E1,6.3157043E0,3.876422E0,1.2215444E1,1.1875493E1,1.804876E1,1.2142557E0,1.2147238E0,3.4360725E1,1.0104809E2,5.6985836E1,2.0456783E2,2.1499376E0,1.1962829E0,2.398841E0,3.6992358E2,1.1901704E2,1.6976098E0,7.222796E1,5.591759E0,1.3409204E1,1.6451855E1,3.793591E1,4.153568E2,2.1281918E4,7.1955054E2,4.0446945E1,5.563641E0,1.9393039E0,2.413177E0,1.4632448E0,1.461713E0,1.0753731E1,5.0647035E0,6.8107896E0,1.3157396E1,4.891362E0,2.7717398E1,6.6433296E0,2.1302616E1,7.9745476E1,4.662319E1,1.0362646E1,1.9341956E2,1.1148268E1],"tree_param":{"num_deleted":"0","num_feature":"34","num_nodes":"81","size_leaf_vector":"1"}},{"base_weights":[3.2723965E-3,1.3666328E-2,-1.9125667E-1,2.3655597E-2,-1.4951418E-1,4.9031392E-1,-2.263993E-1,1.6115343E-2,4.0644923E-1,-8.2974494E-1,-3.32944E-2,6.111036E-1,-8.129461E-2,-4.6308464E-1,-5.4564912E-2,2.3881087E-2,-4.4554242E-1,6.98566E-1,1.9087748E-1,-2.867492E-1,-1.0161048E0,2.1000147E-2,-5.9305555E-1,7.571258E-1,-1.088787E0,-1.0789201E0,-4.015476E-1,9.102313E-1,-1.3775325E-1,1.5785553E-2,3.4103736E-1,-8.973184E-1,-1.7597677E-1,4.4484273E-1,1.1396643E0,-8.297156E-2,7.0713323E-1,8.6811155E-1,-5.304013E-1,5.547921E-2,-1.1239417E0,-1.7442679E-2,1.2013953E0,6.46569E-2,-7.966923E-1,1.0358335E0,6.954026E-2,-1.3228959E-2,-7.6753646E-2,6.978246E-1,-1.261236E0,7.963194E-1,-4.7730342E-1,1.0962387E0,3.4906837E-1,-1.3375045E0,-8.371286E-2,1.06585E-3,-6.393803E-2,6.203527E-2,1.1227782E-2,-5.150188E-2,9.102992E-3,1.0473269E-2,-2.9452054E-2,2.6640272E-2,-4.4483986E-2,5.963067E-2,-2.5340026E-2,5.718506E-2,-9.566544E-3,4.9176626E-2,2.1804266E-2,-1.9176902E-2,6.6258974E-2,1.3661029E-2,-4.489698E-2,-5.1740777E-2,5.693806E-2,-6.712656E-2,-4.3713E-2,1.6255489E-2,-5.231056E-3,6.632415E-2,-1.7064866E-2,-4.2033385E-2,2.6915023E-2,-4.192538E-3,-5.015245E-2,6.532003E-2,-4.866317E-4,-3.7780132E-2,5.95262E-2,-1.1676717E-2,5.9577573E-2,-7.073133E-2,1.6543769E-3,5.27157E-2,-3.6848333E-2,-2.1798685E-2,-6.394868E-2,6.4185694E-2,1.9964814E-2,3.811965E-2,-4.3530855E-2,-7.1825966E-2,1.017985E-2,1.877639E-2,-9.488724E-3],"categories":[],"categories_nodes":[],"categories_segments":[],"categories_sizes":[],"default_left":[0,0,0,0,0,0,0,0,0,0,0,0,0,0,0,0,0,0,0,0,0,0,0,0,0,0,0,0,0,0,0,0,0,0,0,0,0,0,0,0,0,0,0,0,0,0,0,0,0,0,0,0,0,0,0,0,0,0,0,0,0,0,0,0,0,0,0,0,0,0,0,0,0,0,0,0,0,0,0,0,0,0,0,0,0,0,0,0,0,0,0,0,0,0,0,0,0,0,0,0,0,0,0,0,0,0,0,0,0],"id":5,"left_children":[1,3,5,7,9,11,13,15,17,19,21,23,-1,25,27,29,31,33,35,37,39,41,43,45,47,49,51,53,55,57,59,61,63,65,67,69,71,73,75,77,79,81,83,85,87,89,91,-1,-1,93,95,97,99,101,103,105,107,-1,-1,-1,-1,-1,-1,-1,-1,-1,-1,-1,-1,-1,-1,-1,-1,-1,-1,-1,-1,-1,-1,-1,-1,-1,-1,-1,-1,-1,-1,-1,-1,-1,-1,-1,-1,-1,-1,-1,-1,-1,-1,-1,-1,-1,-1,-1,-1,-1,-1,-1,-1],"loss_changes":[4.7734882E1,3.6534542E1,2.879279E1,6.0950542E1,1.0218472E2,1.6082848E1,4.6316097E1,7.426587E1,2.5554504E1,1.8795792E1,3.3604233E1,1.4866348E1,0E0,1.772461E1,5.320024E1,5.2296608E1,4.1576508E1,1.8836105E1,3.343612E1,1.4413875E1,1.624408E1,4.578537E1,1.314534E1,1.0024311E1,1.3907866E0,1.4788181E1,4.0054466E1,5.11026E0,3.941562E1,1.4227068E2,5.284942E1,1.849842E1,3.4493057E1,1.3546589E1,6.050705E0,2.0842428E1,5.7093315E0,5.667747E0,1.2523476E1,1.7426159E1,5.772766E0,2.9231188E1,6.593796E0,1.0759913E1,1.0907963E1,1.0597889E1,1.5946946E1,0E0,0E0,2.4116843E0,7.8485336E0,1.1212376E1,1.3087334E1,4.5904694E0,8.007815E0,4.292015E0,2.8538708E1,0E0,0E0,0E0,0E0,0E0,0E0,0E0,0E0,0E0,0E0,0E0,0E0,0E0,0E0,0E0,0E0,0E0,0E0,0E0,0E0,0E0,0E0,0E0,0E0,0E0,0E0,0E0,0E0,0E0,0E0,0E0,0E0,0E0,0E0,0E0,0E0,0E0,0E0,0E0,0E0,0E0,0E0,0E0,0E0,0E0,0E0,0E0,0E0,0E0,0E0,0E0,0E0],"parents":[2147483647,0,0,1,1,2,2,3,3,4,4,5,5,6,6,7,7,8,8,9,9,10,10,11,11,13,13,14,14,15,15,16,16,17,17,18,18,19,19,20,20,21,21,22,22,23,23,24,24,25,25,26,26,27,27,28,28,29,29,30,30,31,31,32,32,33,33,34,34,35,35,36,36,37,37,38,38,39,39,40,40,41,41,42,42,43,43,44,44,45,45,46,46,49,49,50,50,51,51,52,52,53,53,54,54,55,55,56,56],"right_children":[2,4,6,8,10,12,14,16,18,20,22,24,-1,26,28,30,32,34,36,38,40,42,44,46,48,50,52,54,56,58,60,62,64,66,68,70,72,74,76,78,80,82,84,86,88,90,92,-1,-1,94,96,98,100,102,104,106,108,-1,-1,-1,-1,-1,-1,-1,-1,-1,-1,-1,-1,-1,-1,-1,-1,-1,-1,-1,-1,-1,-1,-1,-1,-1,-1,-1,-1,-1,-1,-1,-1,-1,-1,-1,-1,-1,-1,-1,-1,-1,-1,-1,-1,-1,-1,-1,-1,-1,-1,-1,-1],"split_conditions":[6.674287E-1,5.748749E4,5.395815E3,5.63553E4,5.779217E4,6.2616797E3,3.061534E4,5.469139E4,5.6673992E4,5.7659688E4,6.500509E4,8.554693E1,-8.129461E-2,6.15452E3,3.1478732E4,5.037368E4,5.467599E4,2E0,5.779217E4,1.7571938E1,2.0522559E2,6.497684E4,3.1025618E1,5.431194E3,5.3700386E3,1.6800838E1,6.4095E3,3.1531414E4,3.222157E4,5.02246E4,4.921726E4,5.053276E-1,5.519557E4,5.634702E4,6.874371E-2,-8.657989E1,2.9430827E-1,2.9856256E2,1.6058061E-2,2.3521677E1,5.725293E4,5.8893113E4,8.738441E1,6.497684E4,-2.8052675E1,4.4642704E1,2.2558873E2,-1.3228959E-2,-7.6753646E-2,6.147E3,5.420157E1,8.363459E1,2.9147385E4,7.116939E1,5.9982346E1,3.698236E4,3.482595E4,1.06585E-3,-6.393803E-2,6.203527E-2,1.1227782E-2,-5.150188E-2,9.102992E-3,1.0473269E-2,-2.9452054E-2,2.6640272E-2,-4.4483986E-2,5.963067E-2,-2.5340026E-2,5.718506E-2,-9.566544E-3,4.9176626E-2,2.1804266E-2,-1.9176902E-2,6.6258974E-2,1.3661029E-2,-4.489698E-2,-5.1740777E-2,5.693806E-2,-6.712656E-2,-4.3713E-2,1.6255489E-2,-5.231056E-3,6.632415E-2,-1.7064866E-2,-4.2033385E-2,2.6915023E-2,-4.192538E-3,-5.015245E-2,6.532003E-2,-4.866317E-4,-3.7780132E-2,5.95262E-2,-1.1676717E-2,5.9577573E-2,-7.073133E-2,1.6543769E-3,5.27157E-2,-3.6848333E-2,-2.1798685E-2,-6.394868E-2,6.4185694E-2,1.9964814E-2,3.811965E-2,-4.3530855E-2,-7.1825966E-2,1.017985E-2,1.877639E-2,-9.488724E-3],"split_indices":[30,16,16,19,19,11,19,17,0,24,1,6,0,19,25,19,19,27,19,6,10,19,6,22,0,6,16,20,19,25,17,30,13,13,14,9,30,10,14,8,19,15,6,19,8,8,10,0,0,18,8,6,0,6,9,17,21,0,0,0,0,0,0,0,0,0,0,0,0,0,0,0,0,0,0,0,0,0,0,0,0,0,0,0,0,0,0,0,0,0,0,0,0,0,0,0,0,0,0,0,0,0,0,0,0,0,0,0,0],"split_type":[0,0,0,0,0,0,0,0,0,0,0,0,0,0,0,0,0,0,0,0,0,0,0,0,0,0,0,0,0,0,0,0,0,0,0,0,0,0,0,0,0,0,0,0,0,0,0,0,0,0,0,0,0,0,0,0,0,0,0,0,0,0,0,0,0,0,0,0,0,0,0,0,0,0,0,0,0,0,0,0,0,0,0,0,0,0,0,0,0,0,0,0,0,0,0,0,0,0,0,0,0,0,0,0,0,0,0,0,0],"sum_hessian":[2.3606377E4,2.2409916E4,1.1964602E3,2.111801E4,1.2919064E3,5.8031013E1,1.1384292E3,2.0711086E4,4.0692404E2,1.8762192E2,1.1042845E3,5.557037E1,2.4606414E0,4.78141E2,6.6028815E2,2.0369393E4,3.4169406E2,1.7183435E2,2.3508969E2,4.8588524E1,1.3903339E2,1.00752155E3,9.676299E1,5.168517E1,3.8852015E0,4.1935562E1,4.3620544E2,5.1624073E1,6.0866406E2,1.986342E4,5.0597162E2,1.2682094E2,2.1487312E2,1.10361824E2,6.147253E1,1.5415637E2,8.093332E1,8.018685E0,4.0569836E1,1.27564945E1,1.2627689E2,9.766979E2,3.0823639E1,2.3037674E1,7.372532E1,3.6417233E1,1.5267938E1,1.9242721E0,1.9609294E0,3.6395047E0,3.829606E1,2.5379988E1,4.1082544E2,3.8056168E1,1.3567907E1,2.5210712E1,5.8345337E2,1.9779887E4,8.353366E1,5.6893406E1,4.4907822E2,1.1297533E2,1.38456135E1,1.11408005E2,1.0346511E2,1.04100945E2,6.260879E0,5.9824276E1,1.6482527E0,1.1736749E1,1.4241963E2,3.8769627E1,4.2163692E1,2.1879647E0,5.8307204E0,1.2812326E1,2.7757511E1,6.3799667E0,6.3765283E0,6.49969E1,6.127999E1,1.975866E2,7.7911127E2,2.8641428E1,2.1822102E0,7.6467476E0,1.5390926E1,1.6866789E1,5.685853E1,2.8732498E1,7.684735E0,8.982196E0,6.2857413E0,1.4435017E0,2.196003E0,3.4155354E1,4.140704E0,2.199195E1,3.388038E0,3.9215207E2,1.867337E1,2.9325727E1,8.730439E0,1.0413819E1,3.1540885E0,2.3752491E1,1.4582214E0,1.0899043E2,4.7446292E2],"tree_param":{"num_deleted":"0","num_feature":"34","num_nodes":"109","size_leaf_vector":"1"}},{"base_weights":[1.6078933E-3,-8.410842E-3,3.5887164E-1,1.083709E-3,-1.7194207E-1,7.298916E-1,3.133885E-1,-5.051841E-3,5.619094E-1,-8.856282E-1,-5.4590765E-2,8.149445E-1,-5.8400054E-2,9.4927245E-1,2.8595653E-1,-2.6604038E-4,-4.278569E-1,4.5551878E-1,1.0355855E0,1.2883723E-1,-9.892816E-1,-4.876346E-3,-6.1893475E-1,5.305177E-1,1.4087448E0,3.3525568E-1,1.1612104E0,-2.44318E-2,3.5148707E-1,-6.5402538E-3,4.9381125E-1,6.266865E-1,-5.378102E-1,1.5915157E-1,6.688281E-1,1.0860492E0,-6.5557496E-3,-5.743188E-1,1.1237128E0,-1.8732414E-1,-1.113001E0,-9.851246E-2,4.1626406E-1,2.1089923E-1,-8.117E-1,7.44594E-1,-2.760547E-1,7.238999E-2,1.9945538E-2,5.72321E-2,-6.501667E-2,1.3559057E0,-2.214718E-2,7.1812725E-1,-1.3346997E-1,4.1551095E-1,9.24953E-2,-4.2327105E-5,-3.8529355E-2,5.9034843E-2,1.7084662E-2,4.1556094E-2,-3.9182644E-2,-4.167335E-2,-9.933127E-3,-7.355261E-2,1.1612524E-2,6.144902E-2,2.0406818E-2,6.3488334E-2,2.8146345E-2,1.6758578E-3,-8.162761E-2,6.687153E-2,-3.8042647E-4,-4.879449E-2,1.1091153E-2,-3.5950687E-2,-6.490974E-2,2.476177E-3,-2.7802337E-2,6.578189E-2,5.6220843E-3,4.274024E-2,-4.383118E-2,-4.7797174E-3,-4.931876E-2,4.205043E-2,-4.1106027E-2,2.7882501E-2,-7.3598884E-2,7.3231585E-2,3.326977E-2,-4.5825224E-2,4.4311836E-2,-4.3223626E-3,5.897219E-2,-2.833406E-2,1.055227E-3,1.606267E-2,3.80478E-2,-5.450235E-2,1.2696057E-2],"categories":[],"categories_nodes":[],"categories_segments":[],"categories_sizes":[],"default_left":[0,0,0,0,0,0,0,0,0,0,0,0,0,0,0,0,0,0,0,0,0,0,0,0,0,0,0,0,0,0,0,0,0,0,0,0,0,0,0,0,0,0,0,0,0,0,0,0,0,0,0,0,0,0,0,0,0,0,0,0,0,0,0,0,0,0,0,0,0,0,0,0,0,0,0,0,0,0,0,0,0,0,0,0,0,0,0,0,0,0,0,0,0,0,0,0,0,0,0,0,0,0,0],"id":6,"left_children":[1,3,5,7,9,11,13,15,17,19,21,23,-1,25,27,29,31,33,35,37,39,41,43,45,47,49,51,53,55,57,59,61,63,65,67,69,-1,71,73,75,77,79,81,83,85,87,89,-1,-1,-1,-1,91,93,95,97,99,101,-1,-1,-1,-1,-1,-1,-1,-1,-1,-1,-1,-1,-1,-1,-1,-1,-1,-1,-1,-1,-1,-1,-1,-1,-1,-1,-1,-1,-1,-1,-1,-1,-1,-1,-1,-1,-1,-1,-1,-1,-1,-1,-1,-1,-1,-1],"loss_changes":[8.457165E1,3.568552E1,1.0647614E1,7.47519E1,1.0557881E2,1.2191719E1,9.774078E0,4.34823E1,1.1375748E1,1.8847565E1,3.0414265E1,1.0607796E1,0E0,2.6538963E0,1.1266792E1,6.587591E1,2.8225002E1,1.2142666E1,2.6348267E0,1.2809571E1,1.5828964E1,3.9372265E1,1.4210552E1,8.331764E0,2.573967E-1,1.1293302E1,3.9418278E0,7.9838576E0,7.540722E0,9.128588E1,2.7439926E1,7.332244E0,2.1728085E1,1.01614895E1,1.590538E1,3.1954155E0,0E0,7.033601E0,1.832941E0,7.5745564E0,9.269363E0,5.5349403E1,4.9478153E1,1.2890593E1,8.840359E0,6.350193E0,1.1390243E1,0E0,0E0,0E0,0E0,1.21255875E-1,3.5604384E0,4.7899885E0,5.7568555E0,1.1679241E1,1.7816565E1,0E0,0E0,0E0,0E0,0E0,0E0,0E0,0E0,0E0,0E0,0E0,0E0,0E0,0E0,0E0,0E0,0E0,0E0,0E0,0E0,0E0,0E0,0E0,0E0,0E0,0E0,0E0,0E0,0E0,0E0,0E0,0E0,0E0,0E0,0E0,0E0,0E0,0E0,0E0,0E0,0E0,0E0,0E0,0E0,0E0,0E0],"parents":[2147483647,0,0,1,1,2,2,3,3,4,4,5,5,6,6,7,7,8,8,9,9,10,10,11,11,13,13,14,14,15,15,16,16,17,17,18,18,19,19,20,20,21,21,22,22,23,23,24,24,25,25,26,26,27,27,28,28,29,29,30,30,31,31,32,32,33,33,34,34,35,35,37,37,38,38,39,39,40,40,41,41,42,42,43,43,44,44,45,45,46,46,51,51,52,52,53,53,54,54,55,55,56,56],"right_children":[2,4,6,8,10,12,14,16,18,20,22,24,-1,26,28,30,32,34,36,38,40,42,44,46,48,50,52,54,56,58,60,62,64,66,68,70,-1,72,74,76,78,80,82,84,86,88,90,-1,-1,-1,-1,92,94,96,98,100,102,-1,-1,-1,-1,-1,-1,-1,-1,-1,-1,-1,-1,-1,-1,-1,-1,-1,-1,-1,-1,-1,-1,-1,-1,-1,-1,-1,-1,-1,-1,-1,-1,-1,-1,-1,-1,-1,-1,-1,-1,-1,-1,-1,-1,-1,-1],"split_conditions":[7.3358246E1,5.7499445E4,8.037033E3,5.69763E4,5.779217E4,9.302227E1,-5.807636E0,5.5957523E4,5.811524E4,2.0922766E2,6.498957E4,7.94036E3,-5.8400054E-2,2.4718E4,7.7890526E1,5.467599E4,-9.959348E1,5.6392453E4,3.6460388E2,5.8266656E4,5.7659688E4,6.283106E4,6.4873316E4,6.674287E-1,6.920006E1,2.2774877E4,3.3182846E2,9.128356E3,4.489866E4,5.4116812E4,5.434281E4,5.8369977E4,5.63553E4,2.1534422E2,5.668624E4,5.7478645E4,-6.5557496E-3,5.799867E4,5.852272E4,5.669656E4,4.2186348E1,6.152709E4,6.2800508E4,2.418137E-1,2.7144985E1,7.70345E3,7.991164E1,7.238999E-2,1.9945538E-2,5.72321E-2,-6.501667E-2,5.544767E4,5.708661E-1,7.9719677E0,1.100871E4,3.847154E4,4.859001E4,-4.2327105E-5,-3.8529355E-2,5.9034843E-2,1.7084662E-2,4.1556094E-2,-3.9182644E-2,-4.167335E-2,-9.933127E-3,-7.355261E-2,1.1612524E-2,6.144902E-2,2.0406818E-2,6.3488334E-2,2.8146345E-2,1.6758578E-3,-8.162761E-2,6.687153E-2,-3.8042647E-4,-4.879449E-2,1.1091153E-2,-3.5950687E-2,-6.490974E-2,2.476177E-3,-2.7802337E-2,6.578189E-2,5.6220843E-3,4.274024E-2,-4.383118E-2,-4.7797174E-3,-4.931876E-2,4.205043E-2,-4.1106027E-2,2.7882501E-2,-7.3598884E-2,7.3231585E-2,3.326977E-2,-4.5825224E-2,4.4311836E-2,-4.3223626E-3,5.897219E-2,-2.833406E-2,1.055227E-3,1.606267E-2,3.80478E-2,-5.450235E-2,1.2696057E-2],"split_indices":[4,15,2,19,19,5,9,15,19,10,12,19,0,19,5,19,9,3,7,3,24,19,21,30,9,12,10,13,18,3,1,18,19,10,23,2,0,3,1,19,4,2,1,30,5,15,4,0,0,0,0,18,30,9,19,19,19,0,0,0,0,0,0,0,0,0,0,0,0,0,0,0,0,0,0,0,0,0,0,0,0,0,0,0,0,0,0,0,0,0,0,0,0,0,0,0,0,0,0,0,0,0,0],"split_type":[0,0,0,0,0,0,0,0,0,0,0,0,0,0,0,0,0,0,0,0,0,0,0,0,0,0,0,0,0,0,0,0,0,0,0,0,0,0,0,0,0,0,0,0,0,0,0,0,0,0,0,0,0,0,0,0,0,0,0,0,0,0,0,0,0,0,0,0,0,0,0,0,0,0,0,0,0,0,0,0,0,0,0,0,0,0,0,0,0,0,0,0,0,0,0,0,0,0,0,0,0,0,0],"sum_hessian":[2.3625938E4,2.2982418E4,6.4351874E2,2.1722229E4,1.2601897E3,6.8630554E1,5.748882E2,2.1488135E4,2.3409367E2,1.7702768E2,1.083162E3,6.623296E1,2.3975854E0,2.2385218E1,5.52503E2,2.124862E4,2.39516E2,1.9276021E2,4.133347E1,1.638854E1,1.6063913E2,9.9639575E2,8.6766266E1,4.6062653E1,2.0170313E1,6.4064903E0,1.5978727E1,9.642218E1,4.560808E2,2.0983143E4,2.6547504E2,2.2171673E1,2.1734433E2,8.1404594E1,1.1135561E2,3.9686043E1,1.6474255E0,9.849708E0,6.5388327E0,2.1805897E1,1.3883324E2,8.157815E2,1.806143E2,1.6338156E1,7.042811E1,3.6461952E1,9.600701E0,1.9001726E1,1.1685867E0,4.4864798E0,1.9200103E0,1.3595995E1,2.382732E0,1.1630627E1,8.479156E1,3.6519797E2,9.0882835E1,2.0828926E4,1.54217E2,4.690678E1,2.1856825E2,1.9723372E1,2.4483023E0,1.1533867E2,1.0200566E2,2.6728275E0,7.8731766E1,3.4185787E1,7.716983E1,2.8314777E1,1.1371265E1,6.871266E0,2.978442E0,5.3466187E0,1.1922141E0,6.9758615E0,1.4830035E1,4.595327E1,9.287997E1,6.170316E2,1.9874988E2,4.4766476E1,1.3584782E2,1.0396523E1,5.9416323E0,1.4113815E1,5.6314293E1,3.478454E1,1.6774151E0,5.971525E0,3.6291769E0,1.0777856E1,2.8181393E0,1.196131E0,1.1866008E0,4.534569E0,7.0960584E0,2.1597166E1,6.319439E1,2.8842798E2,7.6770004E1,1.0225106E1,8.065773E1],"tree_param":{"num_deleted":"0","num_feature":"34","num_nodes":"103","size_leaf_vector":"1"}},{"base_weights":[5.106765E-3,-3.7821045E-3,3.274258E-1,-2.0623451E-1,3.8886762E-3,1.0646405E0,3.092116E-1,-6.3846886E-1,-1.4564334E-1,1.4167288E-1,-9.082239E-3,4.8215318E-1,1.3029227E0,4.9039748E-1,2.2347099E-1,1.5468904E-1,-8.0842894E-1,-1.1644569E-2,-2.9507264E-1,1.1874436E-1,4.2316872E-1,7.0318887E-3,-1.2787199E-1,5.761106E-2,-2.3880778E-2,6.8929456E-2,1.9673213E-2,1.9349712E-1,6.371558E-1,-6.377799E-2,3.2138768E-1,4.54201E-1,-1.0050149E0,3.881631E-2,-8.547849E-1,6.9149174E-2,-3.0194532E-2,1.16715565E-1,-4.0866706E-1,1.3321151E-1,-7.738543E-1,9.466265E-1,1.6702145E-1,-2.0861193E-3,7.7177227E-1,-9.1713667E-1,-6.918838E-2,9.934569E-1,6.813712E-2,4.2675132E-1,8.352351E-1,4.8230983E-2,-1.6838174E0,5.500206E-1,1.6916533E-1,-4.2996537E-2,4.2563904E-2,-7.3867075E-2,3.8914033E-3,-3.4560084E-2,-7.831713E-2,-2.3843006E-3,6.0812768E-2,-2.0405753E-2,2.7057102E-2,-2.4319287E-2,1.7328598E-3,5.9448387E-3,3.083523E-2,5.8691967E-2,-4.9099457E-2,6.030981E-2,2.3111897E-3,-4.8967194E-2,1.2252935E-2,2.6764834E-4,-1.6857652E-2,4.6211492E-2,5.5885874E-3,-3.0625984E-2,-8.216694E-2,3.464086E-2,-4.730473E-3,5.748856E-2,-8.337446E-4,-2.5639107E-2,1.4327551E-2,3.2636218E-2,-4.485702E-2,5.07324E-2,2.0669948E-2,2.9456949E-2,-9.30636E-3,-9.355501E-2,-2.1429794E-2,1.6295752E-2,4.5472912E-2,-1.7720386E-2,1.437448E-2],"categories":[],"categories_nodes":[],"categories_segments":[],"categories_sizes":[],"default_left":[0,0,0,0,0,0,0,0,0,0,0,0,0,0,0,0,0,0,0,0,0,0,0,0,0,0,0,0,0,0,0,0,0,0,0,0,0,0,0,0,0,0,0,0,0,0,0,0,0,0,0,0,0,0,0,0,0,0,0,0,0,0,0,0,0,0,0,0,0,0,0,0,0,0,0,0,0,0,0,0,0,0,0,0,0,0,0,0,0,0,0,0,0,0,0,0,0,0,0],"id":7,"left_children":[1,3,5,7,9,11,13,15,17,19,21,23,25,27,29,31,33,35,37,39,41,43,45,-1,-1,-1,-1,47,49,51,53,55,57,-1,59,-1,61,63,65,67,69,71,73,75,77,79,81,83,85,87,89,91,93,95,97,-1,-1,-1,-1,-1,-1,-1,-1,-1,-1,-1,-1,-1,-1,-1,-1,-1,-1,-1,-1,-1,-1,-1,-1,-1,-1,-1,-1,-1,-1,-1,-1,-1,-1,-1,-1,-1,-1,-1,-1,-1,-1,-1,-1],"loss_changes":[6.7624825E1,3.5673195E1,8.176781E0,2.1869095E1,3.955689E1,1.4348736E0,9.515827E0,1.3983711E1,1.4749275E1,1.2241062E1,3.87241E1,4.3464174E0,1.4306831E-1,8.512188E0,1.1901407E1,7.0495253E0,6.894989E0,1.0117848E1,1.6339643E1,2.2860601E1,1.9021322E1,1.2421748E2,1.1185887E2,0E0,0E0,0E0,0E0,6.650694E0,5.1528893E0,1.9718592E1,1.0876553E1,8.963087E0,2.2668095E0,0E0,8.565533E0,0E0,8.459517E0,1.716843E1,9.430119E0,1.1935217E1,1.26067295E1,1.087841E1,8.9406595E0,4.3884308E1,2.1017014E1,3.5969803E1,4.3656002E1,1.4406624E0,7.631855E0,2.0374153E1,4.6547318E0,1.3064296E1,8.4978867E-1,9.815525E0,1.1913399E1,0E0,0E0,0E0,0E0,0E0,0E0,0E0,0E0,0E0,0E0,0E0,0E0,0E0,0E0,0E0,0E0,0E0,0E0,0E0,0E0,0E0,0E0,0E0,0E0,0E0,0E0,0E0,0E0,0E0,0E0,0E0,0E0,0E0,0E0,0E0,0E0,0E0,0E0,0E0,0E0,0E0,0E0,0E0,0E0],"parents":[2147483647,0,0,1,1,2,2,3,3,4,4,5,5,6,6,7,7,8,8,9,9,10,10,11,11,12,12,13,13,14,14,15,15,16,16,17,17,18,18,19,19,20,20,21,21,22,22,27,27,28,28,29,29,30,30,31,31,32,32,34,34,36,36,37,37,38,38,39,39,40,40,41,41,42,42,43,43,44,44,45,45,46,46,47,47,48,48,49,49,50,50,51,51,52,52,53,53,54,54],"right_children":[2,4,6,8,10,12,14,16,18,20,22,24,26,28,30,32,34,36,38,40,42,44,46,-1,-1,-1,-1,48,50,52,54,56,58,-1,60,-1,62,64,66,68,70,72,74,76,78,80,82,84,86,88,90,92,94,96,98,-1,-1,-1,-1,-1,-1,-1,-1,-1,-1,-1,-1,-1,-1,-1,-1,-1,-1,-1,-1,-1,-1,-1,-1,-1,-1,-1,-1,-1,-1,-1,-1,-1,-1,-1,-1,-1,-1,-1,-1,-1,-1,-1,-1],"split_conditions":[7.3358246E1,2.9187263E1,-1.5524736E1,8.09264E3,1.9872131E1,2.9992451E4,4.9266205E1,1.5564378E1,3.6790453E-2,5.63553E4,4.9150355E4,2.9252042E2,8.0206924E1,1.8049824E1,2.00159E4,9.2954737E-1,7.7837976E-3,8.321961E3,1.0215054E1,5.5747156E4,5.759007E4,4.902301E4,4.96016E4,5.761106E-2,-2.3880778E-2,6.8929456E-2,1.9673213E-2,6.028814E1,9.66525E3,1.9505367E4,2.0720393E2,2.9278109E1,1.8336374E1,3.881631E-2,7.9403613E3,6.9149174E-2,4.1055377E2,5.1326565E-2,4.7672018E2,8.631802E1,5.4459324E4,4.3956627E1,-1.371285E2,4.76575E4,2.7523132E2,4.9991145E4,4.9987742E4,2.1507629E4,1.5455422E-1,9.308595E3,8.234436E1,3.6266305E-2,2.000675E4,1.7615765E2,5.9982346E1,-4.2996537E-2,4.2563904E-2,-7.3867075E-2,3.8914033E-3,-3.4560084E-2,-7.831713E-2,-2.3843006E-3,6.0812768E-2,-2.0405753E-2,2.7057102E-2,-2.4319287E-2,1.7328598E-3,5.9448387E-3,3.083523E-2,5.8691967E-2,-4.9099457E-2,6.030981E-2,2.3111897E-3,-4.8967194E-2,1.2252935E-2,2.6764834E-4,-1.6857652E-2,4.6211492E-2,5.5885874E-3,-3.0625984E-2,-8.216694E-2,3.464086E-2,-4.730473E-3,5.748856E-2,-8.337446E-4,-2.5639107E-2,1.4327551E-2,3.2636218E-2,-4.485702E-2,5.07324E-2,2.0669948E-2,2.9456949E-2,-9.30636E-3,-9.355501E-2,-2.1429794E-2,1.6295752E-2,4.5472912E-2,-1.7720386E-2,1.437448E-2],"split_indices":[4,4,9,19,5,3,8,6,14,19,18,8,5,8,19,30,14,13,5,21,20,19,19,0,0,0,0,6,3,23,10,10,4,0,13,0,10,14,10,7,24,4,9,15,7,15,0,0,30,21,10,14,15,8,9,0,0,0,0,0,0,0,0,0,0,0,0,0,0,0,0,0,0,0,0,0,0,0,0,0,0,0,0,0,0,0,0,0,0,0,0,0,0,0,0,0,0,0,0],"split_type":[0,0,0,0,0,0,0,0,0,0,0,0,0,0,0,0,0,0,0,0,0,0,0,0,0,0,0,0,0,0,0,0,0,0,0,0,0,0,0,0,0,0,0,0,0,0,0,0,0,0,0,0,0,0,0,0,0,0,0,0,0,0,0,0,0,0,0,0,0,0,0,0,0,0,0,0,0,0,0,0,0,0,0,0,0,0,0,0,0,0,0,0,0,0,0,0,0,0,0],"sum_hessian":[2.360192E4,2.296946E4,6.3246027E2,8.375807E2,2.2131879E4,1.3864088E1,6.185961E2,1.0180505E2,7.3577563E2,1.9033651E3,2.0228514E4,4.9027166E0,8.961371E0,1.9718599E2,4.214102E2,1.798125E1,8.38238E1,3.884849E2,3.4729077E2,1.7613229E3,1.420422E2,1.7813068E4,2.4154465E3,2.7690022E0,2.1337147E0,7.7968445E0,1.1645272E0,6.599428E1,1.3119171E2,1.072194E2,3.1419077E2,1.4773983E1,3.2072682E0,1.9347337E0,8.188907E1,4.133907E0,3.8435098E2,7.508275E1,2.72208E2,1.734068E3,2.7254848E1,4.5783752E1,9.625845E1,1.760417E4,2.0889745E2,1.6615245E2,2.249294E3,8.002582E0,5.79917E1,6.514627E1,6.604543E1,1.0119317E2,6.0262327E0,1.2453305E2,1.8965773E2,3.1577423E0,1.16162405E1,1.9795071E0,1.2277611E0,6.818508E1,1.3703986E1,3.7998044E2,4.3705378E0,3.3587757E1,4.1494987E1,2.3152287E2,4.0685154E1,1.6854141E3,4.8654E1,2.183373E0,2.5071474E1,3.5274998E1,1.0508757E1,5.3989096E0,9.085954E1,1.7222777E4,3.8139252E2,1.6937268E2,3.952477E1,1.18351494E2,4.7800957E1,7.176807E1,2.177526E3,6.8104496E0,1.1921319E0,1.5477682E1,4.2514015E1,5.608088E1,9.065392E0,4.53515E1,2.0693932E1,3.0132444E1,7.106072E1,4.816886E0,1.2093469E0,7.788151E1,4.6651543E1,3.4592796E1,1.5506493E2],"tree_param":{"num_deleted":"0","num_feature":"34","num_nodes":"99","size_leaf_vector":"1"}},{"base_weights":[4.9912957E-3,1.3722616E-2,-1.4459257E-1,8.681393E-3,6.370575E-1,-8.5716224E-1,-2.6160229E-2,1.8520307E-2,-1.5064688E-1,4.731269E-1,1.086534E0,-1.3898124E0,-6.550363E-1,2.8777087E-1,-9.955872E-2,2.1177713E-2,-6.108796E-1,9.3688436E-2,-2.6582545E-1,1.7830963E-1,6.9516116E-1,1.1621666E0,1.0793804E-1,4.4851366E-2,-1.4638939E0,3.3061638E-1,-7.909291E-1,-9.118711E-2,6.29603E-1,-4.4507122E-1,1.21588774E-1,1.7244399E-2,5.489321E-1,3.1960845E-1,-9.034789E-1,1.0062647E0,1.7320203E-2,-3.785684E-1,6.439475E-2,-4.4248262E-1,5.9241444E-1,8.14069E-1,-5.5260897E-1,1.2594779E0,4.462753E-1,5.0799813E-2,-4.5722853E-2,-2.9816133E-1,-1.5200894E0,6.5569466E-1,-8.453644E-1,-6.242154E-1,-1.2350647E0,1.0223403E-1,-1.1376848E0,-8.3144754E-1,7.0993215E-1,-2.6754606E-1,-1.0732908E0,1.1103269E0,1.5201994E-2,1.1744882E-3,-1.8198526E-2,5.393481E-3,4.4200867E-2,6.587773E-2,-2.0925177E-2,-8.1998985E-3,-6.5319546E-2,5.6128282E-2,-2.5423212E-2,-3.909247E-2,3.4550072E-3,-1.3313534E-2,-6.735291E-2,6.169137E-2,-1.9390717E-3,-3.4749027E-2,5.8828313E-2,6.336043E-2,7.5888126E-3,6.911934E-2,2.9367534E-2,-7.568859E-2,1.2050876E-2,1.7599208E-2,6.709376E-2,-4.7567632E-2,5.3398885E-2,1.1005498E-2,-3.418247E-2,-8.6202376E-2,-5.002383E-2,4.5415234E-2,-3.6742423E-2,-6.976748E-2,-1.5096914E-3,-1.9918008E-2,-5.004294E-2,-1.200202E-2,-7.837963E-2,2.868093E-2,-8.374874E-3,2.7903546E-2,-8.858412E-2,-8.034505E-2,1.4809014E-2,3.9498102E-2,-1.692375E-2,-2.9341636E-2,1.1811526E-2,3.226384E-2,-6.1180223E-2,6.267605E-2,3.3640873E-2,6.7557245E-3,-2.402207E-2],"categories":[],"categories_nodes":[],"categories_segments":[],"categories_sizes":[],"default_left":[0,0,0,0,0,0,0,0,0,0,0,0,0,0,0,0,0,0,0,0,0,0,0,0,0,0,0,0,0,0,0,0,0,0,0,0,0,0,0,0,0,0,0,0,0,0,0,0,0,0,0,0,0,0,0,0,0,0,0,0,0,0,0,0,0,0,0,0,0,0,0,0,0,0,0,0,0,0,0,0,0,0,0,0,0,0,0,0,0,0,0,0,0,0,0,0,0,0,0,0,0,0,0,0,0,0,0,0,0,0,0,0,0,0,0,0,0],"id":8,"left_children":[1,3,5,7,9,11,13,15,17,19,21,23,25,27,29,31,33,35,37,39,41,43,45,-1,47,49,51,53,55,57,59,61,63,65,67,69,71,73,75,77,79,81,83,85,87,-1,-1,89,91,93,95,97,99,101,103,105,107,109,111,113,115,-1,-1,-1,-1,-1,-1,-1,-1,-1,-1,-1,-1,-1,-1,-1,-1,-1,-1,-1,-1,-1,-1,-1,-1,-1,-1,-1,-1,-1,-1,-1,-1,-1,-1,-1,-1,-1,-1,-1,-1,-1,-1,-1,-1,-1,-1,-1,-1,-1,-1,-1,-1,-1,-1,-1,-1],"loss_changes":[3.0828743E1,7.00755E1,1.0983949E2,3.4684845E1,1.2668289E1,1.9061005E1,2.5773916E1,3.486631E1,3.624009E1,8.573372E0,3.3562164E0,9.806961E0,1.852641E1,2.751821E1,6.9305984E1,4.3067093E1,2.4151035E1,2.8766426E1,3.2594982E1,1.5281053E1,1.1643295E1,2.4727478E0,5.085681E0,0E0,2.753006E0,7.1402283E0,8.124298E0,2.0642702E1,1.3685787E1,3.9184006E1,5.8195145E1,4.905135E1,2.2588459E1,1.6539982E1,1.9729969E1,6.186268E0,1.5867331E1,7.058793E1,2.7017353E1,1.0608517E1,1.03552065E1,8.115078E0,5.8261914E0,2.354313E0,6.891395E0,0E0,0E0,8.4871215E-1,3.197731E0,5.6062503E0,1.8264117E0,7.2037163E0,1.01341095E1,1.1095087E1,1.8084532E1,5.9634213E0,9.186684E0,4.4738396E1,2.0847351E1,2.5238037E0,2.982098E1,0E0,0E0,0E0,0E0,0E0,0E0,0E0,0E0,0E0,0E0,0E0,0E0,0E0,0E0,0E0,0E0,0E0,0E0,0E0,0E0,0E0,0E0,0E0,0E0,0E0,0E0,0E0,0E0,0E0,0E0,0E0,0E0,0E0,0E0,0E0,0E0,0E0,0E0,0E0,0E0,0E0,0E0,0E0,0E0,0E0,0E0,0E0,0E0,0E0,0E0,0E0,0E0,0E0,0E0,0E0,0E0],"parents":[2147483647,0,0,1,1,2,2,3,3,4,4,5,5,6,6,7,7,8,8,9,9,10,10,11,11,12,12,13,13,14,14,15,15,16,16,17,17,18,18,19,19,20,20,21,21,22,22,24,24,25,25,26,26,27,27,28,28,29,29,30,30,31,31,32,32,33,33,34,34,35,35,36,36,37,37,38,38,39,39,40,40,41,41,42,42,43,43,44,44,47,47,48,48,49,49,50,50,51,51,52,52,53,53,54,54,55,55,56,56,57,57,58,58,59,59,60,60],"right_children":[2,4,6,8,10,12,14,16,18,20,22,24,26,28,30,32,34,36,38,40,42,44,46,-1,48,50,52,54,56,58,60,62,64,66,68,70,72,74,76,78,80,82,84,86,88,-1,-1,90,92,94,96,98,100,102,104,106,108,110,112,114,116,-1,-1,-1,-1,-1,-1,-1,-1,-1,-1,-1,-1,-1,-1,-1,-1,-1,-1,-1,-1,-1,-1,-1,-1,-1,-1,-1,-1,-1,-1,-1,-1,-1,-1,-1,-1,-1,-1,-1,-1,-1,-1,-1,-1,-1,-1,-1,-1,-1,-1,-1,-1,-1,-1,-1,-1],"split_conditions":[5.7499445E4,5.725293E4,5.779217E4,6.4782214E-1,5.811524E4,5.669656E4,5.890202E4,5.6810965E4,2E0,5.6392453E4,5.7507715E4,1.3783763E-1,5.7659688E4,5.856772E4,6.105054E4,5.63553E4,2.4310613E-1,5.5168804E3,3.807007E4,5.6547096E1,9.479761E1,5.8065613E4,5.722925E4,4.4851366E-2,-1.0831489E2,5.7984473E4,1.2007149E1,5.8263754E4,6.5471064E-3,6.1184727E4,6.049284E4,5.469139E4,3.1499046E-1,5.665152E4,-7.064805E0,5.3700386E3,6.15452E3,3.6418645E4,3.8071156E4,5.7841336E4,5.6534152E4,5.685462E4,5.7754E4,5.502245E4,5.809697E4,5.0799813E-2,-4.5722853E-2,3.2865282E-2,2.3991585E0,6.860454E1,5.8266656E4,2E0,5.750336E4,4.285705E1,3.1025618E1,1.5574782E-1,5.8893113E4,5.997668E4,8.252116E-3,3.5446507E1,6.500509E4,1.1744882E-3,-1.8198526E-2,5.393481E-3,4.4200867E-2,6.587773E-2,-2.0925177E-2,-8.1998985E-3,-6.5319546E-2,5.6128282E-2,-2.5423212E-2,-3.909247E-2,3.4550072E-3,-1.3313534E-2,-6.735291E-2,6.169137E-2,-1.9390717E-3,-3.4749027E-2,5.8828313E-2,6.336043E-2,7.5888126E-3,6.911934E-2,2.9367534E-2,-7.568859E-2,1.2050876E-2,1.7599208E-2,6.709376E-2,-4.7567632E-2,5.3398885E-2,1.1005498E-2,-3.418247E-2,-8.6202376E-2,-5.002383E-2,4.5415234E-2,-3.6742423E-2,-6.976748E-2,-1.5096914E-3,-1.9918008E-2,-5.004294E-2,-1.200202E-2,-7.837963E-2,2.868093E-2,-8.374874E-3,2.7903546E-2,-8.858412E-2,-8.034505E-2,1.4809014E-2,3.9498102E-2,-1.692375E-2,-2.9341636E-2,1.1811526E-2,3.226384E-2,-6.1180223E-2,6.267605E-2,3.3640873E-2,6.7557245E-3,-2.402207E-2],"split_indices":[15,19,19,30,19,19,0,25,27,3,0,30,24,19,19,19,30,11,19,6,9,17,20,0,9,22,9,20,14,24,18,17,30,17,9,0,19,12,17,11,25,24,18,17,18,0,0,14,9,6,3,27,12,6,6,30,15,19,14,9,1,0,0,0,0,0,0,0,0,0,0,0,0,0,0,0,0,0,0,0,0,0,0,0,0,0,0,0,0,0,0,0,0,0,0,0,0,0,0,0,0,0,0,0,0,0,0,0,0,0,0,0,0,0,0,0,0],"split_type":[0,0,0,0,0,0,0,0,0,0,0,0,0,0,0,0,0,0,0,0,0,0,0,0,0,0,0,0,0,0,0,0,0,0,0,0,0,0,0,0,0,0,0,0,0,0,0,0,0,0,0,0,0,0,0,0,0,0,0,0,0,0,0,0,0,0,0,0,0,0,0,0,0,0,0,0,0,0,0,0,0,0,0,0,0,0,0,0,0,0,0,0,0,0,0,0,0,0,0,0,0,0,0,0,0,0,0,0,0,0,0,0,0,0,0,0,0],"sum_hessian":[2.3601783E4,2.2300969E4,1.3008158E3,2.2123062E4,1.779064E2,1.8450005E2,1.1163157E3,2.0837197E4,1.2858644E3,1.3186568E2,4.6040718E1,4.913683E1,1.3536322E2,2.10987E2,9.053287E2,2.0750553E4,8.664512E1,4.120161E2,8.7384827E2,5.742277E1,7.444291E1,4.256353E1,3.477188E0,1.1932567E0,4.7943573E1,1.6227758E1,1.1913547E2,1.0040757E2,1.1057944E2,3.5292282E2,5.524059E2,2.0598068E4,1.524832E2,2.0706038E1,6.593908E1,3.08764E1,3.811397E2,6.5132733E2,2.2252095E2,2.2949787E1,3.4472984E1,6.828335E1,6.1595635E0,3.6801746E1,5.7617836E0,1.8448822E0,1.632306E0,2.4948852E0,4.544869E1,1.305999E1,3.1677673E0,8.836985E1,3.076562E1,8.550604E1,1.4901526E1,5.275556E0,1.0530388E2,2.7627707E2,7.664576E1,5.274717E1,4.996587E2,2.0266979E4,3.3109128E2,6.640209E1,8.608111E1,8.469724E0,1.2236314E1,2.3752382E1,4.21867E1,2.8915192E1,1.9612085E0,2.2334251E1,3.5880545E2,5.847945E2,6.653282E1,1.7152334E1,2.0536862E2,2.0347284E1,2.602502E0,1.2877109E1,2.1595875E1,1.8018572E1,5.0264774E1,2.3753548E0,3.7842088E0,3.502149E0,3.32996E1,1.610665E0,4.1511188E0,1.2471535E0,1.2477318E0,3.0973171E1,1.4475517E1,1.1345697E1,1.714293E0,1.4665663E0,1.7012011E0,5.6529453E1,3.1840395E1,8.137527E0,2.262809E1,3.071015E1,5.479589E1,4.087754E0,1.0813772E1,2.874071E0,2.401485E0,9.806466E1,7.2392206E0,1.6900143E2,1.07275635E2,5.8997555E0,7.0746E1,3.8335186E1,1.44119835E1,4.029091E2,9.67496E1],"tree_param":{"num_deleted":"0","num_feature":"34","num_nodes":"117","size_leaf_vector":"1"}},{"base_weights":[4.0694224E-3,1.2731281E-2,-1.4291309E-1,5.81043E-3,4.0256914E-1,-7.272122E-1,-1.1868684E-2,1.32472245E-2,-4.1423237E-1,7.0172465E-1,1.6853257E-1,-1.0964804E0,-4.810785E-1,1.12043194E-1,-2.410428E-1,4.113796E-3,3.2292095E-1,-8.6812603E-1,-1.5089697E-1,-5.2940827E-2,7.338005E-1,-4.684617E-2,7.265711E-1,-3.0080518E-1,-1.2054876E0,-9.6839523E-1,-2.7312756E-1,-1.5410319E-2,8.1653196E-1,7.736986E-1,-2.800174E-1,1.4321697E-2,-6.887632E-1,8.487097E-1,1.8095893E-1,-3.663477E-1,-1.1459777E0,1.9759712E-1,-5.893457E-1,5.2592975E-1,9.684919E-1,1.1332566E0,-1.8107943E-1,8.1691855E-1,-6.74828E-1,5.082084E-2,-7.87728E-1,-1.3540356E0,-4.6051118E-1,-1.8934098E-1,-1.4560866E0,7.407406E-1,-4.2176306E-1,7.839729E-2,-7.582173E-1,1.0854452E0,5.2772677E-1,-1.7927155E-1,1.3323836E0,-1.6877283E-3,-4.7872224E-1,2.6526698E-4,3.1471282E-2,-2.516155E-2,-6.958839E-2,-5.1480122E-2,4.7001626E-2,1.5595123E-3,3.5492577E-2,2.168887E-3,-6.8858325E-2,-6.0144722E-2,6.73829E-3,5.287562E-2,4.224898E-3,-6.084559E-3,-4.398894E-2,7.892632E-3,4.0186882E-2,-3.2962304E-2,5.0393738E-2,-1.5101278E-2,6.4432554E-2,-3.499268E-3,-7.592552E-2,4.9164172E-2,4.402814E-3,-7.450664E-2,4.1154247E-2,-7.5358815E-2,3.9651976E-3,-2.7839387E-2,-7.318861E-2,-4.573041E-2,4.224369E-2,3.4795932E-2,-3.6920093E-2,-1.1440916E-2,-8.2333535E-2,5.215786E-2,-5.3845048E-2,1.5463843E-2,-2.8810887E-2,-4.5848223E-3,2.769806E-2,-7.1073435E-2,-2.5203023E-2,1.8750152E-3,5.8756858E-2,-4.2398334E-2,4.4515427E-2,4.0403787E-2,-4.1730434E-2,7.57805E-2,4.6069394E-3,-1.051773E-2,2.3484647E-2,-1.3843052E-2,-3.8383447E-2],"categories":[],"categories_nodes":[],"categories_segments":[],"categories_sizes":[],"default_left":[0,0,0,0,0,0,0,0,0,0,0,0,0,0,0,0,0,0,0,0,0,0,0,0,0,0,0,0,0,0,0,0,0,0,0,0,0,0,0,0,0,0,0,0,0,0,0,0,0,0,0,0,0,0,0,0,0,0,0,0,0,0,0,0,0,0,0,0,0,0,0,0,0,0,0,0,0,0,0,0,0,0,0,0,0,0,0,0,0,0,0,0,0,0,0,0,0,0,0,0,0,0,0,0,0,0,0,0,0,0,0,0,0,0,0,0,0,0,0],"id":9,"left_children":[1,3,5,7,9,11,13,15,17,19,21,23,25,27,29,31,33,35,37,-1,39,41,43,45,47,49,51,53,55,57,59,61,63,65,67,69,71,73,75,77,79,81,83,85,87,-1,89,91,93,95,97,99,101,103,105,107,109,111,113,115,117,-1,-1,-1,-1,-1,-1,-1,-1,-1,-1,-1,-1,-1,-1,-1,-1,-1,-1,-1,-1,-1,-1,-1,-1,-1,-1,-1,-1,-1,-1,-1,-1,-1,-1,-1,-1,-1,-1,-1,-1,-1,-1,-1,-1,-1,-1,-1,-1,-1,-1,-1,-1,-1,-1,-1,-1,-1,-1],"loss_changes":[3.0004007E1,6.0041687E1,1.004147E2,6.831534E1,2.7060127E1,2.1308235E1,3.0477331E1,6.0775757E1,4.534404E1,1.0381134E1,2.6369423E1,7.903679E0,1.4524715E1,6.2565872E1,1.5111952E1,1.4764566E2,4.579603E1,1.902623E1,3.7090584E1,0E0,7.6681137E0,2.5397984E1,8.284676E0,9.020723E0,8.615799E0,1.615924E1,1.5937046E1,4.1235153E1,7.717575E0,7.797145E0,2.0098913E1,1.1408672E2,3.8830322E1,2.337069E1,3.8474342E1,2.1255707E1,6.6716843E0,1.3095641E1,1.4481869E1,9.186289E0,5.635315E0,4.042553E0,2.1238237E1,6.9259796E0,6.413023E0,0E0,6.3077984E0,5.229866E0,9.898748E0,9.167305E0,5.8106766E0,8.609791E0,1.0460375E1,4.2564056E1,1.0468426E1,5.0626526E0,2.7399109E1,4.639629E0,1.9210606E0,1.5087897E1,1.2155338E1,0E0,0E0,0E0,0E0,0E0,0E0,0E0,0E0,0E0,0E0,0E0,0E0,0E0,0E0,0E0,0E0,0E0,0E0,0E0,0E0,0E0,0E0,0E0,0E0,0E0,0E0,0E0,0E0,0E0,0E0,0E0,0E0,0E0,0E0,0E0,0E0,0E0,0E0,0E0,0E0,0E0,0E0,0E0,0E0,0E0,0E0,0E0,0E0,0E0,0E0,0E0,0E0,0E0,0E0,0E0,0E0,0E0,0E0],"parents":[2147483647,0,0,1,1,2,2,3,3,4,4,5,5,6,6,7,7,8,8,9,9,10,10,11,11,12,12,13,13,14,14,15,15,16,16,17,17,18,18,20,20,21,21,22,22,23,23,24,24,25,25,26,26,27,27,28,28,29,29,30,30,31,31,32,32,33,33,34,34,35,35,36,36,37,37,38,38,39,39,40,40,41,41,42,42,43,43,44,44,46,46,47,47,48,48,49,49,50,50,51,51,52,52,53,53,54,54,55,55,56,56,57,57,58,58,59,59,60,60],"right_children":[2,4,6,8,10,12,14,16,18,20,22,24,26,28,30,32,34,36,38,-1,40,42,44,46,48,50,52,54,56,58,60,62,64,66,68,70,72,74,76,78,80,82,84,86,88,-1,90,92,94,96,98,100,102,104,106,108,110,112,114,116,118,-1,-1,-1,-1,-1,-1,-1,-1,-1,-1,-1,-1,-1,-1,-1,-1,-1,-1,-1,-1,-1,-1,-1,-1,-1,-1,-1,-1,-1,-1,-1,-1,-1,-1,-1,-1,-1,-1,-1,-1,-1,-1,-1,-1,-1,-1,-1,-1,-1,-1,-1,-1,-1,-1,-1,-1,-1,-1],"split_conditions":[5.7507715E4,5.63553E4,5.811524E4,5.469139E4,5.6673992E4,5.725293E4,6.201585E4,4.997706E4,5.467599E4,9.050442E-3,5.779217E4,5.7511766E4,5.6873953E4,6.208727E4,6.003654E4,4.889417E4,4.99852E4,5.4020938E4,5.616536E4,-5.2940827E-2,2.2812266E-2,-8.166121E1,8.913247E1,1.580531E-2,7.5072075E1,5.778922E4,5.7479297E4,6.1487316E4,6.260095E4,6.126187E4,2.3604316E-1,4.834499E4,5.02246E4,4.788764E4,5.467599E4,5.640742E1,5.799867E4,5.430501E4,4.100531E1,5.6392453E4,2.4903964E2,1.2278945E-2,3.801492E-2,5.799867E4,5.856772E4,5.082084E-2,5.7742824E4,1.4136412E1,3.9596057E-1,5.748749E4,-7.322688E1,5.8403668E4,2.0522559E2,6.066734E4,6.105054E4,7.945117E-3,6.283106E4,5.98435E4,6.1475E4,1.3149833E-2,1E0,2.6526698E-4,3.1471282E-2,-2.516155E-2,-6.958839E-2,-5.1480122E-2,4.7001626E-2,1.5595123E-3,3.5492577E-2,2.168887E-3,-6.8858325E-2,-6.0144722E-2,6.73829E-3,5.287562E-2,4.224898E-3,-6.084559E-3,-4.398894E-2,7.892632E-3,4.0186882E-2,-3.2962304E-2,5.0393738E-2,-1.5101278E-2,6.4432554E-2,-3.499268E-3,-7.592552E-2,4.9164172E-2,4.402814E-3,-7.450664E-2,4.1154247E-2,-7.5358815E-2,3.9651976E-3,-2.7839387E-2,-7.318861E-2,-4.573041E-2,4.224369E-2,3.4795932E-2,-3.6920093E-2,-1.1440916E-2,-8.2333535E-2,5.215786E-2,-5.3845048E-2,1.5463843E-2,-2.8810887E-2,-4.5848223E-3,2.769806E-2,-7.1073435E-2,-2.5203023E-2,1.8750152E-3,5.8756858E-2,-4.2398334E-2,4.4515427E-2,4.0403787E-2,-4.1730434E-2,7.57805E-2,4.6069394E-3,-1.051773E-2,2.3484647E-2,-1.3843052E-2,-3.8383447E-2],"split_indices":[0,19,19,17,0,19,3,19,19,14,19,23,18,19,13,25,12,13,24,0,14,9,6,14,5,0,17,23,11,11,30,19,25,20,19,5,3,23,6,3,10,14,14,3,19,0,1,5,30,16,9,25,10,19,19,14,19,25,16,14,26,0,0,0,0,0,0,0,0,0,0,0,0,0,0,0,0,0,0,0,0,0,0,0,0,0,0,0,0,0,0,0,0,0,0,0,0,0,0,0,0,0,0,0,0,0,0,0,0,0,0,0,0,0,0,0,0,0,0],"split_type":[0,0,0,0,0,0,0,0,0,0,0,0,0,0,0,0,0,0,0,0,0,0,0,0,0,0,0,0,0,0,0,0,0,0,0,0,0,0,0,0,0,0,0,0,0,0,0,0,0,0,0,0,0,0,0,0,0,0,0,0,0,0,0,0,0,0,0,0,0,0,0,0,0,0,0,0,0,0,0,0,0,0,0,0,0,0,0,0,0,0,0,0,0,0,0,0,0,0,0,0,0,0,0,0,0,0,0,0,0,0,0,0,0,0,0,0,0,0,0],"sum_hessian":[2.356447E4,2.2253934E4,1.3105381E3,2.1866744E4,3.8718878E2,2.3924522E2,1.0712928E3,2.1487283E4,3.7946063E2,1.6907349E2,2.181153E2,9.43058E1,1.4493944E2,6.9566547E2,3.7562744E2,2.0872684E4,6.145997E2,1.3847827E2,2.4098238E2,2.4525175E0,1.6662097E2,1.5803621E2,6.0079086E1,1.1816104E1,8.248969E1,4.225689E1,1.0268255E2,5.8991785E2,1.05747635E2,1.3196359E1,3.6243106E2,2.0570604E4,3.0207977E2,1.2960385E2,4.8499582E2,5.017844E1,8.829983E1,1.3457048E2,1.06411896E2,9.0078064E1,7.654291E1,1.53801565E1,1.4265605E2,5.683221E1,3.2468724E0,2.8955755E0,8.920528E0,6.8094185E1,1.4395512E1,1.6803177E1,2.545371E1,1.261946E1,9.006309E1,5.245659E2,6.535192E1,5.3331264E1,5.241637E1,5.1281676E0,8.068192E0,1.5138777E2,2.1104329E2,2.0274426E4,2.9617926E2,2.4036111E2,6.1718643E1,5.532754E0,1.2407109E2,3.78791E2,1.0620482E2,3.6386585E1,1.3791857E1,8.4600914E1,3.6989102E0,1.4671309E1,1.1989917E2,4.1311394E1,6.51005E1,3.9418865E1,5.0659195E1,1.4363779E0,7.510653E1,1.410319E0,1.3969837E1,1.3268672E2,9.96933E0,4.598658E1,1.08456335E1,2.1058598E0,1.1410128E0,4.471685E0,4.448844E0,8.973633E0,5.912055E1,1.0902334E1,3.493177E0,6.3299026E0,1.0473274E1,3.7172241E0,2.1736486E1,1.1184664E1,1.434796E0,1.5534643E1,7.452844E1,3.8696744E2,1.3759846E2,1.6832558E1,4.8519363E1,4.3164754E0,4.901479E1,1.0654144E1,4.1762226E1,1.9528644E0,3.175303E0,6.8362226E0,1.2319684E0,1.0531954E2,4.6068233E1,1.2539748E2,8.564582E1],"tree_param":{"num_deleted":"0","num_feature":"34","num_nodes":"119","size_leaf_vector":"1"}},{"base_weights":[-9.893071E-5,-8.559251E-3,3.1147075E-1,2.5854832E-1,-1.4958447E-2,4.9514303E-1,2.2683296E-1,1.432526E-1,1.172079E0,-7.5591207E-1,-8.224554E-3,4.528925E-2,5.6524706E-1,-1.626765E-1,3.5935444E-1,-1.5645795E0,1.7830937E-1,5.051155E-1,1.281335E0,-4.3257856E-1,-1.2927289E0,4.439392E-1,-1.3949839E-2,1.0148103E0,-2.025179E-1,6.205127E-1,-1.0701137E-1,-5.7437334E-2,-1.6137255E0,4.8882756E-1,5.4417554E-2,2.399817E-2,-9.561993E-2,-1.2644586E-1,3.589552E-1,7.0755325E-2,-1.155523E0,3.4971684E-1,1.3548899E0,-7.0080185E-1,3.3563992E-1,-5.880433E-1,-1.4428953E0,1.6150412E-1,9.079397E-1,-5.769757E-1,-8.983695E-3,6.30653E-2,7.977719E-3,-8.6895436E-1,3.4641936E-1,6.9095755E-1,2.1174692E-1,-7.6647824E-1,6.569275E-1,4.476874E-1,-2.821716E-1,-8.931271E-2,-2.0379951E-2,3.8151592E-1,9.747684E-1,-1.4138684E0,1.9715422E-1,2.650142E-2,-4.1895404E-2,3.2908943E-2,-2.8824483E-3,-7.841943E-2,-1.1542696E-2,-4.127731E-2,5.866466E-2,6.946996E-2,1.5538145E-3,2.878812E-3,-4.4089425E-2,4.6747785E-2,-3.6883716E-2,2.2934244E-3,-6.9465384E-2,-7.488102E-2,1.5524799E-2,2.2763656E-2,-3.1437848E-2,2.8006865E-2,6.917374E-2,-2.5165359E-2,-9.677028E-2,4.1257825E-2,-6.3786015E-4,-6.773168E-2,3.711894E-2,-4.2489227E-2,2.967672E-2,2.9209975E-2,6.2045254E-2,-1.6649773E-2,2.8991163E-2,-5.650531E-2,2.6019597E-2,5.7760365E-2,4.567973E-3,1.3531925E-2,5.903268E-2,1.2636201E-2,-4.309712E-2,8.843694E-3,3.406684E-2,5.751716E-2,-2.3457242E-2,-2.8252404E-3,-1.0390661E-1,1.2552246E-2,-5.0503045E-2],"categories":[],"categories_nodes":[],"categories_segments":[],"categories_sizes":[],"default_left":[0,0,0,0,0,0,0,0,0,0,0,0,0,0,0,0,0,0,0,0,0,0,0,0,0,0,0,0,0,0,0,0,0,0,0,0,0,0,0,0,0,0,0,0,0,0,0,0,0,0,0,0,0,0,0,0,0,0,0,0,0,0,0,0,0,0,0,0,0,0,0,0,0,0,0,0,0,0,0,0,0,0,0,0,0,0,0,0,0,0,0,0,0,0,0,0,0,0,0,0,0,0,0,0,0,0,0,0,0,0,0,0,0],"id":10,"left_children":[1,3,5,7,9,11,13,15,17,19,21,23,25,27,29,31,33,35,37,39,41,43,45,47,49,51,53,55,57,59,61,-1,-1,63,65,-1,67,69,71,73,75,77,79,81,83,85,87,-1,-1,89,91,93,95,97,99,101,103,-1,-1,105,107,109,111,-1,-1,-1,-1,-1,-1,-1,-1,-1,-1,-1,-1,-1,-1,-1,-1,-1,-1,-1,-1,-1,-1,-1,-1,-1,-1,-1,-1,-1,-1,-1,-1,-1,-1,-1,-1,-1,-1,-1,-1,-1,-1,-1,-1,-1,-1,-1,-1,-1,-1],"loss_changes":[6.2093445E1,3.920329E1,9.568409E0,5.6352585E1,1.1174742E2,6.142742E0,2.215818E1,2.8874939E1,3.7248E0,3.4451706E1,5.7469154E1,6.802476E0,6.3502502E0,1.6609528E1,1.2597984E1,7.822502E0,2.586053E1,1.6891382E1,3.0142288E0,2.6484287E1,7.1219482E0,3.6229515E1,6.1285942E1,1.0122023E0,8.606247E0,4.3582764E0,7.406033E0,1.182046E1,8.033066E-1,1.1326492E1,2.048806E1,0E0,0E0,8.2296005E1,3.6770367E1,0E0,1.2124419E0,5.878608E0,2.0961533E0,1.3055222E1,2.2331034E1,7.641527E0,6.356743E0,4.0626007E1,1.6560127E1,1.8204212E1,6.840808E1,0E0,0E0,9.25321E0,4.395512E0,7.083435E0,5.093052E0,4.245004E0,1.8350775E0,3.8469472E0,2.251788E1,0E0,0E0,1.1254774E1,1.0664051E1,7.696205E0,6.028257E0,0E0,0E0,0E0,0E0,0E0,0E0,0E0,0E0,0E0,0E0,0E0,0E0,0E0,0E0,0E0,0E0,0E0,0E0,0E0,0E0,0E0,0E0,0E0,0E0,0E0,0E0,0E0,0E0,0E0,0E0,0E0,0E0,0E0,0E0,0E0,0E0,0E0,0E0,0E0,0E0,0E0,0E0,0E0,0E0,0E0,0E0,0E0,0E0,0E0,0E0],"parents":[2147483647,0,0,1,1,2,2,3,3,4,4,5,5,6,6,7,7,8,8,9,9,10,10,11,11,12,12,13,13,14,14,15,15,16,16,17,17,18,18,19,19,20,20,21,21,22,22,23,23,24,24,25,25,26,26,27,27,28,28,29,29,30,30,33,33,34,34,36,36,37,37,38,38,39,39,40,40,41,41,42,42,43,43,44,44,45,45,46,46,49,49,50,50,51,51,52,52,53,53,54,54,55,55,56,56,59,59,60,60,61,61,62,62],"right_children":[2,4,6,8,10,12,14,16,18,20,22,24,26,28,30,32,34,36,38,40,42,44,46,48,50,52,54,56,58,60,62,-1,-1,64,66,-1,68,70,72,74,76,78,80,82,84,86,88,-1,-1,90,92,94,96,98,100,102,104,-1,-1,106,108,110,112,-1,-1,-1,-1,-1,-1,-1,-1,-1,-1,-1,-1,-1,-1,-1,-1,-1,-1,-1,-1,-1,-1,-1,-1,-1,-1,-1,-1,-1,-1,-1,-1,-1,-1,-1,-1,-1,-1,-1,-1,-1,-1,-1,-1,-1,-1,-1,-1,-1,-1],"split_conditions":[7.3358246E1,6.852515E3,4.9266205E1,6.85399E3,7.07774E3,1.4632766E-1,2.00159E4,1.7156346E-1,2.6762974E1,7.1372583E3,7.241877E3,6.8559074E1,9.088484E1,1.9675535E4,4.48405E4,2.3184746E1,6.15452E3,2.2240755E1,2.10303E-1,6.94119E3,1.9164597E1,7.19743E3,7.26782E3,2.178259E1,8.0206924E1,8.234436E1,4.7343575E1,3.6266305E-2,8.985624E1,8.30304E1,4.834499E4,2.399817E-2,-9.561993E-2,5.36882E3,6.645966E3,7.0755325E-2,1.06741255E-2,6.7745874E3,6.9423384E3,2.5933838E1,7.0636064E3,7.271615E3,4.7185223E1,7.161348E3,1.6532107E-1,7.43395E3,7.311568E3,6.30653E-2,7.977719E-3,4.0381474E1,1E0,1.5547613E4,1.1982906E2,1.0260638E4,1.8761957E4,3.378094E-2,9.3788545E3,-8.931271E-2,-2.0379951E-2,3.863734E4,7.298536E-1,7.727964E1,6.5057945E4,2.650142E-2,-4.1895404E-2,3.2908943E-2,-2.8824483E-3,-7.841943E-2,-1.1542696E-2,-4.127731E-2,5.866466E-2,6.946996E-2,1.5538145E-3,2.878812E-3,-4.4089425E-2,4.6747785E-2,-3.6883716E-2,2.2934244E-3,-6.9465384E-2,-7.488102E-2,1.5524799E-2,2.2763656E-2,-3.1437848E-2,2.8006865E-2,6.917374E-2,-2.5165359E-2,-9.677028E-2,4.1257825E-2,-6.3786015E-4,-6.773168E-2,3.711894E-2,-4.2489227E-2,2.967672E-2,2.9209975E-2,6.2045254E-2,-1.6649773E-2,2.8991163E-2,-5.650531E-2,2.6019597E-2,5.7760365E-2,4.567973E-3,1.3531925E-2,5.903268E-2,1.2636201E-2,-4.309712E-2,8.843694E-3,3.406684E-2,5.751716E-2,-2.3457242E-2,-2.8252404E-3,-1.0390661E-1,1.2552246E-2,-5.0503045E-2],"split_indices":[4,2,8,19,19,30,19,30,10,11,11,5,6,11,17,6,19,10,30,19,5,19,19,7,5,10,10,14,5,4,19,0,0,12,0,0,14,2,0,5,25,11,7,2,30,16,0,0,0,7,27,0,10,11,0,14,20,0,0,19,30,9,22,0,0,0,0,0,0,0,0,0,0,0,0,0,0,0,0,0,0,0,0,0,0,0,0,0,0,0,0,0,0,0,0,0,0,0,0,0,0,0,0,0,0,0,0,0,0,0,0,0,0],"split_type":[0,0,0,0,0,0,0,0,0,0,0,0,0,0,0,0,0,0,0,0,0,0,0,0,0,0,0,0,0,0,0,0,0,0,0,0,0,0,0,0,0,0,0,0,0,0,0,0,0,0,0,0,0,0,0,0,0,0,0,0,0,0,0,0,0,0,0,0,0,0,0,0,0,0,0,0,0,0,0,0,0,0,0,0,0,0,0,0,0,0,0,0,0,0,0,0,0,0,0,0,0,0,0,0,0,0,0,0,0,0,0,0,0],"sum_hessian":[2.355411E4,2.2932379E4,6.2173016E2,5.3562335E2,2.2396756E4,1.9459335E2,4.2713678E2,4.7662576E2,5.899762E1,2.007097E2,2.2196045E4,2.645824E1,1.6813512E2,1.0837412E2,3.1876266E2,8.709352E0,4.679164E2,9.095643E0,4.9901974E1,1.2638923E2,7.432048E1,2.765746E2,2.191947E4,4.7559385E0,2.1702303E1,1.55434E2,1.2701104E1,1.0201494E2,6.3591795E0,2.233342E2,9.542848E1,1.2109933E0,7.498358E0,1.7425044E2,2.9366595E2,5.971341E0,3.1243014E0,4.072739E0,4.5829235E1,9.3745705E1,3.2643528E1,1.3918962E1,6.0401516E1,1.7276273E2,1.0381185E2,1.906422E2,2.1728828E4,3.3233395E0,1.4325991E0,9.538782E0,1.216352E1,1.3199606E2,2.343794E1,6.814872E0,5.8862324E0,3.1106419E1,7.090852E1,5.142582E0,1.2165972E0,1.8439816E2,3.893603E1,7.665945E0,8.7762535E1,9.076009E1,8.349035E1,1.7057298E2,1.2309299E2,1.6786298E0,1.4456717E0,1.6770943E0,2.3956451E0,4.4616627E1,1.212611E0,1.8193289E1,7.5552414E1,2.1029827E1,1.16137E1,8.297353E0,5.6216083E0,5.8714844E1,1.6866732E0,1.26253555E2,4.650918E1,6.1216507E1,4.2595345E1,1.8213538E2,8.506814E0,9.687456E1,2.1631955E4,7.4519615E0,2.0868208E0,1.6649954E0,1.0498525E1,1.12265E2,1.9731062E1,9.489325E0,1.3948616E1,5.4084396E0,1.4064323E0,2.5750165E0,3.3112156E0,2.6157322E1,4.9490967E0,3.7175014E1,3.373351E1,1.1053957E2,7.385859E1,3.4896103E1,4.03993E0,2.8753955E0,4.7905493E0,8.4770386E1,2.9921489E0],"tree_param":{"num_deleted":"0","num_feature":"34","num_nodes":"113","size_leaf_vector":"1"}},{"base_weights":[4.232039E-3,-3.8911353E-3,2.655262E-1,-2.503469E-1,1.3098196E-3,-7.192892E-1,2.7660346E-1,-2.989522E-1,5.95132E-1,1.7465149E-1,-8.203389E-3,5.3354178E-2,-7.975777E-2,2.8654042E-1,-8.13055E-1,-2.0701201E-1,-6.2418956E-1,1.1692748E0,5.3432073E-2,2.9478925E-1,1.0108898E-1,5.5619637E-3,-1.09455705E-1,-4.224698E-1,3.405015E-2,3.4557265E-1,1.2215217E-1,-7.450001E-2,-7.3078185E-2,6.299342E-1,-2.4255659E-1,5.9897788E-2,-7.1241575E-1,6.031349E-1,7.356896E-2,-1.3518355E0,6.124564E-1,-3.4200945E-1,3.3040735E-1,-1.6336132E0,1.3280973E-1,-1.4815074E-3,2.6958498E-1,-9.6678436E-1,-9.270943E-2,8.183524E-3,-4.393787E-2,6.787822E-1,2.6301742E-1,-8.392084E-1,2.24397E-1,-4.632585E-2,3.6672916E-2,-1.3256172E-2,4.6293836E-2,-7.554189E-2,-1.1245953E-2,-3.7607964E-2,5.334037E-2,5.3768653E-2,-1.9158272E-2,-1.9539928E-2,-7.981552E-2,-1.8531743E-2,5.5535227E-2,-4.579051E-2,5.832426E-2,3.6552336E-2,1.3728953E-2,2.9957194E-2,-9.8169185E-2,5.4777376E-3,4.037906E-2,1.9602591E-2,-2.562658E-4,3.434023E-2,6.526608E-3,1.8999076E-2,-5.588422E-2,-3.2800365E-2,-4.027191E-3,4.022469E-2,-1.6542458E-3,-5.0775963E-3,1.8621437E-2,-2.7301786E-2,-7.635733E-2,-1.8533947E-2,1.5996955E-2],"categories":[],"categories_nodes":[],"categories_segments":[],"categories_sizes":[],"default_left":[0,0,0,0,0,0,0,0,0,0,0,0,0,0,0,0,0,0,0,0,0,0,0,0,0,0,0,0,0,0,0,0,0,0,0,0,0,0,0,0,0,0,0,0,0,0,0,0,0,0,0,0,0,0,0,0,0,0,0,0,0,0,0,0,0,0,0,0,0,0,0,0,0,0,0,0,0,0,0,0,0,0,0,0,0,0,0,0,0],"id":11,"left_children":[1,3,5,7,9,11,13,15,17,19,21,23,-1,25,27,29,31,33,35,37,39,41,43,45,-1,47,49,51,-1,53,55,-1,57,59,-1,61,63,65,67,69,71,73,75,77,79,-1,-1,81,83,85,87,-1,-1,-1,-1,-1,-1,-1,-1,-1,-1,-1,-1,-1,-1,-1,-1,-1,-1,-1,-1,-1,-1,-1,-1,-1,-1,-1,-1,-1,-1,-1,-1,-1,-1,-1,-1,-1,-1],"loss_changes":[5.0152824E1,2.9375187E1,7.9708595E0,1.9641357E1,3.7012653E1,5.635682E0,7.8690605E0,1.3283234E1,8.049384E0,1.0290131E1,2.9656548E1,1.8781463E0,0E0,6.7467613E0,3.0683599E0,1.0600169E1,1.666526E1,1.2699738E0,1.2193755E1,1.0159813E1,4.0153454E1,3.4834965E1,3.6471195E1,1.1190032E0,0E0,1.39661255E1,1.8509642E1,3.539984E0,0E0,4.1088305E0,7.21208E0,0E0,7.4805717E0,3.2456322E0,0E0,4.168291E-1,5.8187118E0,2.1802782E1,9.1933365E0,1.0827999E1,1.1110224E1,2.6166273E1,2.8148884E1,1.031834E1,1.707147E1,0E0,0E0,9.10696E0,1.6540695E1,2.822463E0,9.742057E0,0E0,0E0,0E0,0E0,0E0,0E0,0E0,0E0,0E0,0E0,0E0,0E0,0E0,0E0,0E0,0E0,0E0,0E0,0E0,0E0,0E0,0E0,0E0,0E0,0E0,0E0,0E0,0E0,0E0,0E0,0E0,0E0,0E0,0E0,0E0,0E0,0E0,0E0],"parents":[2147483647,0,0,1,1,2,2,3,3,4,4,5,5,6,6,7,7,8,8,9,9,10,10,11,11,13,13,14,14,15,15,16,16,17,17,18,18,19,19,20,20,21,21,22,22,23,23,25,25,26,26,27,27,29,29,30,30,32,32,33,33,35,35,36,36,37,37,38,38,39,39,40,40,41,41,42,42,43,43,44,44,47,47,48,48,49,49,50,50],"right_children":[2,4,6,8,10,12,14,16,18,20,22,24,-1,26,28,30,32,34,36,38,40,42,44,46,-1,48,50,52,-1,54,56,-1,58,60,-1,62,64,66,68,70,72,74,76,78,80,-1,-1,82,84,86,88,-1,-1,-1,-1,-1,-1,-1,-1,-1,-1,-1,-1,-1,-1,-1,-1,-1,-1,-1,-1,-1,-1,-1,-1,-1,-1,-1,-1,-1,-1,-1,-1,-1,-1,-1,-1,-1,-1],"split_conditions":[7.2603546E1,2.5877813E1,1.9815477E1,4.7672018E2,1.587235E1,8.743556E-3,6.36565E4,5.053276E-1,5.1488285E4,2.1828479E4,4.9150355E4,9.100609E-2,-7.975777E-2,8.9398315E1,2.7444315E2,1.3266528E-1,6.358824E3,4.0383844E4,5.3777715E4,3.6827987E-3,2.18344E4,2.3237349E2,-6.0158795E2,9.549213E0,3.405015E-2,9.329116E3,9.21045E3,2.677363E-1,-7.3078185E-2,9.188335E3,1.3783763E-1,5.9897788E-2,5.3029547E0,3.48868E4,7.356896E-2,1.7571938E1,4.3944573E-1,1.691157E4,2.1193556E1,3.2133153E-1,9.282717E1,6.15559E3,5.37775E1,2.983742E1,4.9254633E4,8.183524E-3,-4.393787E-2,8.554693E1,1.5544525E4,5.0824566E1,2.4683917E-2,-4.632585E-2,3.6672916E-2,-1.3256172E-2,4.6293836E-2,-7.554189E-2,-1.1245953E-2,-3.7607964E-2,5.334037E-2,5.3768653E-2,-1.9158272E-2,-1.9539928E-2,-7.981552E-2,-1.8531743E-2,5.5535227E-2,-4.579051E-2,5.832426E-2,3.6552336E-2,1.3728953E-2,2.9957194E-2,-9.8169185E-2,5.4777376E-3,4.037906E-2,1.9602591E-2,-2.562658E-4,3.434023E-2,6.526608E-3,1.8999076E-2,-5.588422E-2,-3.2800365E-2,-4.027191E-3,4.022469E-2,-1.6542458E-3,-5.0775963E-3,1.8621437E-2,-2.7301786E-2,-7.635733E-2,-1.8533947E-2,1.5996955E-2],"split_indices":[4,4,10,10,5,14,18,30,24,11,18,30,0,5,8,30,3,3,0,14,21,8,8,7,0,24,22,30,0,18,30,0,8,13,0,6,30,0,10,30,7,21,6,4,2,0,0,6,1,8,14,0,0,0,0,0,0,0,0,0,0,0,0,0,0,0,0,0,0,0,0,0,0,0,0,0,0,0,0,0,0,0,0,0,0,0,0,0,0],"split_type":[0,0,0,0,0,0,0,0,0,0,0,0,0,0,0,0,0,0,0,0,0,0,0,0,0,0,0,0,0,0,0,0,0,0,0,0,0,0,0,0,0,0,0,0,0,0,0,0,0,0,0,0,0,0,0,0,0,0,0,0,0,0,0,0,0,0,0,0,0,0,0,0,0,0,0,0,0,0,0,0,0,0,0,0,0,0,0,0,0],"sum_hessian":[2.3627215E4,2.291579E4,7.1142633E2,4.7262338E2,2.2443166E4,7.2020235E0,7.042243E2,4.4754132E2,2.508206E1,1.1667251E3,2.1276441E4,4.325435E0,2.8765886E0,6.985907E2,5.633645E0,3.501852E2,9.73561E1,1.1613981E1,1.346808E1,4.4195084E2,7.247743E2,1.87309E4,2.5455396E3,2.6462214E0,1.6792136E0,5.131979E2,1.853928E2,3.1552095E0,2.4784355E0,1.3585009E1,3.366002E2,3.915273E0,9.344083E1,5.0836787E0,6.5303025E0,3.4293137E0,1.0038766E1,2.295459E1,4.1899625E2,1.2108363E1,7.126659E2,1.824516E4,4.857407E2,4.7682716E1,2.4978567E3,1.4390013E0,1.2072201E0,1.0046771E2,4.1273016E2,1.7128994E1,1.6826381E2,1.4643104E0,1.690899E0,3.4015121E0,1.0183497E1,3.4555812E0,3.3314462E2,9.196383E1,1.4769981E0,3.376641E0,1.7070374E0,1.2224305E0,2.206883E0,3.4626834E0,6.576082E0,1.6913816E1,6.040774E0,4.9766125E1,3.692301E2,1.4530993E0,1.0655264E1,6.900469E2,2.2619062E1,1.6640802E2,1.8078752E4,1.2043714E2,3.6530356E2,4.651398E0,4.303132E1,5.1687195E1,2.4461697E3,8.5278E1,1.5189714E1,9.528915E1,3.1744104E2,1.3268289E1,3.8607059E0,2.2879711E1,1.453841E2],"tree_param":{"num_deleted":"0","num_feature":"34","num_nodes":"89","size_leaf_vector":"1"}},{"base_weights":[-4.9001644E-3,3.0726276E-3,-1.4131433E-1,2.7345082E-2,-5.6650154E-2,5.838042E-1,-1.7398858E-1,1.5713828E-2,3.9561182E-1,-2.6671892E-1,-3.5791904E-2,7.6346767E-1,-1.3753711E0,-4.1745234E-1,-1.7959181E-2,1.9183867E-2,-8.5776806E-1,4.5118767E-1,-4.5340934E-1,-1.280478E0,-1.862514E-1,4.3959358E-1,-4.6918392E-2,8.4683776E-1,-6.1858088E-2,-2.5360389E-2,-8.213983E-2,-3.6846694E-1,-1.1334491E0,4.8846966E-1,-8.557243E-2,1.3939328E-2,3.7698418E-1,2.3391186E-1,-1.0878513E0,3.9425838E-1,1.0017517E0,-7.826004E-1,1.0608845E0,-1.4944148E0,5.8057123E-1,-1.2828287E-1,-1.1339186E0,-7.244344E-1,5.560629E-1,-7.8950333E-4,-1.2529457E-1,1.0796182E0,1.263233E-1,6.496989E-1,-4.0153772E-1,5.4838877E-2,-1.3028203E0,5.9754544E-1,-1.2495581E0,-1.5422745E-1,2.768996E-1,4.7429113E-4,1.868898E-2,4.3756567E-2,7.6660933E-3,-1.6003173E-2,5.5703353E-2,-2.3837546E-2,-7.655846E-2,2.3781156E-2,-2.7675251E-3,1.9669116E-2,6.2651195E-2,-6.5058835E-2,1.6972335E-2,6.619867E-2,1.5922163E-3,9.177613E-3,-7.825234E-2,6.301648E-2,-4.4144396E-2,1.4303445E-3,-2.2871215E-2,-6.8796E-3,-8.521862E-2,4.410986E-2,-7.324619E-2,-1.1887999E-2,3.3855166E-2,-4.3367017E-2,3.036989E-4,-1.0387201E-2,-2.4261125E-3,6.718457E-2,1.8038807E-2,2.670224E-2,-6.886992E-2,-4.772631E-2,5.2620094E-2,-2.3595655E-2,7.992334E-3,2.4230776E-2,-6.9915846E-2,6.971821E-2,2.3364503E-2,1.0536826E-2,-9.062963E-2,4.7429195E-3,-1.4531043E-2,-4.5276064E-2,2.3715267E-2],"categories":[],"categories_nodes":[],"categories_segments":[],"categories_sizes":[],"default_left":[0,0,0,0,0,0,0,0,0,0,0,0,0,0,0,0,0,0,0,0,0,0,0,0,0,0,0,0,0,0,0,0,0,0,0,0,0,0,0,0,0,0,0,0,0,0,0,0,0,0,0,0,0,0,0,0,0,0,0,0,0,0,0,0,0,0,0,0,0,0,0,0,0,0,0,0,0,0,0,0,0,0,0,0,0,0,0,0,0,0,0,0,0,0,0,0,0,0,0,0,0,0,0,0,0,0,0],"id":12,"left_children":[1,3,5,7,9,11,13,15,17,19,21,23,25,27,29,31,33,35,37,39,41,43,45,47,-1,-1,-1,49,51,53,55,57,59,61,63,65,67,69,71,73,75,77,79,81,83,85,87,89,91,93,95,-1,97,99,101,103,105,-1,-1,-1,-1,-1,-1,-1,-1,-1,-1,-1,-1,-1,-1,-1,-1,-1,-1,-1,-1,-1,-1,-1,-1,-1,-1,-1,-1,-1,-1,-1,-1,-1,-1,-1,-1,-1,-1,-1,-1,-1,-1,-1,-1,-1,-1,-1,-1,-1,-1],"loss_changes":[2.5653093E1,3.2306328E1,3.0959496E1,6.786817E1,2.8208918E1,2.0897842E1,4.7364273E1,4.6578278E1,2.3094467E1,4.7200645E1,3.1014114E1,9.769859E0,3.4931278E-1,1.6663376E1,2.610039E1,2.8708878E1,1.5527893E1,1.3891495E1,1.5935786E1,1.7826843E1,2.9516464E1,1.8583845E1,2.0703423E1,8.383068E0,0E0,0E0,0E0,1.5659012E1,1.3026817E1,1.7768076E1,1.6771793E1,2.416607E1,2.4490454E1,5.918911E0,1.2923824E1,1.5198509E1,5.9374733E0,1.5259991E1,1.5377126E0,4.8482513E0,6.198049E0,2.6346355E1,1.7382877E1,1.6320448E1,1.1928726E1,2.145116E1,1.3419563E1,6.7778625E0,9.034472E0,1.0545236E1,1.7598488E1,0E0,5.6266823E0,8.187258E0,5.007327E0,1.9250977E1,2.5500576E1,0E0,0E0,0E0,0E0,0E0,0E0,0E0,0E0,0E0,0E0,0E0,0E0,0E0,0E0,0E0,0E0,0E0,0E0,0E0,0E0,0E0,0E0,0E0,0E0,0E0,0E0,0E0,0E0,0E0,0E0,0E0,0E0,0E0,0E0,0E0,0E0,0E0,0E0,0E0,0E0,0E0,0E0,0E0,0E0,0E0,0E0,0E0,0E0,0E0,0E0],"parents":[2147483647,0,0,1,1,2,2,3,3,4,4,5,5,6,6,7,7,8,8,9,9,10,10,11,11,12,12,13,13,14,14,15,15,16,16,17,17,18,18,19,19,20,20,21,21,22,22,23,23,27,27,28,28,29,29,30,30,31,31,32,32,33,33,34,34,35,35,36,36,37,37,38,38,39,39,40,40,41,41,42,42,43,43,44,44,45,45,46,46,47,47,48,48,49,49,50,50,52,52,53,53,54,54,55,55,56,56],"right_children":[2,4,6,8,10,12,14,16,18,20,22,24,26,28,30,32,34,36,38,40,42,44,46,48,-1,-1,-1,50,52,54,56,58,60,62,64,66,68,70,72,74,76,78,80,82,84,86,88,90,92,94,96,-1,98,100,102,104,106,-1,-1,-1,-1,-1,-1,-1,-1,-1,-1,-1,-1,-1,-1,-1,-1,-1,-1,-1,-1,-1,-1,-1,-1,-1,-1,-1,-1,-1,-1,-1,-1,-1,-1,-1,-1,-1,-1,-1,-1,-1,-1,-1,-1,-1,-1,-1,-1,-1,-1],"split_conditions":[6.4782214E-1,3.8314375E4,5.395815E3,3.7649496E4,4.0223477E4,8.746138E1,2.9636277E4,3.7733184E4,3.790858E2,1.123886E-1,4.016456E4,6.7871836E3,5.2031E1,2.342392E4,3.1478732E4,2.0134354E2,2.960686E-1,1.9223396E2,3.9544004E4,4.4642704E1,3.9962E4,3.86315E4,1.2007149E1,3.4320328E1,-6.1858088E-2,-2.5360389E-2,-8.213983E-2,-3.4959103E2,-6.638461E1,1.4259924E2,3.1485956E2,3.162007E2,1.9693344E2,2.3049411E-1,3.1180542E1,1.0354874E2,3.7246918E4,5.825449E-1,3.863256E4,-2.492543E1,6.6805046E1,3.40651E-1,3.9755947E1,3.9678395E4,3.99759E4,-4.649734E2,4.886E4,5.431194E3,2E0,6.405582E3,1.3588257E2,5.4838877E-2,1.2133411E1,3.016554E4,2.9402334E4,3.5582895E4,3.36E4,4.7429113E-4,1.868898E-2,4.3756567E-2,7.6660933E-3,-1.6003173E-2,5.5703353E-2,-2.3837546E-2,-7.655846E-2,2.3781156E-2,-2.7675251E-3,1.9669116E-2,6.2651195E-2,-6.5058835E-2,1.6972335E-2,6.619867E-2,1.5922163E-3,9.177613E-3,-7.825234E-2,6.301648E-2,-4.4144396E-2,1.4303445E-3,-2.2871215E-2,-6.8796E-3,-8.521862E-2,4.410986E-2,-7.324619E-2,-1.1887999E-2,3.3855166E-2,-4.3367017E-2,3.036989E-4,-1.0387201E-2,-2.4261125E-3,6.718457E-2,1.8038807E-2,2.670224E-2,-6.886992E-2,-4.772631E-2,5.2620094E-2,-2.3595655E-2,7.992334E-3,2.4230776E-2,-6.9915846E-2,6.971821E-2,2.3364503E-2,1.0536826E-2,-9.062963E-2,4.7429195E-3,-1.4531043E-2,-4.5276064E-2,2.3715267E-2],"split_indices":[30,13,16,16,22,5,3,3,10,30,12,3,7,0,25,8,30,8,17,8,21,13,9,7,0,0,0,7,9,7,8,10,10,30,5,7,3,30,23,9,5,30,5,20,18,8,21,22,27,0,8,0,5,22,23,13,21,0,0,0,0,0,0,0,0,0,0,0,0,0,0,0,0,0,0,0,0,0,0,0,0,0,0,0,0,0,0,0,0,0,0,0,0,0,0,0,0,0,0,0,0,0,0,0,0,0,0],"split_type":[0,0,0,0,0,0,0,0,0,0,0,0,0,0,0,0,0,0,0,0,0,0,0,0,0,0,0,0,0,0,0,0,0,0,0,0,0,0,0,0,0,0,0,0,0,0,0,0,0,0,0,0,0,0,0,0,0,0,0,0,0,0,0,0,0,0,0,0,0,0,0,0,0,0,0,0,0,0,0,0,0,0,0,0,0,0,0,0,0,0,0,0,0,0,0,0,0,0,0,0,0,0,0,0,0,0,0],"sum_hessian":[2.3585443E4,2.2284021E4,1.301423E3,1.5844899E4,6.4391206E3,5.538702E1,1.2460359E3,1.5360791E4,4.8410904E2,5.8054254E2,5.858578E3,5.129353E1,4.0934906E0,4.8600787E2,7.600281E2,1.5300983E4,5.980741E1,4.5480658E2,2.930247E1,4.15954E1,5.3894714E2,1.3310452E2,5.7254736E3,4.979518E1,1.4983481E0,1.6461385E0,2.4473517E0,4.5630414E2,2.970373E1,8.878637E1,6.712417E2,1.508097E4,2.2001376E2,1.0407954E1,4.939946E1,4.1374112E2,4.1065453E1,2.4466837E1,4.8356333E0,3.7483494E1,4.1119084E0,5.0895013E2,2.9996967E1,1.1631906E1,1.21472626E2,3.6048325E3,2.1206414E3,3.7259243E1,1.2535939E1,1.3768267E1,4.4253586E2,1.7100987E0,2.799363E1,8.416077E1,4.6256E0,5.648325E2,1.0640916E2,1.4897618E4,1.8335161E2,6.727166E1,1.527421E2,6.7781186E0,3.6298356E0,2.164202E1,2.775744E1,3.5029172E2,6.3449398E1,1.2753292E1,2.8312159E1,1.6624056E1,7.8427815E0,3.6228027E0,1.2128308E0,1.4495108E0,3.6033985E1,2.9025238E0,1.2093849E0,3.4528052E2,1.6366962E2,1.1373597E1,1.862337E1,3.6093562E0,8.02255E0,1.5943779E1,1.0552885E2,2.7342379E1,3.5774902E3,1.02169183E3,1.0989495E3,2.6613344E1,1.0645899E1,1.0369255E1,2.1666849E0,2.4877324E0,1.1280535E1,3.9338086E2,4.915501E1,1.2130952E0,2.6780535E1,1.0461178E1,7.369959E1,1.46129E0,3.16431E0,1.9996143E2,3.6487112E2,1.47102995E1,9.169886E1],"tree_param":{"num_deleted":"0","num_feature":"34","num_nodes":"107","size_leaf_vector":"1"}},{"base_weights":[3.0036874E-3,1.1227362E-2,-1.3781059E-1,6.024527E-3,4.630646E-1,-1.0034987E0,-5.723957E-2,1.0270176E-2,-3.7838805E-1,5.178459E-1,-3.606555E-1,5.495523E-1,-1.055733E0,1.2530258E-1,-1.633136E-1,4.3410496E-3,4.771461E-1,8.0309206E-1,-4.7093633E-1,-2.9150635E-1,5.6360215E-1,-1.2487162E0,8.5674214E-1,-9.963367E-4,4.9337987E-2,-7.613046E-1,-1.310795E0,5.8724916E-1,4.1340653E-2,-1.0844916E-1,-8.3637905E-1,8.945476E-3,-8.5043895E-1,1.0785536E0,3.3731586E-1,-2.6616126E-1,1.0550278E0,-6.0428625E-1,6.777957E-2,-7.4764594E-2,2.2964142E-1,8.019822E-1,4.0162155E-1,5.5989535E-3,-1.6281911E0,-2.6012195E-2,5.958689E-2,-9.313262E-1,1.1331724E-1,-7.813035E-1,-1.5874925E0,3.242851E-4,8.639851E-1,-2.4257885E-1,3.3383226E-1,-2.1474858E-1,3.1680682E-1,-1.1559377E0,-1.8378189E-1,-1.0607167E-5,9.736269E-3,-4.77146E-2,4.923007E-3,6.514576E-2,2.3517003E-2,6.62497E-3,3.7939914E-2,3.3039503E-2,-5.0427195E-2,8.38439E-3,6.263368E-2,-6.0656767E-2,-1.849275E-2,2.8202206E-2,-3.6148917E-2,3.1227557E-2,-5.495757E-2,-5.3704042E-2,4.5088824E-2,3.7611704E-2,9.226941E-3,-4.1220593E-3,-9.420515E-2,2.3077909E-2,-5.1226255E-2,-5.611069E-2,2.4362912E-2,-1.4691971E-2,-6.19208E-2,-8.703094E-2,-3.684898E-2,1.6805043E-2,-4.6062E-2,1.4829988E-2,5.563386E-2,1.2634814E-4,-7.211887E-2,2.6891628E-2,-5.481033E-3,-6.2287166E-3,-3.2248896E-2,5.4378994E-2,-2.8305298E-3,1.8562762E-2,-6.357282E-2,2.691849E-2,-3.0698782E-2],"categories":[],"categories_nodes":[],"categories_segments":[],"categories_sizes":[],"default_left":[0,0,0,0,0,0,0,0,0,0,0,0,0,0,0,0,0,0,0,0,0,0,0,0,0,0,0,0,0,0,0,0,0,0,0,0,0,0,0,0,0,0,0,0,0,0,0,0,0,0,0,0,0,0,0,0,0,0,0,0,0,0,0,0,0,0,0,0,0,0,0,0,0,0,0,0,0,0,0,0,0,0,0,0,0,0,0,0,0,0,0,0,0,0,0,0,0,0,0,0,0,0,0,0,0,0,0],"id":13,"left_children":[1,3,5,7,9,11,13,15,17,19,21,23,25,27,29,31,33,35,37,39,41,43,45,-1,-1,47,49,51,53,55,57,59,61,63,65,67,69,71,73,-1,75,77,79,-1,81,-1,-1,83,85,87,89,91,93,95,97,99,101,103,105,-1,-1,-1,-1,-1,-1,-1,-1,-1,-1,-1,-1,-1,-1,-1,-1,-1,-1,-1,-1,-1,-1,-1,-1,-1,-1,-1,-1,-1,-1,-1,-1,-1,-1,-1,-1,-1,-1,-1,-1,-1,-1,-1,-1,-1,-1,-1,-1],"loss_changes":[2.7395096E1,5.2541508E1,9.099051E1,3.6069466E1,1.1667744E1,9.591797E0,2.316449E1,6.0503094E1,2.677613E1,9.014191E0,1.8859795E1,1.0833827E0,7.098686E0,1.7036085E1,2.78416E1,8.4958855E1,2.2685833E1,5.1046515E0,1.6169525E1,8.778992E0,8.424805E0,5.3052397E0,4.095157E0,0E0,0E0,7.9022217E0,7.0203934E0,1.0975578E1,3.1080002E1,3.1736015E1,1.1645775E1,3.6526543E1,1.1491371E1,6.380829E0,1.9222801E1,3.5657644E0,2.3669243E0,2.52529E1,1.8242235E1,0E0,6.0656004E0,1.7939518E1,1.0279434E1,0E0,2.9389553E0,0E0,0E0,6.185501E0,4.901267E0,4.3869667E0,3.4138794E0,7.3193994E0,6.149849E0,5.587745E1,1.6730408E1,2.1685984E1,4.0499897E1,7.1727676E0,6.5066576E0,0E0,0E0,0E0,0E0,0E0,0E0,0E0,0E0,0E0,0E0,0E0,0E0,0E0,0E0,0E0,0E0,0E0,0E0,0E0,0E0,0E0,0E0,0E0,0E0,0E0,0E0,0E0,0E0,0E0,0E0,0E0,0E0,0E0,0E0,0E0,0E0,0E0,0E0,0E0,0E0,0E0,0E0,0E0,0E0,0E0,0E0,0E0,0E0],"parents":[2147483647,0,0,1,1,2,2,3,3,4,4,5,5,6,6,7,7,8,8,9,9,10,10,11,11,12,12,13,13,14,14,15,15,16,16,17,17,18,18,19,19,20,20,21,21,22,22,25,25,26,26,27,27,28,28,29,29,30,30,31,31,32,32,33,33,34,34,35,35,36,36,37,37,38,38,40,40,41,41,42,42,44,44,47,47,48,48,49,49,50,50,51,51,52,52,53,53,54,54,55,55,56,56,57,57,58,58],"right_children":[2,4,6,8,10,12,14,16,18,20,22,24,26,28,30,32,34,36,38,40,42,44,46,-1,-1,48,50,52,54,56,58,60,62,64,66,68,70,72,74,-1,76,78,80,-1,82,-1,-1,84,86,88,90,92,94,96,98,100,102,104,106,-1,-1,-1,-1,-1,-1,-1,-1,-1,-1,-1,-1,-1,-1,-1,-1,-1,-1,-1,-1,-1,-1,-1,-1,-1,-1,-1,-1,-1,-1,-1,-1,-1,-1,-1,-1,-1,-1,-1,-1,-1,-1,-1,-1,-1,-1,-1,-1],"split_conditions":[5.748749E4,5.69763E4,5.725293E4,5.5957523E4,4.4020874E2,5.6534152E4,-3.1729301E1,5.467599E4,-9.959348E1,9.050442E-3,5.779217E4,5.7504047E4,2.960686E-1,5.854801E4,6.4514184E4,5.4459324E4,5.434281E4,5.467599E4,2.776392E-2,-4.759912E1,4.909149E0,5.439127E4,4.621675E2,-9.963367E-4,4.9337987E-2,2.7247423E-1,-5.323964E1,-1.1964984E2,6.105054E4,6.283106E4,2.960686E-1,1.8423833E2,5.053276E-1,3.790858E2,5.597999E4,1.4111173E1,2.2185741E-2,5.642762E4,5.669939E4,-7.4764594E-2,2.443524E2,5.50441E4,2.9081017E-1,5.5989535E-3,-9.959348E1,-2.6012195E-2,5.958689E-2,-8.657989E1,5.666254E4,5.8365582E4,5.927415E4,5.8090902E4,5.779217E4,6.091795E4,3.6617743E2,6.1822207E4,6.2795195E4,-2.8052675E1,3.2012823E2,-1.0607167E-5,9.736269E-3,-4.77146E-2,4.923007E-3,6.514576E-2,2.3517003E-2,6.62497E-3,3.7939914E-2,3.3039503E-2,-5.0427195E-2,8.38439E-3,6.263368E-2,-6.0656767E-2,-1.849275E-2,2.8202206E-2,-3.6148917E-2,3.1227557E-2,-5.495757E-2,-5.3704042E-2,4.5088824E-2,3.7611704E-2,9.226941E-3,-4.1220593E-3,-9.420515E-2,2.3077909E-2,-5.1226255E-2,-5.611069E-2,2.4362912E-2,-1.4691971E-2,-6.19208E-2,-8.703094E-2,-3.684898E-2,1.6805043E-2,-4.6062E-2,1.4829988E-2,5.563386E-2,1.2634814E-4,-7.211887E-2,2.6891628E-2,-5.481033E-3,-6.2287166E-3,-3.2248896E-2,5.4378994E-2,-2.8305298E-3,1.8562762E-2,-6.357282E-2,2.691849E-2,-3.0698782E-2],"split_indices":[16,19,19,15,8,25,7,19,9,14,19,1,30,21,20,24,1,19,14,9,9,13,7,0,0,30,9,7,19,19,30,8,30,10,19,6,14,2,1,0,10,22,30,0,9,0,0,9,20,22,17,0,19,25,10,22,2,8,10,0,0,0,0,0,0,0,0,0,0,0,0,0,0,0,0,0,0,0,0,0,0,0,0,0,0,0,0,0,0,0,0,0,0,0,0,0,0,0,0,0,0,0,0,0,0,0,0],"split_type":[0,0,0,0,0,0,0,0,0,0,0,0,0,0,0,0,0,0,0,0,0,0,0,0,0,0,0,0,0,0,0,0,0,0,0,0,0,0,0,0,0,0,0,0,0,0,0,0,0,0,0,0,0,0,0,0,0,0,0,0,0,0,0,0,0,0,0,0,0,0,0,0,0,0,0,0,0,0,0,0,0,0,0,0,0,0,0,0,0,0,0,0,0,0,0,0,0,0,0,0,0,0,0,0,0,0,0],"sum_hessian":[2.3654693E4,2.2350336E4,1.3043585E3,2.2096906E4,2.5342908E2,1.1008672E2,1.1942717E3,2.1856486E4,2.4042097E2,2.37974E2,1.5455078E1,3.272302E0,1.0681442E2,4.3885962E2,7.554121E2,2.1583395E4,2.730907E2,1.6907003E1,2.2351396E2,1.2446416E1,2.2552759E2,8.92141E0,6.5336685E0,1.8356811E0,1.4366207E0,5.14307E1,5.5383724E1,6.657565E1,3.7228397E2,6.995499E2,5.586218E1,2.1468738E4,1.146557E2,5.0250565E1,2.2284013E2,3.2132063E0,1.3693798E1,1.7906721E2,4.4446747E1,3.195647E0,9.250769E0,8.96469E1,1.3588069E2,2.099189E0,6.822221E0,1.1702821E0,5.363386E0,4.3005787E1,8.424914E0,2.0320963E1,3.5062763E1,2.1653103E1,4.4922546E1,1.889968E2,1.8328719E2,5.6005133E2,1.3949863E2,3.698189E1,1.8880287E1,2.046115E4,1.0075894E3,1.03339905E2,1.1315794E1,3.5874683E1,1.4375879E1,1.5084999E2,7.199015E1,1.4778476E0,1.7353586E0,2.8312385E0,1.0862559E1,4.8619946E1,1.3044728E2,2.7484625E1,1.6962122E1,7.5399303E0,1.7108386E0,4.034683E0,8.561221E1,5.1017166E1,8.4863525E1,1.1568432E0,5.665377E0,2.4492116E0,4.0556576E1,1.492507E0,6.9324074E0,1.0629013E1,9.69195E0,2.8826317E1,6.236446E0,1.6336214E1,5.31689E0,1.4357916E1,3.056463E1,1.5776501E2,3.1231781E1,1.2539108E2,5.78961E1,4.640731E2,9.597821E1,4.4902534E1,9.459609E1,2.4449582E0,3.4536934E1,6.954517E0,1.192577E1],"tree_param":{"num_deleted":"0","num_feature":"34","num_nodes":"107","size_leaf_vector":"1"}},{"base_weights":[2.0471897E-3,-3.314573E-3,3.5249636E-1,-1.980246E-1,2.3358043E-3,3.7871423E-1,-7.4730575E-1,-2.6164725E-1,2.3416175E-1,1.7406847E-1,-6.327843E-3,3.9729753E-1,-1.1453476E0,2.3890404E-2,-1.2242283E0,-2.0312396E-1,-6.3063276E-1,6.9920397E-1,1.4308173E-2,3.005159E-1,7.951379E-2,7.4745744E-2,-2.0984082E-2,2.4034958E-1,5.863761E-1,-1.40887415E-2,-6.913087E-2,-1.5349788E-2,-1.4180889E0,-4.927697E-1,-1.385561E-1,-3.8297087E-1,-1.0301955E0,-4.2278972E-1,8.281087E-1,-3.047406E-1,3.8965163E-1,3.610435E-1,-1.9260891E-1,4.9098004E-2,6.85852E-1,-6.16892E-3,4.930032E-1,-5.913433E-1,-6.1582206E-3,4.838617E-1,-3.2383028E-1,1.0592309E0,3.9343897E-1,-3.0400073E-2,-8.587229E-2,-4.750851E-2,-5.9650554E-3,-1.6764864E-2,6.2431083E-3,-3.391195E-2,4.1719303E-2,-7.50456E-2,-1.4687487E-3,-5.7788104E-2,2.5720645E-2,3.0647075E-2,7.083111E-2,4.440578E-2,-2.6852285E-2,-2.5271364E-3,3.5702165E-2,1.4401558E-2,3.1989124E-2,-3.3836812E-3,-5.768029E-2,9.818525E-3,-2.8990633E-3,-9.064822E-3,4.5174997E-2,9.421722E-4,-5.7874855E-2,1.7626638E-2,5.513787E-2,-6.0242736E-3,-5.3137343E-2,3.015835E-2,-6.5386534E-4,3.9426807E-2,1.8040905E-2,-5.4765507E-3,-5.601128E-2,5.558568E-2,-1.6395016E-2,-7.157256E-2,2.2332503E-2],"categories":[],"categories_nodes":[],"categories_segments":[],"categories_sizes":[],"default_left":[0,0,0,0,0,0,0,0,0,0,0,0,0,0,0,0,0,0,0,0,0,0,0,0,0,0,0,0,0,0,0,0,0,0,0,0,0,0,0,0,0,0,0,0,0,0,0,0,0,0,0,0,0,0,0,0,0,0,0,0,0,0,0,0,0,0,0,0,0,0,0,0,0,0,0,0,0,0,0,0,0,0,0,0,0,0,0,0,0,0,0],"id":14,"left_children":[1,3,5,7,9,11,13,15,17,19,21,23,25,-1,27,29,31,33,35,37,39,41,43,45,47,-1,-1,-1,49,51,53,55,57,59,61,63,65,67,69,71,73,75,77,79,81,83,85,87,89,-1,-1,-1,-1,-1,-1,-1,-1,-1,-1,-1,-1,-1,-1,-1,-1,-1,-1,-1,-1,-1,-1,-1,-1,-1,-1,-1,-1,-1,-1,-1,-1,-1,-1,-1,-1,-1,-1,-1,-1,-1,-1],"loss_changes":[4.4298515E1,2.5547182E1,1.0526714E1,1.806761E1,3.3576286E1,1.0301243E1,5.614499E0,1.2208534E1,8.635389E0,1.2934311E1,2.5529253E1,1.0073524E1,5.212908E-1,0E0,7.163172E-1,9.18091E0,7.297474E0,4.2728844E0,7.11663E0,1.3899216E1,1.1427541E1,1.11325966E2,1.5385739E2,2.6229261E1,1.3763081E1,0E0,0E0,0E0,1.8539047E-1,1.5219866E1,2.1072603E1,1.8386898E1,1.36896515E1,2.9693036E0,2.255085E0,9.385352E0,3.9327154E0,8.221565E0,6.0819273E0,9.360636E0,5.7518835E0,7.942109E1,4.528224E1,1.0219177E2,7.477974E1,4.7000065E0,9.74449E0,3.6004868E0,1.1512867E1,0E0,0E0,0E0,0E0,0E0,0E0,0E0,0E0,0E0,0E0,0E0,0E0,0E0,0E0,0E0,0E0,0E0,0E0,0E0,0E0,0E0,0E0,0E0,0E0,0E0,0E0,0E0,0E0,0E0,0E0,0E0,0E0,0E0,0E0,0E0,0E0,0E0,0E0,0E0,0E0,0E0,0E0],"parents":[2147483647,0,0,1,1,2,2,3,3,4,4,5,5,6,6,7,7,8,8,9,9,10,10,11,11,12,12,14,14,15,15,16,16,17,17,18,18,19,19,20,20,21,21,22,22,23,23,24,24,28,28,29,29,30,30,31,31,32,32,33,33,34,34,35,35,36,36,37,37,38,38,39,39,40,40,41,41,42,42,43,43,44,44,45,45,46,46,47,47,48,48],"right_children":[2,4,6,8,10,12,14,16,18,20,22,24,26,-1,28,30,32,34,36,38,40,42,44,46,48,-1,-1,-1,50,52,54,56,58,60,62,64,66,68,70,72,74,76,78,80,82,84,86,88,90,-1,-1,-1,-1,-1,-1,-1,-1,-1,-1,-1,-1,-1,-1,-1,-1,-1,-1,-1,-1,-1,-1,-1,-1,-1,-1,-1,-1,-1,-1,-1,-1,-1,-1,-1,-1,-1,-1,-1,-1,-1,-1],"split_conditions":[7.659826E1,2.7691208E1,4.7672018E2,3.5460184E2,1.587235E1,6.4990332E4,4.4020874E2,5.708661E-1,1.3200605E1,3.6936897E1,9.104824E3,1.7664253E2,2.610487E-1,2.3890404E-2,3.716253E1,3.6626575E1,1.9131408E4,3.6349133E-1,5.708661E-1,8.214156E0,9.282717E1,8.7505E3,9.229E3,3.9904367E-2,1.758451E2,-1.40887415E-2,-6.913087E-2,-1.5349788E-2,8.9158386E-2,8.03409E3,-3.5413128E1,9.755735E3,2.1937984E2,5.372201E4,-1.2049409E2,3.40651E-1,3.786055E4,-3.0597935E1,3.230911E0,2.073935E4,4.4821888E1,8.875609E3,9.105E3,9.17594E3,9.270373E3,9.153049E3,8.9398315E1,1.0291477E2,2.1158176E4,-3.0400073E-2,-8.587229E-2,-4.750851E-2,-5.9650554E-3,-1.6764864E-2,6.2431083E-3,-3.391195E-2,4.1719303E-2,-7.50456E-2,-1.4687487E-3,-5.7788104E-2,2.5720645E-2,3.0647075E-2,7.083111E-2,4.440578E-2,-2.6852285E-2,-2.5271364E-3,3.5702165E-2,1.4401558E-2,3.1989124E-2,-3.3836812E-3,-5.768029E-2,9.818525E-3,-2.8990633E-3,-9.064822E-3,4.5174997E-2,9.421722E-4,-5.7874855E-2,1.7626638E-2,5.513787E-2,-6.0242736E-3,-5.3137343E-2,3.015835E-2,-6.5386534E-4,3.9426807E-2,1.8040905E-2,-5.4765507E-3,-5.601128E-2,5.558568E-2,-1.6395016E-2,-7.157256E-2,2.2332503E-2],"split_indices":[4,4,10,10,5,0,8,30,5,4,0,7,30,0,5,10,2,30,30,8,7,19,19,14,10,0,0,0,14,19,9,15,10,19,9,30,19,7,7,17,4,11,19,0,25,13,5,9,2,0,0,0,0,0,0,0,0,0,0,0,0,0,0,0,0,0,0,0,0,0,0,0,0,0,0,0,0,0,0,0,0,0,0,0,0,0,0,0,0,0,0],"split_type":[0,0,0,0,0,0,0,0,0,0,0,0,0,0,0,0,0,0,0,0,0,0,0,0,0,0,0,0,0,0,0,0,0,0,0,0,0,0,0,0,0,0,0,0,0,0,0,0,0,0,0,0,0,0,0,0,0,0,0,0,0,0,0,0,0,0,0,0,0,0,0,0,0,0,0,0,0,0,0,0,0,0,0,0,0,0,0,0,0,0,0],"sum_hessian":[2.3573639E4,2.321938E4,3.5425873E2,6.538512E2,2.256553E4,3.4665067E2,7.6080575E0,5.7029236E2,8.355881E1,1.0828069E3,2.1482723E4,3.432052E2,3.4454775E0,2.131311E0,5.4767466E0,4.935611E2,7.6731255E1,2.6122734E1,5.743607E1,4.623418E2,6.2046515E2,3.2883777E3,1.8194346E4,1.8877791E2,1.5442729E2,1.2141172E0,2.2313604E0,1.4063464E0,4.0704E0,8.875996E1,4.0480115E2,4.857893E1,2.8152323E1,2.4570012E0,2.3665733E1,3.1147894E1,2.6288176E1,4.120352E2,5.030661E1,5.9185675E2,2.8608374E1,2.7561648E3,5.32213E2,4.5997467E2,1.773437E4,1.3196245E2,5.6815464E1,4.344969E1,1.1097759E2,1.9161493E0,2.1542509E0,3.920275E1,4.9557205E1,2.3157219E2,1.7322896E2,3.9452614E1,9.126315E0,1.880709E1,9.345233E0,1.2478622E0,1.2091389E0,1.8824713E1,4.84102E0,4.6170244E0,2.6530869E1,1.15114765E1,1.4776699E1,3.281211E2,8.3914085E1,4.546616E1,4.8404493E0,2.4881407E2,3.430427E2,5.773347E0,2.2835026E1,2.6985234E3,5.764123E1,4.3384525E2,9.8367744E1,2.3074872E2,2.2922595E2,1.9815094E2,1.7536219E4,3.640633E1,9.555612E1,4.5665127E1,1.1150337E1,4.2057003E1,1.3926916E0,2.410411E0,1.08567184E2],"tree_param":{"num_deleted":"0","num_feature":"34","num_nodes":"91","size_leaf_vector":"1"}},{"base_weights":[2.6872938E-3,-5.040861E-3,2.5277856E-1,3.6523335E-3,-1.5806653E-1,2.6311603E-1,-8.7695307E-1,1.2692197E-2,-1.4721337E-1,6.182887E-1,-1.9634263E-1,1.7081594E-1,4.023278E-1,1.7465642E-2,-6.8251E-2,6.365325E-3,4.3331409E-1,-7.263253E-1,-2.147705E-2,7.545092E-1,-6.6471376E-2,-4.2316732E-1,-3.7488073E-2,2.446469E-1,-8.5252684E-1,1.1506606E0,3.2989803E-1,1.1405541E-2,-4.7655225E-1,7.020945E-1,