tree
version=v4
num_class=1
num_tree_per_iteration=1
label_index=0
max_feature_idx=31
objective=binary sigmoid:1
feature_names=ema_9 ema_21 ema_50 ema_200 rsi_14 stoch_k stoch_d macd macd_signal macd_hist atr_14 bb_upper bb_middle bb_lower bb_width tenkan_sen kijun_sen senkou_a senkou_b chikou_span fib_618 fib_50 fib_382 pivot_point resistance_1 support_1 regime_trend regime_volatility spread_bps depth_imbalance realized_vol sentiment_score
feature_infos=[4363.7909954058578:68550.73501484975] [4703.3883083421952:68226.987353124496] [4879.838491811036:67744.05075698279] [5134.401914836496:66888.382233057142] [4.0921831157629693:95.667023333045947] [1.0920166357723944:98.767379053642017] [2.1954634340650157:98.051729248279386] [-1690.9010900630092:1231.6490948089122] [-1511.8091391656872:1106.7134824979451] [-672.6284392682735:589.85614023042251] [5.8655142945764762:2096.1047762312287] [4922.2621191479457:69828.550657794549] [4659.0429999999606:68466.85750000026] [3640.3057257531614:68094.201355129175] [0.0012287849257508923:0.52655440989586932] [4245.625:68690.904999999999] [4575.8900000000003:68164.790000000008] [4543.2649999999994:68107.627500000002] [4661:67988.050000000003] [3761.0999999999999:68805.5] [4519.2005799999997:67207.311119999998] [4796.4049999999997:67524.350000000006] [4999.26152:67919.496599999999] [3909.5366666666669:68660.793333333335] [4093.5633333333335:69135.893333333326] [3577.0733333333337:68595.306666666671] [-1:1] [0:2] none none [0.02974651154516009:7.2391364662854816] none
tree_sizes=3351 3433 3446 3434 3444 3461 3455 3461 3468 3447 3449 3448 3460 3470 3443 3465 3448 3463 3441 3469 3435 3421 3455 3468 3473 3472 3404 3452 3437 3432 3481 3465 3486 3444 3431 3460 3429 3466 3458 3467 3474 3468 3470 3469 3451 3427 3466 3461 3468 3467 3451 3476 3480 3448 3476 3449 3485 3463 3500 3443 3477 3501 3438 3455 3437 3502 3467 3474 3476 3458 3440 3451 3464 3445 3486 3462 3485 3437 3443 3486 3448 3430 3434 3457 3494 3455 3476 3438 3473 3457 3505 3460 3485 3451 3441 3451 3499 3458 3426 3456 3451 3475 3462 3460 3485 3428 3483 3447 3454 3477 3458 3471 3467 3418 3481 3445 3434 3439 3440 3449 3443 3460 3448 3440 3440 3452 3434 3432 3438 3449 3483 3400 3471 3419 3434 3436 3422 3438 3423 3447 3455 3460 3457 3458 3415 3497 3482 3417 3428 3452 3444 3464 3425 3453 3419 3443 3447 3438 3456 3445 3448 3428 3436 3500 3434 3443 3476 3465 3396 3472 3452 3409 3393 3419 3413 3461 3420 3399 3488 3478 3518 3457 3435 3488 3466 3415 3465 3418 3462 3448 3423 3416 3475 3438 3476 3412 3380 3422 3467 3442 3429 3442 3432 3439 3441 3494 3466 3494 3448 3470 3457 3410 3434 3444 3444 3440 3455 3441 3441 3458 3425 3454 3431 3423 3442 3433 3467 3442 3423 3484 3425 3435 3446 3429 3465 3402 3443 3405 3435 3431 3459 3477 3488

Tree=0
num_leaves=31
num_cat=0
split_feature=14 14 10 10 15 19 18 10 21 17 19 8 17 19 19 26 0 1 19 19 25 18 19 19 23 19 23 2 19 16
split_gain=1580.64 356.971 275.386 247.631 239.075 256.058 230.634 132.177 222.102 165.044 195.323 161.357 126.316 366.315 124.887 123.698 103.467 102.865 373.353 127.876 96.8154 95.6468 119.253 95.4432 94.6854 90.2279 325.748 118.287 140.753 102.103
threshold=0.013241569965444342 0.043418671964807122 34.746919507176813 59.706148064238413 57462.4925 57960.000000000007 6090.5550000000012 233.63495460396183 36550.782500000008 39411.412500000006 38783.30000000001 42.00171481046042 7913.942500000001 7975.0550000000012 36438.250000000007 1.0000000180025095e-35 7129.3451274938261 55697.682891572818 56106.465000000004 56959.555000000008 56253.126666666685 39414.525000000009 37244.960000000006 41519.230000000003 36723.101666666676 47954.650000000001 47774.938333333339 45658.079239151506 45680.400000000001 54732.532500000008
decision_type=2 2 2 2 2 2 2 2 2 2 2 2 2 2 2 2 2 2 2 2 2 2 2 2 2 2 2 2 2 2
left_child=2 3 -1 6 5 7 -2 9 14 10 -5 -12 13 -8 -9 -4 -17 18 25 -19 -21 22 -3 -13 -16 27 -27 28 -10 -28
right_child=1 21 15 4 -6 -7 12 8 17 -11 11 23 -14 -15 24 16 -18 19 -20 20 -22 -23 -24 -25 -26 26 29 -29 -30 -31
leaf_value=-1.6569703676030165 -1.4693383625899712 -1.5787258384308389 -1.644669625194721 -1.6072001617286593 -1.6428759510748523 -1.4371796702117703 -1.6209897358142571 -1.5712651104780777 -1.6045360556504185 -1.6356036440021018 -1.4410613675521105 -1.6185646165235361 -1.6440985753619275 -1.3968190450753477 -1.4282774269896998 -1.4671169640016741 -1.6248625083534223 -1.6639124278094841 -1.432664380639644 -1.4542074721765337 -1.6090511656858928 -1.6035170050382377 -1.5198838961026648 -1.3190135814093169 -1.5493016074610455 -1.4139761473196522 -1.5840800222474465 -1.64609216269277 -1.4608464578838525 -1.6609840403662028
leaf_weight=2170.2479159832001 21.619855508208275 693.07473103702068 1308.8963478058577 1788.2512333095074 404.02965644001961 23.272328540682793 332.97331604361534 266.59898257255554 515.02076178789139 532.23402254283428 32.77404847741127 33.049460649490356 889.30590364336967 19.278852045536041 29.744514584541321 10.465662539005278 1540.7933966964483 129.16830870509148 33.875697165727615 12.944372087717054 45.85612665116787 328.29130911827087 98.32214543223381 2.8918278068304053 35.39046411216259 26.852686777710915 327.46507260203362 186.0409222394228 17.626379013061523 49.711897060275078
leaf_count=15760 157 5033 9505 12986 2934 169 2418 1936 3740 3865 238 240 6458 140 216 76 11189 938 246 94 333 2384 714 21 257 195 2378 1351 128 361
internal_value=-1.62224 -1.60666 -1.64354 -1.61168 -1.60618 -1.60256 -1.63124 -1.60351 -1.59274 -1.61106 -1.60402 -1.5213 -1.63406 -1.60872 -1.5561 -1.63335 -1.6238 -1.60178 -1.59621 -1.63609 -1.57496 -1.58083 -1.57142 -1.59446 -1.49403 -1.60114 -1.58224 -1.61177 -1.59978 -1.59422
internal_weight=11906.1 6875.66 5030.4 5755.98 4492.8 4088.77 1263.18 4065.5 1676.3 2389.2 1856.97 68.7153 1241.56 352.252 331.734 2860.16 1551.26 1344.56 1156.59 187.969 58.8005 1119.69 791.397 35.9413 65.135 1122.72 404.03 718.688 532.647 377.177
internal_count=86460 49930 36530 41799 32626 29692 9173 29523 12173 17350 13485 499 9016 2558 2409 20770 11265 9764 8399 1365 427 8131 5747 261 473 8153 2934 5219 3868 2739
is_linear=0
shrinkage=1


Tree=1
num_leaves=31
num_cat=0
split_feature=30 7 30 19 24 19 25 16 10 3 19 16 19 21 19 19 19 11 25 19 13 19 0 12 19 24 25 5 21 19
split_gain=1653.37 350.403 291.56 176.368 164.779 209.156 166.259 151.423 142.146 221.863 295.184 142.142 189.443 139.37 187.699 130.538 114.256 353.676 101.839 158.081 98.7711 144.361 167.247 96.9903 99.5969 101.83 100.604 96.7809 95.1658 96.2946
threshold=0.27468732911625909 18.960305141225039 0.53326910896963653 11853.540000000003 57594.343333333338 56714.645000000011 56253.126666666685 11643.477500000003 110.78126649596919 38500.206748460223 36975.705000000009 6808.7900000000009 6792.2350000000015 7070.9025000000011 7155.3650000000007 57695.890000000007 47954.650000000001 49176.972492909677 55519.395000000004 55246.770000000011 53591.214286682429 50185.600000000006 49845.008698211583 36426.402250000181 38933.705000000009 37878.293333333342 39482.700000000004 67.787870644043963 6145.1650000000009 6091.4300000000012
decision_type=2 2 2 2 2 2 2 2 2 2 2 2 2 2 2 2 2 2 2 2 2 2 2 2 2 2 2 2 2 2
left_child=1 3 4 13 5 8 -7 -5 11 10 -10 12 -2 14 -1 -8 -11 -18 19 20 21 -19 -23 -12 25 -25 -26 -3 29 -4
right_child=2 27 28 7 -6 6 15 -9 9 16 23 -13 -14 -15 -16 -17 17 18 -20 -21 -22 22 -24 24 26 -27 -28 -29 -30 -31
leaf_value=0.0011239940818034567 0.02690388962781581 -0.0088623474628188575 0.063270241247332673 0.29783036207541763 -0.022631275480176811 0.17782644046417367 -0.009397885535199128 -0.013339791090689638 0.026460095581929216 -0.0051973926143592348 0.20521073343518884 -0.0046102952854757667 0.21034082748814981 -0.034478153657115838 0.22481048003045331 0.14102975993025926 0.1258929674221872 -0.019534999925243768 -0.043629347740663127 0.11352817650434165 -0.044347271144269423 0.1978890155108973 0.035405172756668095 0.095488446425992704 0.17813797270914467 0.0011008934269757915 0.017621011492793475 0.014720123829709154 0.038328197999618396 0.19062885688865291
leaf_weight=118.32597476243973 86.027628198266029 903.42018449306488 59.883910715579987 3.9169149398803702 281.59398601949215 34.270077854394913 42.612895831465721 2104.4069689810276 1061.9145018011332 760.54170051217079 17.822992041707039 1074.9623417109251 16.828085407614708 2620.3778726756573 10.185555055737494 21.799717873334885 74.731260821223259 107.11197996139526 78.194478690624237 39.622085258364677 70.853320509195328 18.596892401576042 106.72256742417812 70.301250353455544 40.460616558790207 48.143367528915405 12.865217998623846 839.19521591067314 1161.9183833301067 19.732245326042175
leaf_count=869 610 6579 423 29 2064 227 310 15376 7584 5496 119 7790 121 19409 74 150 515 764 579 276 515 132 760 498 285 343 92 6099 8232 140
internal_value=-3.2076e-05 -0.0167401 0.0207442 -0.0236409 0.0142685 0.0170142 0.0888511 -0.0127617 0.0150908 0.02182 0.0367205 0.000762611 0.0569158 -0.0319849 0.0188529 0.0415126 0.00697724 0.0256515 0.00786204 0.0196038 0.00733327 0.0230873 0.0595171 0.0941894 0.0826698 0.0571234 0.139412 0.00249432 0.0419518 0.0948351
internal_weight=11907.3 6599.83 5307.51 4857.21 4065.98 3784.38 98.6827 2108.32 3685.7 2507.88 1251.51 1177.82 102.856 2748.89 128.512 64.4126 1256.37 495.833 421.101 342.907 303.285 232.431 125.319 189.593 171.77 118.445 53.3258 1742.62 1241.53 79.6162
internal_count=86460 48435 38025 35757 29230 27166 687 15405 26479 17958 8921 8521 731 20352 943 460 9037 3541 3026 2447 2171 1656 892 1337 1218 841 377 12678 8795 563
is_linear=0
shrinkage=0.05


Tree=2
num_leaves=31
num_cat=0
split_feature=14 14 19 20 21 19 11 19 22 3 19 3 19 22 19 25 19 3 19 1 19 15 19 2 19 0 16 19 1 3
split_gain=1308.98 272.66 230.318 246.836 196.075 229.438 211.493 234.705 133.752 128.605 310.39 126.628 251.079 252.599 208.117 123.58 282.2 115.193 394.773 160.955 146.574 384.223 143.055 112.171 279.554 180.541 106.047 198.318 173.106 104.342
threshold=0.013241569965444342 0.044255792849056723 11980.355000000001 12043.841300000002 6145.1650000000009 13674.315000000002 58503.272863849408 57960.000000000007 15230.138000000001 7974.4917840295284 7808.4750000000013 9081.7619521342986 8948.4800000000014 8927.1041900000018 9224.6250000000018 56253.126666666685 56426.705000000009 38118.330533467437 36438.250000000007 36181.212449617866 48410.110000000008 48646.165000000008 38783.30000000001 46260.858197620815 45973.730000000003 45682.036763814795 54732.532500000008 50185.600000000006 49475.95022923177 6916.4648048696863
decision_type=2 2 2 2 2 2 2 2 2 2 2 2 2 2 2 2 2 2 2 2 2 2 2 2 2 2 2 2 2 2
left_child=2 4 11 -4 -2 9 7 8 -7 10 -6 12 29 -14 -15 16 17 18 -10 -20 23 -22 -21 24 -19 -26 27 -23 -29 -1
right_child=1 -3 3 -5 5 6 -8 -9 15 -11 -12 -13 13 14 -16 -17 -18 20 19 22 21 26 -24 -25 25 -27 -28 28 -30 -31
leaf_value=0.038157943874828966 0.10432399160603796 0.036331378532571609 0.21610823909354615 -0.01005063246514125 0.0020349027098864451 0.10919636517400751 -0.023020590170401187 0.13188375205481939 0.015040944686244302 -0.017242387860642205 0.15643131116484951 -0.039914482594566786 0.23220177198902983 -0.05067375112329911 0.1713031685564983 -0.029305910398883247 0.12548502550583943 -0.0018111718266937398 0.18375407510043371 0.044414676039120554 0.1318184991953425 -0.023087229426305769 0.13897803773991665 -0.028989018496392696 0.23599316681988133 0.046825766662360865 -0.033299111163856386 0.19565413963325778 0.039330835961856415 -0.028197403317278536
leaf_weight=63.581834182143211 54.002123385667801 1127.3467075526714 12.125592991709707 2408.4381843805313 354.49415300786495 38.420633628964424 347.52495366334915 44.460143953561783 1723.6159695088863 1087.8703697025776 35.842921748757362 1476.0171434879303 18.693780541419983 34.772908061742783 15.163927689194677 148.39899133145809 59.234165370464325 808.91709378361702 33.318038135766983 174.75536122918129 76.015305519104004 139.4242879897356 51.863606050610542 321.98976908624172 19.710949286818504 35.027154043316841 106.28056244552135 19.426753535866737 200.33435674011707 868.48707580566406
leaf_count=457 358 7790 87 17718 2553 277 2579 296 12225 8020 242 11173 141 263 113 1098 371 5820 212 1196 503 1003 342 2343 136 250 789 127 1400 6578
internal_value=-5.29001e-05 0.0138061 -0.0198859 -0.00891771 0.00948815 0.00860924 0.0143938 0.0176434 0.0163598 -0.00840827 0.0162124 -0.0306055 -0.0168748 0.0754224 0.0167322 0.0154495 0.0172112 0.0154828 0.0237033 0.0811425 0.00604187 0.0275956 0.0660563 -0.00380167 0.00558873 0.114944 0.0105749 0.023557 0.0531497 -0.0236709
internal_weight=11905.6 7008.27 4897.28 2420.56 5880.93 5826.93 4348.72 4001.19 3956.73 1478.21 390.337 2476.72 1000.7 68.6306 49.9368 3918.31 3769.91 3710.68 1983.55 259.937 1727.13 541.481 226.619 1185.64 863.655 54.7381 465.466 359.185 219.761 932.069
internal_count=86460 49930 36530 17805 42140 41782 30967 28388 28092 10815 2795 18725 7552 517 376 27815 26717 26346 13975 1750 12371 3822 1538 8549 6206 386 3319 2530 1527 7035
is_linear=0
shrinkage=0.05


Tree=3
num_leaves=31
num_cat=0
split_feature=30 7 30 15 10 19 16 19 18 19 19 23 19 25 25 19 13 16 19 19 15 19 21 19 2 19 19 16 21 19
split_gain=1365.08 317.104 245.09 159.931 161.407 150.717 147.219 153.679 119.239 203.497 190.74 278.089 123.638 127.822 111.383 109.337 111.109 108.1 99.6708 97.3369 146.082 113.041 96.8588 171.063 96.8303 140.514 85.0294 259.69 112.009 100.237
threshold=0.26346555954411249 18.960305141225039 0.53326910896963653 57462.4925 110.78126649596919 11853.540000000003 6808.7900000000009 6792.2350000000015 38816.790000000008 39407.525000000009 47954.650000000001 47774.938333333339 56714.645000000011 56253.126666666685 55519.395000000004 55246.770000000011 53591.214286682429 11643.477500000003 57960.000000000007 49204.740000000005 49869.250000000007 52283.115000000013 7070.9025000000011 7080.3000000000011 46260.858197620815 45680.400000000001 35380.705000000009 35538.917500000003 34068.31500000001 36438.250000000007
decision_type=2 2 2 2 2 2 2 2 2 2 2 2 2 2 2 2 2 2 2 2 2 2 2 2 2 2 2 2 2 2
left_child=1 5 3 4 6 22 7 -2 9 26 24 -12 14 -14 15 16 19 -7 -15 -13 -21 -22 23 -1 25 -10 28 -28 -6 -29
right_child=2 -3 -4 -5 8 17 -8 -9 10 -11 11 12 13 18 -16 -17 -18 -19 -20 20 21 -23 -24 -25 -26 -27 27 29 -30 -31
leaf_value=-0.014471990292691925 0.026703117429711223 0.0025975701293406272 0.036511806879772929 -0.023420350587533948 0.02634911509717798 0.22177542771722614 -0.0052599699478746431 0.1763892471969728 -0.0031283311606095142 0.13263715814226471 0.16551672365388737 -0.013984863019236009 0.13796206973109715 -0.0010201825473820957 -0.042227745582787919 0.096739930435772226 -0.042257034225796047 -0.013371121844133124 0.12931091900900546 0.10632024301023593 -0.017341125466790955 0.074612813082958043 -0.033374432687712903 0.14238751743894343 -0.036488245487789388 0.085521900498836012 0.15890833430062287 -0.020207796614499951 -0.02620163504258884 0.047220955613456156
leaf_weight=103.69319438934326 94.68787245452404 1608.9876520782709 1300.609105989337 299.90572403371334 869.74558855593204 4.8997700959444037 1202.0601060837507 20.938993066549301 531.03138694167137 48.013421759009361 36.129320934414864 100.33392903208733 42.560005158185959 60.36557824909687 79.825219869613647 44.026964992284775 72.363857209682465 1952.6423194408417 19.378543883562088 67.744835451245308 89.114401593804359 53.480031982064247 2450.9855974912643 20.880993828177452 193.82396948337555 48.807482540607452 46.444612398743629 70.593289434909821 114.78126363456249 251.3949631601572
leaf_count=758 647 11717 8795 2249 6061 29 8751 132 3830 310 212 693 239 441 614 282 540 14453 114 444 621 363 18981 142 1451 334 306 490 795 1666
internal_value=-7.50828e-05 -0.0164717 0.0174148 0.0118427 0.0143864 -0.0232402 -7.65929e-05 0.0538099 0.0210969 0.0314802 0.0109879 0.030618 0.0228719 0.0679939 0.0119846 0.0221178 0.0135406 -0.0127825 0.0306515 0.0265373 0.0458668 0.0171462 -0.0311884 0.0118206 -0.0058933 0.00433373 0.0278904 0.0483806 0.0202225 0.0324378
internal_weight=11900.2 6142.09 5758.16 4457.55 4157.65 4533.1 1317.69 115.627 2839.96 1400.97 1438.99 665.323 629.193 122.304 506.889 427.064 383.037 1957.54 79.7441 310.673 210.339 142.594 2575.56 124.574 773.663 579.839 1352.96 368.433 984.527 321.988
internal_count=86460 46080 40380 31585 29336 34363 9530 779 19806 9628 10178 4563 4351 794 3557 2943 2661 14482 555 2121 1428 984 19881 900 5615 4164 9318 2462 6856 2156
is_linear=0
shrinkage=0.05


Tree=4
num_leaves=31
num_cat=0
split_feature=30 7 30 27 10 3 19 4 0 24 19 10 12 21 12 19 18 19 3 12 27 19 24 21 19 9 19 19 21 10
split_gain=1230.96 294.957 212.206 145.47 141.298 94.1771 101.881 93.5916 75.5523 74.9815 142.581 79.5429 102.352 178.169 97.7064 80.9766 74.3248 172.76 72.3634 68.2886 68.1421 66.3146 300.726 65.904 64.8429 62.82 97.187 59.2804 57.774 90.7579
threshold=0.26346555954411249 14.211529087122473 0.52606449163970737 1.0000000180025095e-35 47.569286509261481 6916.4648048696863 6972.0100000000011 72.605486110775956 50152.897368817132 57361.730000000003 56714.645000000011 94.0344506564184 18820.179250000208 19007.725000000002 6699.6787499999527 6792.2350000000015 7945.6775000000007 7808.4750000000013 7974.4917840295284 58932.714250000099 1.0000000180025095e-35 7363.4850000000006 7305.6866666666674 7135.4075000000003 59397.17500000001 6.653487562860037 65172.165000000008 7129.005000000001 6145.1650000000009 173.33788619527192
decision_type=2 2 2 2 2 2 2 2 2 2 2 2 2 2 2 2 2 2 2 2 2 2 2 2 2 2 2 2 2 2
left_child=1 4 3 19 16 6 -3 9 28 10 11 14 13 -13 15 -5 17 21 -19 24 -6 23 -23 27 -2 -7 -27 -1 -4 -30
right_child=2 5 8 7 20 25 -8 -9 -10 -11 -12 12 -14 -15 -16 -17 -18 18 -20 -21 -22 22 -24 -25 -26 26 -28 -29 29 -31
leaf_value=-0.016297000443755816 0.027436224322025672 -0.0083404393689765783 0.075241574554113136 0.029283669125282227 -0.003231817916581425 -0.007620759041480245 0.24515796247620694 0.03964199946232394 -0.0036526439914943624 -0.023625224794668984 0.085013751205430921 0.035335210835605112 0.0068741587647499951 0.24820762197274604 -0.012997518701885678 0.20000574960985992 -0.035516679005984465 0.18427277349992791 0.0062739855925956481 -0.039639903704653971 -0.02295901229075081 0.27992457152709832 -0.011401504668509451 -0.049512089674310943 0.23837463757052735 0.0092633467807576187 0.18141710772438221 0.090739800242023771 0.0086017514777509095 0.04175985903642896
leaf_weight=124.80494968593121 1153.363246075809 7.7140103429555884 92.199704080820084 32.057502523064613 939.01308344304562 1155.0764553546906 8.152171462774275 189.2240179926157 124.76745025068521 236.68267255276442 55.513267353177071 91.349370151758194 1842.8142841681838 11.014790058135985 775.07049296796322 8.8669221103191358 1924.9001145362854 14.968115210533144 9.231289014220236 38.437909707427025 820.03049159049988 9.5490028113126737 122.47499410808086 211.23704919219017 3.6548149287700644 702.32568690180779 8.294964134693144 14.431292727589605 268.10406336188316 896.22626593708992
leaf_count=929 7994 55 578 216 7026 8539 55 1294 850 1796 336 640 12853 77 5667 50 15229 113 73 294 6130 69 966 1668 24 5070 61 97 1801 5910
internal_value=-9.0299e-05 -0.0158387 0.0163424 0.0110157 -0.0232228 0.000607158 0.121909 0.00551927 0.0334569 0.0034046 0.00567589 0.0040808 0.00957732 0.0582411 -0.00902187 0.0662733 -0.0310317 -0.0139936 0.116372 0.0259244 -0.0124282 -0.020532 0.00966946 -0.031909 0.0281025 -0.000424412 0.0112729 -0.00520305 0.0371417 0.0341247
internal_weight=11891.6 6072.2 5819.35 4438.05 4190.64 1881.56 15.8662 3242.59 1381.3 3053.37 2816.69 2761.17 1945.18 102.364 815.995 40.9244 2431.6 506.697 24.1994 1195.46 1759.04 482.497 132.024 350.473 1157.02 1865.7 710.621 139.236 1256.53 1164.33
internal_count=86460 46080 40380 31241 32300 13780 110 22929 9139 21635 19839 19503 13570 717 5933 266 19144 3915 186 8312 13156 3729 1035 2694 8018 13670 5131 1026 8289 7711
is_linear=0
shrinkage=0.05


Tree=5
num_leaves=31
num_cat=0
split_feature=30 30 30 8 16 19 19 13 19 1 19 23 19 0 19 19 18 16 19 17 3 19 25 8 19 16 17 16 19 0
split_gain=1111.18 243.307 240.173 160.909 101.987 124.657 110.365 109.419 126.633 115.856 116.944 98.2177 185.417 98.1993 145.578 82.1725 100.548 94.6164 115.773 80.0262 73.3358 108.168 94.9609 69.1669 89.7831 119.064 74.3684 67.7974 64.7369 64.5066
threshold=0.26346555954411249 0.14338009349304406 0.44463832728863528 3.9927277809880493 7291.6825000000008 7155.3650000000007 19149.450000000004 38296.165201060452 38146.81500000001 36438.154304091775 35380.705000000009 57442.881666666675 56959.555000000008 55714.184751644942 55717.385000000002 13674.315000000002 6090.5550000000012 53963.897500000014 54573.67500000001 33092.563750000008 9081.7619521342986 9114.7850000000017 9098.3983333333363 -32.687356562016355 47954.650000000001 48702.835000000006 19144.712500000005 6808.7900000000009 30285.450000000001 31209.923263649314
decision_type=2 2 2 2 2 2 2 2 2 2 2 2 2 2 2 2 2 2 2 2 2 2 2 2 2 2 2 2 2 2
left_child=1 -1 11 -3 5 27 -6 8 9 10 19 12 13 14 15 16 -2 18 23 28 21 -18 -23 24 26 -26 -17 -4 -8 -30
right_child=2 3 4 -5 6 -7 7 -9 -10 -11 -12 -13 -14 -15 -16 17 20 -19 -20 -21 -22 22 -24 -25 25 -27 -28 -29 29 -31
leaf_value=-0.031234498726820593 0.11519711877061781 -0.018146717333815548 0.059978927954309515 0.0011203155625251033 -0.0010535916288399124 0.1869328773753357 0.031666703586433802 0.014954485329755738 0.096673651288438897 -0.0060442650008997205 0.092977044360612576 -0.02129436376387929 0.083777313009004872 -0.043352898403505612 0.11529235884360296 0.059200979220139796 -0.00024929323517360855 -0.041054047655060003 0.19157203215667074 0.0052226366487152509 -0.02475968904673213 0.21573032934842198 0.021830962709888824 0.020874677681597675 0.13341397343121256 0.0090330883548378274 -0.0065128263976931321 -0.034943669407838877 0.12261910724081154 0.052242849948242201
leaf_weight=1661.2888318970799 17.06594817340374 2217.4898262321949 178.03132219612598 2119.3470499515533 330.86030323803425 18.119751274585724 286.59421573579311 657.35332369804382 93.671915486454964 140.67744365334511 102.67187212407589 266.95608973503113 83.517272442579269 89.366474814713001 32.361584916710854 45.833391726016998 434.86730375885963 77.371715754270554 9.261489272117613 162.43528972566128 348.14210098981857 11.076394975185396 14.687285542488096 1501.2030861377716 29.220007047057152 56.334610223770142 710.03052498400211 21.033505961298943 44.189391627907753 123.72945569455624
leaf_count=13196 102 17086 1109 15735 2262 120 1888 4439 579 911 640 2055 503 678 184 315 3134 571 59 1066 2595 82 107 10251 168 384 5011 142 286 805
internal_value=0.000181953 -0.0149639 0.0156146 -0.00873121 0.0288834 0.0613778 0.0252497 0.0306507 0.0414664 0.0354553 0.043568 0.00792746 0.0101819 0.00836165 0.00976746 0.00871835 -0.00490677 0.0133503 0.0151401 0.0353454 -0.00744108 0.00564821 0.105193 0.0144426 0.00296679 0.0515137 -0.00252813 0.0499493 0.0461107 0.070763
internal_weight=11884.8 5998.13 5886.66 4336.84 2159.37 217.185 1942.18 1611.32 953.97 860.298 719.62 3727.3 3460.34 3376.82 3287.46 3255.09 825.839 2429.25 2351.88 616.948 808.773 460.631 25.7637 2342.62 841.419 85.5546 755.864 199.065 454.513 167.919
internal_count=86463 46017 40446 32821 14247 1371 12876 10614 6175 5596 4685 26199 24144 23641 22963 22779 6020 16759 16188 4045 5918 3323 189 16129 5878 552 5326 1251 2979 1091
is_linear=0
shrinkage=0.05


Tree=6
num_leaves=31
num_cat=0
split_feature=30 7 30 10 30 23 19 10 0 19 20 19 24 19 10 19 0 18 7 17 19 24 1 19 26 18 19 18 16 19
split_gain=1002.13 246.322 209.55 105.876 101.296 88.8493 157.987 95.8033 113.268 106.35 99.3005 178.697 85.7479 111.38 109.761 85.7451 200.551 84.6952 82.8625 82.4257 90.3704 109.228 87.9598 89.231 82.4999 79.6078 158.206 76.0605 72.4734 121.096
threshold=0.26346555954411249 9.5741938075043453 0.44463832728863528 49.239786959743363 0.14067208802772665 57442.881666666675 56959.555000000008 101.91376515162554 55714.184751644942 55717.385000000002 38808.834740000006 38783.30000000001 7257.5050000000019 7129.005000000001 89.380820757247633 42286.55000000001 42278.746842249275 6090.5550000000012 59.071604779247089 38134.746250000004 36975.705000000009 37878.293333333342 18992.395615711794 19078.305000000004 1.0000000180025095e-35 7945.6775000000007 7808.4750000000013 57576.655000000006 53963.897500000014 47954.650000000001
decision_type=2 2 2 2 2 2 2 2 2 2 2 2 2 2 2 2 2 2 2 2 2 2 2 2 2 2 2 2 2 2
left_child=1 3 5 25 -3 6 7 17 9 10 11 19 13 -4 -14 -12 -17 -2 -13 20 22 -22 23 -9 -24 26 -1 -16 29 -18
right_child=2 4 12 -5 -6 -7 -8 8 -10 -11 15 18 14 -15 27 16 28 -19 -20 -21 21 -23 24 -25 -26 -27 -28 -29 -30 -31
leaf_value=-0.018150559239030205 0.10248411298787602 -0.025884891003154088 0.044893183735480409 -0.012503570310818746 0.0034262925121050047 -0.020538930390798675 0.075984048787887115 0.039718945970702399 -0.042461518036098697 0.10310661087438709 -0.025796185163920644 0.1508649035883792 -0.014927418062191087 0.16542065497488978 0.029446052732218356 0.17957840578974749 -0.0069751611986913755 -0.0063279947727119187 0.052796156998231696 -0.040849140840563694 0.099070269274245421 -0.0076432339418824507 -0.0040977918668150945 0.1681465031640689 0.026508666319320136 -0.034615850788569463 0.11089179019794806 -0.020161538073013963 -0.040132313883822518 0.035706196947890095
leaf_weight=429.91134563088417 18.192118987441063 349.91410830616951 200.615852445364 1593.3182036876678 1869.9230167195201 263.03779861330986 87.372616544365883 67.271428719162941 86.747386619448662 34.321944937109947 209.79086431860924 35.720373913645744 168.86590124666691 21.192777529358864 1725.9477594718337 17.10140086710453 381.93012957274914 1053.0413422882557 54.256400346755981 55.592408835887909 74.240316525101662 35.419498130679131 417.17656134068966 16.928600922226906 466.24724923074245 1667.463771097362 25.14098247885704 80.889866948127747 75.245778873562813 294.19741390645504
leaf_count=3429 102 2741 1223 12159 13754 2055 503 447 678 184 1502 220 1182 128 11138 122 2769 7669 332 385 453 236 2864 108 3124 13751 183 576 571 1875
internal_value=0.000158473 -0.0143722 0.0146753 -0.0222448 -0.00119404 0.00748112 0.00959855 0.00788928 0.0135953 0.0157706 0.0144088 0.0239075 0.0269317 0.056409 0.0236223 0.0025352 0.0102696 -0.0044801 0.091729 0.0185209 0.0215847 0.0646024 0.0167095 0.0655396 0.0120555 -0.0295573 -0.0110212 0.0272252 0.00641606 0.0115964
internal_weight=11877 5935.67 5941.34 3715.83 2219.84 3743.83 3480.79 3393.42 2322.19 2235.44 2201.12 1222.85 2197.51 221.809 1975.7 978.266 768.475 1071.23 89.9768 1132.88 1077.28 109.66 967.624 84.2 883.424 2122.52 455.052 1806.84 751.373 676.128
internal_count=86463 46017 40446 29522 16495 26199 24144 23641 15870 15192 15008 8169 14247 1351 12896 6839 5337 7771 552 7617 7232 689 6543 555 5988 17363 3612 11714 5215 4644
is_linear=0
shrinkage=0.05


Tree=7
num_leaves=31
num_cat=0
split_feature=30 7 30 27 19 1 30 24 19 19 13 19 1 19 4 3 19 13 19 18 19 13 11 19 12 19 2 19 4 11
split_gain=904.437 228.606 183.541 149.509 97.7443 179.914 93.7562 72.6246 86.1306 85.7219 89.0545 101.655 98.1101 93.9611 71.5298 70.5278 100.009 65.9125 80.2348 63.9929 135.099 62.2302 57.2286 242.22 56.8188 57.5774 92.5823 160.373 56.0229 51.4442
threshold=0.26346555954411249 9.5741938075043453 0.44463832728863528 1.0000000180025095e-35 20179.350000000002 20061.475843164419 0.1355507721647389 7257.5050000000019 7129.005000000001 19149.450000000004 38296.165201060452 38146.81500000001 36438.154304091775 35380.705000000009 72.605486110775956 6916.4648048696863 6972.0100000000011 31543.782514272905 30613.110000000004 7945.6775000000007 7808.4750000000013 7713.8163542702232 59200.631738989214 58974.780000000006 6699.6787499999527 13194.390000000001 18884.988911308232 18976.200000000004 51.011380358184894 19166.81905238696
decision_type=2 2 2 2 2 2 2 2 2 2 2 2 2 2 2 2 2 2 2 2 2 2 2 2 2 2 2 2 2 2
left_child=1 4 3 -2 19 -6 -3 8 -4 -9 11 12 13 17 24 16 -8 18 29 20 -1 -22 23 -7 -5 -26 27 -27 -12 -11
right_child=2 6 7 14 5 22 15 9 -10 10 28 -13 -14 -15 -16 -17 -18 -19 -20 -21 21 -23 -24 -25 25 26 -28 -29 -30 -31
leaf_value=-0.017471080663372419 0.022848458595151156 -0.027795759184846742 0.04153463431683338 0.067407009278533367 0.24890924634016698 -0.010252321087865428 -0.018075923946725952 -0.00095194889239132597 0.14314162860610755 0.17480726362334448 0.025296905078228252 0.083888570257477979 -0.0071198473721155835 0.080769142258750509 0.033372101789407457 0.0017982890282539337 0.19467309571129421 0.007580265583884381 0.076138845985482206 -0.031493035842270659 0.22123079934473125 0.051172412322952013 -0.041845176716921242 0.23090029079902918 -0.016339912667944208 0.021336654302099974 -0.0012895211038377848 0.18532808300552867 -0.0038146800733991912 0.025573856637150817
leaf_weight=424.44196089357138 1071.7406173869967 287.118991099298 205.85447490215302 29.752405658364296 6.6548960283398619 1129.7185700014234 10.715047776699068 335.48145727813244 23.208361178636551 5.8858741074800482 381.97889426350594 100.64444874227047 142.71186037361622 110.12668010592461 158.23359792679548 1908.6235784366727 11.401732817292212 207.29741711914539 122.48725453019142 1918.5407393723726 7.4143154472112682 19.601938515901566 140.53911389410496 10.509652927517889 552.76000951230526 140.71343274414539 1787.9325127452612 16.674959018826485 291.2869438380003 306.28090623021126
leaf_count=3429 7235 2299 1223 183 51 8678 77 2282 128 36 2534 579 911 640 1047 14051 68 1322 747 16007 48 135 1094 80 4144 972 12516 102 1905 1940
internal_value=0.000136421 -0.0138028 0.0138063 0.00705965 -0.0214831 -0.0103928 -0.00113736 0.0251586 0.0518293 0.0221103 0.0267468 0.0362462 0.0308875 0.0380997 0.000759912 0.00282699 0.0916013 0.0307797 0.0418441 -0.0275075 -0.0105704 0.0978431 -0.0117402 -0.00802958 -0.0012815 -0.00209959 0.00194678 0.0387112 0.0127018 0.0283876
internal_weight=11866.3 5875.28 5991.05 3757.81 3657.42 1287.42 2217.86 2233.24 229.063 2004.18 1668.7 995.434 894.79 752.078 2686.07 1930.74 22.1168 641.951 434.654 2370 451.458 27.0163 1280.77 1140.23 2527.83 2498.08 1945.32 157.388 673.266 312.167
internal_count=86463 46017 40446 26199 29522 9903 16495 14247 1351 12896 10614 6175 5596 4685 18964 14196 145 4045 2723 19619 3612 183 9852 8758 17917 17734 13590 1074 4439 1976
is_linear=0
shrinkage=0.05


Tree=8
num_leaves=31
num_cat=0
split_feature=30 7 30 27 10 26 13 5 18 20 12 10 22 21 15 10 16 26 10 12 1 1 27 8 16 10 2 16 21 25
split_gain=818.023 192.741 183.495 127.842 101.071 82.5148 93.3885 67.639 66.6219 75.8776 66.0095 76.75 66.5864 85.9299 65.4652 92.6058 80.5535 61.4252 59.0744 53.9026 52.6283 75.4672 51.9637 50.6425 50.5565 50.1646 89.658 45.9439 44.9227 42.4334
threshold=0.24912437580459154 15.9204326531858 0.44463832728863528 1.0000000180025095e-35 47.569286509261481 1.0000000180025095e-35 39509.182861758905 68.707744864069383 7945.6775000000007 7740.4526100000012 58932.714250000099 145.98465586877987 39112.775200000011 37341.400000000001 7217.3850000000011 147.9008788308453 36016.352500000008 1.0000000180025095e-35 224.1968740854428 9353.8572499999773 61011.62534082964 60633.728548579471 1.0000000180025095e-35 4.3069723412152463 43078.247500000005 95.518320223896595 18884.988911308232 6808.7900000000009 18960.507500000003 7114.511666666669
decision_type=2 2 2 2 2 2 2 2 2 2 2 2 2 2 2 2 2 2 2 2 2 2 2 2 2 2 2 2 2 2
left_child=1 4 3 10 8 25 18 -3 9 -1 11 19 13 -13 29 -16 -17 -10 27 -2 21 -18 -6 -11 -14 -5 28 -7 -27 -4
right_child=2 7 14 5 22 6 -8 -9 17 23 -12 12 24 -15 15 16 20 -19 -20 -21 -22 -23 -24 -25 -26 26 -28 -29 -30 -31
leaf_value=-0.014975253255964336 0.027607505533383876 -0.0091812904296351885 0.043723155572106348 -0.022098759653912853 -0.0024941585508123304 0.0958983895998618 -0.0089028468571584873 0.011563244730399111 -0.040395601465326642 0.046015631118570793 -0.037481439707148748 0.036048321384399569 -0.014570625961198151 0.10296761074803534 -0.0038666992800678798 0.037387657678718801 0.016627365544001901 -0.021731476295963715 0.05061776770863341 -0.0095789217045329205 -0.052689950249279617 0.23098486468142437 -0.021037644412297437 0.24882409835090555 0.026853614461429212 0.036601046046064054 -0.0049607042489830389 0.011620822077410518 0.1494318351746976 0.14128311366573906
leaf_weight=452.47464622557163 155.09962210059166 858.1084606051445 221.33611665666103 435.18059684336185 866.40025573968887 16.508143231272697 480.44164300709963 724.8782421797514 944.08011045306921 18.138204827904705 49.224734611809254 259.29754212498665 91.360411033034325 58.860887199640274 323.61355844140053 763.1661344319582 914.18128162622452 826.98235753923655 122.35767368972301 262.17672910541296 27.433332413434982 4.1245437711477271 669.91236092150211 3.7072317451238623 380.08827796578407 31.98049233853817 1078.9848490655422 792.39977513998747 12.182020694017409 11.73662845790386
leaf_count=3667 1092 6376 1275 3295 6690 98 3431 5239 8174 123 387 1668 640 349 2203 4661 5817 7057 763 1840 199 30 5244 25 2531 207 7690 5567 63 62
internal_value=0.000116832 -0.0143304 0.0120558 0.00590092 -0.0204621 0.000245465 0.00900159 0.000318007 -0.0272235 -0.0105811 0.0192731 0.0215879 0.030754 0.0484287 0.0235369 0.0206588 0.0253031 -0.0316805 0.0182385 0.0042431 0.0155515 0.0175901 -0.0105801 0.0804328 0.0188262 -0.00768681 -0.00210268 0.0133408 0.0677249 0.0486359
internal_weight=11856.4 5364.68 6491.73 4226.14 3781.7 2970.04 1411.71 1582.99 2245.38 474.32 1256.11 1206.88 789.607 318.158 2265.59 2032.52 1708.91 1771.06 931.266 417.276 945.739 918.306 1536.31 21.8454 471.449 1558.33 1123.15 808.908 44.1625 233.073
internal_count=86463 42595 43868 29621 30980 21114 9859 11615 19046 3815 8507 8120 5188 2017 14247 12910 10707 15231 6428 2932 6046 5847 11934 148 3171 11255 7960 5665 270 1337
is_linear=0
shrinkage=0.05


Tree=9
num_leaves=31
num_cat=0
split_feature=30 30 23 19 30 7 27 26 3 19 13 19 0 10 19 24 17 19 17 19 11 3 22 10 19 13 19 19 13 19
split_gain=740.005 184.881 168.662 190.62 157.932 133.658 101.714 95.6334 64.6916 69.0544 58.6233 64.6802 58.615 72.9347 58.2826 170.6 63.8958 122.144 71.7796 62.6793 73.6221 54.8582 52.107 70.0227 63.7554 56.0774 97.7964 71.1393 62.181 65.945
threshold=0.24912437580459154 0.14338009349304406 57204.483333333337 56959.555000000008 0.44463832728863528 6.8190322413547628 1.0000000180025095e-35 1.0000000180025095e-35 6916.4648048696863 6972.0100000000011 39509.182861758905 39981.945000000007 55714.184751644942 145.98465586877987 49813.210000000006 49952.520000000004 47270.80000000001 47454.850000000006 46417.235000000008 48171.845000000008 47940.807095613658 8940.3604133828103 6793.2628300000006 147.9008788308453 6792.2350000000015 35363.632652288987 35380.705000000009 36732.260000000002 38296.165201060452 38933.705000000009
decision_type=2 2 2 2 2 2 2 2 2 2 2 2 2 2 2 2 2 2 2 2 2 2 2 2 2 2 2 2 2 2
left_child=1 -1 3 4 6 -3 12 -8 9 -7 11 -9 13 21 16 -16 17 -10 -19 -20 -21 -2 24 -24 -6 26 -25 -27 29 -29
right_child=2 5 -4 -5 22 8 7 10 14 -11 -12 -13 -14 -15 15 -17 -18 18 19 20 -22 -23 23 25 -26 27 -28 28 -30 -31
leaf_value=-0.028338552398078233 0.028974148541936601 -0.016585217363733445 -0.019686978724749629 0.083540501276235538 0.041530428712444584 0.0011970990440227233 -0.0081334606545028689 0.015273780336191776 -0.0025103722858687023 0.17675871945366028 -0.0074941111556945748 0.10993433156705044 -0.048535599399361584 0.030407878473849279 0.22013060102004389 0.014578450611904277 -0.046450877744326075 0.2705576640750888 0.00022977502981528873 0.23744063361250023 -0.04558723267344459 -0.0091174261108329466 0.00102206133086293 0.02750557797405926 0.1749418575198721 -0.028707547270652257 0.077839200538165343 0.025038358385721823 0.012975224732908536 0.088890359167325309
leaf_weight=1543.5793050080538 144.24850933253765 2012.168760061264 409.8954143896699 95.470069110393524 176.82342794537544 11.502188250422479 1407.2190846577287 923.40080353617668 1351.7031321674585 10.917398169636725 325.37968911230564 18.405374616384506 31.593586675822735 699.0143154039979 10.505497872829435 257.86838838458061 79.028640568256378 4.9914835095405605 15.834723129868509 7.8930194675922376 3.2412080615758896 274.17563755065203 371.01268461346626 682.56701150536537 9.432834863662718 80.025259628891945 112.39523941278458 120.79998134076595 593.49529983103275 60.782746762037277
leaf_count=13196 991 16406 3148 528 990 85 10190 6317 10087 60 2281 111 240 4489 73 1878 580 36 116 56 22 1941 2475 4134 48 505 616 728 3809 327
internal_value=0.000100868 -0.0137653 0.0113642 0.0134418 0.0123321 -0.00779163 0.00618424 0.00083877 0.00229924 0.0866882 0.0108025 0.0171237 0.018626 0.0205248 0.00120629 0.0226248 -0.00272357 -0.000226059 0.0963844 0.064148 0.15505 0.00401435 0.0229812 0.0206491 0.048287 0.0250622 0.034622 0.0161747 0.0208087 0.0464121
internal_weight=11845.4 5309.23 6536.14 6126.24 6030.77 3765.65 3823.44 2674.4 1753.49 22.4196 1267.19 941.806 1149.03 1117.44 1731.07 268.374 1462.69 1383.66 31.9604 26.969 11.1342 418.424 2207.33 2021.08 186.256 1650.07 794.962 855.103 775.078 181.583
internal_count=86463 42595 43868 40720 40192 29399 26560 18899 12993 145 8709 6428 7661 7421 12848 1951 10897 10317 230 194 78 2932 13632 12594 1038 10119 4750 5369 4864 1055
is_linear=0
shrinkage=0.05


Tree=10
num_leaves=31
num_cat=0
split_feature=30 7 1 10 16 16 19 10 19 20 19 19 16 18 10 23 19 23 30 24 7 19 19 3 19 19 20 26 7 3
split_gain=645.468 182.254 143.366 137.289 124.799 123.332 132.56 96.5051 96.4066 92.1302 119.969 80.4935 102.629 77.1807 76.4744 75.6585 71.2288 78.7106 69.9715 69.7217 67.624 62.5022 60.3349 59.5487 281.919 62.066 319.706 59.4495 58.333 54.3598
threshold=0.24912437580459154 6.8190322413547628 57177.362953436437 253.35469687181185 35538.917500000003 6808.7900000000009 6792.2350000000015 107.06315282145557 35380.705000000009 38395.970660000006 37759.195000000007 56714.645000000011 54732.532500000008 6090.5550000000012 49.239786959743363 56088.998333333344 36438.250000000007 36167.271666666675 0.13933813021356489 37678.590000000011 205.52931324906243 38783.30000000001 65172.165000000008 8900.4147430933062 8948.4800000000014 9379.2850000000017 9243.9956300000031 1.0000000180025095e-35 23.225114380987637 6916.4648048696863
decision_type=2 2 2 2 2 2 2 2 2 2 2 2 2 2 2 2 2 2 2 2 2 2 2 2 2 2 2 2 2 2
left_child=1 14 3 5 8 6 13 27 -5 10 20 12 16 -2 23 -13 -6 -18 -3 -12 -9 -21 29 24 -1 -25 -27 -7 -23 -20
right_child=2 18 -4 4 11 7 -8 9 -10 -11 19 15 -14 -15 -16 -17 17 -19 22 21 -22 28 -24 25 -26 26 -28 -29 -30 -31
leaf_value=-0.020818084948846346 0.053927607892859199 -0.020788917961304998 -0.018378600581097276 0.033757006358522877 -0.020337070418700563 -0.016164212921619896 0.13083264617925358 0.010676682792167509 0.091899457803922821 -0.0059353160741924867 0.15336707445088943 0.11770719426798137 -0.024842160946822539 -5.8853589611897392e-05 -0.011905383155907064 0.030836761205642133 0.11723132004768791 0.018337838014807185 0.074093456772306762 0.0085177105611681601 0.057673645580587164 0.16260659313869261 0.10983574977590943 -0.053484879877473315 0.22042906050392777 0.34605667274389618 -0.030182922400427765 0.0038998640975729903 0.043887119983483033 0.00028957636811047981
leaf_weight=680.11201951652765 125.26745496690273 409.39074723422527 405.59736213833094 457.19692859053612 120.12980990111828 724.03148890286684 33.57830186188221 1255.742317661643 84.466903433203697 581.528564453125 19.712392359972 33.831765130162239 165.17200528085232 140.40840724110603 1316.485682271421 96.716063655912876 20.414105296134949 1398.8034929037094 25.308034896850586 45.424703851342201 81.510606899857521 17.588021367788315 12.905497975647448 326.98580159246922 12.329422518610953 5.6915570124983779 709.51939254254103 753.30747036635876 25.131720289587975 1760.4831864237785
leaf_count=5847 664 3458 3156 2709 765 5417 175 8150 443 4134 114 160 1232 867 10456 579 112 8878 158 296 496 94 90 2988 93 48 6390 5343 143 13094
internal_value=-1.25337e-05 -0.0130736 0.010418 0.012308 0.0217351 0.00641673 0.0372267 0.00378543 0.0428237 0.01087 0.0176327 0.0155104 0.0126123 0.025396 -0.0209918 0.0533494 0.0166311 0.0197603 -0.00213232 0.0683594 0.0135413 0.0493486 0.002114 -0.0278879 -0.0165225 -0.0354391 -0.0271889 -0.00593337 0.0927648 0.00133552
internal_weight=11844.8 5259.21 6585.56 6179.96 2376.73 3803.23 299.254 3503.98 541.664 2026.64 1445.11 1835.07 1704.52 265.676 3051.12 130.548 1539.35 1419.22 2208.09 107.857 1337.25 88.1444 1798.7 1734.64 692.441 1042.2 715.211 1477.34 42.7197 1785.79
internal_count=86549 42622 43927 40771 14878 25893 1706 24187 3152 13427 9293 11726 10987 1531 25822 739 9755 8990 16800 647 8646 533 13342 15366 5940 9426 6438 10760 237 13252
is_linear=0
shrinkage=0.05


Tree=11
num_leaves=31
num_cat=0
split_feature=30 22 19 19 30 13 19 23 27 4 4 16 19 3 25 19 19 22 25 19 20 19 8 19 0 25 19 16 19 19
split_gain=586.823 170.423 325.18 140.594 138.895 108.678 133.518 106.564 95.1931 116.588 87.9819 84.2902 78.3371 338.856 69.6127 143.607 71.5279 211.446 79.2327 97.9118 76.4911 167.232 94.5112 94.191 160.49 74.375 144.753 94.8898 182.477 71.2375
threshold=0.21677984055683913 61206.530940000004 61328.995000000003 11853.540000000003 0.44463832728863528 18871.597763530499 19149.450000000004 61800.385000000002 1.5000000000000002 49.24913507025795 64.539786213731631 11643.477500000003 19450.450000000004 19309.329202837253 58112.990000000013 58256.80000000001 23166.550000000003 23212.754370000006 57295.095000000016 57695.890000000007 39116.230100000008 38783.30000000001 66.607166498262984 42700.340000000004 42681.314298003512 37607.883333333331 36732.260000000002 35538.917500000003 34709.090000000004 41885.820000000007
decision_type=2 2 2 2 2 2 2 2 2 2 2 2 2 2 2 2 2 2 2 2 2 2 2 2 2 2 2 2 2 2
left_child=3 2 4 10 8 6 11 -4 14 -10 -1 -5 -7 -14 15 16 -2 -18 19 20 21 25 -23 -22 -25 26 27 28 -19 -24
right_child=1 -3 7 5 -6 12 -8 -9 9 -11 -12 -13 13 -15 -16 -17 17 18 -20 -21 23 22 29 24 -26 -27 -28 -29 -30 -31
leaf_value=-0.027297374092960222 6.1917918167990894e-05 -0.036287912293927617 0.22845931072695055 0.22366464296440328 0.018917223640097403 -0.048078018977200182 0.23568518638342584 -0.058790296360194977 -0.016650603251367715 0.0082389973594776279 0.011933371426712476 0.015960297019000282 0.2120858836123754 -0.0090551914518643521 -0.033129418415112931 0.12670282111609543 0.16922221579885738 0.010351234978469383 -0.055509743893823751 0.12084929299703931 -0.027876079028101044 0.12695033155498087 0.013057073029848704 0.17834562332909826 0.0090612255963589232 -0.027265024700735448 0.080256605066935424 -0.035857470831343614 0.11018940826444815 0.1942000030869252
leaf_weight=1931.3206900805235 1211.7615846693516 210.30657541751862 22.05802342295647 5.027599185705184 2313.9800877347589 123.19626846909523 7.6159322038292876 3.7823545411229125 986.03497663885355 899.8960787653923 154.33657039701939 171.69321908801794 17.501042395830154 1700.4193784594536 93.808910764753819 26.399995170533657 22.125061333179474 405.88591911643744 40.408342652022839 21.69859067350626 180.42708940058947 57.583179101347923 46.433800473809242 14.238123029470442 840.02053948491812 85.379404157400131 92.491765916347504 85.215274199843407 51.58383597433567 6.1459728181362143
leaf_count=17214 8892 1685 168 29 13999 988 56 30 7361 6240 1203 1356 133 13139 747 167 149 2739 311 127 1329 336 278 101 5761 578 521 562 316 34
internal_value=-2.36706e-05 0.00810445 0.00934803 -0.0152823 0.00873646 -0.00589952 0.0307032 0.186413 0.00417761 -0.00477421 -0.0243943 0.0218694 -0.00956427 -0.00680235 0.00932219 0.0105714 0.00960166 0.0155309 0.0137668 0.0152502 0.0140218 0.0253215 0.0826961 0.00494964 0.0118827 0.0165497 0.0224392 0.0125852 0.0216089 0.0342306
internal_weight=11828.8 7717.67 7507.36 4111.11 7481.52 2025.45 184.337 25.8404 5167.54 1885.93 2085.66 176.721 1841.12 1717.92 3281.61 3187.8 3161.4 1949.64 1927.51 1887.1 1865.4 830.719 110.163 1034.69 854.259 720.556 635.177 542.685 457.47 52.5798
internal_count=86549 52431 50746 34118 50548 15701 1441 198 36549 13601 18417 1385 14260 13272 22948 22201 22034 13142 12993 12682 12555 5364 648 7191 5862 4716 4138 3617 3055 312
is_linear=0
shrinkage=0.05


Tree=12
num_leaves=31
num_cat=0
split_feature=30 7 25 10 21 3 4 10 27 30 21 10 3 14 10 12 27 18 3 11 9 3 18 0 16 16 26 30 4 9
split_gain=532.951 161.484 127.206 109.667 111.553 108.625 80.1569 65.5574 61.1062 58.7967 56.695 50.2145 52.6019 47.1362 46.6905 48.0679 46.6473 44.2603 44.2342 66.4181 55.553 40.3891 41.5373 84.5176 43.0265 36.5759 36.122 35.2734 35.1481 35.0389
threshold=0.24630379998581528 5.1184355849632093 57295.095000000016 253.35469687181185 6145.1650000000009 36342.196309362545 74.259650821897566 49.239786959743363 1.0000000180025095e-35 0.13933813021356489 7070.9025000000011 39.106128897232544 6829.7946291233211 0.013437709824606193 40.742032181460139 6097.5607499999569 1.5000000000000002 6989.5600000000004 8337.9868462086706 8645.6137721945543 -8.0620651214601402 6916.4648048696863 11814.417500000001 18978.214590268431 18721.645000000004 37359.982500000006 1.0000000180025095e-35 0.78045078519507249 71.200172885302166 6.653487562860037
decision_type=2 2 2 2 2 2 2 2 2 2 2 2 2 2 2 2 2 2 2 2 2 2 2 2 2 2 2 2 2 2
left_child=1 7 3 4 14 13 8 10 -6 28 17 12 -10 -5 -2 -16 -9 -1 19 29 -20 -11 -23 24 -24 -15 -12 -4 -3 -13
right_child=2 9 27 5 6 -7 -8 16 11 21 26 18 -14 25 15 -17 -18 -19 20 -21 -22 22 23 -25 -26 -27 -28 -29 -30 -31
leaf_value=-0.0056283338693187083 0.16087799375910417 -0.020691536415849615 -0.020357021963118616 0.20087601706083336 0.013333423771873061 0.012872818488035224 0.039796269672358622 -0.007533135136096724 0.047970304425089663 0.063141378462692771 -0.034886726975707383 0.0031731395878815318 -0.036529722510534803 0.033107730212999641 0.029272883962128904 0.11472603655678913 -0.033888097314293444 0.086316062794333487 0.0080923760040010097 0.13165647380299364 -0.0083463157077280168 -0.010444296381847292 0.039901475992435632 0.0017754664744199832 0.17117299291382532 0.091411340393297749 -0.018097087896295501 0.16360969862566196 0.055036946916726552 0.042446665241546604
leaf_weight=57.767553962767124 8.9299295246601087 459.19824381917715 373.51887132972479 4.34756214916706 965.29498075693846 1815.6555281355977 150.54094152152538 1033.2728624939919 20.814391046762466 26.258831582963467 990.26874424517155 215.39867654442787 159.9256551489234 609.71023850142956 105.93478846549988 19.483176231384277 200.470906637609 16.923406682908535 836.7059138789773 12.403758659958838 1332.2881269082427 572.60150014609098 102.22180669754744 1122.1052196696401 6.6481365710496894 28.141046658158302 473.54523336142302 2.6239119917154303 15.851171657443045 77.128325194120407
leaf_count=470 46 4013 2991 26 6391 11508 945 8290 125 163 9260 1430 1247 3440 546 96 1642 117 5785 81 9284 4566 747 8184 43 153 4333 15 129 483
internal_value=-3.71229e-05 -0.0122709 0.00918 0.0108503 0.00564236 0.0191242 0.00404713 -0.0204018 0.00256045 -0.00249144 -0.0272871 -0.00135684 -0.0267985 0.0367983 0.0504129 0.0425477 -0.0118156 0.0152043 0.000501877 0.0183332 -0.00200497 0.00157754 0.000681215 0.00585637 0.0479176 0.03568 -0.0294553 -0.0190737 -0.0181647 0.0135281
internal_weight=11816 5077.13 6738.85 6362.7 3904.85 2457.85 3770.5 2772.25 3619.96 2304.88 1538.5 2654.66 180.74 642.199 134.348 125.418 1233.74 74.691 2473.92 304.931 2168.99 1829.84 1803.58 1230.98 108.87 637.851 1463.81 376.143 475.049 292.527
internal_count=86549 41957 44592 41586 26459 15127 25771 24112 24826 17845 14180 18435 1372 3619 688 642 9932 587 17063 1994 15069 13703 13540 8974 790 3593 13593 3006 4142 1913
is_linear=0
shrinkage=0.05


Tree=13
num_leaves=31
num_cat=0
split_feature=30 22 19 26 30 23 23 19 25 19 25 19 15 19 19 9 19 26 30 0 16 19 11 19 22 3 19 19 22 19
split_gain=487.686 148.459 256.793 127.504 109.929 76.1399 74.7523 202.007 87.2216 93.2947 76.7284 119.633 79.4597 151.935 72.4653 70.8311 88.7143 68.399 68.5779 63.9571 61.6993 61.5119 129.859 57.0286 270.17 101.707 111.647 74.2743 155.098 64.573
threshold=0.21677984055683913 61206.530940000004 61328.995000000003 1.0000000180025095e-35 0.54136451673470365 61800.385000000002 58237.100000000013 58256.80000000001 57295.095000000016 57450.155000000006 56253.126666666685 56106.465000000004 54575.475000000006 54573.67500000001 11853.540000000003 1.4372605205857687 65172.165000000008 1.0000000180025095e-35 0.36798760878047815 11696.660304152056 6066.9275000000007 60609.790000000008 60690.763117421731 21604.950000000004 21702.077000000005 38118.330533467437 38637.230000000003 23349.850000000002 23212.754370000006 42490.795000000006
decision_type=2 2 2 2 2 2 2 2 2 2 2 2 2 2 2 2 2 2 2 2 2 2 2 2 2 2 2 2 2 2
left_child=3 2 4 14 6 -4 7 8 9 10 11 12 13 17 -1 -5 -17 18 20 -16 -2 -8 -23 -19 -25 26 27 -26 -29 -27
right_child=1 -3 5 15 -6 -7 21 -9 -10 -11 -12 -13 -14 -15 19 16 -18 23 -20 -21 -22 22 -24 24 25 29 -28 28 -30 -31
leaf_value=-0.033994432856688898 0.16713770748208467 -0.03498496631538394 0.18699450667487055 -0.012848138304470577 0.020172969039255625 -0.058338163484622563 -0.044882420886397892 0.11885572775023703 -0.053874100019490993 0.068838918391561588 -0.037659211407006787 0.066062162600551616 -0.037869316005007814 0.107033891970615 0.19660833032087494 0.0043762878049145677 0.21455587409290669 0.0020181257257056227 0.010244362291505091 -0.014686298455161787 -0.0073924220687999614 0.24082569467327747 -0.036107379628754675 0.21300987267938842 -0.027002667062037262 -0.020026760491645219 0.085048204281441581 0.14240172109344282 0.021100778428985736 0.010731595810105077
leaf_weight=913.3698063492775 5.0791959166526786 202.48174683004618 25.512877687811855 1445.9668077006936 1454.9450807273388 3.6100891456007949 119.31506713479757 39.197193115949631 62.305218376219273 57.743880458176136 103.67353198677301 81.03739421069622 106.66336311399937 36.745173335075378 3.5963202267885199 793.27433459460735 5.0525438115000716 1207.001741565764 899.42982563376427 862.81858251988888 1674.1297388002276 6.1592142730951336 13.536877214908598 17.269812792539597 73.254843272268772 239.8715346083045 74.368014246225357 27.4551967009902 656.01642686873674 591.15296100080013
leaf_count=8737 26 1685 168 12110 8396 30 984 235 501 320 780 439 819 233 19 6193 32 8477 5923 7027 12552 46 112 112 478 1634 375 167 4019 3920
internal_value=-4.31452e-05 0.00726761 0.00839696 -0.0141738 0.00782508 0.156583 0.00487576 0.00572222 0.00497228 0.00559893 0.00496857 0.00574534 0.00487381 0.00570247 -0.0241681 -0.00624799 0.0057065 0.00502115 -0.000896932 -0.0138093 -0.00686451 -0.0313689 0.0504931 0.0103082 0.0162665 0.0142223 0.0265901 0.0208451 0.0259735 0.00185333
internal_weight=11802 7777.96 7575.47 4024.08 7546.35 29.123 6091.41 5952.4 5913.2 5850.89 5793.15 5689.48 5608.44 5501.77 1779.78 2244.29 798.327 5465.03 2578.64 866.415 1679.21 139.011 19.6961 2886.39 1679.39 1662.12 831.094 756.726 683.472 831.024
internal_count=86549 52431 50746 34118 50548 198 42152 41010 40775 40274 39954 39174 38735 37916 15783 18335 6225 37683 18501 7046 12578 1142 158 19182 10705 10593 5039 4664 4186 5554
is_linear=0
shrinkage=0.05


Tree=14
num_leaves=31
num_cat=0
split_feature=10 3 30 19 7 26 13 19 3 25 19 3 19 19 13 9 17 19 22 19 0 19 22 19 22 19 0 19 12 8
split_gain=449.411 182.611 155.65 125.121 101.889 81.1019 67.701 139.17 67.6579 65.0029 97.0497 57.416 108.114 59.4006 61.7266 52.5332 56.218 104.515 50.0196 365.109 135.979 95.0945 396.316 65.1567 63.5314 60.8427 189.631 56.4275 269.378 74.535
threshold=42.569539927333373 6916.4648048696863 0.3264070821622001 6972.0100000000011 -8.55282347943057 1.0000000180025095e-35 49158.899302282582 49204.740000000005 6315.7931583956661 48259.490000000013 48629.820000000007 9165.0961001226297 9298.340000000002 9815.6400000000012 9702.0447995224604 -31.294049957066353 39060.013750000006 39063.350000000013 9002.8942800000023 8948.4800000000014 9047.9347751717432 9326.9950000000008 9275.086760000002 9047.3250000000025 8831.3846300000023 7320.9950000000008 7291.4036404215958 9605.635000000002 9565.5209999999697 4.6297226489704046
decision_type=2 2 2 2 2 2 2 2 2 2 2 2 2 2 2 2 2 2 2 2 2 2 2 2 2 2 2 2 2 2
left_child=1 3 4 8 -2 -3 7 9 -1 10 15 12 -6 -13 -15 -4 17 -17 19 25 23 -20 -23 24 -21 -7 -27 -24 29 -29
right_child=2 5 6 -5 11 18 -8 -9 -10 -11 -12 13 -14 14 -16 16 -18 -19 21 20 -22 22 27 -25 -26 26 -28 28 -30 -31
leaf_value=0.090840513657203581 -0.010073636988965459 -0.031510408350656931 0.024360949746048147 0.14146024565712348 0.021479699167767072 -0.042069229023281182 -0.0040372053500957608 0.073397840178097043 -0.0016742640029470863 -0.033496695167850622 0.11049086438327621 -0.050685601585938579 0.17777608708263953 0.18019445524413025 0.0042527998664141997 0.010995097264015277 -0.0059254251772600814 0.066804016132220631 -0.05474146400938365 0.24339062557766777 -0.04085227027625235 0.20546477641904209 -0.05107712835626721 0.24208052241711805 0.013583408315239293 0.25158273441751894 -0.007771210066126551 -0.0053151002209460901 -0.017904625324448642 0.28299716885369869
leaf_weight=24.310542225837708 1878.3135493174195 1112.6098570302129 813.85663068294525 23.300217010080814 74.106891691684723 133.90351550281048 565.14491758495569 97.769832268357277 105.62875117361546 73.804668486118317 25.82225775718689 49.503112204372883 13.006175689399241 4.9939889162778845 2805.9516681954265 2186.6991271749139 466.09579828381538 87.237320721149445 166.27900536358356 4.7681154310703269 8.2210701778531057 20.221752665936947 115.00886675715446 20.316631697118282 8.1447044759988767 7.197444222867488 339.37656905502081 2.9187470600008956 541.66027396172285 9.6636457964777929
leaf_count=138 14702 10615 4903 126 524 1111 3898 568 741 480 137 394 91 36 20360 13482 3046 449 1505 33 64 160 1022 142 59 52 2824 28 4780 79
internal_value=-5.26986e-05 -0.0182098 0.0051975 0.0347664 -0.000972574 -0.0214697 0.0120958 0.0145263 0.0156345 0.0129509 0.0139085 0.00482702 0.0448151 0.0036092 0.00456538 0.0132067 0.00989366 0.0131362 -0.0133609 -0.0011616 0.141218 -0.0208013 -0.012616 0.186263 0.0984407 -0.0134446 -0.0023851 -0.0192054 -0.0125919 0.216117
internal_weight=11785.8 2643.53 9142.31 153.24 4825.88 2490.29 4316.43 3751.29 129.939 3653.52 3579.71 2947.56 87.1131 2860.45 2810.95 3553.89 2740.03 2273.94 1377.68 521.928 41.4505 855.752 689.473 33.2295 12.9128 480.478 346.574 669.252 554.243 12.5824
internal_count=86549 23479 63070 1005 36107 22474 26963 23065 879 22497 22017 21405 615 20790 20396 21880 16977 13931 11859 4285 298 7574 6069 234 92 3987 2876 5909 4887 107
is_linear=0
shrinkage=0.05


Tree=15
num_leaves=31
num_cat=0
split_feature=14 26 16 21 18 17 14 4 3 3 22 4 18 1 14 17 3 18 3 18 3 2 2 8 16 21 3 13 1 21
split_gain=424.891 107.664 71.5165 116.968 123.11 86.6534 58.3417 57.0871 63.0012 117.895 52.4149 48.7936 55.238 48.1952 46.4689 43.6529 62.8059 49.712 42.9661 42.9114 80.5102 74.5891 62.1764 48.4043 45.2536 43.3146 48.3382 42.6569 38.5795 85.2984
threshold=0.013241569965444342 1.0000000180025095e-35 6808.7900000000009 13749.300000000001 14852.382500000002 39411.412500000006 0.0088347337216080086 63.180109871544936 7974.4917840295284 7529.9216531680831 61206.530940000004 75.367960058664792 32159.750000000004 32425.894058871378 0.027984855855198252 43451.807500000003 42930.312579220918 43774.610000000008 6916.4648048696863 11814.417500000001 9081.7619521342986 8804.3378183976656 18884.988911308232 2.5255089218775741 18721.645000000004 8823.3300000000017 8900.4147430933062 33446.294355616919 18827.007606169223 18729.215000000007
decision_type=2 2 2 2 2 2 2 2 2 2 2 2 2 2 2 2 2 2 2 2 2 2 2 2 2 2 2 2 2 2
left_child=1 6 -2 7 -5 11 -1 -4 9 -9 15 12 28 -14 27 -7 17 -17 -3 20 21 -20 24 -23 -21 26 -25 -15 29 -6
right_child=2 18 3 4 5 10 -8 8 -10 -11 -12 -13 13 14 -16 16 -18 -19 19 22 -22 23 -24 25 -26 -27 -28 -29 -30 -31
leaf_value=-0.030760869732776315 0.029708867552543091 0.056693344371122847 -0.012123671294968047 0.12064203243724514 0.013545948368426573 -0.0094363353000620522 -0.013217715744976436 0.0077886146173220374 -0.0027322217695650219 0.12343964997021656 -0.025468714825460786 0.046779148147181551 0.060367524923368138 -0.0066898541190318897 0.0089603969117926369 0.15575572018822986 0.0061558380839356573 -0.0015003588283347413 -0.0071632280505473031 0.027084882575363678 -0.024832424941132955 0.1190200231330425 -0.0039738666136746757 0.15208538212118039 0.17442327965723725 0.0024720928066450198 -0.05767217536545987 0.032852184943359362 0.0035557909570905124 0.10013358399219581
leaf_weight=927.85832038521767 326.6645435616374 27.149340830743313 1137.884262368083 24.609341979026794 217.20682807266712 504.94237980246544 968.69422391057014 70.527365662157536 245.58923845738173 32.050361797213554 165.81591565907001 110.50898140668869 71.471918098628521 77.871245257556438 663.25526607036591 12.626727536320688 1847.9378841295838 8.348310172557829 321.85750898718834 114.6027203425765 656.87535575032234 17.976115122437477 1185.9911212697625 11.162906110286711 5.4597665071487418 47.269449517130852 3.6429353132843962 549.40951500833035 1397.5567284300923 32.728276796638966
leaf_count=8774 1773 169 8859 157 1445 3498 8241 448 1752 192 1409 630 414 511 3796 82 12514 56 2819 879 6086 127 8923 70 33 389 32 3343 9030 183
internal_value=-0.000351045 -0.0129033 0.00682929 0.00578695 0.00905217 0.00856695 -0.0218004 -0.00670283 0.0110137 0.0439237 0.00170961 0.0141488 0.0129506 0.0204007 0.0181873 0.00360804 0.00713236 0.093166 -0.00584904 -0.00656705 -0.0140476 0.00357905 -0.000502781 0.0467698 0.033785 0.0258472 0.100475 0.0279434 0.00679147 0.0248843
internal_weight=11785.5 4288.54 7497.01 7170.34 5684.29 5659.68 1896.55 1486.05 348.167 102.578 2539.67 3120.01 3009.5 1362.01 1290.54 2373.86 1868.91 20.975 2391.99 2364.84 1058.78 401.909 1306.05 80.0514 120.062 62.0753 14.8058 627.281 1647.49 249.935
internal_count=86634 36542 50092 48319 37068 36911 17015 11251 2392 640 17559 19352 18722 8064 7650 16150 12652 138 19527 19358 9523 3437 9835 618 912 491 102 3854 10658 1628
is_linear=0
shrinkage=0.05


Tree=16
num_leaves=31
num_cat=0
split_feature=30 22 19 24 19 0 19 12 25 10 3 19 16 19 24 19 16 4 19 15 19 19 22 19 19 22 3 19 13 19
split_gain=394.164 107.171 181.849 104.37 171.958 102.679 99.6654 101.429 97.415 91.1477 106.208 97.7547 94.4001 131.483 93.6821 113.084 74.994 71.2512 68.6743 90.6882 108.13 68.0643 67.936 277.995 101.346 357.763 66.2307 271.02 71.4197 85.2406
threshold=0.21677984055683913 61206.530940000004 60976.19000000001 58401.893333333348 58256.80000000001 60978.739430187394 11853.540000000003 11696.037999999984 57295.095000000016 213.14302273448354 36342.196309362545 35380.705000000009 6808.7900000000009 6792.2350000000015 34576.07 33922.155000000006 32210.057500000003 74.259650821897566 57212.820000000007 55722.632500000007 56106.465000000004 32455.495000000003 9002.8942800000023 8948.4800000000014 9355.0850000000009 9275.086760000002 19309.329202837253 19552.970000000005 18871.597763530499 19149.450000000004
decision_type=2 2 2 2 2 2 2 2 2 2 2 2 2 2 2 2 2 2 2 2 2 2 2 2 2 2 2 2 2 2
left_child=6 2 3 4 8 -4 22 -8 9 12 11 14 13 -2 15 16 21 -14 19 20 -12 -11 23 -1 -24 -26 27 28 29 -9
right_child=1 -3 5 -5 -6 -7 7 26 -10 10 18 -13 17 -15 -16 -17 -18 -19 -20 -21 -22 -23 24 -25 25 -27 -28 -29 -30 -31
leaf_value=-0.015354444006551605 0.015776494670476291 -0.030735844050288171 0.16856373790970533 -0.037139575299722005 0.10539410898170028 0.0098706661157446206 0.17058859327926834 0.013998407203333556 -0.055228952978911651 0.021556505053729913 0.0071504106036740234 0.055706673226189433 -0.0017188883101587162 0.1113141663204989 -0.031727721426356208 0.083264866860426029 -0.013776385602406871 0.033105642850078318 0.049650397884876456 -0.030436036383009887 0.081717041175365851 0.09236393962529299 -0.052979822263125989 0.15184877396809005 0.21724780875391134 -0.024334791292774299 -0.0098391626826038539 0.22636629104372472 -0.034990918878617973 0.16634241668282315
leaf_weight=714.01294422894716 299.84613723307848 192.51600094139576 27.15877877920866 134.87286473810673 44.356176562607288 16.317231990396976 8.148721903562544 169.61791157722473 63.056573078036308 330.57349181175232 2174.6197831258178 234.30188502371311 3510.3683008402586 40.928862549364567 82.45261025428772 73.341814965009689 143.55079194903374 153.29375120997429 94.642546884715557 157.56369214504957 49.729841604828835 37.822332352399826 318.16253177821636 25.755976423621178 15.605987623333929 851.60259498655796 1702.75801564008 14.589859589934347 78.300334207713604 9.7074647694826108
leaf_count=6617 1648 1671 169 1124 249 121 43 1331 521 1820 13841 1205 25101 203 489 421 839 930 520 1199 247 206 3256 159 108 8268 13543 97 633 55
internal_value=-0.000341504 0.00611017 0.00703514 0.00645377 0.00723871 0.109004 -0.0133188 -0.00545183 0.006654 0.00718252 0.0132307 0.0279197 0.00207955 0.0272511 0.0181696 0.0251989 0.0168803 -0.000261772 0.00788055 0.00622088 0.0088175 0.0288261 -0.0214227 -0.00953306 -0.0288428 -0.0199874 -0.00617817 0.016722 0.00484945 0.0222453
internal_weight=11769.6 7861.31 7668.8 7625.32 7490.45 43.476 3908.26 1983.12 7446.09 7383.04 3378.6 902.043 4004.44 340.775 667.741 585.288 511.947 3663.66 2476.56 2381.91 2224.35 368.396 1925.14 739.769 1185.37 867.209 1974.97 272.216 257.626 179.325
internal_count=86634 52524 50853 50563 49439 290 34110 15702 49190 48669 20787 4980 27882 1851 3775 3286 2865 26031 15807 15287 14088 2026 18408 6776 11632 8376 15659 2116 2019 1386
is_linear=0
shrinkage=0.05


Tree=17
num_leaves=31
num_cat=0
split_feature=30 22 26 10 10 13 18 9 10 4 25 22 8 23 13 16 16 13 10 17 3 8 1 4 1 22 18 27 3 22
split_gain=358.506 98.1097 95.4349 78.1876 74.9049 132.323 105.897 59.9781 58.7868 66.7122 59.3694 57.8101 56.1516 51.9794 47.6509 42.5659 53.329 46.1512 41.6983 43.6222 41.3193 40.6622 39.4285 38.2749 37.8229 77.9016 98.8282 35.7657 43.4177 113.824
threshold=0.21677984055683913 61206.530940000004 1.0000000180025095e-35 49.239786959743363 145.98465586877987 38296.165201060452 8079.4850000000015 1.4372605205857687 60.877214079505897 77.932499473498964 18911.100000000006 19318.980000000003 -81.414915247305274 62365.053333333344 18339.292117097699 7821.5925000000007 6808.7900000000009 7713.8163542702232 298.73965787543136 60994.351250000007 8247.2316487055032 222.49144559462516 55697.682891572818 60.245346039466533 19446.380048450523 19673.637900000005 19141.495000000003 1.5000000000000002 9165.0961001226297 9069.9826600000015
decision_type=2 2 2 2 2 2 2 2 2 2 2 2 2 2 2 2 2 2 2 2 2 2 2 2 2 2 2 2 2 2
left_child=2 4 3 -1 6 -6 15 -4 27 10 11 20 14 -9 -13 16 -2 -17 -7 22 -10 24 -20 -5 -12 26 -26 28 29 -8
right_child=1 -3 7 23 5 18 8 13 9 -11 21 12 -14 -15 -16 17 -18 -19 19 -21 -22 -23 -24 -25 25 -27 -28 -29 -30 -31
leaf_value=-0.031741576502557899 0.026049861571038099 -0.029884358004477526 -0.012134475554618895 -0.012318158260171116 0.019707803752145366 -0.0028232931183183236 0.0010811799710462189 0.0036088197922320292 0.13511876757320668 0.078076780422233191 -0.036351101900053272 0.16027993048558431 0.16728846518809379 0.1145557790116649 -0.055256288438520942 0.20575868138718101 -0.0027039102943639294 0.04074657905936193 0.014055527990771638 0.10370646078543325 0.0067289643103272947 0.13043977666855616 -0.0061898253421896008 0.045846867615161928 -0.061371365941417982 -0.0087208324039610152 0.19210409039566193 -0.026816113241320529 -0.020648932697586508 0.14886767302291193
leaf_weight=905.49327454715967 333.61339186131954 188.21214013546705 1397.7905718907714 746.81700430065393 2146.4463305473328 1420.9329034686089 149.1060661226511 777.24908525496721 6.3405717611312857 27.388244599103928 121.04030867666006 3.7370192855596569 11.49864489585161 10.702354066073893 8.1715700626373273 4.4603042900562277 312.12328162044287 84.760537199676037 918.78642719984055 12.215125963091849 537.17341186106205 5.1374478638172141 325.75871421396732 29.396627813577652 6.0124531909823444 630.75013609975576 10.669510670006273 399.70965453237295 202.57394704967737 14.276307709515093
leaf_count=9372 1794 1671 12061 6257 12436 10086 1164 6130 41 160 845 20 65 68 55 28 2245 593 5578 79 3727 30 2383 222 40 4437 73 3203 1674 97
internal_value=-0.000337083 0.00578155 -0.0128053 -0.0217597 0.00665416 0.0104587 0.00025585 -0.00591583 -0.00538256 0.000826762 -0.000751525 0.0115402 0.0884782 0.00511576 0.0123809 0.0166242 0.0121514 0.0489958 0.00304468 0.00967919 0.00822675 -0.00975921 0.00875632 -0.0101153 -0.0106965 -0.00590024 0.100747 -0.016476 -0.00518216 0.0139947
internal_weight=11748.3 7880.89 3867.45 1681.71 7692.68 4824.14 2868.54 2185.74 2133.59 1367.92 1340.53 566.921 23.4072 787.951 11.9086 734.958 645.737 89.2208 2677.69 1256.76 543.514 773.61 1244.55 776.214 768.472 647.432 16.682 765.666 365.956 163.382
internal_count=86634 52524 34110 15851 50853 30562 20291 18259 15631 9493 9333 3908 140 6198 75 4660 4039 621 18126 8040 3768 5425 7961 6479 5395 4550 113 6138 2935 1261
is_linear=0
shrinkage=0.05


Tree=18
num_leaves=31
num_cat=0
split_feature=14 10 20 22 26 17 10 2 22 30 8 7 10 30 30 7 10 17 9 21 16 17 1 26 20 20 2 3 8 13
split_gain=325.544 98.6721 147.919 89.4345 78.9737 50.2223 103.693 87.97 73.5492 60.2656 57.948 51.2324 48.5029 47.7094 46.1958 46.5996 44.3819 43.3619 45.7925 42.2478 71.1008 35.804 39.8992 34.5719 33.6571 58.74 86.0971 49.241 42.9443 42.6805
threshold=0.010440894912949179 59.706148064238413 7039.6266100000003 61206.530940000004 1.0000000180025095e-35 39411.412500000006 151.74942192871137 19076.574838265544 19318.980000000003 0.19450984756754361 212.85544295462921 73.182218042602486 298.73965787543136 0.1234415702364486 0.19341239606111346 17.053706017303742 49.239786959743363 7194.5437500000007 14.309047705029601 19910.350000000002 19802.250000000004 60994.351250000007 55697.682891572818 1.0000000180025095e-35 9045.6776900000023 11778.274670000001 18884.988911308232 8815.5345576290292 3.4122350037168965 13054.187468678685
decision_type=2 2 2 2 2 2 2 2 2 2 2 2 2 2 2 2 2 2 2 2 2 2 2 2 2 2 2 2 2 2
left_child=4 2 17 5 16 6 7 8 14 23 13 -10 -7 -9 15 -3 -1 18 -2 20 -18 22 -14 -8 27 -26 29 -6 -29 -27
right_child=1 3 -4 -5 24 12 9 10 11 -11 -12 -13 21 -15 -16 -17 19 -19 -20 -21 -22 -23 -24 -25 25 26 -28 28 -30 -31
leaf_value=-0.032986161348687038 0.01902345650190676 -0.036420254816176965 -0.012831509492136756 -0.025264541869669994 -0.0016248947943518464 -0.0031306066652345803 0.21351734753365045 0.14182885854166394 0.13305512021994859 0.018111410642695565 0.085673578949583162 -0.044500460644492867 0.014660328181947803 -0.0093509329615324918 0.010414002856257222 0.15454902654121899 0.01317766025496221 0.1610867409827251 0.10978637598745443 -0.018897834553560547 0.26595783025922975 0.0928601096007588 -0.005714630087044194 0.051004361374498132 -0.024487266735534127 0.0020809972285247566 -0.0079746249318484903 0.1242146904859977 0.02201031740611005 0.081871688741903426
leaf_weight=692.22233279794455 263.3532647266984 4.5380494222044936 1441.7902709022164 208.70521296560764 272.78289185464382 1549.5909076929092 6.0299133658409101 5.2458236813545218 20.557195939123634 2226.3754612505436 16.579009726643562 5.0633822679519644 905.33391921967268 1006.6346166655421 838.19018831849098 10.789284795522688 59.049147725105286 5.8742676153779021 14.671066492795942 458.84087824076414 2.9193476513028136 12.939564868807791 327.08451025187969 7.1565641835331917 519.77522285282612 27.849973320960999 730.34731666743755 14.743639223277567 33.932965874671936 42.086692608892918
leaf_count=7398 1627 37 11980 1857 2424 11326 44 43 114 12791 95 31 5462 7193 5417 67 506 42 74 3878 22 79 2403 50 5115 221 5677 92 266 303
internal_value=-0.00032807 0.00439533 -0.00633573 0.00698503 -0.0150159 0.00795457 0.0114458 0.00287925 0.0144926 0.0187426 -0.007048 0.0979649 0.0027742 -0.00856718 0.011987 0.0980077 -0.0246905 0.0266533 0.0238129 -0.0136644 0.0250862 0.0101215 0.0092528 0.125318 -0.00786677 -0.0113998 -0.0028997 0.00664161 0.052967 0.0500977
internal_weight=11731.1 8876.5 1725.69 7150.81 2854.55 6942.11 4147.16 1907.6 879.138 2239.56 1028.46 25.6206 2794.95 1011.88 853.518 15.3273 1213.03 283.899 278.024 520.809 61.9685 1245.36 1232.42 13.1865 1641.52 1320.06 800.284 321.459 48.6766 69.9367
internal_count=86634 60732 13723 47009 25902 45152 25882 12997 5666 12885 7331 145 19270 7236 5521 104 11804 1743 1701 4406 528 7944 7865 94 14098 11316 6201 2782 358 524
is_linear=0
shrinkage=0.05


Tree=19
num_leaves=31
num_cat=0
split_feature=30 30 22 10 3 20 2 10 13 7 14 20 13 7 2 30 14 26 7 13 27 3 21 6 9 7 9 10 22 11
split_gain=296.908 88.3532 83.3467 62.4071 85.9366 71.2348 76.5119 73.7103 49.951 46.9567 46.8374 43.8047 50.7254 40.5524 39.2147 37.1873 64.2248 35.2113 38.9545 34.3741 33.9852 39.7257 95.9334 43.4646 33.7853 35.2125 31.5528 30.9548 77.1858 38.7368
threshold=0.21677984055683913 0.14338009349304406 61206.530940000004 213.14302273448354 36342.196309362545 7950.385510000001 8135.4285342904104 60.877214079505897 47112.671530559848 6.8190322413547628 0.018289691026106916 7740.4526100000012 7111.9619378743037 -203.59205798946275 7078.7537039124854 0.18433209646818627 0.014449292104038896 1.0000000180025095e-35 27.385726965483631 7713.8163542702232 1.5000000000000002 9165.0961001226297 9013.5500000000011 63.101513143505187 17.006455519869224 287.77832569466051 -14.968070595428323 163.59424922992184 40137.714430000007 59200.631738989214
decision_type=2 2 2 2 2 2 2 2 2 2 2 2 2 2 2 2 2 2 2 2 2 2 2 2 2 2 2 2 2 2
left_child=1 10 3 5 24 6 11 20 13 27 14 12 -2 -9 -1 16 -11 18 -16 -13 21 22 -7 -24 25 -5 -23 -3 -29 -30
right_child=2 9 -4 4 -6 7 -8 8 -10 15 -12 19 -14 -15 17 -17 -18 -19 -20 -21 -22 26 23 -25 -26 -27 -28 28 29 -31
leaf_value=0.053771064851294847 0.018595856934474807 -0.016652785658386796 -0.028364910834743479 0.035539454178255984 0.0062496980272635201 0.0017478399469148009 0.20762062861242836 -0.033616508658669095 -0.034319011272722751 0.0026381315169201674 0.11318740678114148 0.13004263103979777 -0.013389344183548244 0.0051053753608251437 -0.034671162857756614 -0.0080462275648176401 0.047359209733623647 -0.016574546606426998 0.074736663041440943 0.0363138518477523 -0.025161782837279319 0.14195539675335098 0.05884265177691065 0.22862055910438339 0.012642391388865802 -0.013311373279717102 -0.021929768934616883 0.096265119667460472 0.0070397574755688731 -0.037513107107113607
leaf_weight=16.499812737107277 489.40399740636349 1032.6233484447002 180.82311265915632 498.74233056604862 2785.9045504629612 158.27601753920317 5.1622926294803611 69.604578368365765 88.130643337965012 498.93712547421455 6.3593765944242469 11.872992694377897 166.00048013776541 2365.5841438099742 564.69681772589684 569.12602892518044 95.677066758275032 737.98707829415798 8.2547361478209478 55.541723638772964 398.27991618961096 2.981929935514926 8.6638338640332204 6.6734930872917166 392.77615568041801 39.835060700774193 194.76264251023531 20.274437211453915 176.6574679017067 67.402646839618683
leaf_count=142 2765 9722 1671 2693 17949 1242 32 451 656 3902 49 74 1275 16009 6025 4312 667 6986 67 378 3272 23 56 40 2082 205 1651 159 1486 593
internal_value=-0.000319162 -0.0118191 0.00519118 0.00597531 0.0106453 0.00165799 0.0158122 -0.00147111 0.0026603 -0.00620192 -0.0221822 0.0144423 0.0104947 0.00399859 -0.0228307 0.00108971 0.00983403 -0.0237948 -0.0330949 0.0528212 -0.0150163 -0.00413525 0.0133178 0.132715 0.0237938 0.0319263 -0.0194584 -0.0127446 0.0025228 -0.00526451
internal_weight=11713.5 3794.5 7919.02 7738.2 3717.26 4020.94 727.981 3292.96 2523.32 2460.7 1333.8 722.819 655.404 2435.19 1327.44 1163.74 594.614 1310.94 572.952 67.4147 769.638 371.358 173.613 15.3373 931.354 538.577 197.745 1296.96 264.335 244.06
internal_count=86634 34110 52524 50853 22929 27924 4524 23400 17116 20841 13269 4492 4040 16460 13220 8881 4569 13078 6092 452 6284 3012 1338 96 4980 2898 1674 11960 2238 2079
is_linear=0
shrinkage=0.05


Tree=20
num_leaves=31
num_cat=0
split_feature=10 17 19 13 19 19 24 24 3 7 19 2 19 24 23 19 19 15 19 24 15 19 24 4 1 19 19 15 3 19
split_gain=290.74 109.83 306.579 97.3174 357.364 179.524 510.46 99.1617 96.4587 146.213 145.146 297.862 171.381 323.448 118.343 138.009 113.671 289.511 87.443 258.931 92.3141 233.552 85.1642 76.1796 72.9662 130.019 71.1568 84.5423 70.0388 137.19
threshold=42.569539927333373 7913.942500000001 7917.0900000000011 38296.165201060452 38783.30000000001 42286.55000000001 42203.066666666673 38596.826666666668 42600.364356986669 52.310917649465416 44441.19000000001 45303.519516412554 47454.850000000006 47583.200000000012 43885.13666666668 45680.400000000001 48629.820000000007 48646.165000000008 49813.210000000006 49641.928333333337 57462.4925 57695.890000000007 45353.336666666684 66.794329095005025 55697.682891572818 55246.770000000011 48171.845000000008 46862.92500000001 6916.4648048696863 7291.1750000000011
decision_type=2 2 2 2 2 2 2 2 2 2 2 2 2 2 2 2 2 2 2 2 2 2 2 2 2 2 2 2 2 2
left_child=1 2 28 4 -2 -5 -7 -6 9 -8 -10 14 -13 26 -12 -16 -15 23 -19 -20 21 24 -17 -18 25 -21 27 -14 -1 -30
right_child=3 -3 -4 5 7 6 8 -9 10 -11 11 12 13 16 15 22 17 18 19 20 -22 -23 -24 -25 -26 -27 -28 -29 29 -31
leaf_value=0.023885666740418029 0.0057910543060221663 -0.022027196533927915 0.16391701255250191 -0.023404297873150959 0.11824383231954337 0.17792332307858361 0.14016692171854395 0.042662179141608816 -0.034015588004432794 0.010499127171458905 0.21319863196323477 -0.028625937807807068 0.16025973266966984 -0.033389612959099091 0.010332374334600714 0.19731770625192235 0.10949697386632468 -0.033826349200539174 0.1356427054268215 0.0013265363699393781 -0.012922685349362468 0.096257844692830621 0.054293275930282228 -0.019861298874474794 -0.019224018833452955 0.06245004989789487 0.16663081646559577 0.026114641414281704 -0.040732892905046406 0.012934087124728473
leaf_weight=154.86499916762114 5146.1366815045476 1789.8844771832228 27.940990164875984 796.37143061310053 82.844584219157696 41.25900673866272 30.460011281073093 91.135088160634041 296.33817751705647 75.942399516701698 15.047931887209414 449.54278341680765 17.236008554697037 209.84914252907038 54.898309610784054 22.404452502727509 80.250407181680202 164.84246718138456 36.737887553870678 407.21154066175222 645.13435876369476 75.308991670608521 19.438644342124462 13.26212567090988 234.659349180758 110.64075772464275 28.355282075703144 36.87009335309267 246.58746070414782 230.29958099126816
leaf_count=973 34089 17885 179 5813 438 282 223 465 2167 501 97 3293 110 1503 388 140 470 1137 201 2763 5409 410 116 76 1731 610 155 268 2296 2023
internal_value=-0.000294885 -0.0155997 0.00183957 0.00378805 0.00817378 -0.00225343 0.00324091 0.0786522 0.000857912 0.0476194 -0.000847188 0.00290194 -0.000654852 0.00544807 0.0827593 0.0624698 0.00140301 0.00553254 0.000751269 0.00452678 0.00125653 0.0123066 0.130874 0.0911511 0.00390506 0.0143858 0.102472 0.0688478 -0.00532876 -0.0148159
internal_weight=11631.8 2449.58 659.693 9182.18 5320.12 3862.06 3065.69 173.98 3024.43 106.402 2918.03 2621.69 2509.9 2060.36 111.789 96.7414 1977.9 1768.05 1674.54 1509.69 1472.95 827.821 41.8431 93.5125 752.512 517.852 82.4614 54.1061 631.752 476.887
internal_count=86211 23356 5471 62855 34992 27863 22050 903 21768 724 21044 18877 18136 14843 741 644 14310 12807 12261 11124 10923 5514 256 546 5104 3373 533 378 5292 4319
is_linear=0
shrinkage=0.05


Tree=21
num_leaves=31
num_cat=0
split_feature=10 20 19 30 4 4 3 19 21 24 1 19 19 0 8 3 19 1 19 1 1 19 3 19 16 25 19 25 9 30
split_gain=265.015 100.673 173.298 86.7847 65.1586 63.5942 60.7338 95.2778 57.6967 56.2043 49.3406 176.072 131.894 152.011 91.5252 65.8373 99.9497 85.9567 85.5955 237.208 52.5704 96.8223 53.5006 49.4999 198.051 76.1531 66.388 178.984 47.3702 52.1176
threshold=42.569539927333373 7039.6266100000003 7244.1400000000012 0.2870726854641274 55.101310394006916 49.049636057141811 6916.4648048696863 6972.0100000000011 6336.6125000000011 6998.9683333333342 39048.067804560327 38783.30000000001 42286.55000000001 41731.642466796089 84.148391533618479 42600.364356986669 43181.305 42944.711376395069 45680.400000000001 45214.769781391784 37529.153839073049 36732.260000000002 37167.78547596922 48171.845000000008 47983.515000000007 46492.794999999998 49813.210000000006 49662.651666666679 -10.071517706853848 0.85196344252871226
decision_type=2 2 2 2 2 2 2 2 2 2 2 2 2 2 2 2 2 2 2 2 2 2 2 2 2 2 2 2 2 2
left_child=1 2 6 5 -3 -2 7 8 -1 -9 11 20 -12 -14 -13 16 -15 -18 -17 -20 21 -7 -23 25 -25 -21 -26 -28 29 -5
right_child=3 4 -4 28 -6 10 -8 9 -10 -11 12 14 13 15 -16 18 17 -19 19 23 -22 22 -24 24 26 -27 27 -29 -30 -31
leaf_value=0.067432812217791238 -0.010168168398134371 -0.024410529591876413 0.19836525559299398 0.011180882018964411 -0.0062256027013910756 0.0066919285616620213 -0.04019501920198975 0.16556335737724293 -0.011888435372814936 -0.0081797181553327509 -0.041392229198826208 0.1505607225194181 0.22186386828822743 -0.0088479984005642477 -0.0018184438711773443 -0.042490289519874248 0.25825293171140307 0.046916228740926443 0.18606054949322903 0.031142842722071726 -0.042053568489724254 0.20304519954439898 0.034811347646891332 0.14424426773528293 -0.046805793604838095 -0.043109828616098689 0.15947890035560622 0.0013106127664219429 0.003980824857594609 0.03982656602502424
leaf_weight=29.491061992943287 1519.3913045451045 1453.9064055457711 12.455035656690596 1879.1667919680476 745.00666189938784 1022.5795515477657 52.407240010797977 16.394646331667904 102.9691371396184 6.5002754330635062 198.37017523497343 33.002193287014961 7.9147359281778327 22.377812847495079 14.04954259097576 109.61772291362286 9.0915929824113864 10.21985102444887 17.633072085678577 47.546788282692432 53.504373587667942 9.6740381717681903 9.2390142530202848 25.385577470064163 63.214882336556911 126.13626196235418 18.670808270573616 425.57383201271296 3397.2295833677053 173.43877919018269
leaf_count=163 12475 15187 73 11774 6691 7580 440 80 688 34 1581 218 52 160 92 866 63 71 108 344 399 55 61 153 481 988 107 3240 21064 923
internal_value=-0.000296701 -0.0150215 0.0172095 0.0035781 -0.0182494 -0.00228373 0.00634954 0.0220508 0.00577172 0.116235 0.00310324 0.0103517 -0.00454924 0.00372412 0.105061 0.00175201 0.0630716 0.146411 -0.00131399 0.00491895 0.00628209 0.00876523 0.120863 0.000398135 0.00795403 -0.0227827 0.00113613 0.00795814 0.00760426 0.0136014
internal_weight=11612.2 2419.13 220.217 9193.03 2198.91 3743.19 207.762 155.355 132.46 22.8949 2223.8 1142.05 1081.75 883.383 47.0517 875.468 41.6893 19.3114 833.779 724.161 1095 1041.49 18.9131 706.528 532.845 173.683 507.46 444.245 5449.84 2052.61
internal_count=86211 23356 1478 62855 21878 29094 1405 965 851 114 16619 8405 8214 6633 310 6581 294 134 6287 5421 8095 7696 116 5313 3981 1332 3828 3347 33761 12697
is_linear=0
shrinkage=0.05


Tree=22
num_leaves=31
num_cat=0
split_feature=10 17 19 13 19 19 0 19 23 24 0 26 18 19 23 19 15 19 11 19 15 15 19 19 24 23 19 19 13 2
split_gain=241.679 98.067 255.332 83.7159 299.229 158.421 392.783 124.268 181.051 77.5887 71.5639 70.7461 67.6996 208.497 105.303 162.336 103.486 89.985 87.7188 84.4108 140.975 80.1841 127.413 75.5663 348.291 186.728 169.855 103.993 193.23 93.2289
threshold=42.569539927333373 7913.942500000001 7917.0900000000011 38296.165201060452 38783.30000000001 42286.55000000001 42278.746842249275 43181.305 42961.015000000007 38596.826666666668 41731.642466796089 1.0000000180025095e-35 59033.332500000011 58974.780000000006 57442.881666666675 57212.820000000007 58257.755000000012 60609.790000000008 61205.553383269631 61811.805000000008 61288.872500000005 55722.632500000007 55246.770000000011 48171.845000000008 48079.158333333347 47140.781666666677 47454.850000000006 49009.975000000006 49158.899302282582 45303.519516412554
decision_type=2 2 2 2 2 2 2 2 2 2 2 2 2 2 2 2 2 2 2 2 2 2 2 2 2 2 2 2 2 2
left_child=1 2 -1 4 -2 -5 10 -8 -9 -6 -7 -3 13 14 15 21 -15 -18 -19 -14 -21 22 23 25 -25 26 29 -26 -29 -10
right_child=3 11 -4 5 9 6 7 8 12 -11 -12 -13 19 16 -16 -17 17 18 -20 20 -22 -23 -24 24 27 -27 -28 28 -30 -31
leaf_value=-0.0048557884338444792 0.0052123878373746615 -0.032471232876050214 0.143602594259365 -0.022366308774975103 0.1041892672793427 0.17880273754966275 -0.046204799731184104 0.14582819426365945 0.019304929198253995 0.038787296881738542 0.074091290705364021 -0.012036193216877629 -0.039610207635329825 0.16502648472898704 -0.035258844343704264 0.061367813841957976 -0.0066024981627037186 0.19846327884311316 -0.018207661770877018 0.12687033719343577 -0.0088837553184207742 -0.031005056630602729 0.058635118142727663 0.1157103906130042 -0.036013606144721058 -0.042551358680719749 0.10723486383933419 0.053209577816932169 -0.0076156647244626152 -0.018900659003438732
leaf_weight=623.50165959447622 5177.6818945035338 734.04293902218342 30.373338624835014 779.7508260011673 88.084473438560963 31.230150923132896 137.47193224728107 21.85307889431715 313.07864961773157 93.466589421033859 34.170860260725021 1001.2523651793599 209.59966773539782 26.269588328897953 177.33275564014912 119.88532397150993 33.513284623622894 13.881702333688738 7.0403148978948584 21.50227914005518 172.89196213334799 173.5684787556529 102.80022171139717 74.334656193852425 143.59751428663731 279.64196538180113 39.052582636475563 189.42387281358242 420.25295292586088 325.87751785665751
leaf_count=5292 34089 8380 179 5813 438 179 1044 143 2145 465 227 9505 1847 149 1457 656 268 82 51 141 1543 1364 557 390 1012 2123 244 1096 2922 2410
internal_value=-0.000292154 -0.0144621 0.0020403 0.00338478 0.00742473 -0.00224176 0.00287256 0.000232444 0.00246034 0.0705189 0.124093 -0.0206804 0.00135854 0.00449807 0.00179433 0.00480634 0.0835232 0.044191 0.125553 -0.0175998 0.00613224 0.00151725 0.00450701 0.00139016 0.0124557 -0.0081728 0.0060065 0.00226636 0.0112825 -0.000180511
internal_weight=11596.4 2389.17 653.875 9207.26 5359.23 3848.02 3068.27 3002.87 2865.4 181.551 65.401 1735.3 2843.55 2439.55 2358.85 2181.51 80.7049 54.4353 20.922 403.994 194.394 2061.63 1888.06 1785.26 827.609 957.651 678.009 753.274 609.677 638.956
internal_count=86211 23356 5471 62855 34992 27863 22050 21644 20600 903 406 17885 20457 16926 16376 14919 550 401 133 3531 1684 14263 12899 12342 5420 6922 4799 5030 4018 4555
is_linear=0
shrinkage=0.05


Tree=23
num_leaves=31
num_cat=0
split_feature=10 17 19 13 19 19 25 19 25 18 19 19 0 25 19 25 19 25 19 17 3 19 11 19 19 25 10 11 19 15
split_gain=220.137 90.7483 214.742 75.6506 261.327 144.741 336.177 113.665 214.686 74.9489 171.304 162.068 272.193 113.701 83.3979 211.268 79.7685 121.078 74.3245 241.563 122.045 79.9472 72.9942 186.477 85.1771 151.241 63.9792 81.4857 89.4568 88.3971
threshold=42.569539927333373 7913.942500000001 7975.0550000000012 38296.165201060452 38783.30000000001 42286.55000000001 42189.455000000009 43425.610000000008 42828.078333333346 45690.447500000002 44441.19000000001 47954.650000000001 47770.852682062476 44025.788333333338 49009.975000000006 48688.986666666671 45680.400000000001 45531.755000000012 7363.4850000000006 7243.7800000000007 6916.4648048696863 6972.0100000000011 58017.564923716905 57960.000000000007 50185.600000000006 50037.758333333339 216.99805332769304 37583.821600039875 36438.250000000007 35724.950000000004
decision_type=2 2 2 2 2 2 2 2 2 2 2 2 2 2 2 2 2 2 2 2 2 2 2 2 2 2 2 2 2 2
left_child=1 2 18 4 26 -5 -7 -8 -9 10 -10 -11 -13 -12 -14 -16 -15 -18 20 -20 21 -1 23 24 -17 -26 -2 28 29 -28
right_child=3 -3 -4 5 -6 6 7 8 9 11 13 12 14 16 15 22 17 -19 19 -21 -22 -23 -24 -25 25 -27 27 -29 -30 -31
leaf_value=0.0057218656880472724 0.0017212448777948154 -0.019977922445903799 0.15051520849062633 -0.021575113840232887 0.065188738783748035 0.11122135019050922 -0.038916419728307609 0.1872839511121748 -0.015868665191716046 -0.026356603665145834 0.14489263603266536 0.10054411899903276 -0.031114390231463219 -0.0080455006590150376 0.090649607991943507 -0.031141545295254619 0.13473836129476832 0.025529554732070532 0.21795805929502229 0.0062986754090256294 -0.033110023700792343 0.10265881262439402 -0.011913880212758738 0.095288533469595538 0.082998004108502832 0.0039795232148253949 0.019975749226483028 -0.0098935703149363053 0.054657049267115801 -0.031955295282395338
leaf_weight=132.25130484253168 3888.7904148623347 1707.4010563865304 23.443485893309116 768.22724401950836 186.41709910333157 69.735466904938221 175.12890014052391 15.647904671728609 160.28676837682724 519.73303283751011 29.029960818588734 71.926687553524971 178.17138514667749 61.037364430725574 68.825659647583961 143.31278881430626 38.594355672597885 74.124669782817364 14.712827049195765 160.89713410288095 297.45486935973167 25.346264451742172 639.0789538025856 59.935248680412769 66.355711929500103 692.75176832079887 777.44434358179569 270.92999449372292 165.03938902914524 91.600274741649628
leaf_count=851 27058 17885 122 5813 903 408 1331 91 1150 3986 169 374 1285 439 375 982 211 457 92 1415 2869 122 5436 318 363 4675 4139 1554 803 535
internal_value=-0.000291578 -0.0139112 0.00192449 0.00319979 0.00702367 -0.00216915 0.00269696 0.000169186 0.00259752 0.00156656 0.0227616 -0.00158716 0.00511654 0.0532958 0.00140324 0.00487199 0.0379925 0.062922 -0.00359904 0.0240318 -0.0142621 0.0213121 0.00118548 0.00988447 0.00421226 0.0108868 0.00493599 0.0145156 0.0209108 0.014502
internal_weight=11573.6 2361.51 654.106 9212.13 5380.22 3831.9 3063.68 2993.94 2818.81 2803.16 363.073 2440.09 1920.36 202.786 1848.43 1670.26 173.756 112.719 630.662 175.61 455.052 157.598 1601.43 962.356 902.42 759.107 5193.8 1305.01 1034.08 869.045
internal_count=86211 23356 5471 62855 34992 27863 22050 21642 20311 20220 2426 17794 13808 1276 13434 12149 1107 668 5349 1507 3842 973 11774 6338 6020 5038 34089 7031 5477 4674
is_linear=0
shrinkage=0.05


Tree=24
num_leaves=31
num_cat=0
split_feature=14 10 20 20 13 20 4 26 22 10 22 20 13 21 30 9 17 13 30 22 17 22 16 4 21 1 30 27 27 8
split_gain=203.064 71.8117 109.144 109.024 90.3953 87.131 66.4016 65.1487 56.8232 36.3248 35.9883 67.1467 54.3787 35.5197 36.3226 31.8695 46.1951 31.0319 31.0138 30.1185 29.3519 51.9323 66.7811 53.16 37.5922 33.5378 28.4352 39.6232 28.1397 43.6167
threshold=0.010440894912949179 114.5215924946922 7950.385510000001 7740.4526100000012 38296.165201060452 7039.6266100000003 64.23149049283947 1.0000000180025095e-35 61206.530940000004 49.239786959743363 7966.6754500000015 7317.5561500000013 7269.8178002832929 19910.350000000002 0.14989632945312156 -14.968070595428323 21038.162500000002 37984.977375470691 0.22534840977665116 20084.367600000001 43451.807500000003 42737.642230000005 43078.247500000005 52.85072040680388 43484.850000000006 43897.597480575168 0.66761028126554911 1.0000000180025095e-35 1.5000000000000002 43.256278432198876
decision_type=2 2 2 2 2 2 2 2 2 2 2 2 2 2 2 2 2 2 2 2 2 2 2 2 2 2 2 2 2 2
left_child=7 2 3 5 15 -2 28 9 20 10 11 -1 -13 14 -11 16 19 -18 -14 -3 21 22 -6 -24 25 -22 27 -26 -4 -30
right_child=1 4 6 -5 8 -7 -8 -9 -10 13 -12 12 18 -15 -16 -17 17 -19 -20 -21 24 -23 23 -25 26 -27 -28 -29 29 -31
leaf_value=-0.028533022473988118 0.019855474103920523 0.033764385530841039 -0.0074823929163198941 0.065998903566902842 -0.0035269034893661653 -0.01730667499513415 0.010589339468895551 -0.0057790828170234537 -0.025297947853670056 0.095583543144665106 -0.036004449971889341 0.31258061537471127 0.024993522900794554 -0.016699385460752909 0.0035787001543177671 0.0091290110652034046 0.014034331571159945 0.061773315277930646 0.22142420573817381 0.087793847310987549 0.032140592266714188 -0.036967257633090847 0.1964377796463519 0.031659559454223288 0.012438527834419238 0.15209251706517182 0.026251248644984973 -0.0022397576156266514 -0.024343938951099091 0.015185531153557384
leaf_weight=93.388383828103542 441.13401902467012 104.26515416800976 1124.3331221342087 86.93862459808588 616.80439805239439 245.51276593655348 376.59246182441711 1565.3943225443363 196.02986041456461 13.639235585927961 484.38443822413683 1.8985029011964787 31.4757189899683 435.97523559629917 50.248390056192875 1743.115321174264 821.67218069732189 35.512170307338238 2.1464786678552619 34.272029116749763 31.573132991790771 114.74014689773321 7.1749124601483372 15.401599556207655 717.66295748203993 7.1460914164781562 141.21495094895363 1279.434434235096 649.91028372943401 78.177294746041298
leaf_count=997 2466 590 9111 543 4324 1978 2670 14057 1875 114 5956 20 335 3829 425 9996 4690 196 19 204 211 853 48 100 4795 43 806 9012 5408 540
internal_value=-0.00028976 0.00335417 -0.00293455 0.0132471 0.00657314 0.00656803 -0.00855044 -0.0123547 0.000764459 -0.0216019 -0.0297561 -0.00627765 0.0522345 -0.0115972 0.0232206 0.0132054 0.0203417 0.0160121 0.0375339 0.0471305 0.00250746 -0.00599374 -0.000435387 0.0840268 0.00545227 0.0542791 0.00456814 0.00303493 -0.0124415 -0.0200995
internal_weight=11547.2 8868.62 3002.6 773.585 5866.02 686.647 2229.01 2678.55 3127.18 1113.16 613.294 128.909 35.5207 499.863 63.8876 2738.84 995.722 857.184 33.6222 138.537 2931.15 754.121 639.381 22.5765 2177.03 38.7192 2138.31 1997.1 1852.42 728.088
internal_count=86211 60459 22716 4987 37743 4444 17729 25752 22067 11695 7327 1371 374 4368 539 15676 5680 4886 354 794 20192 5325 4472 148 14867 254 14613 13807 15059 5948
is_linear=0
shrinkage=0.05


Tree=25
num_leaves=31
num_cat=0
split_feature=10 18 26 30 13 22 14 3 10 18 10 9 26 8 2 17 8 30 27 17 22 13 30 3 18 3 13 10 23 10
split_gain=201.551 80.1036 69.1581 66.7787 52.3725 55.6101 46.379 88.7431 46.2223 44.9899 43.9801 41.4895 37.3089 40.6555 55.8185 67.3289 55.2415 39.8141 38.6312 46.8019 38.9732 105.203 56.2934 37.4336 117.178 46.963 46.6317 45.4346 64.564 60.7154
threshold=40.742032181460139 7945.6775000000007 1.0000000180025095e-35 0.54136451673470365 5900.9406439300865 7811.5086200000014 0.0074445043649067092 19309.329202837253 33.851088779116594 59033.332500000011 213.14302273448354 -34.607392993888688 1.0000000180025095e-35 26.484837355543622 30030.315567803216 24530.212500000005 195.98720870560697 0.36526875334350672 1.0000000180025095e-35 58258.543750000004 40137.714430000007 36854.908465162276 0.25491385326542498 17216.923919167824 13623.035000000002 8653.5928182830794 8540.9893316640209 71.494498798307148 17028.633333333339 56.424900001668227
decision_type=2 2 2 2 2 2 2 2 2 2 2 2 2 2 2 2 2 2 2 2 2 2 2 2 2 2 2 2 2 2
left_child=1 4 -3 6 -1 -6 7 -2 -7 10 12 -5 18 17 15 16 23 -14 19 20 21 -8 -23 24 25 26 -15 29 -29 -26
right_child=3 2 -4 11 5 8 9 -9 -10 -11 -12 -13 13 14 -16 -17 -18 -19 -20 -21 -22 22 -24 -25 27 -27 -28 28 -30 -31
leaf_value=0.12718701209081204 0.05567355501307885 -0.031716462012609511 -0.010540191450338715 0.02618065181855991 -0.0040051780742016273 0.092782978727371332 0.0035523772632016937 -0.020879879916966541 -0.019372238230911689 -0.015104670813068533 0.0083165079845312333 0.0078469442049986116 0.017504039127907798 0.014847380461925222 -0.012967112338963636 0.046691759038959273 0.090452699689495472 -0.012506002807606387 -0.0098115899308025608 0.21003462417108781 -0.01895372998056272 0.12246160936916471 0.004462117802215667 -0.0085358866446812193 -0.025362099579017472 -0.01661665487413749 0.12807220552694623 0.018420234812932527 0.16034169083296868 0.19120851989260146
leaf_weight=8.1901301294565183 41.633000619709492 662.85339439660311 921.61944287270308 422.71077375113964 590.1516263410449 27.875912584364414 433.68748524785042 417.38993748277426 13.702097639441488 347.86893686652184 2701.8404809311032 1142.9923229441047 737.34445670992136 82.453774429857731 566.54954845458269 95.612817712128162 17.431018367409706 130.00767570734024 1317.1630031839013 2.7793923914432517 138.60219233483076 30.510390363633633 15.114377915859221 475.7122053951025 4.2310437560081509 176.5937919318676 10.220894068479536 39.174280866980553 10.074657544493673 13.764085769653319
leaf_count=36 328 8133 9078 2267 5142 187 3265 3632 91 3177 17264 6180 5440 498 4004 594 93 818 10121 21 1133 225 85 3100 29 1278 66 240 62 85
internal_value=0.000161107 -0.0133692 -0.0193991 0.00337264 0.00156111 -6.75803e-05 0.00148234 -0.0139365 0.0558221 0.00244571 0.00331802 0.0127967 0.000175127 0.00439766 -0.000607177 0.00696091 0.00238217 0.0130058 -0.00496544 0.00531849 0.00439767 0.0111502 0.0833712 0.000492106 0.0132546 -0.00148983 0.0273347 0.0722962 0.0474525 0.140288
internal_weight=11595.9 2224.39 1584.47 9371.46 639.92 631.73 7805.76 459.023 41.578 7346.74 6998.87 1565.7 4297.03 2359.17 1491.82 925.269 829.656 867.352 1937.86 620.694 617.914 479.312 45.6248 812.225 336.513 269.268 92.6747 67.2441 49.2489 17.9951
internal_count=86672 22667 17211 64005 5456 5420 55558 3960 278 51598 48421 8447 31157 16307 10049 6045 5451 6258 14850 4729 4708 3575 310 5358 2258 1842 564 416 302 114
is_linear=0
shrinkage=0.05


Tree=26
num_leaves=31
num_cat=0
split_feature=10 22 19 19 18 0 19 11 18 19 19 17 3 19 8 30 10 20 19 13 19 14 4 13 19 11 20 19 10 19
split_gain=183.518 74.3728 248.887 142.358 329.931 100.13 91.8737 85.9541 79.1545 155.588 60.4641 203.857 107.621 78.2188 61.7056 59.7866 57.9537 56.1611 99.3253 57.185 107.89 56.4364 55.7844 45.3439 44.6526 445.583 86.036 355.751 147.204 133.317
threshold=40.742032181460139 9002.8942800000023 8883.2400000000016 9379.2850000000017 9259.6200000000008 8794.495654783419 9047.3250000000025 9116.3929898246042 7945.6775000000007 7975.0550000000012 7363.4850000000006 7243.7800000000007 6916.4648048696863 6972.0100000000011 8.8312210312614159 0.54136451673470365 22.763640968406886 7422.8268400000006 7538.5650000000014 7363.9887409736511 7433.7000000000016 0.0114415857224537 56.244961695955574 5900.9406439300865 9722.0650000000005 9714.7142842660414 9901.7921800000022 10223.17 18.792147673743759 9985.6750000000011
decision_type=2 2 2 2 2 2 2 2 2 2 2 2 2 2 2 2 2 2 2 2 2 2 2 2 2 2 2 2 2 2
left_child=1 2 8 -3 -5 -4 16 -8 9 10 12 -12 13 23 17 -2 -7 18 19 20 -13 -20 -22 -1 -6 -26 27 28 -27 -30
right_child=15 3 5 4 24 6 7 -9 -10 -11 11 14 -14 -15 -16 -17 -18 -19 21 -21 22 -23 -24 -25 25 26 -28 -29 29 -31
leaf_value=0.11733692459473362 0.0014014054485856004 -0.050330256617806914 0.27281408792920975 0.19489976312558449 -0.037305674161406399 0.19598546506247067 0.18084336868409534 -0.048722644832830099 -0.027967076988971995 0.112725770381575 0.20363910278320096 -0.00028661839044445854 -0.032018425216228399 0.10731364056012241 -0.047837103728753994 0.01207911253436119 -0.032736019604282303 -0.0021018086510907392 0.27227873623058463 -0.043770916403917531 0.39309877906287527 0.0005984822929212889 0.074155988451320307 -0.0027397580100414084 0.27316044976740456 0.37852240915845048 -0.021950865476312836 0.45280465755512006 -0.048458703069827677 0.14358594329921079
leaf_weight=8.4271170645952207 7809.3862892910838 314.20524115860462 7.2246874570846549 19.040657967329025 184.24231540411711 3.2281784713268307 21.323787704110149 5.0414976328611365 354.86862257122993 29.95684028416872 14.011498823761938 11.299867644906046 284.94179026782513 22.098139047622681 41.392632700502872 1575.4209039360285 19.493484646081924 79.082845218479633 7.698401138186453 15.36058374494314 3.4452459439635268 2.5429664850234985 2.2770880684256554 117.27358172088861 13.657373219728468 2.5361199378967276 553.20027903467417 4.8079487308859816 46.024787291884422 11.244891770184038
leaf_count=36 55558 3800 60 127 2065 17 122 41 3910 157 78 99 2866 101 335 8447 167 722 63 147 33 21 20 778 142 30 6078 49 489 114
internal_value=0.000146958 -0.0128509 -0.00323868 -0.0216435 -0.0108457 0.0990233 0.0734445 0.136946 -0.00902803 0.00147647 -0.00398826 0.0206209 -0.0140603 0.0205613 0.00489828 0.00319386 -0.000240433 0.0228336 0.0690977 0.0261743 0.0892918 0.20482 0.266182 0.00531032 -0.0156483 -0.00932936 -0.0155741 0.0390218 0.00575672 -0.0107508
internal_weight=11584.8 2199.95 1050.99 1148.96 834.754 56.3116 49.0869 26.3653 994.677 639.809 609.852 177.111 432.741 147.799 163.1 9384.81 22.7217 121.707 42.6242 32.3828 17.0222 10.2414 5.72233 125.701 815.714 631.471 617.814 64.6137 59.8058 57.2697
internal_count=86672 22667 9773 12894 9094 407 347 163 9366 5456 5299 1518 3781 915 1440 64005 184 1105 383 299 152 84 53 814 8967 6902 6760 682 633 603
is_linear=0
shrinkage=0.05


Tree=27
num_leaves=31
num_cat=0
split_feature=10 22 30 12 4 11 21 18 30 4 10 14 3 18 30 10 10 0 11 0 0 3 5 4 3 17 2 1 22 2
split_gain=168.829 69.0484 53.5135 53.4069 54.2162 50.6933 49.4578 45.5406 43.8731 45.1905 42.6944 42.1695 78.8751 40.8457 39.5228 39.4783 38.5139 58.0247 227.78 78.3392 139.755 72.9054 38.0996 35.7802 33.3359 58.547 49.9073 98.9459 59.8765 54.4473
threshold=40.742032181460139 9002.8942800000023 0.54136451673470365 8835.2189999999664 71.200172885302166 9464.663356939911 6145.1650000000009 9418.9625000000015 0.25038281939447082 71.88607950977611 27.769775698702201 0.0074445043649067092 19309.329202837253 59033.332500000011 0.29038360657041606 213.14302273448354 18.792147673743759 10153.881897950741 9681.4879888897067 10855.097853464766 11280.018207084611 11401.493357928584 19.026025639758121 74.259650821897566 9081.7619521342986 9083.1175000000021 13156.181197234069 18992.395615711794 19318.980000000003 19431.210997616941
decision_type=2 2 2 2 2 2 2 2 2 2 2 2 2 2 2 2 2 2 2 2 2 2 2 2 2 2 2 2 2 2
left_child=1 3 11 4 6 -3 -1 8 9 -7 -5 12 -2 15 -12 23 17 18 -9 -19 -21 -22 -4 24 25 -13 -26 28 -28 -29
right_child=2 5 22 10 -6 7 -8 16 -10 -11 14 13 -14 -15 -16 -17 -18 19 -20 20 21 -23 -24 -25 26 -27 27 29 -30 -31
leaf_value=0.098259334688913902 0.050770718012826926 -0.036982852085231353 0.032458166662344655 0.11179559221154958 0.05144974152155566 0.047509938451406108 -0.0095582305704682881 -0.054816605595795376 -0.057435129726384482 0.24063025038564098 0.0021259285953704695 0.0085301667207864553 -0.020198385809197035 -0.014569173663549788 0.17576605878311657 0.007786593776819205 -0.019981674353374602 -0.054999897697976731 0.3053248638772259 0.41627375891782759 -0.055163177522393914 0.28900311455252858 0.0085516373606730565 0.024343143100203996 -0.017043597484787773 0.099800415750798926 0.016921146688187699 -0.027914080008188281 0.09138317941600288 -0.001539070050686885
leaf_weight=10.758918702602385 43.267484419047832 344.84385409206152 189.26447075605392 16.335493668913841 39.512889377772808 23.822809115052227 934.28397718071938 10.425830833613874 8.6012263074517232 3.4705226495861998 39.006307683885098 409.69969283044338 411.48946607112885 344.3775285705924 3.5776566863059989 2716.6521769836545 687.87450612336397 29.600360073149204 7.5842855200171462 2.6511249691247931 8.2910564541816694 1.8893798738718022 1395.3182561025023 146.84513130038977 496.69095664471388 18.357876323163509 423.39899978041649 211.83442355692387 28.83643900603056 2564.7951263785362
leaf_count=45 328 4216 1003 111 244 231 9040 131 77 23 308 2778 3632 3177 25 17264 7633 362 69 31 98 23 7444 862 4168 116 2845 1572 158 18658
internal_value=0.000125567 -0.0124366 0.00302868 -0.00316444 -0.00593162 -0.0210059 -0.00833077 -0.0139804 0.0410346 0.0720664 0.0430756 0.00133014 -0.0134461 0.00224294 0.0167142 0.00306802 -0.0166193 0.0216474 0.0968435 -0.0102693 0.0929169 0.0087104 0.0114071 8.72468e-05 -0.000770286 0.0124444 -0.00228863 -1.88922e-05 0.0216692 -0.00355127
internal_weight=11573.4 2172.53 9400.83 1043.48 984.556 1129.05 945.043 784.211 35.8946 27.2933 58.9195 7816.25 454.757 7361.49 42.584 7017.11 748.317 60.442 18.0101 42.4319 12.8316 10.1804 1584.58 4300.46 4153.61 428.058 3725.56 3228.86 452.235 2776.63
internal_count=86672 22667 64005 9773 9329 12894 9085 8678 331 254 444 55558 3960 51598 333 48421 8347 714 200 514 152 121 8447 31157 30295 2894 27401 23233 3003 20230
is_linear=0
shrinkage=0.05


Tree=28
num_leaves=31
num_cat=0
split_feature=30 10 17 19 3 4 8 19 25 19 24 19 21 1 19 19 25 30 14 1 19 16 25 19 0 19 2 19 0 21
split_gain=154.732 67.3625 71.943 134.972 77.9908 71.133 57.7001 56.8577 138.818 55.1145 54.5594 111.092 50.3637 49.7291 171.752 104.763 98.7333 81.3574 61.3773 55.7636 110.605 158.928 118.233 196.657 104.371 172.857 107.224 153.855 81.1664 73.736
