tree
version=v4
num_class=1
num_tree_per_iteration=1
label_index=0
max_feature_idx=33
objective=binary sigmoid:1
feature_names=ema_9 ema_21 ema_50 ema_200 rsi_14 stoch_k stoch_d macd macd_signal macd_hist atr_14 bb_upper bb_middle bb_lower bb_width tenkan_sen kijun_sen senkou_a senkou_b chikou_span fib_618 fib_50 fib_382 pivot_point resistance_1 support_1 regime_trend regime_volatility spread_bps depth_imbalance realized_vol funding_rate open_interest sentiment_score
feature_infos=[8.3256789503503175:682.90053890541037] [8.8825107770355149:679.9854011191328] [9.3360167588938019:675.13065473825884] [9.8786015057515417:662.46974546304841] [5.5712807387671281:96.66015576252083] [0.25641025641005505:99.722222222221731] [1.9710498296273868:99.06709442026937] [-31.04395721917507:18.571163428868317] [-24.159160961835124:15.361472259567183] [-11.20401814475526:9.0806776179273818] [0.020526533691642701:38.172698329249997] [9.3386014607024581:691.94463545002463] [8.5671500000000353:679.96299999999951] [6.7247495363688508:673.3539981495253] [0.0017966005884013315:0.60015662182403284] [7.8695000000000004:683.74549999999999] [8.0030000000000001:681.90800000000002] [8.3427500000000006:682.82674999999995] [8.5515000000000008:675.37049999999999] [6.3710000000000004:690.03200000000004] [8.3263040000000004:669.4778] [8.9719999999999995:673.95000000000005] [9.5449300000000008:678.42219999999998] [6.8129999999999997:688.0676666666667] [7.2909999999999995:695.31666666666661] [5.8929999999999998:685.28233333333344] [-1:1] [0:2] none none none none none none
tree_sizes=6830 6957 6910 6970 6989 6938 6951 6928 6872 6931 6972 6845 6923 6891 6882 6960 6925 6926 6955 6931 6954 6924 6971 6930 6897 6986 6895 6974 6910 6966 6904 6909 6944 6935 6940 6877 7000 6898 6831 6826 6837 6886 6924 6997 6922 6973 7001 6872 6928 6863 6975 6953 6946 6981 6888 6852 6890 6867 6854 6978 6923 6894 6921 6894 6925 6907 6883 6829 6893 6828 6918 6865 6922 6853 6914 6879 6897 6881 6899 6891 6995 6959 6863 6898 6986 6881 6926 6900 6860 6946 6952 6882 6913 6912 6888 6925 6929 6883 6913 6915 6893 6867 6849 6901 6914 6882 6890 6871 6882 6864 6838 6810 6890 6874 6857 6826 6834 6900 6845 6961 6887 6883 6874 6850 6857 6910 6869 6835 6824 6908 6842 6839 6894 6888 6859 6854 6917 6859 6866 6866 6959 6871 6951 6798 6946 6878 6834 6861 6915 6866 6875 6898 6834 6818 6789 6817 6910 6876 6838 6835 6888 6883 6832 6837 6879 6823 6817 6796 6914 6827 6793 6794 6799 6828 6860 6868 6851 6775 6868 6840 6800 6875 6821 6895 6862 6850 6857 6834 6827 6802 6869 6848 6866 6857 6878 6935 6874 6877 6938 6893 6855 6836 6862 6847 6838 6828 6884 6871 6889 6836 6923 6887 6811 6876 6894 6780 6826 6858 6812 6746 6856 6838 6862 6847 6793 6796 6838 6860 6855 6812 6882 6874 6817 6792 6902 6832 6807 6903 6953 6872 6748 6912 6892 6842 6829 6869 6822 6845 6850 6895 6840 6866 6842 6838 6835 6941 6864 6876 6833 6806 6902 6876 6836 6872 6845 6889 6841 6864 6784 6831 6828 6800 6809 6871 6832 6822 6848 6883 6866 6839 6897 6849 6898 6760 6837 6850 6887 6803 6918 6898 6796 6778 6812 6895 6810 6836 6903 6828 6853 6852 6789 6803 6873 6876 6815 6808 6746 6866 6878 6838 6886 6815 6870 6874 6780 6811 6865 6874 6867 6839 6854 6894 6913 6863 6892 6755 6814 6872 6830 6798 6846 6819 6815 6863 6811 6813 6789 6840 6788 6879 6809 6737 6856 6896 6788 6839 6886 6871 6774 6800 6781 6836 6830 6840 6858 6808 6822 6857 6819 6826 6874 6840 6884 6789 6875 6809 6827 6806 6850 6812 6846 6793 6785 6788 6808 6803 6889 6805 6879 6865 6864 6934 6856 6723 6889 6826 6833 6841 6875 6855 6806 6827 6887 6849 6836 6806 6807 6886 6818 6784 6823 6819 6772 6839 6843 6880 6852

Tree=0
num_leaves=63
num_cat=0
split_feature=11 19 10 19 19 24 13 18 11 19 19 25 19 1 19 15 19 13 23 24 19 18 19 23 19 23 19 11 24 19 19 2 19 19 17 11 19 15 1 19 23 23 25 23 19 15 23 19 19 13 19 15 16 19 19 24 19 19 1 13 24 15
split_gain=62.3774 50.3641 44.3878 28.5673 27.2552 62.8128 33.2043 25.9667 24.1977 233.734 203.808 81.1742 102.642 128.715 87.7517 168.994 131.634 89.0949 72.9627 66.7957 204.036 116.72 157.491 169.428 185.49 141.266 95.6944 82.0408 66.6425 140.016 102.662 73.5826 60.7246 58.0901 125.714 113.023 58.1896 96.0178 56.5994 56.5147 61.5557 55.4912 52.9732 52.9331 52.886 195.417 83.8416 90.2531 55.613 102.958 139.332 77.7044 77.0743 147.031 85.3182 82.396 87.9711 74.807 59.3336 52.4475 51.6805 50.2606
threshold=653.15596851370412 645.19000000000017 4.888502695953254 653.72000000000014 563.89850000000013 587.0683333333335 554.01075183235446 224.33325000000002 310.64693780286126 307.53500000000003 310.13500000000005 312.28833333333336 320.04500000000007 322.02183100224516 328.29500000000007 331.05750000000006 337.33000000000004 333.12460225906415 318.55166666666673 303.22500000000008 298.40500000000003 289.35250000000008 284.18500000000006 277.91500000000008 275.56900000000002 284.03500000000008 290.75500000000005 295.12382168640562 272.06750000000005 270.61450000000008 272.37500000000006 266.41299643806082 314.88500000000005 30.355000000000004 28.385250000000003 30.63279451353036 28.275500000000005 28.105250000000002 275.46791171733827 28.275500000000005 30.151833333333339 304.63166666666677 333.80166666666673 309.91166666666675 367.94500000000005 370.24250000000006 356.43166666666673 353.86500000000007 379.04500000000002 393.99045477434555 403.71500000000009 378.60250000000008 415.36500000000007 420.15500000000003 413.63500000000005 425.02500000000003 429.49500000000006 392.94500000000005 389.53381296411447 27.995392910995481 301.70166666666677 284.16050000000001
decision_type=2 2 2 2 2 2 2 2 2 2 2 2 2 2 2 2 2 2 2 2 2 2 2 2 2 2 2 2 2 2 2 2 2 2 2 2 2 2 2 2 2 2 2 2 2 2 2 2 2 2 2 2 2 2 2 2 2 2 2 2 2 2
left_child=1 2 8 -2 6 -6 7 -4 9 19 43 -12 18 -14 -15 -16 42 -18 32 20 21 22 23 24 28 -24 -23 -28 29 31 -30 33 -13 34 36 -35 37 -1 -26 -36 -41 -11 -17 -10 46 -46 47 -19 51 57 -51 -47 54 -54 -52 -55 -57 58 -50 -38 -22 -25
right_child=3 -3 4 -5 5 -7 -8 -9 10 41 11 12 13 14 15 16 17 44 -20 -21 60 26 25 61 38 -27 27 -29 30 -31 -32 -33 -34 35 39 -37 59 -39 -40 40 -42 -43 -44 -45 45 48 -48 -49 49 50 52 -53 53 55 -56 56 -58 -59 -60 -61 -62 -63
leaf_value=-0.28067797671133182 -0.30772141267427794 -0.25583482306388539 -0.26025249070999656 -0.2823889198623053 -0.26088707196434024 -0.29149921416978186 -0.31760279289545734 -0.28910930563312187 -0.29201209169935011 -0.23232183461173012 -0.26505840240059586 -0.29895050637555692 -0.25742841373537012 -0.29485212842216141 -0.2572581981447814 -0.28818489441207257 -0.2546326593637655 -0.28852051590959221 -0.31007232171209043 -0.29348718886484521 -0.25339750273204464 -0.30243893502525743 -0.23762703526376733 -0.2944347837346673 -0.23999063760402956 -0.27290141711496846 -0.25824729470001601 -0.28921675365434441 -0.31047862601473408 -0.25216281591555267 -0.27918000248022906 -0.29542373348628476 -0.27533519090635089 -0.24354172453997991 -0.31392084614330207 -0.27803501746809495 -0.24662786651437138 -0.31717511374296048 -0.26745803712464566 -0.28418885870820437 -0.30763519647188819 -0.26176454199261678 -0.31382094671833799 -0.31469686404215802 -0.24709800630041701 -0.28198745933320951 -0.30276474312827428 -0.25427689803696446 -0.27117749937279018 -0.30287834513096645 -0.28011694548691007 -0.31572382945797489 -0.30400111952811881 -0.25933471089037952 -0.2546994544109058 -0.30322818316672573 -0.28016930030806675 -0.25640976438733604 -0.29879075042855258 -0.27834787025851954 -0.27649916084442633 -0.32100542449608066
leaf_weight=4640.9876555800438 114.47426372766495 71.577055692672729 28.92497456073761 62.017106473445892 107.85583734512329 136.5356850028038 35.788527846336365 809.16390699148178 180.65852755308151 88.981065809726715 278.70928877592087 188.25746154785156 210.31888282299042 401.51786720752716 271.84573549032211 144.37974590063095 117.90604037046432 289.4948725104332 172.81446665525436 345.38380640745163 311.06603997945786 393.42867940664291 132.61365455389023 353.71812111139297 116.43527895212173 445.88583666086197 100.50203025341034 327.73466938734055 169.38269001245499 156.63609105348587 212.2798980474472 297.82918721437454 203.94558334350586 87.755431294441223 113.98400992155075 3211.6526838541031 84.323654651641846 65.694010019302368 162.02888292074203 372.59289264678955 138.25157332420349 165.46065956354141 146.58588802814484 191.19898438453674 157.86172556877136 167.6668016910553 247.33304518461227 90.942081034183502 320.38086229562759 270.62010097503662 284.83746135234833 97.070253610610962 257.62837511301041 158.84223318099976 204.19071024656296 158.59710627794266 2411.3133453726768 251.00994873046875 89.471319615840912 106.1399490237236 121.5829439163208 78.440608978271484
leaf_count=18933 467 292 118 253 440 557 146 3301 737 363 1137 768 858 1638 1109 589 481 1181 705 1409 1269 1605 541 1443 475 1819 410 1337 691 639 866 1215 832 358 465 13102 344 268 661 1520 564 675 598 780 644 684 1009 371 1307 1104 1162 396 1051 648 833 647 9837 1024 365 433 496 320
internal_value=-0.281084 -0.280941 -0.281024 -0.298843 -0.286845 -0.277999 -0.289323 -0.288107 -0.28071 -0.279902 -0.282008 -0.280946 -0.281551 -0.280523 -0.281266 -0.280378 -0.281449 -0.280423 -0.293833 -0.28048 -0.280111 -0.280855 -0.280036 -0.280887 -0.280087 -0.264804 -0.291759 -0.281938 -0.280783 -0.280277 -0.293067 -0.280761 -0.286665 -0.280265 -0.282147 -0.277116 -0.28053 -0.281188 -0.255952 -0.294818 -0.290544 -0.251441 -0.301117 -0.30369 -0.280981 -0.279916 -0.289171 -0.280338 -0.281026 -0.280223 -0.282148 -0.294377 -0.280534 -0.282341 -0.269495 -0.280297 -0.281592 -0.269306 -0.277216 -0.264278 -0.25988 -0.299273
internal_weight=22132.5 21956 21884.4 176.491 1118.27 244.392 873.877 838.089 20766.2 12800.8 7965.4 7593.54 7314.83 6749.81 6539.5 6137.98 5866.13 5575.17 565.018 12546.3 12200.9 11768.3 10946.6 10368.1 9935.97 578.499 821.665 428.237 9657.51 9275.85 381.663 9119.21 392.203 8821.38 5521.97 3299.41 4897.15 4706.68 278.464 624.828 510.844 254.442 290.966 371.858 5457.26 4829.49 627.77 380.437 4671.63 4406.89 3746.03 264.737 3475.41 2986.38 489.028 2728.75 2569.91 660.862 409.852 190.464 432.649 432.159
internal_count=90290 89570 89278 720 4562 997 3565 3419 84716 52221 32495 30978 29841 27536 26678 25040 23931 22744 2305 51183 49774 48009 44657 42297 40534 2360 3352 1747 39398 37841 1557 37202 1600 35987 22527 13460 19978 19201 1136 2549 2084 1038 1187 1517 22263 19702 2561 1552 19058 17978 15282 1080 14178 12183 1995 11132 10484 2696 1672 777 1765 1763
is_linear=0
shrinkage=1


Tree=1
num_leaves=63
num_cat=0
split_feature=11 19 24 19 24 19 0 19 11 23 19 3 19 22 19 19 24 19 23 2 19 12 0 19 19 0 19 11 19 13 19 23 19 15 24 23 19 19 1 19 19 23 19 24 19 18 19 24 0 19 23 19 24 19 23 0 24 19 24 19 1 22
split_gain=58.8525 47.9182 51.6187 64.3562 130.902 68.3541 70.0627 86.4637 60.7283 49.0834 110.505 65.8276 120.185 121.93 97.8346 81.9211 122.078 143.231 100.982 79.4661 78.3565 63.8219 61.7484 170.426 93.6583 86.7466 106.049 135.694 108.009 112.188 197.11 128.965 122.764 79.688 71.9933 71.2042 74.4207 69.1505 62.8511 183.876 150.62 98.3187 108.049 159.034 197.232 122.452 143.629 106.453 100.059 98.227 105.467 179.489 163.511 96.0435 95.4159 81.7025 69.8272 83.9888 59.3332 70.3433 54.9944 54.4033
threshold=653.15596851370412 635.67900000000009 628.8666666666669 601.71500000000015 587.0683333333335 578.02500000000009 563.10555865094136 557.43500000000006 620.81335032370964 532.42400000000009 528.95500000000015 484.10264666047902 466.71500000000009 435.99734000000007 489.64000000000004 424.22500000000008 417.38333333333333 415.12500000000006 426.35000000000002 466.55794718146336 436.34500000000008 519.74319999999955 399.263678695686 395.59500000000008 403.71500000000009 389.47855111733509 383.60500000000008 381.69631103430339 367.94500000000005 333.12460225906415 331.39500000000004 331.00166666666672 339.55450000000008 370.24250000000006 333.20666666666676 356.43166666666673 357.48000000000008 345.02200000000005 315.23405218377718 314.12500000000006 320.04500000000007 312.3416666666667 307.53500000000003 303.22500000000008 298.40500000000003 289.35250000000008 287.8635000000001 286.89166666666671 305.3620965319796 284.18500000000006 277.91500000000008 272.37500000000006 272.06750000000005 290.75500000000005 286.9016666666667 293.6153674670083 274.52500000000003 277.22500000000008 322.98166666666674 326.06900000000002 297.41391347414066 324.56690000000009
decision_type=2 2 2 2 2 2 2 2 2 2 2 2 2 2 2 2 2 2 2 2 2 2 2 2 2 2 2 2 2 2 2 2 2 2 2 2 2 2 2 2 2 2 2 2 2 2 2 2 2 2 2 2 2 2 2 2 2 2 2 2 2 2
left_child=1 2 3 4 5 6 7 9 -5 10 11 12 13 15 -13 16 17 22 -17 -14 -20 -16 23 25 -24 26 27 28 29 30 31 38 -31 -30 -32 36 -34 -36 39 41 -40 42 43 44 45 46 47 49 -44 50 51 52 -1 -47 -48 -55 -53 -58 -42 -60 -46 -61
right_child=-2 -3 -4 8 -6 -7 -8 -9 -10 -11 -12 14 19 -15 21 18 -18 -19 20 -21 -22 -23 24 -25 -26 -27 -28 -29 33 32 34 -33 35 -35 37 -37 -38 -39 40 -41 58 -43 48 -45 60 53 54 -49 -50 -51 -52 56 -54 55 -56 -57 57 -59 59 61 -62 -63
leaf_value=0.00044688576837975745 -0.017289768659702835 0.018838278542229612 -0.024377143312958052 0.031674753725958397 -0.025159675499292374 0.02314652357173971 -0.020059136391659696 0.026126641974834375 0.001335073050567932 -0.011936946619776656 0.029812666688344674 -0.025939250238005043 0.040604255626681095 -0.015821167017488792 0.0075035733821270222 0.033852598900734679 -0.017890443869348814 0.028298044830486327 -0.011533867779788929 0.0092822735286414316 0.023687076202490075 -0.015600022769843321 -0.023756973646006832 0.027464105736221597 0.00029699262205405068 -0.020767299150142575 0.02031931486158102 -0.02085151937352904 0.032035652384182746 -0.033779525764746257 0.03326282669524766 -0.028278911902889448 -0.0016283086372292197 0.0035589990326353764 -0.0001191674916080563 -0.018054815464237792 0.039497121483644038 0.038873650012541235 -0.020368545924150869 0.024241970214554886 0.017887203149300257 -0.021596965159827987 0.04232906054601724 -0.016349526292889827 0.035297623514457858 -0.02054178049082921 0.042182838944436696 -0.025603397490676489 0.0076878499145480745 0.024981435436787481 -0.014969407298912659 0.028602046614743481 -0.028694052409219246 0.018173469953793715 0.0091161206971788599 -0.0096301453309131074 -0.0049400457579069071 0.026192090709916155 -0.015848580881528542 0.031466495137199617 0.012982916051682265 -0.00037446127386312091
leaf_weight=9284.7142971456051 176.03483085334301 122.31260494887829 77.697216123342514 112.01163432002068 185.42078919708729 115.59202462434769 155.09305913746357 114.78801135718822 126.70863451063633 303.90359368920326 112.74058163166046 213.9400520324707 91.92572258412838 428.54301126301289 280.86199894547462 144.66479517519474 334.16991633176804 164.09039747714996 146.6622070223093 353.4945897758007 92.663982063531876 174.27172176539898 241.3087862432003 208.0156274586916 366.79291227459908 176.45892448723316 236.38832476735115 273.86909158527851 165.11135746538639 168.7975769340992 207.83084362745285 143.17908270657063 311.95060078799725 190.96706962585449 176.98706492781639 221.66047815978527 45.242458060383797 53.087681174278259 431.60384766757488 296.11337623000145 167.98675161600113 181.17152385413647 96.044125854969025 505.20140169560909 146.61164744198322 442.64909639954567 113.82326571643353 140.78785899281502 343.82010582089424 147.11293956637383 391.55089728534222 260.54182022809982 176.48893845081329 139.96630263328552 254.21822994947433 296.27788023650646 191.6715429276228 131.23268476128578 208.5285177975893 64.305375337600708 311.25485518574715 192.33354222774506
leaf_count=37875 720 498 317 457 757 471 633 468 517 1240 460 873 375 1749 1146 589 1365 668 599 1442 378 711 987 847 1496 721 963 1119 671 691 846 585 1273 779 722 907 184 216 1765 1206 684 741 390 2065 596 1811 463 575 1401 598 1601 1060 723 570 1036 1210 781 534 852 262 1267 784
internal_value=-1.75238e-05 0.000120905 1.5823e-05 0.00010319 -6.85736e-05 0.000149508 2.3959e-05 0.000172092 0.0155908 2.95863e-05 0.00020597 4.30854e-05 0.000355062 1.37659e-06 -0.00921139 0.000358757 7.54285e-05 0.000404337 0.0140728 0.0157609 0.00209489 -0.00133774 0.000151189 0.00047802 -0.00924558 0.000152974 0.000369011 8.92415e-05 0.000435012 7.6513e-05 0.000624325 4.71085e-05 -0.0112729 0.0167772 0.0204629 -0.00469997 0.00358188 0.00887802 0.000319399 0.000859533 -0.0067037 0.000348344 0.000646012 0.000148452 0.000819418 7.99994e-05 0.000934366 0.00030158 0.0152665 0.000646711 0.000303156 0.000898938 -9.66887e-05 -0.0106981 0.0193594 -0.000700528 0.0170465 0.00770738 0.00260826 -0.00290567 0.0201409 0.00760131
internal_weight=22131.3 21955.2 21832.9 21755.2 21516.5 21331.1 21215.5 21060.4 238.72 20945.6 20641.7 20528.9 19859.9 19414.5 669.074 18985.9 18601.9 18267.7 383.991 445.42 239.326 455.134 18103.7 17495.6 608.102 17287.5 17111.1 16874.7 16600.8 16244.7 15497.1 15059.2 747.651 356.078 437.906 578.854 357.193 230.075 14916 13851.3 1064.76 13555.1 13374 12934.1 12428.9 11971 11092.1 10724.1 439.864 10583.3 10436.2 10044.6 9461.2 878.893 368.041 436.244 583.446 322.904 633.154 465.167 457.867 256.639
internal_count=90290 89570 89072 88755 87781 87024 86553 85920 974 85452 84212 83752 81022 79205 2730 77456 75890 74525 1566 1817 977 1857 73857 71374 2483 70527 69806 68843 67724 66274 63219 61435 3055 1450 1784 2364 1457 938 60850 56503 4347 55297 54556 52765 50700 48837 45246 43747 1791 43172 42574 40973 38598 3591 1499 1780 2375 1315 2582 1898 1863 1046
is_linear=0
shrinkage=0.03


Tree=2
num_leaves=63
num_cat=0
split_feature=21 10 19 1 19 0 19 0 19 2 2 18 19 19 16 19 2 19 24 9 23 18 27 8 14 18 19 17 3 19 3 19 6 3 15 3 19 17 19 24 10 24 19 1 0 9 19 24 16 19 5 7 9 10 19 17 19 1 2 10 19 0
split_gain=51.998 39.5691 42.0989 50.7354 68.4302 41.4114 35.1417 52.3909 51.6864 67.8293 36.7537 32.8768 37.405 32.1954 38.9586 51.0422 68.734 41.7687 53.761 34.3989 33.6292 31.2817 26.5365 40.5827 34.2505 40.1102 65.3421 39.9314 39.7695 37.0805 63.5441 34.137 32.2241 29.2848 28.3952 27.9655 51.039 58.6495 50.488 42.1705 39.4978 33.4906 28.8862 34.684 33.9821 26.3828 26.2932 28.4573 26.2776 31.3162 26.2104 28.2973 25.287 25.0197 24.8597 36.205 24.5705 38.9414 25.7514 24.5399 29.2653 91.7817
threshold=642.30500000000018 4.4168221555498084 591.3850000000001 569.94496959356081 538.60000000000014 584.19850970046934 627.11500000000012 621.31479819514118 601.71500000000015 590.27899691317805 644.61965810588856 243.01250000000002 221.91150000000002 267.86950000000007 283.18250000000006 306.69300000000004 364.66333606605963 357.48000000000008 330.76666666666671 -0.11089115315049229 371.9283333333334 565.04350000000011 1.5000000000000002 -0.029053245458089006 0.015581615307407261 311.07250000000005 307.53500000000003 302.92125000000004 303.36502518176985 326.06900000000002 325.07238721721347 353.86500000000007 87.426931216102901 347.42727598509271 331.05750000000006 418.60231696496743 395.59500000000008 397.51525000000009 416.61500000000007 419.03000000000014 2.9672664890558376 396.39166666666671 483.22500000000008 485.56507634096482 423.4883118780603 -0.19846947952777572 645.19000000000017 646.95333333333338 249.17125000000004 237.99450000000004 31.448431563309214 1.9328166480202642 -1.4862307134334549 0.07145159286750058 387.99100000000004 498.18625000000003 30.735500000000005 30.32018052295404 30.328858731225854 0.099620653640434875 331.39500000000004 333.33242367129833
decision_type=2 2 2 2 2 2 2 2 2 2 2 2 2 2 2 2 2 2 2 2 2 2 2 2 2 2 2 2 2 2 2 2 2 2 2 2 2 2 2 2 2 2 2 2 2 2 2 2 2 2 2 2 2 2 2 2 2 2 2 2 2 2
left_child=1 6 3 4 11 -4 7 8 9 22 -8 12 -3 48 -15 52 17 18 -17 54 -19 45 23 53 25 26 27 32 -28 -27 -31 34 -25 -33 -32 36 37 59 -37 -40 -41 -38 44 -44 -42 -6 -2 -48 49 -13 -43 -52 -16 -1 -18 -56 57 -26 -58 -24 -61 -62
right_child=46 2 5 -5 21 -7 10 -9 -10 -11 -12 13 -14 14 15 16 19 20 -20 -21 -22 -23 35 24 56 29 28 -29 -30 30 31 33 -34 -35 -36 38 41 -39 39 40 42 50 43 -45 -46 -47 47 -49 -50 -51 51 -53 -54 -55 55 -57 58 -59 -60 60 61 -63
leaf_value=0.020360033396816357 -0.029519483321584827 -0.033218974504267709 0.039056308006484235 -0.023994986114472833 0.047658490490575113 0.0021329426719600168 0.021436474732179127 -0.027347783665634971 0.023889478446713984 -0.035851477314453421 -0.023443090165561363 -0.032369977256071235 0.024259555181512134 0.017108362452327927 0.01685850942422891 0.024669662928608085 -0.020726487797274203 0.044278284312588033 -0.015379628842660111 -0.019108805047480113 -0.020523966232629483 -0.0056531383770864448 0.0055923498708216899 -0.00094999055819884951 -0.00051311208317980997 -0.015853254148883236 0.046850670695930449 -0.021952722262148311 0.010698962559697923 0.023923113600338827 -0.00052618065274277705 0.048696673414562901 0.016646166504019195 -0.0036641481236467828 -0.026012779030577082 -0.032078925958249349 0.044279580255481718 -0.027324307368578764 0.046945647393861679 -0.013085677292039133 0.03814799937198559 0.024350484976568734 0.055747545039041016 0.0067108616846891025 -0.012576524187410948 0.013868673758648866 0.044811978404673325 -0.011607425965561538 -0.036297234106848118 0.028849538161365072 -0.0051495818458984072 0.019340574806581891 -0.035713049362364357 0.0030946870546240388 0.014449909760802562 -0.011918561631897039 0.048823059875727756 -0.02966497061525351 0.0031815099430527231 -0.0023059622769235001 0.034334307900105915 -0.00022449052600590077
leaf_weight=76.738503605127335 78.847564578056335 12.519412890076635 32.014772966504097 135.96848501265049 28.504581481218338 185.3922716230154 121.75627633929253 61.198494747281075 84.064602255821228 46.422244146466255 18.835318520665169 15.186886042356493 52.324780240654945 55.691281884908676 9.0461499541997892 50.567480057477951 57.620768561959267 41.789675861597061 74.435235634446144 265.5823063403368 8.5742797851562482 50.488271534442902 488.59744803607464 2766.885849788785 1451.9875140190125 276.41405002772808 35.566889122128487 79.074759051203728 120.02196477353573 70.609781980514526 59.451196774840355 9.6064288318157178 96.84174819290638 935.94461123645306 117.66337195038795 65.148342430591583 25.908369943499565 76.064044281840324 14.009176999330519 303.12539619207382 13.039561480283735 69.326085492968559 14.25384037196636 139.45287266373634 122.85376742482185 78.370463728904724 9.0998403728008253 63.56043441593647 64.74601237475872 14.68860214948654 129.9330692589283 62.892576724290848 79.349349707365036 4733.0299348682165 97.49990376830101 89.997220233082771 11.076639145612715 42.356062054634094 3044.7228899151087 4173.8464097827673 82.079442977905273 435.64926798641682
leaf_count=313 323 51 130 557 116 757 496 250 342 190 77 62 213 227 37 206 236 170 304 1085 35 206 1993 11287 5923 1131 144 324 488 287 242 39 395 3820 482 267 105 312 57 1238 53 283 58 569 502 319 37 260 265 60 530 256 325 19311 398 368 45 173 12417 17032 333 1779
internal_value=-1.74556e-05 0.000103195 -0.00459916 -0.00666908 -0.00461066 0.00759943 0.000447914 0.000344389 0.000428259 0.000330311 0.0153902 -0.00753482 0.013082 -0.00898495 -0.00708823 -0.00883406 -0.00606171 0.0101295 0.000804342 -0.0116283 0.0331677 0.0137527 0.000414018 0.00114155 -3.42614e-05 -0.0018696 6.55786e-05 -0.000935472 0.0190071 -0.00595111 -0.00365369 -0.00539278 -0.000353339 -0.00312392 -0.0174799 -0.0012156 -0.000514479 -0.00118892 -0.00699573 -0.00429263 -0.00551643 0.0117778 0.00239775 0.011311 -0.00766275 0.0229449 -0.0175265 -0.00444845 -0.0255689 -0.00217484 0.00853857 0.00282853 -0.0302862 0.00337119 -0.00350655 0.00177764 0.00180766 -0.00134334 0.00334953 -0.000804059 -0.00147095 0.00525416
internal_weight=22128.3 21976.8 1500.36 1282.95 1146.98 217.407 20476.4 20335.9 20274.7 20190.6 140.592 989.619 64.8442 924.775 830.154 774.462 686.067 175.367 125.003 510.7 50.364 157.363 20144.2 13928 9118.22 4568.08 3098.39 2942.8 155.589 1469.69 1193.28 1122.67 2863.73 945.551 177.115 6216.18 5544.3 5256.24 671.883 606.735 592.725 288.06 289.6 153.707 135.893 106.875 151.508 72.6603 94.6215 29.8755 262.152 192.826 88.3955 4809.77 245.118 187.497 4550.14 1494.34 3055.8 5180.17 4691.58 517.729
internal_count=90290 89670 6127 5240 4683 887 83543 82970 82720 82378 573 4042 264 3778 3391 3164 2802 715 510 2087 205 641 82188 56821 37197 18639 12638 12006 632 6001 4870 4583 11682 3859 724 25367 22623 21449 2744 2477 2420 1174 1182 627 555 435 620 297 387 122 1069 786 362 19624 1002 766 18558 6096 12462 21137 19144 2112
is_linear=0
shrinkage=0.03


Tree=3
num_leaves=63
num_cat=0
split_feature=11 19 24 19 24 19 11 13 19 18 19 17 19 23 2 19 19 22 19 25 19 23 17 19 0 19 11 19 13 19 24 19 13 19 23 23 19 19 1 19 19 23 19 24 19 18 19 23 19 0 24 19 0 24 19 19 2 24 24 19 19 19
split_gain=53.4971 43.7075 47.563 58.0534 118.676 63.0012 54.9829 45.8282 62.044 50.0252 61.6219 80.3068 69.9326 130.417 67.1208 55.7409 52.0207 123.35 76.1217 121.251 130.749 93.532 75.3371 100.808 84.9456 77.9536 113.176 100.629 105.096 180.633 121.285 115.032 74.9551 73.7705 71.7231 67.2038 68.4975 65.888 96.3858 164.863 94.2958 92.1884 99.2645 147.535 184.91 114.585 135.041 154.352 169.916 110.097 93.9361 89.9083 76.7006 65.6939 133.902 92.4736 70.807 64.7053 64.4703 64.8503 63.9072 52.2698
threshold=653.15596851370412 635.67900000000009 628.8666666666669 601.71500000000015 587.0683333333335 584.87500000000011 620.81335032370964 560.00208868553489 557.43500000000006 529.60225000000014 520.59000000000015 493.85200000000003 483.22500000000008 485.4933333333334 482.44543468855801 485.83500000000004 466.71500000000009 435.99734000000007 424.22500000000008 416.79166666666674 415.12500000000006 426.35000000000002 399.25375000000008 392.94500000000005 389.47855111733509 383.60500000000008 381.69631103430339 367.94500000000005 333.12460225906415 331.39500000000004 330.76666666666671 339.55450000000008 463.36639254599362 436.34500000000008 367.40833333333336 356.43166666666673 357.48000000000008 329.25500000000005 315.23405218377718 314.12500000000006 318.92500000000007 312.3416666666667 307.53500000000003 303.22500000000008 298.40500000000003 289.35250000000008 284.18500000000006 277.91500000000008 275.56900000000002 282.8829426837836 308.10600000000005 290.75500000000005 293.6153674670083 272.06750000000005 270.61450000000008 272.37500000000006 266.41299643806082 322.98166666666674 333.20666666666676 345.02200000000005 403.71500000000009 258.95850000000002
decision_type=2 2 2 2 2 2 2 2 2 2 2 2 2 2 2 2 2 2 2 2 2 2 2 2 2 2 2 2 2 2 2 2 2 2 2 2 2 2 2 2 2 2 2 2 2 2 2 2 2 2 2 2 2 2 2 2 2 2 2 2 2 2
left_child=1 2 3 4 5 7 -5 8 9 10 11 12 14 -14 16 -13 17 18 19 20 22 -20 23 24 25 26 27 28 29 30 37 -30 -18 -23 -29 36 -33 38 39 41 -40 42 43 44 45 46 47 48 53 -48 -44 -47 -53 54 56 -55 61 -42 -31 -60 -24 -1
right_child=-2 -3 -4 6 -6 -7 -8 -9 -10 -11 -12 15 13 -15 -16 -17 32 -19 21 -21 -22 33 60 -25 -26 -27 -28 34 31 58 -32 35 -34 -35 -36 -37 -38 -39 40 -41 57 -43 50 -45 -46 51 49 -49 -50 -51 -52 52 -54 55 -56 -57 -58 -59 59 -61 -62 -63
leaf_value=0.00027672773665317563 -0.016521717939023316 0.017961162002911223 -0.02346273997689843 0.030020711047973204 -0.024036078403394483 0.028996518264514808 0.0012013467204782175 -0.017404679554809455 0.018324576198129258 -0.01122531238377205 0.014880934985586288 -0.037427183110716959 0.03751982157395177 -0.0024853472076484437 -0.029857354561432084 -0.0079341329138087162 0.032902454912885785 -0.015785576145096843 0.032518918299073149 -0.0199117163301261 0.024626953261579699 -0.011250518595489204 -0.020436085249116661 0.017535629794856376 -0.025551105424809404 0.01845721304188044 -0.019961676201132761 0.036278264597119206 -0.032802971625558584 0.031617963530286029 -0.023542981084286384 -0.0015569676309786162 -0.00080416097708049035 0.02290096427318828 0.0071512691324546922 -0.017580580140124997 0.037801547345055718 0.025037225692837874 -0.021065060048345508 0.023065189984590052 0.012494445832649774 -0.021004250569092414 0.032156985470565669 -0.015777531819726492 0.019467987631980276 -0.019919046230032371 0.039078433303962053 -0.01729872821842585 0.023558376542549612 0.0079577643987387685 0.003670766606778752 0.017549071872302389 -0.0093729817531811015 -0.027984600066981481 0.027556647327593803 0.0013855952919958835 -0.013959045506747373 -0.0089559910523985178 -0.00014574030105752916 0.037548181965698105 -0.0015327297118902454 0.013236065168380927
leaf_weight=8609.0766093879938 175.2524565756321 122.71581761538982 77.290045663714409 112.70469178259373 184.19866904616356 67.782922863960266 126.77352938055992 134.43433025479317 167.79684019088745 350.30211655795574 254.24773356318474 75.11056013405323 128.19138909876347 170.90015853941441 67.232612118124962 249.59559991955757 105.760402739048 436.78397615253925 145.354159116745 269.40891766548157 197.53828491270542 146.44478479027748 289.16718572378159 305.87431947886944 114.746661439538 210.91447734832764 249.00952164828777 110.25392372906208 167.71771498024464 209.02668356895447 193.63637953996658 311.82849878072739 134.82697568833828 92.957159474492073 246.44321702420712 221.06234537065029 45.499142318964005 96.550290197134018 364.72116051614285 293.16111770272255 194.81635865569115 179.77443064749241 169.18310752511024 503.60265083611012 459.02439507842064 441.05117435753345 130.30977828800678 439.73710741102695 288.14788575470448 477.16519871354103 271.7366635799408 140.31421229243279 295.88918353617191 175.90430910885334 163.92269140481949 213.11630511283875 306.72773222625256 360.66623631119728 176.99844913184643 53.331253305077553 363.76296298205853 289.45661024749279
leaf_count=35114 720 498 317 457 757 275 517 550 682 1432 1037 308 522 697 275 1019 430 1788 589 1104 802 599 1187 1244 471 857 1021 446 691 846 794 1273 550 378 1003 907 184 392 1497 1190 793 738 685 2065 1863 1811 527 1803 1169 1942 1106 570 1210 724 665 868 1254 1475 722 216 1484 1180
internal_value=-1.70921e-05 0.000114611 1.40643e-05 9.77297e-05 -6.56881e-05 0.000141303 0.0147839 4.90278e-05 0.000160319 1.46595e-05 0.000205923 2.23881e-05 0.000262507 0.0146578 4.40573e-05 -0.0147751 0.000146605 -2.50208e-05 0.000337502 6.40905e-05 0.000357946 0.0135438 9.32677e-05 0.000467175 0.000162915 0.000336196 0.00010907 0.000410445 6.40772e-05 0.000593777 4.02617e-05 -0.0109326 0.0140081 0.00200163 0.0161704 -0.00458108 0.0034554 0.000347842 0.000186051 0.000811066 -0.00921503 0.000329346 0.000616485 0.000138993 0.000784224 6.73827e-05 0.000893042 9.60246e-05 0.00085787 0.0146437 0.0146127 -0.0103692 -0.00070401 0.00018701 0.000688941 -0.0118909 0.000209874 -0.0014267 0.0195528 0.00858152 -0.00991102 0.000698758
internal_weight=22126.9 21951.7 21829 21751.7 21512.2 21328 239.478 21260.2 21125.8 20958 20607.7 20353.4 20028.7 299.092 19729.6 324.706 19662.4 19421.8 18985 18600.3 18330.9 384.756 18133.3 17480.4 17174.5 17059.8 16848.9 16599.9 16243.2 15497 15057.7 746.108 240.587 239.402 356.697 578.39 357.328 14864.1 14767.5 13847.3 920.204 13554.1 13374.4 12933.4 12429.8 11970.8 11093.6 10486.1 10046.4 607.475 440.92 877.255 436.203 9758.2 9369.18 389.021 9205.26 555.483 439.356 230.33 652.93 8898.53
internal_count=90290 89570 89072 88755 87781 87024 974 86749 86199 85517 84085 83048 81721 1219 80502 1327 80227 79247 77459 75893 74789 1566 73987 71316 70072 69601 68744 67723 66274 63219 61435 3055 980 977 1449 2364 1457 60641 60249 56484 3765 55294 54556 52765 50700 48837 45246 42777 40974 2469 1791 3591 1780 39805 38213 1592 37548 2268 1784 938 2671 36294
is_linear=0
shrinkage=0.03


Tree=4
num_leaves=63
num_cat=0
split_feature=11 19 10 19 24 19 19 0 19 2 11 19 15 19 10 23 19 2 24 19 19 7 19 11 21 19 19 11 11 19 19 24 19 16 24 19 24 25 19 1 19 15 19 23 19 19 19 25 19 0 19 23 19 25 19 24 24 24 19 23 19 19
split_gain=50.4761 41.4555 38.6306 26.7177 23.7709 149.512 94.9497 55.8167 60.2141 143.518 49.7875 40.1582 55.9785 39.7388 38.1869 36.6733 39.7304 37.1964 35.3274 111.704 61.4887 38.8976 32.1875 122.21 111.734 71.9225 65.0188 88.0779 60.7163 114.53 104.238 85.7372 57.8659 252.321 116.662 78.4292 230.502 139.684 106.066 148.639 84.409 100.269 140.957 140.294 134.979 120.606 82.0986 63.176 86.1089 103.055 67.4739 106.674 100.865 94.4829 77.1659 94.7466 72.9586 57.5769 57.4518 56.0835 53.9751 52.9927
threshold=653.15596851370412 645.19000000000017 4.888502695953254 653.72000000000014 15.045333333333337 15.263500000000002 14.257000000000001 15.392270019739984 16.053500000000003 16.228924424517636 15.886227821835147 16.312500000000004 16.393250000000005 15.541000000000002 0.045366246386239394 13.608333333333336 12.550000000000002 12.505357955256114 17.03733333333334 16.698500000000006 17.121500000000001 0.10435625754458046 30.355000000000004 30.63279451353036 28.457250000000005 28.275500000000005 28.275500000000005 28.224650956909212 238.82944595792478 244.13500000000002 235.90500000000003 245.66000000000003 271.50500000000005 273.28500000000003 271.11500000000007 284.18500000000006 286.89166666666671 277.95166666666677 289.42500000000007 289.87063576684915 290.75500000000005 301.60750000000007 307.53500000000003 310.68166666666673 299.26500000000004 311.80500000000006 278.03500000000003 313.06166666666672 321.42500000000007 322.00779023164813 326.06900000000002 329.97500000000008 337.33000000000004 340.20633333333336 348.47500000000008 349.15383333333335 334.46666666666675 243.25833333333335 329.25500000000005 318.55166666666673 331.39500000000004 237.99450000000004
decision_type=2 2 2 2 2 2 2 2 2 2 2 2 2 2 2 2 2 2 2 2 2 2 2 2 2 2 2 2 2 2 2 2 2 2 2 2 2 2 2 2 2 2 2 2 2 2 2 2 2 2 2 2 2 2 2 2 2 2 2 2 2 2
left_child=1 2 4 -2 6 -6 15 -7 10 -10 13 -11 -13 -9 -14 16 17 -1 19 -16 -20 -21 24 -24 26 -26 27 -22 30 57 -25 -31 34 -34 -33 37 -37 46 -38 -40 -41 44 -43 -44 -42 -45 -35 -47 59 -50 -51 58 56 -54 -55 -56 60 61 -52 -49 -53 -30
right_child=3 -3 -4 -5 5 7 -8 8 9 11 -12 12 14 -15 18 -17 -18 -19 20 21 22 -23 23 28 25 -27 -28 -29 29 31 -32 32 33 35 -36 36 38 -39 39 40 41 42 43 45 -46 47 -48 48 49 50 51 52 53 54 55 -57 -58 -59 -60 -61 -62 -63
leaf_value=0.0028426451208758891 -0.024723564614028241 0.022786758193294766 -0.0054033215234306833 -0.00012961005709277693 -0.035216944559467493 0.023253818620646634 0.034067979372367309 -0.017619688393790061 0.024966115177273988 -0.017490891300071129 -0.024186251874740498 0.02443838031337809 -0.015730127379654436 0.012644596813018749 -0.0084835387679349991 -0.017135915035764771 0.022149419000574301 -0.033672856799841694 -0.022277131029722862 0.029842155278581816 0.00013532983677676889 -0.051220636577305134 0.036021514310869342 0.0039870932337645855 -0.038205704477990647 -0.0096433910559377764 0.016804982264223098 -0.025095314147813429 -0.021101031559207756 0.024461437179032198 0.037245081688299556 -0.0020323982461291361 0.027690585480556557 -0.004206179499672287 -0.02751444578789641 0.028758327133926228 -0.017486209616927099 -0.019885363004872619 0.027827098060980569 -0.031033208689190839 0.00061485797004132798 -0.014488788177475394 0.018402786292048882 -0.025995199375029403 0.024807477833130497 0.017038924146040801 0.025188523599908232 -0.003761878532718861 0.024214205783511879 -0.016629178834043745 0.0038472241382163813 -0.017116396200543175 0.023414122722185515 -0.020384531329824658 0.042251637361504661 0.00027307250509866354 -0.02749937011003625 -0.031651055518407543 0.030005614025270386 -0.023456386133124285 0.013909309256989058 0.0089872827759237117
leaf_weight=311.13349564373493 113.12699845433235 72.220360442996025 1115.189586430788 61.645460426807404 106.89400708675385 95.1323471814394 92.931830227375031 69.39426364004612 212.35476219654083 115.02795553207397 164.29031243920326 85.838961333036423 134.85474549233913 89.006299197673798 150.5860351473093 82.864374727010727 91.708250775933266 27.209191530942917 109.60859662294388 160.87993097305298 2490.5630706101656 5.3953057825565329 88.242413491010666 1971.7430095672607 94.19598263502121 505.48987337946892 195.50150515139103 130.96575002372265 112.07867370545864 131.23321083188057 88.562700718641281 975.83173874020576 304.36812859773636 313.05954106152058 193.79958529770374 257.77051565051079 301.59506411850452 465.76839369535446 176.75786790251732 77.785442247986794 535.442383274436 615.76993206143379 371.64992636442184 162.96304485201836 339.1308578401804 192.6308292299509 117.4911132901907 314.93756851553917 161.71828460693359 212.89260804653168 141.48297995328903 103.60407911241055 160.08837772905827 161.47885130345821 48.745395168662071 5210.625501319766 202.92831520736217 142.92696759104729 162.89730879664421 222.26037725806236 98.155355602502823 99.085036143660545
leaf_count=1269 467 292 4562 253 436 388 379 283 866 469 670 350 550 363 614 338 374 111 447 656 10159 22 358 8039 386 2065 796 536 457 535 361 3981 1233 1276 799 1044 1236 1916 719 319 2183 2528 1506 669 1373 784 477 1289 655 874 577 425 651 661 198 21271 838 583 658 914 398 404
internal_value=-1.70156e-05 0.000110766 3.56587e-05 -0.016071 0.000328009 0.000151829 0.00618269 0.00034075 0.00023123 0.000442722 -0.0126204 0.000174231 0.000279753 -0.000597815 0.00017155 0.00111883 0.00464639 -9.41138e-05 0.000284176 0.0102163 0.000116241 0.0271646 0.000248099 0.000838345 -0.00238328 -0.0141405 0.000118917 -0.0011249 0.000632973 -0.000120332 0.00541989 0.000347438 9.59244e-05 0.000746323 -0.00625915 8.95129e-06 0.000754572 -0.00849962 3.03661e-05 0.000576948 6.91759e-05 0.000326665 -0.000663285 0.000410193 0.0100012 -0.000474462 0.00381223 8.79168e-05 -0.000365295 0.000565678 -2.2331e-05 0.000539526 -0.000341122 0.000707156 3.56016e-05 0.000663509 -0.0148017 -0.0169475 0.0178617 -0.0119187 -0.00200821 -0.00697082
internal_weight=22121.5 21946.7 21874.5 174.772 20759.3 20153.5 605.847 20046.6 19951.5 19628.8 322.691 19416.4 19301.4 158.401 19215.5 512.915 430.051 338.343 19080.7 316.861 18763.8 166.275 18654.2 15237.5 3416.72 599.686 2817.03 2621.53 15149.3 13089 2060.31 12734.9 12603.6 11434 1169.63 11129.6 10233.3 896.319 9975.54 9673.95 9497.19 9419.4 8544.83 7929.06 874.573 7557.41 430.551 7394.45 7201.82 6664.62 6502.9 6290.01 5985.63 5580.94 5420.85 5259.37 404.688 354.091 304.38 537.198 201.759 211.164
internal_count=90290 89570 89278 720 84716 82245 2471 81809 81421 80105 1316 79239 78770 646 78420 2092 1754 1380 77870 1292 76578 678 76131 62189 13942 2451 11491 10695 61831 53431 8400 51987 51452 46672 4780 45439 41770 3669 40726 39490 38771 38452 34896 32368 3556 30862 1753 30193 29409 27206 26551 25677 24442 22781 22130 21469 1661 1444 1235 2203 823 861
is_linear=0
shrinkage=0.03


Tree=5
num_leaves=63
num_cat=0
split_feature=10 27 10 2 23 19 0 19 24 13 19 19 19 17 23 0 22 8 19 24 19 24 19 19 18 15 19 2 2 19 13 19 2 19 18 7 19 19 15 22 19 19 23 19 1 24 23 23 7 19 24 15 19 19 23 19 17 19 20 13 19 15
split_gain=55.9178 28.2424 34.5898 32.32 30.1137 31.8172 48.8277 29.7088 90.4871 87.3046 84.4776 75.8041 57.3696 45.7427 42.9105 41.7425 40.975 63.7728 59.3727 45.039 35.9585 33.4527 88.8923 68.2044 55.0224 42.9177 70.4698 72.9387 58.4067 37.9822 34.9239 46.57 43.4664 63.5299 35.6188 34.5471 32.9137 32.3394 53.0863 32.1905 148.57 118.626 85.5481 102.958 82.7861 68.7247 66.1574 51.1987 37.9895 35.3152 46.4568 35.3096 108.515 103.873 106.572 54.2452 37.2142 54.7868 113.513 96.7432 84.1655 66.471
threshold=4.5170213258844081 1.5000000000000002 0.099620653640434875 14.218173151858863 645.12033333333341 627.11500000000012 621.31479819514118 30.355000000000004 218.63833333333338 27.995392910995481 27.833500000000004 221.91150000000002 28.275500000000005 27.966250000000006 30.536500000000007 28.55351585748431 239.30547000000004 1.2743132071730721 245.29700000000003 244.48833333333337 33.069500000000012 17.03733333333334 16.698500000000006 17.465500000000002 17.673750000000005 16.560500000000005 16.152500000000003 16.059848881323852 16.228924424517636 27.378500000000006 26.945785249637584 24.226000000000003 22.26785246775486 22.272500000000004 24.054750000000002 0.058763900593360681 16.053500000000003 23.164500000000004 23.324750000000005 289.60034000000002 284.18500000000006 290.75500000000005 277.91500000000008 273.92150000000009 291.3534272633712 272.06750000000005 286.9016666666667 274.62500000000006 -0.99748874344399485 269.02500000000003 268.55200000000008 301.60750000000007 301.85500000000008 307.53500000000003 310.68166666666673 311.80500000000006 312.28375000000005 357.48000000000008 370.30925000000008 333.12460225906415 328.29500000000007 330.15250000000003
decision_type=2 2 2 2 2 2 2 2 2 2 2 2 2 2 2 2 2 2 2 2 2 2 2 2 2 2 2 2 2 2 2 2 2 2 2 2 2 2 2 2 2 2 2 2 2 2 2 2 2 2 2 2 2 2 2 2 2 2 2 2 2 2
left_child=1 4 3 -3 5 6 7 9 14 10 13 -10 -11 21 -9 -14 17 -13 19 -18 -16 22 25 -23 -25 26 27 36 -28 30 31 32 33 -26 -33 -24 -1 -34 -39 40 42 -41 43 45 -43 49 -42 -45 -44 50 -20 52 -46 -53 -55 -56 -57 59 -59 60 -58 -62
right_child=-2 2 -4 -5 -6 -7 -8 8 11 12 -12 16 15 -15 20 -17 18 -19 39 -21 -22 23 35 24 29 -27 28 -29 -30 -31 -32 34 37 -35 -36 -37 -38 38 -40 41 46 44 48 47 51 -47 -48 -49 -50 -51 -52 53 -54 54 55 56 57 58 -60 -61 61 -63
leaf_value=-0.00019467027925016412 -0.0056912957580278738 0.029951505934290884 -0.0019397055444331051 0.003835934915328216 -0.018143963783143927 0.0165603281847857 -0.025616056972862622 0.030405299078471056 -0.027505392485078831 -0.036867784058122126 0.019561149855737727 0.017259069966180436 0.010545289530426423 -0.029882721499391886 -0.0028403561430514505 -0.013605812793419676 -0.0021562931441620309 -0.029782446815479039 0.0025238494843892885 -0.028808217619723336 0.011027479163720167 -0.01754526874862335 0.034245465082423654 0.020212559545899362 -0.0034376231444618746 -0.020146637155269313 0.030819107201421881 -0.030590203522649028 0.0038239858597075732 0.020552782167181313 -0.028211357068447539 0.038674823057892868 -0.019387292405745316 0.026257922254348358 0.0050766065928536585 -0.020720352765774643 0.039759123895772609 0.015871563664208398 -0.016731569432782492 -0.017707943659113302 0.03477810085278428 0.030487437615128933 0.039906241679858678 0.037363391439440959 0.0006386844451918589 -0.017961687823005772 0.0093203187925308389 0.010599234396640778 -0.015567898501451424 0.014905671751899607 -0.02554778720218169 -0.014379871221906542 0.032685000508753011 0.01938659290581039 -0.020268023221392317 0.017384042262232245 -0.0061431112343764997 0.018537236439990796 0.00056176972057347149 -0.017566838318867906 0.025452954760635232 0.00022240530490820435
leaf_weight=718.51116168498993 1470.9460745602846 47.205380886793137 5865.7085850983858 439.74052506685257 72.672691315412521 120.28872665762901 61.329298257827759 85.451185882091522 82.970236778259277 77.223610907793045 199.0368028730154 255.68797904253006 81.257613092660904 47.180476203560829 209.03063331544399 307.35066501796246 128.04454661905766 28.730256572365761 512.61291456222534 103.25831510126591 855.5207696557045 245.06046636402607 102.80364264547825 107.3738564401865 516.60584568977356 80.049454227089882 123.7365785241127 72.953575864434242 173.56123670935631 63.47485114634037 48.264130055904388 33.096149504184723 245.18527087569237 74.040691763162613 199.34412495791912 11.298147037625311 18.945410385727882 78.702074319124222 104.44408209621906 312.02136173844337 181.45416897535324 85.800268009305 11.420992150902746 99.813952639698982 398.69689054787159 168.08384744822979 187.01985958218575 182.28606194257736 296.26530192792416 178.38543064892292 59.079787164926529 410.78733371198177 124.8736813813448 277.07206310331821 112.92099034786224 118.08168008923531 696.04493868350983 352.97195900976658 3029.704619884491 378.47287219762802 168.60377906262875 212.71446757018566
leaf_count=2931 6023 192 23959 1792 299 489 252 346 338 318 811 1041 331 193 852 1257 522 117 2089 422 3485 1001 418 438 2107 327 503 298 708 259 197 135 1000 302 813 46 77 321 426 1285 732 347 47 403 1623 692 761 739 1221 725 242 1690 504 1120 465 480 2853 1435 12363 1556 681 867
internal_value=-4.00667e-05 0.000362552 -0.00130146 0.00637941 0.00110263 0.00120136 0.00106995 0.00118697 0.00201751 -0.00110683 0.000626548 0.00102063 -0.013255 -0.000602806 0.00994915 -0.00854671 0.00128219 0.0124879 0.000918982 -0.0140745 0.00830162 -0.000143019 0.0034819 -0.00289554 -0.000451135 0.00104851 0.00258458 -0.00199552 0.0150761 -0.00208235 -0.00319162 -0.0022221 -0.00498819 0.000283608 0.00988798 0.0287632 0.000832935 -0.0122631 -0.00270387 0.00132486 0.00479667 0.000348944 0.000621285 0.00424118 0.00123461 -0.000626535 0.0218711 0.0200896 -0.0134867 0.00325595 -0.00037584 0.000834048 0.00829237 0.000155142 0.0012727 0.000281739 0.000750908 0.000344013 0.00243883 -0.00452114 6.0183e-05 0.01139
internal_weight=22111.3 20640.3 6352.65 486.946 14287.7 14215 14094.7 14033.4 10303.9 3729.5 3263.67 9153.88 465.832 3064.63 1150 388.608 9070.91 284.418 8786.49 231.303 1064.55 3017.45 1301.86 1715.59 1470.53 1187.76 1107.71 810.41 297.298 1363.16 1299.68 1251.42 1018.98 590.647 232.44 114.102 737.457 428.331 183.146 8555.19 1876.42 6678.77 1507.95 1200.26 6366.75 918.162 368.474 282.1 307.686 750.078 571.693 6280.95 523.571 5757.37 5346.59 5069.52 4956.59 4838.51 3382.68 1455.84 1077.36 381.318
internal_count=90266 84243 25943 1984 58300 58001 57512 57260 42043 15217 13311 37360 1906 12500 4683 1588 37022 1158 35864 944 4337 12307 5308 6999 5998 4844 4517 3306 1211 5560 5301 5104 4156 2409 948 464 3008 1747 747 34920 7651 27269 6158 4890 25984 3748 1493 1142 1268 3056 2331 25637 2127 23510 21820 20700 20235 19755 13798 5957 4401 1548
is_linear=0
shrinkage=0.03


Tree=6
num_leaves=63
num_cat=0
split_feature=10 18 19 1 2 19 19 16 19 19 16 24 15 19 1 1 19 25 19 24 18 19 24 24 19 17 2 20 19 19 15 19 19 23 19 23 7 0 19 15 24 19 13 19 25 19 0 19 3 19 19 15 19 0 19 25 24 23 19 19 0 23
split_gain=52.6527 25.6494 44.8164 53.9108 47.477 31.0012 29.563 23.8431 200.041 153.326 124.67 78.0317 49.8629 48.8589 183.445 171.657 59.294 175.342 150.644 128.063 62.1317 69.39 80.4682 77.0812 53.9745 121.254 86.2158 59.2379 93.261 55.6 77.9239 46.9066 44.218 46.4016 44.1242 66.8203 51.6264 43.4587 43.413 172.029 107.206 86.9427 91.0202 72.6711 68.4316 58.4931 169.761 101.993 71.1773 121.922 79.0056 71.1538 66.9306 95.0683 94.8284 58.4565 55.7142 51.5486 44.5133 41.3991 41.2739 40.2717
threshold=4.5170213258844081 626.43375000000003 591.3850000000001 590.03688621325739 590.27899691317805 645.19000000000017 601.71500000000015 303.3325000000001 301.85500000000008 310.13500000000005 311.16250000000008 310.67166666666674 301.60750000000007 290.75500000000005 290.49338942974231 291.3534272633712 284.18500000000006 277.95166666666677 277.22500000000008 286.89166666666671 275.44250000000005 271.50500000000005 270.29833333333335 272.06750000000005 30.355000000000004 28.385250000000003 30.1564061876533 243.17839000000004 244.13500000000002 28.275500000000005 28.105250000000002 307.53500000000003 28.275500000000005 28.575333333333337 237.99450000000004 237.74833333333336 0.28545586105242654 283.98629788412228 328.29500000000007 330.15250000000003 323.89166666666677 337.33000000000004 333.12460225906415 320.04500000000007 333.80166666666673 367.94500000000005 374.03203309761921 379.04500000000002 411.11825496249293 413.63500000000005 422.17500000000007 414.91750000000008 420.15500000000003 423.4883118780603 432.75500000000005 368.42033333333336 433.37000000000006 318.55166666666673 331.39500000000004 314.88500000000005 417.58678454785991 28.244000000000003
decision_type=2 2 2 2 2 2 2 2 2 2 2 2 2 2 2 2 2 2 2 2 2 2 2 2 2 2 2 2 2 2 2 2 2 2 2 2 2 2 2 2 2 2 2 2 2 2 2 2 2 2 2 2 2 2 2 2 2 2 2 2 2 2
left_child=1 2 3 7 -4 -3 -6 8 13 11 -11 31 -10 14 16 -15 17 18 20 -18 21 22 24 -23 25 29 -26 34 -29 30 -1 -9 -27 -34 35 -28 -36 -19 40 -40 43 44 -43 57 58 55 -47 -48 50 -50 60 -51 -53 -54 -55 -44 -56 59 -41 -12 -49 -31
right_child=-2 5 4 -5 6 -7 -8 9 12 10 38 -13 -14 15 -16 -17 19 37 -20 -21 -22 23 -24 -25 26 32 27 28 -30 61 -32 -33 33 -35 36 -37 -38 -39 39 41 -42 42 45 -45 -46 46 47 48 49 51 -52 52 53 54 56 -57 -58 -59 -60 -61 -62 -63
leaf_value=5.2440765031607928e-05 -0.0055253554078880862 -0.020297938618302622 0.044676813308879307 -0.038001047937801895 -0.025564526901977001 0.0052377322009806862 0.011401245813265869 -0.013747949723211351 0.032401763165547631 0.02190756333015545 -0.0085935271498367612 -0.031031492401535497 0.0097564065754276764 0.031178015642410663 -0.029814081956944675 -0.00011720132053588174 0.027518638942952468 -0.012498949029500325 0.025646615442222874 -0.0022427817783900665 -0.014330635492429597 0.033657056052950649 -0.020611940298866146 0.0032202944177910672 0.04107426562517516 -0.031293174754772446 0.0047868447400941103 -0.027238774673972857 0.00022605831718813934 0.032271094022747929 -0.034109493489722857 0.007589397662843461 0.015714377564486241 -0.013437798866441454 0.029382016165283045 -0.028956002525972288 0.0039982869857471152 -0.033289892259700186 0.024427485939787642 -0.01996453254826178 -0.018405844234600111 0.026227948442532997 -0.0050618875061308145 0.015104449544270817 -0.031296162304861257 0.024704290285074745 -0.022249370442960853 0.0056514192987414599 -0.020999850439342119 0.028984486953704036 0.03547897373087211 -0.019600606105097524 0.02557200365306157 -0.019923002059034939 0.03146173072781934 -0.032119673618510619 0.00031363114810435233 -0.025274732317298383 0.0089237541515230501 0.0082845038344677054 -0.033960144997492378 0.0044399001123425434
leaf_weight=4640.3102322667837 1469.6909980177879 115.19304645061493 36.479656621813774 32.92729564011097 21.53533536195755 67.733510434627533 191.6652552485466 359.81771038472652 213.94546779990196 233.46337653696537 295.20857733488083 188.09571684896946 149.00772887468338 207.31678523123264 182.82835617661476 657.86806277930737 223.80664505064487 323.92193593084812 214.87912082672119 310.24613928794861 255.73845589160919 117.7036422342062 164.5896925330162 206.31005330383778 53.915851831436157 109.10194455087185 2082.6884009242058 127.0132739841938 891.26023834943771 80.243624225258827 60.780012533068657 124.63295184075832 55.17084601521492 438.09487888216972 141.32804715633392 54.072636663913727 147.84276542067528 126.08206583559513 262.92831851541996 85.371849283576012 393.18557645380497 121.24826706945896 533.31374533474445 226.11294600367546 139.24094966053963 259.02110053598881 182.51987580955029 1057.6727111935616 272.24416479468346 74.602368652820587 80.966074839234352 158.16955803334713 129.04537244141102 212.88915355503559 53.087644249200821 83.058109939098358 1835.9203136414289 93.472277879714966 109.28232119977474 234.60649131238461 24.098541170358658 112.85956351459026
leaf_count=18927 6023 474 148 136 89 277 779 1482 862 944 1210 779 608 837 756 2681 903 1338 869 1271 1047 474 680 840 218 451 8481 521 3635 325 251 504 225 1795 575 221 602 523 1060 351 1621 490 2185 919 580 1048 749 4311 1117 302 328 649 524 873 216 342 7494 387 444 957 99 459
internal_value=-3.91202e-05 0.000351455 0.000451637 0.000295352 0.0130816 -0.0108286 0.00764304 0.0003582 0.00117923 -0.000937403 0.000350284 -0.014631 0.0231184 0.000514445 -1.95623e-05 0.00738107 0.000478448 -2.1749e-05 0.000806132 0.0102266 0.000257493 0.000651359 0.000168293 0.0142932 0.0005491 -0.00130444 0.00346235 0.00287153 -0.00319913 0.000258273 -0.000389314 -0.00825194 -0.0140042 -0.0101686 0.00542092 0.00393023 0.0164205 -0.0183369 -0.000377164 0.000734526 -0.00545613 -0.000416465 0.000558157 0.000536189 -0.0152432 -6.96871e-05 0.0011579 -0.000336345 0.000689302 -0.00195238 0.00690748 0.000151944 -0.0007483 0.000587766 -0.00094585 -0.0087175 0.00119221 -0.00474557 -0.00373447 -0.00111398 0.00476316 0.0160313
internal_weight=22107.4 20637.7 20454.8 20205.1 249.68 182.927 213.201 20172.2 12348.9 7823.28 7150.73 672.546 362.953 11986 11120.8 865.185 10938 10403.9 9953.9 534.053 9739.02 9483.29 9159.27 324.014 8994.68 5496.56 3498.12 3444.21 1018.27 4894.19 4701.09 484.451 602.368 493.266 2425.93 2136.76 289.171 450.004 6917.27 5674.68 1242.59 5411.75 5077.86 849.4 333.895 4956.61 4340.24 4081.22 3898.7 2735.96 1162.74 2463.71 2389.11 2230.94 2101.9 616.372 1889.01 623.287 194.654 529.815 1081.77 193.103
internal_count=90266 84243 83492 82476 1016 751 868 82340 50375 31965 29200 2765 1470 48905 45387 3518 44631 42457 40596 2174 39727 38680 37366 1314 36686 22433 14253 14035 4156 19962 19178 1986 2471 2020 9879 8702 1177 1861 28256 23162 5094 22102 20727 3473 1375 20237 17710 16662 15913 11175 4738 10058 9756 9107 8583 2527 7710 2554 795 2167 4410 784
is_linear=0
shrinkage=0.03


Tree=7
num_leaves=63
num_cat=0
split_feature=10 27 10 25 19 0 19 13 2 19 13 19 21 0 19 21 8 19 16 19 15 3 16 19 19 13 19 15 19 19 2 16 0 19 7 25 19 25 9 22 19 19 25 19 16 16 25 25 19 0 19 25 19 12 19 12 19 0 9 19 20 15
split_gain=49.5754 25.8954 32.4303 26.7204 29.4201 44.8253 28.0498 27.3876 25.3297 31.7113 42.0093 24.973 86.2312 83.8298 70.0457 45.1278 70.18 58.7035 43.3306 39.6488 50.6789 39.0618 38.3698 38.0263 37.3098 44.6135 48.5538 37.1318 77.4502 63.1873 71.0253 69.8276 54.7535 49.8148 46.0206 38.8847 34.3203 32.5182 32.1496 32.138 131.631 104.851 77.2354 81.0027 79.4938 77.1737 54.5481 50.7534 47.1051 106.361 52.3392 98.7984 51.071 36.0078 33.8823 33.4456 31.8674 31.415 31.0724 30.923 107.891 105.038
threshold=4.5170213258844081 1.5000000000000002 0.097516573084313121 643.29450000000008 627.11500000000012 621.31479819514118 611.85000000000002 619.44855932378027 14.218173151858863 16.698500000000006 16.338002599782786 30.355000000000004 28.457250000000005 217.56030513115391 221.91150000000002 236.96750000000003 1.2743132071730721 245.29700000000003 244.53500000000005 28.275500000000005 28.105250000000002 227.07603068239652 30.172000000000004 28.275500000000005 27.622500000000006 26.945785249637584 27.036500000000004 17.098750000000006 17.465500000000002 16.152500000000003 16.059848881323852 16.203250000000004 17.595357596526537 16.698500000000006 0.058763900593360681 16.362500000000004 16.394500000000004 16.644500000000004 0.014452623766866729 289.60034000000002 284.18500000000006 290.75500000000005 277.95166666666677 273.92150000000009 273.28500000000003 292.85500000000008 271.5266666666667 286.92500000000013 298.40500000000003 301.51140337470861 307.53500000000003 310.75833333333338 311.80500000000006 298.14300000000031 304.08500000000004 294.56975000000045 292.73500000000007 291.3995347290828 0.0023218242771660337 357.48000000000008 370.30925000000008 334.92250000000007
decision_type=2 2 2 2 2 2 2 2 2 2 2 2 2 2 2 2 2 2 2 2 2 2 2 2 2 2 2 2 2 2 2 2 2 2 2 2 2 2 2 2 2 2 2 2 2 2 2 2 2 2 2 2 2 2 2 2 2 2 2 2 2 2
left_child=1 3 8 4 5 6 11 -6 -3 10 -10 12 19 22 -15 16 21 18 -17 20 24 -16 -13 -14 25 26 27 29 -29 30 -1 -31 -30 35 37 36 -33 -35 -39 40 42 55 43 46 -45 56 -19 -42 53 54 -51 -52 -53 -47 -50 -41 57 -43 -26 61 -61 -54
right_child=-2 2 -4 -5 7 -7 -8 -9 9 -11 -12 13 23 14 15 17 -18 39 -20 -21 -22 -23 -24 -25 58 -27 -28 28 32 31 -32 33 -34 34 -36 -37 -38 38 -40 41 47 45 -44 44 -46 48 -48 -49 49 50 51 52 59 -55 -56 -57 -58 -59 -60 60 -62 -63
leaf_value=0.00080625936510262796 -0.0053641998770199879 0.0277108364051394 -0.001856097353144233 -0.016787866492380666 0.04169093803924543 -0.024713293085049805 0.026821637632112937 0.007862300698243169 0.0022342627809903565 0.013887957092443273 -0.032983316617899272 0.038319992966793705 -0.038142704770065858 -0.025441135866811977 0.044341655991230057 -0.0037353853920781086 -0.030663556650698375 0.0025803858613269314 -0.030000103664484142 0.015408859138023359 -0.029747538734079548 0.012794671288158786 0.0084272578778228479 -0.0108380104596442 0.026885196388507893 -0.022896988719566514 0.032266824711836742 -0.021411554344055797 0.024765394774289785 0.032675918694932297 -0.02932329693085339 -0.001079227046361245 -0.0024655399154650363 0.046024263397147769 -0.027552842129452176 -0.010029861394074021 0.036734571378128994 0.023405209609086694 -0.018122529927733048 -0.01260452019519758 0.030558220198799373 0.020266358702860171 -0.014080617798957397 0.042102466234247564 0.0079643542678453829 -0.0016680430026991303 -0.016901785665494738 0.0081358404005722751 0.014326502800062623 -0.010752977138764675 0.017234291437261198 -0.021746964250941934 0.0017367743442404271 -0.022962562964351306 0.040814637354477434 -0.039875268298474369 0.035997548546481198 -0.028242864246086352 9.7894227928256084e-05 0.017717304756872429 0.00020088808721944594 -0.015752194102893198
leaf_weight=737.52999950945377 1468.4513696581125 45.155751317739487 5884.5780643522739 75.065619692206383 28.401135042309761 60.556828081607819 38.051915556192398 89.887209489941597 210.39693899452686 173.43220730125904 35.528014212846756 40.026842832565308 53.96003520488739 90.101268991827965 42.853735640645027 146.34800487756729 29.352312982082367 770.10679346323013 92.370024532079697 152.33657072484493 51.478006288409233 203.44129312038422 1103.7917564809322 310.86418119072914 84.180303826928139 77.961203143000603 41.489149406552315 191.9387770742178 70.047196120023727 108.35217888653278 77.731192290782928 53.594726458191872 1259.6238486170769 43.439063861966133 17.127779141068459 182.98565982282162 35.91599228978157 83.15154355764389 20.851376608014107 262.18004465103149 206.36814446747303 42.97986064851284 262.8287722915411 82.84215821325779 237.80195678770542 158.55417098104954 155.33419987559319 163.21103943884373 171.53800116479397 361.49378575384617 318.70150619745255 95.161218851804733 1123.6772536635399 130.53599752485752 58.537454023957253 48.004333451390266 77.291189908981323 16.533140301704407 72.91723807156086 353.86501410603523 2991.3691953420639 426.11444588005543
leaf_count=3008 6023 183 24052 310 115 250 154 365 857 706 145 161 225 368 174 597 120 3138 380 617 214 826 4488 1276 343 319 169 786 285 439 319 218 5139 176 70 748 146 338 85 1085 830 173 1090 333 964 648 642 663 692 1492 1286 395 4591 537 235 200 312 67 297 1435 12209 1758
internal_value=-3.83505e-05 0.00034059 -0.00125327 0.00104932 0.00114389 0.00101852 0.00112998 0.0160383 0.00637575 0.00406521 -0.00285266 0.0010597 -0.00104292 0.00182364 0.000863012 0.0011261 0.0130764 0.000749313 -0.0139192 0.000459341 -0.000249571 0.0183116 0.00947921 -0.0148941 0.00023112 -0.000514 8.25683e-05 -0.000380771 -0.00360156 0.00321874 -0.00206601 0.0111225 -0.001027 0.00576615 0.0187952 -0.00209555 0.0140841 0.0242147 0.0150412 0.00116105 0.00462521 0.000180005 0.000692453 0.00381173 0.0168041 0.00101553 -0.000687906 0.0206692 0.000522246 0.00110208 0.000290038 0.00104273 7.72482e-06 -0.0112984 0.0210936 -0.0168461 0.0232951 0.00671505 0.0144789 0.000431693 0.00205518 -0.00307058
internal_weight=22100.3 20631.8 6349.09 14282.8 14207.7 14089.4 14028.8 118.288 464.513 419.357 245.925 13990.8 3727.48 10263.3 9119.5 9029.4 275.647 8753.75 238.718 3362.65 3210.32 246.295 1143.82 364.824 3158.84 3001.74 2923.78 2882.29 1521.61 1360.68 815.261 545.418 1329.67 437.066 164.57 272.496 89.5107 147.442 104.003 8515.03 1878.49 6636.54 1508.91 1246.09 320.644 6326.35 925.441 369.579 6189.55 5900.46 5670.38 5308.89 4990.19 289.09 230.075 310.184 136.804 59.513 157.098 4895.03 3345.23 1549.79
internal_count=90266 84243 25943 58300 57990 57510 57260 480 1891 1708 1002 57106 15217 41889 37240 36872 1120 35752 977 13716 13099 1000 4649 1501 12885 12245 11926 11757 6210 5547 3327 2220 5424 1781 669 1112 364 599 423 34775 7660 27115 6167 5077 1297 25830 3780 1493 25278 24093 23166 21674 20388 1185 927 1285 552 240 640 19993 13644 6349
is_linear=0
shrinkage=0.03


Tree=8
num_leaves=63
num_cat=0
split_feature=10 27 10 11 14 19 24 19 15 19 17 19 15 11 19 19 21 19 22 19 15 19 17 4 23 4 19 15 15 19 16 19 1 19 19 21 19 15 9 15 4 5 11 19 4 19 4 14 19 11 10 19 24 19 19 23 17 7 21 16 19 16
split_gain=46.6802 24.3627 30.5393 30.1204 26.4416 31.1287 27.757 27.2076 39.5398 26.1511 28.4555 38.1692 25.9937 24.2892 24.0104 23.0464 22.0132 30.601 65.0723 45.5453 39.7113 57.8349 32.1772 30.1876 27.831 24.0136 23.8224 65.6203 54.8853 35.8779 41.1375 33.2945 38.7699 33.4206 30.5636 27.5667 29.2134 29.3462 26.5907 25.8607 25.5259 24.7644 23.3578 29.6508 24.1007 22.7616 21.4872 22.0625 20.5485 51.5459 25.523 23.0539 23.7306 48.1444 33.3422 45.4871 23.2198 24.7698 19.9214 22.7486 19.8548 117.424
threshold=4.5170213258844081 1.5000000000000002 0.099620653640434875 14.676627227658757 0.0079223365668752189 15.395500000000002 646.95333333333338 627.11500000000012 621.11250000000007 15.395500000000002 15.747125000000002 16.566500000000001 16.393250000000005 634.80023513699769 635.67900000000009 645.19000000000017 648.76500000000021 532.93000000000018 565.04836700000021 601.71500000000015 507.89625000000007 494.34750000000008 470.25625000000008 64.933066436039425 556.86350000000016 56.573092079107901 309.19500000000005 323.15250000000009 274.67250000000007 225.39450000000002 246.72500000000005 335.36500000000007 360.51838199434349 362.00500000000005 397.52500000000003 291.20750000000004 293.80500000000006 245.32150000000001 -1.4862307134334549 401.54250000000008 64.6535210680875 28.649393194847768 620.81335032370964 653.72000000000014 45.38633734038941 237.99450000000004 54.629925514728519 0.022703963985374439 601.71500000000015 588.87527575991237 3.8992027570402423 578.02500000000009 534.08833333333337 528.95500000000015 557.43500000000006 563.22000000000014 528.01125000000013 -1.7999194281522646 581.94400000000019 599.66750000000013 475.88500000000005 480.53500000000003
decision_type=2 2 2 2 2 2 2 2 2 2 2 2 2 2 2 2 2 2 2 2 2 2 2 2 2 2 2 2 2 2 2 2 2 2 2 2 2 2 2 2 2 2 2 2 2 2 2 2 2 2 2 2 2 2 2 2 2 2 2 2 2 2
left_child=1 4 3 -3 5 -1 7 8 48 -5 -11 12 -12 46 -15 -8 17 20 -19 24 21 22 26 42 -20 -23 28 40 29 -2 45 -29 33 -33 -34 36 37 -32 -30 -36 -28 -41 58 44 -44 -31 -9 -48 49 51 -50 52 53 56 -54 -56 57 -6 59 -21 -59 -62
right_child=16 2 -4 9 6 -7 15 13 -10 10 11 -13 -14 14 -16 -17 -18 18 19 23 -22 25 -24 -25 -26 -27 27 31 38 30 35 32 34 -35 39 -37 -38 -39 -40 41 -42 -43 43 -45 -46 -47 47 -49 50 -51 -52 -53 54 -55 55 -57 -58 60 -60 -61 61 -63
leaf_value=-0.047604205330949605 -0.032546283703974624 0.02900523938963993 -0.001816611386500844 -0.022861759734212079 0.012827026566513654 -0.0020009921576742765 -0.03813758518784216 0.051562666787354702 -0.022727329520839158 0.02761216043210148 -6.62731365308046e-05 0.011599618262608446 -0.026050924195883205 -0.02416807557582392 0.015079900917431808 -0.002405148050194848 -0.024436750876577807 0.020023984199137031 0.010333531875389672 0.044078077711471028 -0.024366278663218752 0.039098504034022596 -0.026842250573084092 -0.025843130282820755 -0.018989541608433556 -0.0017284247467918546 0.044160906121297555 -0.030167583744891285 0.011677416868247328 -0.004433237664806868 0.030865229728404723 0.0013195382987208324 -0.018492343586171998 0.040665434184449553 0.030822937689042901 0.032600901094278732 0.050458793566657646 -0.026117244124191214 -0.031024780829919614 0.031407551931411419 -0.020228388684331102 -0.012641450964230999 0.016732398370207242 0.034758575050989997 -0.01660210512224819 0.044037877469729196 -0.0039750541472009611 0.049626521365679542 0.031257565964789055 -0.022221778739729338 -0.0080852200079162585 0.023671787392497336 -0.016754990173728796 0.026657638752019638 0.032594356479967716 -0.012297831895080401 -0.027510196619232367 0.0012613175859268128 0.051884418709384844 -0.031633380431054146 0.037003069530353566 -0.00020937104907482252
leaf_weight=13.478677228093146 25.546677350997925 46.270871698856354 5860.1871433109045 31.162154525518417 176.8928959518671 1825.2840173840523 28.511473715305328 24.243887320160866 60.325424373149872 46.715126916766167 115.16709157824516 198.76097504794598 49.601402878761292 19.729702338576317 47.699176341295242 38.068813994526863 51.666230067610741 126.8777891844511 34.759619891643524 6.9261916875839216 113.44352911412716 35.147738769650459 70.747857823967934 21.541290402412415 174.40941932797432 20.281376868486404 36.173389881849289 41.67566479742527 14.603688821196554 11.980329677462576 9.2943985611200315 53.35123074054718 119.29840257763863 30.615143001079559 24.295887976884842 14.282504245638846 5.9337988793849936 59.251940041780472 117.98629209399223 13.922280728816984 6.4106007367372504 63.024932786822319 32.05955658853054 23.422753423452377 49.453292861580849 30.749172508716583 20.783504858613018 10.180150404572485 44.561533018946648 81.726781114935875 22.015476912260056 42.619472593069077 143.7699736058712 69.479610845446587 35.744112730026245 46.683979943394661 24.454320222139359 11045.707867488265 20.95234215259552 7.1427197754383087 96.584662511944771 361.5275097489357
leaf_count=55 105 187 23959 127 723 7458 119 98 250 190 469 808 203 81 193 157 214 517 142 28 467 144 292 88 719 83 147 172 60 49 38 218 492 124 99 59 24 243 488 57 26 258 132 96 203 125 84 41 180 337 89 173 588 282 145 191 100 45089 85 29 392 1475
internal_value=-3.74263e-05 0.000330203 -0.00121592 0.00599507 0.00101771 -0.00233948 0.00151414 0.00161837 0.00147729 0.00357019 0.00559035 0.00274539 -0.00791787 0.0156755 0.00353273 -0.017786 -0.00520769 -0.00450206 0.0014842 -0.00485749 -0.00774955 -0.00540016 -0.00759201 0.00709559 -0.0140997 0.0241298 -0.00557638 -0.000715197 -0.0120887 -6.70424e-05 0.00624026 -0.00504871 -0.00159225 0.0157325 -0.00820602 -0.00537693 -0.0127338 -0.0183134 -0.0262936 0.00389141 0.0343728 -0.00460218 0.0122016 0.0050748 -0.00345022 0.0303991 0.0304188 0.0136544 0.00159749 0.00150587 0.0182102 0.00166732 0.00158873 0.00177387 -0.00803173 0.00714877 0.00162568 0.00168717 0.0333951 0.00547602 0.0015155 0.00763601
internal_weight=22095.2 20627.9 6347.86 487.678 14280.1 1838.76 12441.3 12374.7 12252.1 441.407 410.245 363.529 164.768 122.636 67.4289 66.5803 1467.23 1415.56 497.545 370.667 918.017 804.573 749.144 161.498 209.169 55.4291 678.396 388.768 289.629 157.039 131.492 346.184 304.508 83.9664 220.542 88.7626 74.4801 68.5463 132.59 101.243 42.584 76.9472 139.957 104.936 81.5128 42.7295 55.2075 30.9637 12191.8 12125.2 66.577 12043.5 12000.8 11774.6 226.198 82.4281 11705.2 11680.7 35.0213 14.0689 11503.8 458.112
internal_count=90266 84243 25943 1984 58300 7513 50787 50511 50014 1797 1670 1480 672 497 274 276 6023 5809 2039 1522 3770 3303 3076 661 861 227 2784 1593 1191 643 538 1420 1248 342 906 364 305 281 548 414 173 315 573 431 335 174 223 125 49764 49495 269 49158 48985 48061 924 336 47779 47679 142 57 46956 1867
is_linear=0
shrinkage=0.03


Tree=9
num_leaves=63
num_cat=0
split_feature=10 27 10 23 19 15 19 11 21 19 11 19 11 19 23 19 19 21 19 8 16 4 13 8 24 21 19 1 19 21 1 19 19 19 11 4 5 7 13 10 19 11 19 13 15 11 19 17 16 19 19 1 16 19 19 20 24 19 19 25 19 1
split_gain=43.9933 22.9222 28.7486 25.025 26.4007 37.3531 24.7261 82.1124 81.4018 62.188 38.739 37.2284 52.6453 36.6613 35.6651 36.8607 32.2974 41.473 54.131 51.2457 41.3124 31.0903 29.9434 35.3342 29.2117 28.2481 27.7824 62.0647 66.9065 42.3405 35.8618 33.3617 27.758 26.9082 45.5259 28.9178 25.861 24.6936 24.074 23.9417 42.4309 23.4885 28.37 38.3066 24.2325 22.4731 22.3605 28.5664 21.8591 119.96 103.307 74.8933 68.7479 97.9677 44.7465 97.9563 87.529 103.862 54.5876 62.5093 50.2862 56.5788
threshold=4.5170213258844081 1.5000000000000002 0.097516573084313121 645.12033333333341 627.11500000000012 621.11250000000007 30.355000000000004 218.00132946439822 28.457250000000005 218.07300000000001 226.03506947486633 28.275500000000005 28.346426321117658 28.134500000000006 30.536500000000007 33.069500000000012 225.39450000000002 236.96750000000003 245.29700000000003 1.2743132071730721 244.53500000000005 44.751345624585582 27.864075634400084 0.026995725991188508 245.66000000000003 32.402000000000008 24.226000000000003 22.262013808225731 22.272500000000004 28.022500000000004 21.237581232643766 21.813500000000001 246.27100000000004 23.342000000000002 24.027225710984919 48.178755460177186 90.706123916152038 -0.031688163808372131 619.44855932378027 0.30725104995525349 133.79100000000003 14.676627227658757 16.698500000000006 16.338002599782786 16.697000000000003 126.38719916898674 15.395500000000002 15.747125000000002 302.53750000000008 299.26500000000004 307.53500000000003 310.63292426937579 294.01500000000004 293.80500000000006 357.48000000000008 370.30925000000008 334.46666666666675 331.39500000000004 337.33000000000004 349.05833333333339 383.60500000000008 389.53381296411447
decision_type=2 2 2 2 2 2 2 2 2 2 2 2 2 2 2 2 2 2 2 2 2 2 2 2 2 2 2 2 2 2 2 2 2 2 2 2 2 2 2 2 2 2 2 2 2 2 2 2 2 2 2 2 2 2 2 2 2 2 2 2 2 2
left_child=1 3 41 4 5 6 8 14 11 -9 -11 12 26 -10 -8 25 -12 19 20 -18 -19 -15 -13 -24 -20 -16 27 28 30 -28 37 -32 -21 35 -35 -29 -23 -1 -6 -17 45 -3 43 46 -44 -41 -43 -48 49 52 -50 -52 53 -26 56 -56 57 -53 -58 -60 -57 -62
right_child=-2 2 -4 -5 38 -7 7 9 13 10 16 22 -14 21 15 39 17 18 24 32 -22 36 23 -25 48 -27 29 33 -30 -31 31 -33 -34 34 -36 -37 -38 -39 -40 40 -42 42 44 -45 -46 -47 47 -49 50 -51 51 54 -54 -55 55 60 58 -59 59 -61 61 -63
leaf_value=0.0092146320181551583 -0.0050593566774526054 0.026796782249490135 -0.0017479264912842447 -0.016650275280830192 0.039061844110524262 -0.022487051492060064 0.028153041803110731 -0.023394322037133701 -0.042648004856502233 0.02448153994990477 -0.022459192975028699 0.035865621896523814 -0.031031117743149816 0.0040632687600027327 0.0019062803084587156 0.017084806781222261 0.019420537885687681 -0.0033829773225456418 0.02558654110136813 -0.047548677008254589 -0.029138428863809504 -0.019322952143786841 0.024084973184198135 -0.010058114238888437 0.0014123215106865595 -0.026976679606868358 0.0092941835596414193 -0.0048221143315764605 0.032066701285772013 -0.024417048420731863 -0.033631718904963789 -0.0016481224106532719 0.024363357002494115 0.015104688331528683 -0.021223108688473293 -0.023492819263078561 0.022329916731431601 -0.00023048673163247898 0.0075200529034345574 0.0055746545530117311 0.022850995412859704 -0.022623254690251001 0.04812483573546044 -0.031646784947171332 0.0094700668417332396 -0.01245992659285953 0.026263862436125163 -0.00093618600247788843 -0.016056803202065432 0.020009161810074998 0.016652647856627865 -0.0028106014882565496 -0.012323801520889461 0.031504063216385041 0.017105428296272741 -0.012729092007747904 -0.031092580718695435 0.023963176049835357 0.0025685042274785387 -0.023367328799449898 0.018574384154462931 0.00050087290894997331
leaf_weight=289.94944889843464 1465.2321482598782 44.169030532240868 5881.512205645442 71.917273491621017 28.595649152994156 60.791743353009224 85.960916385054588 93.793627917766571 37.378205150365829 63.484293326735497 52.48620967566967 43.682832092046738 49.187816470861435 86.968432053923607 172.4692610502243 333.70192749798298 189.08434525132179 145.54077464342117 43.866179272532463 17.025027796626095 91.409168347716331 225.43906976282597 52.671446412801743 56.244135811924934 2098.1463329643011 36.879544749855995 452.32088613510132 125.02373674511909 60.758242145180702 36.078247770667076 52.668997883796692 66.639820694923401 6.5957154482603064 76.014715686440468 52.332255348563194 187.17878741025925 14.116253182291983 1761.7540806680918 92.220009878277779 271.17166601121426 109.1264471411705 28.380780652165413 16.058958292007446 35.233875557780266 157.92779335379601 80.537910550832748 46.377849608659744 136.94134742021561 339.38249570131302 337.20292410254478 261.8772823959589 1054.3042109906673 307.80556982755661 102.03114248812199 354.57799537479877 240.09277799725533 132.15369425714016 148.69893583655357 197.84127166867256 144.53505581617355 165.66669988632202 2623.9680643826723
leaf_count=1182 6023 178 24052 299 115 253 346 383 157 258 214 176 205 358 702 1355 766 594 178 70 378 928 213 228 8574 150 1843 511 247 148 215 272 27 310 214 765 58 7187 374 1101 443 116 65 145 641 327 188 558 1407 1361 1055 4320 1264 412 1435 984 554 599 811 596 671 10707
internal_value=-3.64539e-05 0.000320207 -0.00117972 0.000986984 0.00107658 0.000956547 0.00105852 0.00181615 -0.0010351 0.000894459 0.0011449 0.000422862 -0.000264692 -0.0145115 0.00960288 0.00800883 0.000980673 0.00111792 0.000800701 0.0142051 -0.0133395 -0.0112694 0.0148959 0.00643287 0.00119298 -0.00317796 0.00021412 -0.000987391 0.00104282 0.00679329 0.000171759 -0.0158088 -0.0273239 -0.0112769 0.000264028 -0.0160295 -0.0168477 0.00110323 0.0150366 0.0109602 0.00651595 0.00599822 0.00380276 -0.00272489 0.0130807 0.00143402 0.00208718 0.00593935 0.00106656 0.00321181 -1.0738e-05 0.0010119 0.000951475 0.00281053 0.000201815 0.00218822 -0.00380372 0.000498033 -0.0147134 -0.00837524 0.000440917 0.0015759
internal_weight=22093.2 20628 6346.6 14281.3 14209.4 14088.6 14027.8 10301.4 3726.41 9211.57 9117.78 3362.51 3209.91 363.902 1089.85 1003.89 9054.29 9001.81 8789.1 212.705 236.95 326.524 152.598 108.916 8552.15 209.349 3160.72 2672.32 2231.77 488.399 2171.01 119.309 23.6207 440.549 128.347 312.203 239.555 2051.7 120.816 794.538 460.836 465.09 420.921 246.934 173.987 351.71 211.7 183.319 8508.28 2845.19 5663.1 5323.72 2507.98 2200.18 5061.84 3384.31 1677.53 1203 474.53 342.376 3029.73 2789.63
internal_count=90266 84243 25943 58300 58001 57512 57259 42042 15217 37618 37235 13716 13099 1501 4424 4078 36977 36763 35900 863 972 1344 617 441 34928 852 12894 10903 9103 1991 8856 487 97 1800 524 1276 986 8369 489 3226 1871 1891 1713 1007 706 1428 862 746 34750 11611 23139 21732 10250 8986 20677 13797 6880 4919 1961 1407 12362 11378
is_linear=0
shrinkage=0.03


Tree=10
num_leaves=63
num_cat=0
split_feature=18 19 19 15 19 16 19 24 19 23 1 19 1 19 25 19 13 19 23 23 24 19 24 19 15 24 19 1 19 19 15 24 19 24 23 19 15 19 16 19 21 19 25 24 16 19 25 19 19 25 19 3 19 19 12 15 19 18 23 1 19 23
split_gain=34.7259 195.048 179.351 102.089 150.392 126.586 102 93.577 92.0631 75.0443 69.7167 66.5104 77.2111 142.142 64.324 64.3157 105.827 61.5729 74.0189 53.3604 52.4048 129.261 83.5118 51.5897 179.269 109.533 76.6021 100.244 111.488 85.411 72.5287 65.5533 53.2637 69.366 69.2806 52.8177 49.6617 49.282 65.2477 101.722 51.3047 65.5819 63.2522 47.486 46.0938 123.769 96.8808 76.7207 67.5937 50.1923 52.6449 49.8217 102.838 82.8881 81.7062 70.5393 56.8825 57.4099 47.1747 45.8494 41.8704 41.3842
threshold=289.35250000000008 291.72500000000008 287.8635000000001 301.60750000000007 307.53500000000003 311.16250000000008 303.30500000000006 286.89166666666671 312.58500000000004 287.70166666666677 291.3534272633712 284.18500000000006 277.9307057189688 277.22500000000008 313.06166666666672 322.42300000000006 323.95094503111255 330.24500000000006 329.97500000000008 318.55166666666673 274.52500000000003 271.50500000000005 270.29833333333335 362.00500000000005 367.78750000000002 358.07166666666677 379.04500000000002 397.27794609584754 402.02500000000003 392.94500000000005 374.53500000000003 388.71000000000009 348.47500000000008 349.15383333333335 341.62166666666667 337.33000000000004 309.13750000000005 269.02500000000003 261.10750000000007 258.95850000000002 247.13750000000002 246.27100000000004 245.59000000000006 334.46666666666675 415.36500000000007 420.15500000000003 422.63833333333343 411.59500000000008 429.49500000000006 430.79500000000007 436.34500000000008 484.10264666047902 485.83500000000004 475.88500000000005 465.8517500000001 482.94750000000005 466.71500000000009 444.9550000000001 475.26500000000004 293.48511679328334 273.10500000000008 304.63166666666677
decision_type=2 2 2 2 2 2 2 2 2 2 2 2 2 2 2 2 2 2 2 2 2 2 2 2 2 2 2 2 2 2 2 2 2 2 2 2 2 2 2 2 2 2 2 2 2 2 2 2 2 2 2 2 2 2 2 2 2 2 2 2 2 2
left_child=2 59 7 6 36 61 10 11 -7 -4 -3 12 13 20 -10 19 -17 -18 -19 -16 21 22 37 25 -25 32 30 29 -29 31 -26 -28 34 -34 35 43 -5 38 39 40 41 -1 -43 -20 47 -46 -47 -30 -48 -50 -51 53 58 54 56 -55 57 -52 -53 -2 -22 -6
right_child=1 3 9 4 5 8 -8 -9 14 -11 -12 -13 -14 -15 15 16 17 18 23 -21 60 -23 -24 24 26 -27 27 28 44 -31 -32 -33 33 -35 -36 -37 -38 -39 -40 -41 -42 42 -44 -45 45 46 48 -49 49 50 51 52 -54 55 -56 -57 -58 -59 -60 -61 -62 -63
leaf_value=0.00037850594067228893 -0.013802624939138121 0.039293763663343008 0.034544654394658314 -0.010967318866478276 0.039951540027207431 -0.020928736375417489 0.033850754628577513 -0.023772374732139813 0.019021294800924706 0.010122380644472692 0.0021492899412842228 0.020585460690391424 -0.012720065126824673 0.026694214701373779 -0.0015194421285660079 0.014087307669386534 -0.01496693790588874 0.031001132320262449 0.0044985987540748975 -0.019424679916066629 -0.029606879667546368 0.021366418218834855 -0.020032054951794685 0.026756387777952386 0.00071894777625276232 -0.03067458033087312 0.011305365081275831 -0.020667110412766011 -0.0026024576398640652 0.026344678169196729 -0.025073653576717446 -0.013962599817537183 0.036430881805384646 -0.0010708215121889317 -0.023502889930306275 0.014236434826396978 -0.03138808960623525 0.020524261301396566 -0.013032246013554226 0.024981931585131581 -0.012247547039656038 0.04257762768578182 0.0046950758639834455 -0.022403960059760468 -0.020972776394359675 0.023659919504272955 -0.019563775500179691 0.018886025716020619 0.021487853242462295 -0.025348763036169102 0.012929687884984838 0.0024554462039641767 -0.00069834053187458668 0.032035765143344039 -0.020097045478780509 0.0041902994272325451 0.035650983363347731 -0.013173336704310189 -0.036020118198734193 -0.033943342366892656 -0.004197401355278252 0.012073765793562539
leaf_weight=8107.3576213121414 364.20743675529957 49.29978321492672 174.78567697107792 471.62277315557003 55.093534767627716 204.34631659090519 134.89105039834976 143.40979318320751 148.30953162908554 323.12543976306915 576.40882202982903 147.91443909704685 392.39492705464363 187.75225910544395 303.88498528301716 441.79014602303505 274.62184649705887 66.447800353169441 116.29093766212463 296.11048077046871 89.142681896686554 265.00701887905598 181.32877871394157 220.64822033047676 177.42536391317844 152.00991272926331 294.54208847880363 254.96495874226093 318.90934807062149 220.9062434732914 218.79889167845249 134.46297426521778 62.606969848275185 151.4558367729187 172.05443151295185 137.9478548169136 139.0696754604578 109.44049301743507 319.53224036097527 153.30235444009304 281.95754408836365 64.623140916228294 103.08638535439968 119.49659106135368 272.25022713840008 149.25743599236012 168.17530736327171 281.07675684988499 94.33122681081295 76.056704565882683 172.26859268546104 38.19191637635231 2083.3160271942616 161.37062005698681 149.15181544423103 166.74631232023239 50.935351565480232 135.25780257582664 113.21349480748177 141.76726038753986 169.82118159532547 372.79524967074394
leaf_count=33073 1508 198 703 1950 221 846 542 592 602 1312 2345 594 1623 758 1244 1795 1133 267 472 1225 371 1071 752 891 723 630 1196 1050 1303 894 903 551 254 620 713 561 581 446 1307 624 1154 262 420 501 1122 605 692 1139 384 312 703 157 8533 654 610 679 206 555 467 592 692 1506
internal_value=-6.44513e-05 -0.00127 0.00110759 -0.000384589 -0.00121993 -0.000244831 0.0101955 0.000289412 -0.00103766 0.0187068 0.00508652 0.000616297 0.000332476 0.00084342 -0.000552893 -0.000905496 -0.00016294 -0.0010373 -0.000484702 -0.0103628 0.000349833 0.000709954 0.000122098 -0.000790384 0.00022714 -0.00743494 -0.000794075 0.000150606 -0.0013804 0.0111914 -0.0135191 0.00337723 -0.00277843 0.00989519 -0.00775552 -0.000493618 -0.0156269 0.000522511 0.000279536 0.000768357 0.000333924 0.00076312 0.0193268 -0.00912656 -0.000269379 -0.00148112 9.92703e-06 0.00746077 -0.00102533 -6.18217e-05 -0.000709489 -9.73788e-05 -0.00243531 0.00615013 -0.00144078 0.0178997 0.00631696 0.00143862 -0.0262997 -0.0194573 -0.0129637 0.0156787
internal_weight=22118.8 10904.8 11214 10398.8 9638.21 9027.52 760.6 10716.1 8599.63 497.911 625.709 10572.7 10424.7 10032.4 8395.29 8246.98 7646.98 7205.19 6930.57 599.995 9844.6 9585.64 9320.63 6864.12 5952.26 911.863 5731.61 5335.39 4685.47 649.911 396.224 429.005 759.853 214.063 545.79 373.735 610.692 9139.3 9029.86 8710.33 8557.02 8275.07 167.71 235.788 4430.51 3830.52 3558.27 599.986 3409.02 3240.84 3146.51 3070.45 2234.72 835.73 507.614 328.117 358.462 307.526 151.405 505.975 258.964 427.889
internal_count=90389 44635 45754 42535 39450 36919 3085 43739 35192 2015 2543 43147 42553 40930 34346 33744 31275 29480 28347 2469 40172 39109 38038 28080 24329 3751 23438 21812 19171 2641 1626 1747 3121 874 2247 1534 2531 37286 36840 35533 34909 33755 682 973 18121 15679 14557 2442 13952 13260 12876 12564 9157 3407 2074 1333 1464 1258 624 2100 1063 1727
is_linear=0
shrinkage=0.03


Tree=11
num_leaves=63
num_cat=0
split_feature=11 18 3 24 22 3 9 1 3 3 12 9 21 3 15 16 17 23 2 16 21 7 21 12 12 22 11 2 5 15 16 11 6 17 2 17 12 17 7 20 3 23 25 7 22 7 3 1 3 21 20 7 3 1 22 7 2 12 21 6 21 11
split_gain=32.9982 27.3411 36.9107 37.5431 36.5051 35.5521 29.8586 29.5278 25.5373 26.932 27.279 23.377 23.3684 27.922 26.0815 36.5936 22.9157 26.9433 21.6136 32.0819 21.091 20.0701 19.9025 28.6613 19.8704 19.6437 18.9234 21.9237 18.7443 18.564 20.7927 21.5303 18.0194 17.6822 29.535 17.1347 16.641 16.4965 16.386 16.5933 16.2276 15.7314 15.6325 15.2377 15.3884 17.4878 18.9746 20.1633 16.2764 21.0229 32.3945 20.432 19.5221 15.09 30.1583 26.6373 24.0112 45.9556 28.6497 22.3772 19.518 29.3303
threshold=653.15596851370412 289.35250000000008 37.210523307908737 17.03733333333334 41.136716000000007 281.87811453913679 2.3313414275111781 16.857313859423996 299.66017016574006 291.82354834013171 283.77550000000031 -1.738953375839188 295.16250000000008 295.53207336779366 301.60750000000007 301.04250000000002 298.12025000000006 305.50833333333338 293.20807402565646 295.24250000000006 290.04750000000007 -0.23797543128554818 38.095000000000006 38.363099999999882 292.28975000000059 300.15910000000002 296.17116063944849 289.80775842664588 81.340886235987185 293.76750000000004 296.28000000000003 300.05166033535954 29.454919809592933 306.10500000000008 312.24364398661032 297.34875000000005 303.02075000000008 295.75375000000008 -2.8398837850523075 283.60967000000005 288.4060290048937 360.96333333333342 295.49883333333338 0.02167860113395648 11.876131000000001 0.14138348444026863 11.813545617174436 12.210074718721712 12.156709985794999 14.903000000000002 15.042527000000002 0.1001883581005192 15.372310075437296 217.6688996590307 222.28140000000002 -3.014429565369539 224.92456852056506 221.33325000000022 224.56550000000001 20.478460143243804 45.481000000000002 126.38719916898674
decision_type=2 2 2 2 2 2 2 2 2 2 2 2 2 2 2 2 2 2 2 2 2 2 2 2 2 2 2 2 2 2 2 2 2 2 2 2 2 2 2 2 2 2 2 2 2 2 2 2 2 2 2 2 2 2 2 2 2 2 2 2 2 2
left_child=1 2 3 7 22 -3 12 43 9 11 -11 -6 13 16 15 18 26 -18 -14 25 24 32 23 -4 -12 35 27 -7 40 -21 31 -31 -5 -17 36 -20 42 -32 39 -15 -29 -8 -35 -1 -45 46 -46 -48 -49 -50 -51 52 -52 55 -55 -13 57 58 -56 -57 -61 -62
right_child=-2 5 4 21 8 6 41 -9 -10 10 20 53 14 38 -16 33 17 -19 19 29 -22 -23 -24 -25 -26 -27 -28 28 -30 30 37 -33 -34 34 -36 -37 -38 -39 -40 -41 -42 -43 -44 44 45 -47 47 48 49 50 51 -53 -54 54 56 59 -58 -59 -60 60 61 -63
leaf_value=0.00016290590967815068 -0.013317256164642598 -0.03659092953324964 0.011376590872696676 -0.0023270910182713383 0.036164351216381042 -0.0098879838175759491 0.010087832809745581 0.019358155887010012 -0.041369291963914034 0.044946054852384162 -0.016394899678949186 0.047334687327910088 0.025055130296513441 -0.03646512900534387 -0.00087510911081309665 0.030504986233667524 0.032246835367525352 -0.043690675823300912 -0.012546580858829854 -0.029674221887913556 0.039352958023740774 -0.0017072650115056668 0.021119233182083159 -0.032763612712160738 0.035911647133609947 -0.02870086262852118 -0.014522444315330205 0.027881674707329961 0.027649730624202059 0.039860290030819902 0.034014540746158804 -0.018007145418726635 -0.023573934942828809 -0.03461725985368469 0.056896775885694278 0.047081070101632864 -0.036891838720592054 0.0012635897191578111 -0.027445508482286853 0.030162167306383821 -0.0020580056260326935 -0.027656314590546724 0.018312272309830045 0.016937174486992189 -0.043122328352373243 -0.019878838934854537 0.046250997233287267 -0.023565017190237774 0.016361062681447394 -0.02743520027331604 -0.03237230419121552 -0.025132770624628858 0.0085703889196310033 -0.016433057996651939 -0.039070746932344393 -0.0085677108915028014 0.0012920915220565471 0.03285213142710456 0.016755775480321481 0.00087651092161423268 0.020446882539870457 0.004896315865234804
leaf_weight=1220.5881921052933 167.66882026195526 25.167544797062874 69.226857259869576 71.41976897418499 18.105561777949333 160.21909494698048 11.931744411587713 93.885566204786301 11.860776990652083 26.193241745233536 28.682633087038994 13.456094786524771 33.864583805203438 5.0248490720987311 9397.0414197146893 67.945740953087807 27.363063737750053 4.8458204269409171 13.231994897127153 14.46110427379608 13.338628843426703 4026.2063348889351 149.31465987861156 16.251442462205887 8.341604217886923 49.325459077954292 145.77515006065369 18.202495113015175 28.241714984178543 26.441608175635338 14.355754360556601 7.2564146071672431 72.942177042365074 6.2302504479885128 8.6041162461042386 6.3066842257976523 10.229456409811972 334.41126449406147 76.097620919346809 9.6204420477151853 147.63228042423725 55.173591822385788 23.883954539895058 96.67362217605114 7.1055243462324134 26.287832945585251 10.804190561175345 17.22556671500206 128.11711078882217 30.332759633660316 10.770805805921553 18.842601895332336 276.11015154421329 84.557646989822388 16.606618896126747 98.127392709255219 3678.4820995330811 58.313064053654671 16.219938799738884 321.880376085639 169.98994295299053 307.01563142240047
leaf_count=4977 698 105 281 293 74 663 49 381 49 106 117 55 138 21 38479 275 112 20 54 60 54 16446 606 66 34 204 598 74 115 107 58 30 299 26 35 26 42 1360 316 40 606 227 97 394 29 107 44 70 521 124 44 77 1123 346 68 399 15020 237 66 1308 691 1248
internal_value=-6.29137e-05 3.82916e-05 0.00107428 -0.000499087 0.00295676 -0.00104419 -0.000959986 0.00295179 0.00239895 0.00250724 0.0201535 0.00222374 -0.000833737 -0.00647103 -0.000482637 0.00549348 -0.00383988 0.0206293 0.00195013 0.000258857 0.0071362 -0.00210237 0.0145108 0.00292096 -0.00446437 -0.0186211 -0.00542572 -0.00167136 0.005098 0.00354584 0.00481717 0.0272941 -0.0130922 0.0205991 0.00675318 0.00668897 -0.00398104 0.00262963 -0.0218506 0.00700639 0.001225 -0.0208955 0.0071842 0.00211333 0.00593364 0.0039012 0.00516292 0.00587469 0.00495286 0.00602247 0.0020684 0.00501346 0.00701202 0.00209338 0.00127173 0.00556778 0.00167009 0.0168754 -0.0114281 0.00493269 0.00659556 0.0104475
internal_weight=22109.8 21942.2 11213.3 6107.31 5105.96 10728.9 10703.7 1936.74 4871.17 4859.31 76.5561 4782.75 10636.6 623.023 10013.6 616.548 532.28 32.2089 499.655 465.79 50.3629 4170.57 234.793 85.4783 37.0242 68.8641 500.071 354.296 194.076 396.926 382.465 33.698 144.362 116.894 48.9478 19.5387 40.3437 348.767 90.7429 14.6453 165.835 67.1053 30.1142 1842.86 622.27 525.597 499.309 492.203 481.399 464.173 336.056 305.724 286.881 4764.65 3854.18 910.469 3769.62 91.1396 32.8266 897.013 798.886 477.006
internal_count=90389 89691 45754 24929 20825 43937 43832 7891 19872 19823 311 19512 43556 2565 40991 2512 2188 132 2037 1899 205 17038 953 347 151 284 2056 1458 795 1615 1555 137 592 475 200 80 165 1418 377 61 680 276 123 7510 2533 2139 2032 2003 1959 1889 1368 1244 1167 19438 15737 3701 15391 371 134 3646 3247 1939
is_linear=0
shrinkage=0.03


Tree=12
num_leaves=63
num_cat=0
split_feature=11 14 20 20 26 18 11 7 0 10 11 13 22 17 11 5 24 10 18 7 5 10 4 0 18 21 16 2 12 12 7 10 4 9 9 10 22 14 7 4 9 4 7 10 14 4 12 22 22 14 20 21 10 20 16 14 11 2 16 16 12 4
split_gain=31.1336 29.6778 31.2183 43.0781 38.2917 30.0096 28.7572 30.3356 28.1016 22.9254 21.9459 30.9545 29.4409 23.0002 42.5673 23.0544 22.531 30.9542 29.0541 24.4815 20.8245 20.8208 22.8146 31.2165 30.0177 21.4201 20.3838 19.9891 19.1915 21.1618 19.1714 34.111 19.0206 18.3616 18.2849 18.2557 17.8918 17.8655 17.8365 18.7729 17.8015 27.0604 19.5686 19.4339 21.7683 23.7393 21.4595 19.1923 26.0753 21.6263 17.6485 27.0815 25.628 31.6242 23.4507 17.3087 16.9833 16.8636 16.5798 18.0072 32.099 16.4639
threshold=653.15596851370412 0.050455053577465166 14.733264000000002 15.042527000000002 1.0000000180025095e-35 14.981000000000002 10.831782530260762 3.7829731348530804 14.252004494180339 0.3904385437139169 310.64693780286126 307.95863067076715 307.66077000000007 33.868000000000009 218.00132946439822 30.749963678662688 17.03733333333334 0.045366246386239394 16.864250000000006 -0.22667478127965165 22.097837748492129 0.75232548438550206 52.152368690891223 242.77679122987294 307.23500000000007 244.65000000000003 307.69250000000005 15.024403379587229 15.014774999999906 15.248699999999998 -0.029179091380882479 0.12918422291517409 61.955262742963065 2.3313414275111781 1.2426213472806484 9.3993211016547509 314.34853000000004 0.0063389946073616034 0.1001883581005192 66.450628717060397 0.098927331796546517 44.351239277027808 -2.42057303774294 1.8931212125117296 0.029850412408733751 57.074278395689426 242.88900000000024 292.02173000000005 306.17013000000003 0.008406580847023901 287.40938000000006 270.93750000000006 0.46499150702250919 244.04990000000004 270.9525000000001 0.036981338434530532 41.742568639959238 276.50936626871595 243.49750000000003 244.53500000000005 245.17475000000022 53.228145751057959
decision_type=2 2 2 2 2 2 2 2 2 2 2 2 2 2 2 2 2 2 2 2 2 2 2 2 2 2 2 2 2 2 2 2 2 2 2 2 2 2 2 2 2 2 2 2 2 2 2 2 2 2 2 2 2 2 2 2 2 2 2 2 2 2
left_child=1 2 4 5 8 27 9 20 30 -3 11 13 32 16 15 56 18 -18 28 -19 -8 22 23 -16 50 -24 36 -4 -5 -30 31 -1 -12 -9 35 -28 -14 -31 39 -39 42 -42 -23 44 45 46 -43 -48 49 -49 51 52 58 -54 -53 -6 -15 -47 -25 -60 -61 -32
right_child=-2 6 3 10 55 -7 7 33 -10 -11 12 -13 26 14 21 -17 17 19 -20 -21 -22 40 25 24 -26 -27 34 -29 29 37 61 -33 -34 -35 -36 -37 -38 38 -40 -41 41 43 -44 -45 -46 57 47 48 -50 -51 -52 54 53 -55 -56 -57 -58 -59 59 60 -62 -63
leaf_value=0.016499856231830687 -0.012952757655885418 0.010126418090876594 -0.026766192115634625 0.043342954920826016 0.011601094686443067 -0.030508945262205552 0.00048202553376545362 0.0066291491458254264 0.046243304357040937 0.064755850824980407 -0.025401209623833524 0.047895063462101053 0.009128983364412915 0.011911017115299859 0.049261308085431381 0.011094332241284366 -0.022428292911511518 -0.02870213234181437 0.019271271957871768 -0.00094452479010063766 -0.0064969613114509144 0.03081609611946064 -0.027219266071049023 -0.041466613499891607 0.062693596996329218 -0.0056483298879317417 -0.00044480690115120537 0.041774105594373862 -0.027705487878079135 -0.0099084506996137099 -0.023439958035290344 -0.029944743942677078 0.0054929793053881864 -0.01811809546836483 -0.012749476531484418 0.051893498164912011 -0.04623920744741359 0.0027137341422687447 -0.026932576214162507 0.019077247525636745 -0.011394746978282615 0.02466811801152903 0.0034549300365100438 -0.0051642624791578004 0.014003799909646916 0.0030554953151883993 -0.0016634681398727707 -0.012006024236663937 -0.0062259331062669114 0.023450430550858468 -0.011368155224626758 0.042331643079935893 0.010512253841298795 -0.025024050080881998 0.0068521646173396056 0.031114177824362484 -0.0073777006440513002 -0.008573205815540684 0.036217157197067834 -0.038745431566026778 0.01357472494136916 0.0047103830332160933
leaf_weight=58.786154717206955 167.22513625025749 35.119552940130234 6.1103613376617423 9.8452205806970579 227.42747001349926 65.453585296869278 504.82673107087612 329.73063799738884 9.8503642529249174 8.5906595736742002 70.212030604481697 12.669873997569082 7.6087239682674435 61.819213092327118 11.842828482389448 680.90782734751701 62.593395754694939 28.733617693185806 93.60546687245369 3622.7373996526003 1607.6683172881603 23.662691026926041 47.291046649217606 5.8880834132432929 6.7223953008651725 337.21012623608112 7660.5706982016563 9.7907344698905927 21.815507397055626 100.97299127280712 62.963988423347473 18.644771903753281 23.836772993206978 29.238385140895844 109.43041677772999 5.9017407894134513 16.100971952080727 862.29023221135139 17.058955729007721 68.088927954435349 175.79412598907948 50.016766995191574 2716.1644353866577 339.79484423995018 142.02988004684448 198.71771560609341 241.05071046948433 17.798251077532768 54.11149175465107 111.3229613006115 108.49768878519535 18.508295252919197 31.154885455965996 80.028551936149597 175.34330561757088 50.226892426609993 121.8611832857132 256.85458122193813 18.419083058834076 13.261900618672369 49.991015449166298 26.306741207838058
leaf_count=239 698 143 25 40 925 268 2074 1346 40 35 289 51 31 251 48 2762 257 119 380 14802 6584 97 193 24 27 1377 31359 40 89 412 257 76 98 120 448 24 67 3513 70 276 723 203 11101 1388 577 807 986 73 221 454 447 75 127 328 716 204 495 1049 75 55 204 107
internal_value=-6.11333e-05 3.70437e-05 0.000434198 0.000247927 0.00820605 -0.0215214 -0.00302904 -0.00345703 -0.00270242 0.0210549 0.000341954 0.00120841 -0.000864708 0.00115385 0.00238315 0.00854997 -0.000378758 -0.00152431 0.00324358 -0.00116455 -0.00482782 0.00136327 -0.00277546 0.00131879 0.00018533 -0.0083156 -0.000663008 0.0152458 0.00185009 0.00146158 -0.00563859 0.00525346 -0.0175417 0.00460062 -0.000577742 -0.000403449 -0.0283812 0.00207393 0.00335503 0.00391643 0.00222876 -0.000297307 0.00369345 0.00108321 0.00306676 0.00139167 0.00609117 0.00388886 0.0112065 0.0185343 -0.000659604 0.00229432 -0.00547626 -0.0150389 0.0102752 0.0151517 -0.000866645 -0.0034947 0.00663543 0.0101865 0.00251384 -0.0151149
internal_weight=22108.1 21940.9 19425.7 18971.5 454.206 81.3547 2515.17 2471.46 176.552 43.7102 18890.1 10996.5 7893.66 10983.8 6096.07 864.588 4887.74 3714.06 1173.68 3651.47 2112.5 5231.48 904.159 519.658 507.815 384.501 7799.61 15.9011 1080.07 1070.23 166.702 77.4309 94.0488 358.969 7775.9 7666.47 23.7097 1048.41 947.438 930.379 4327.32 1587.49 2739.83 1411.7 1071.9 929.872 474.3 424.283 183.233 129.121 501.093 392.595 198.744 111.183 193.852 277.654 183.68 455.572 87.5601 81.672 63.2529 89.2707
internal_count=90389 89691 79389 77541 1848 333 10302 10124 719 178 77208 44892 32316 44841 24883 3508 19958 15178 4780 14921 8658 21375 3696 2126 2078 1570 31929 65 4400 4360 679 315 387 1466 31831 31383 98 4271 3859 3789 17679 6481 11198 5758 4370 3793 1937 1734 748 527 2051 1604 813 455 791 1129 746 1856 358 334 259 364
is_linear=0
shrinkage=0.03


Tree=13
num_leaves=63
num_cat=0
split_feature=18 3 3 22 1 9 10 3 3 12 10 11 8 9 21 11 21 3 15 12 3 15 17 8 21 21 7 9 3 12 22 14 8 10 3 9 14 20 15 14 8 21 14 1 11 10 10 14 15 18 21 15 14 17 10 6 14 20 10 13 11 10
split_gain=29.531 33.4949 33.323 32.9176 30.2079 29.2677 27.8347 24.113 25.5472 25.5417 24.0491 23.9572 23.8644 22.3773 20.6396 45.4219 19.7146 27.3895 24.0934 32.7939 20.9509 21.9777 20.7772 25.8431 19.6789 18.7442 27.9896 19.6301 18.614 18.5632 18.3605 26.6214 21.9178 18.2087 18.4269 27.4335 21.1734 18.7009 17.7406 17.1696 18.2616 16.6184 17.5856 23.2612 18.9844 18.1276 16.604 20.4843 16.6253 40.2254 33.625 33.4545 34.3117 33.268 25.4878 22.4122 21.3399 19.0175 38.3578 18.6601 21.7041 23.5061
threshold=289.35250000000008 37.210523307908737 284.36650046452309 41.136716000000007 17.098550164970863 2.3313414275111781 0.045366246386239394 299.66017016574006 291.82354834013171 283.77550000000031 0.25403435342589653 653.15596851370412 -0.18920228342122064 -1.738953375839188 45.481000000000002 126.38719916898674 295.16250000000008 295.53207336779366 301.60750000000007 299.90950000000026 315.19938902335269 274.67250000000007 298.12025000000006 0.88070805371696392 290.04750000000007 38.095000000000006 0.0069596491039636285 -0.0047331758850056799 298.05700182059223 292.28975000000059 52.158817000000006 0.061375771583362805 -0.079575703864733574 0.95883131523833787 297.21188960868466 0.051362832115576913 0.02337871592456553 297.25155000000001 50.081500000000005 0.0063389946073616034 0.022975071162514873 305.25750000000005 0.042560275641329616 291.3534272633712 297.28501998316756 0.90443892464139786 0.083045910547164134 0.024881906118040965 14.987750000000002 16.395250000000004 14.903000000000002 14.268750000000002 0.021411308516256802 15.533875000000004 0.11667938896587925 49.757851033376255 0.062948747779235495 11.555430000000003 0.1375108455322441 11.511752774342545 10.831782530260762 0.3904385437139169
decision_type=2 2 2 2 2 2 2 2 2 2 2 2 2 2 2 2 2 2 2 2 2 2 2 2 2 2 2 2 2 2 2 2 2 2 2 2 2 2 2 2 2 2 2 2 2 2 2 2 2 2 2 2 2 2 2 2 2 2 2 2 2 2
left_child=1 4 -2 25 39 11 -6 8 10 -10 -5 16 -8 -12 -15 30 17 22 19 20 21 -18 -4 -24 29 26 -3 -28 33 -11 31 32 -16 -23 35 -35 -36 -37 -34 40 -1 42 43 -30 -45 -46 47 -41 51 50 54 52 -48 -52 -50 -51 -53 59 -59 60 61 -54
right_child=2 3 5 7 6 -7 12 -9 9 24 13 -13 -14 14 15 -17 18 -19 -20 -21 -22 28 23 -25 -26 -27 27 -29 41 -31 -32 -33 38 34 36 37 -38 -39 -40 46 -42 -43 -44 44 45 -47 48 -49 49 55 53 56 57 -55 -56 -57 -58 58 -60 -61 -62 -63
leaf_value=-0.012954538399514571 -0.027841289037759311 0.019531629914931237 -0.0049058968727046454 0.016650118904601403 -0.021838353645673252 -0.020547489852736675 -0.011583589107368349 -0.040399830734261365 0.043503512306004348 -0.015853618804381311 0.034929819436712611 -0.012297753629229243 -0.0011138626780704093 -0.0062089937134163506 0.043596208621366421 0.0015496986046237594 0.062836686744968964 -0.021257006291159355 -0.00082587129360621339 0.01537468405928673 -0.036764707154078501 0.044045762619523657 0.032162935975868057 -0.038407611615531682 0.037998619529836408 0.020169263108092965 -0.045641266708015597 -0.0011719337159416478 0.040337576842526361 0.034630129144149938 0.024148916165377773 -0.042566643867493655 0.042236936142098801 0.013177177885809667 0.049189726112319608 -0.0036808082998555716 -0.0024238008934040298 -0.040299191452867061 -0.010051178864145615 0.0043350457867949773 0.03226552292529293 0.036716573626294713 -0.030746094302852998 -0.028950382394509644 -0.028680095614586652 0.0023302224544802727 -0.028747219145359937 0.018906119633728059 0.038125473766997792 0.017367377154362942 -0.03713952743996541 0.029518417673303408 0.0099365755766183655 -0.0096211294994912253 -0.0079130819956286756 -0.0042112674249810992 -0.0096405569759553441 0.0064872898472553902 -0.025198348218776617 0.031477825092208547 -0.0081730317589779559 0.06235158562144992
leaf_weight=97.361289709806442 41.912995621562004 43.195287510752678 483.34379214048386 100.21166753768921 62.361990466713905 68.895999535918236 206.53991687297821 11.775254130363463 26.278786525130272 28.608040779829025 18.186767384409904 164.63115192949772 3818.6720843762159 280.94714723527431 14.33557768166065 4209.1793114691973 5.1337471306323996 90.330028980970383 9394.5926692932844 197.4041084498167 13.020593643188475 11.707686215639113 26.756719663739204 5.529858171939849 13.387792870402334 149.80492033064365 12.788181141018866 29.615843415260315 10.173801481723784 8.3792749494314176 115.13243418931961 9.3328817486762983 7.1387522518634787 77.239080592989922 16.668278828263286 49.088828682899475 12.273586899042128 16.881160706281662 30.11921352148056 988.47189655900002 8.6326944679021818 8.1448042988777143 24.070877730846405 27.450698912143707 19.45878130197525 127.2517641633749 33.421466827392578 95.302395656704903 17.961847573518753 85.759585753083229 58.181658431887627 63.05036161839962 66.895787179470062 124.70692524313927 26.749308422207832 87.027064710855484 15.439120784401892 98.924514889717102 52.518091127276421 30.286867648363113 59.136238291859627 8.6570330858230573
leaf_count=398 175 175 1989 406 257 285 849 49 106 117 74 689 15602 1142 58 17176 21 377 38479 800 55 47 109 23 54 606 52 120 41 34 467 38 29 315 67 200 50 69 122 4024 35 33 100 113 80 518 136 387 73 349 239 256 272 509 109 355 63 402 215 123 241 35
internal_value=-5.9379e-05 0.00102107 -0.0011721 0.00281363 -0.000478137 -0.00106854 -0.00196133 0.00228344 0.00238827 0.0195638 0.00211207 -0.000943599 -0.0016521 0.00180007 0.00166956 0.00217513 -0.000767132 -0.00602157 -0.000448713 0.00529794 0.00053582 0.00174957 -0.00334315 0.0199021 0.00695451 0.0137706 0.00252709 -0.0147294 0.000943378 -0.00427337 0.0171013 0.00371666 0.0122131 0.00796725 0.00547205 0.00103084 0.0272653 -0.0131434 0 0.0025239 -0.00921637 -0.00500719 -0.00666903 -0.00349377 -0.00609311 -0.00177909 0.00317658 0.00562076 -1.65157e-05 -0.00441448 -0.0127017 0.00408761 0.000105616 -0.0184074 0.0105589 0.00648541 0.0217751 0.00317077 -0.00449041 0.0102201 0.00539795 0.0160566
