tree
version=v4
num_class=1
num_tree_per_iteration=1
label_index=0
max_feature_idx=33
objective=binary sigmoid:1
feature_names=ema_9 ema_21 ema_50 ema_200 rsi_14 stoch_k stoch_d macd macd_signal macd_hist atr_14 bb_upper bb_middle bb_lower bb_width tenkan_sen kijun_sen senkou_a senkou_b chikou_span fib_618 fib_50 fib_382 pivot_point resistance_1 support_1 regime_trend regime_volatility spread_bps depth_imbalance realized_vol funding_rate open_interest sentiment_score
feature_infos=[4363.7909954058578:68550.73501484975] [4703.3883083421952:68226.987353124496] [4879.838491811036:67744.05075698279] [5134.401914836496:66888.382233057142] [4.0921831157629693:95.667023333045947] [1.0920166357723944:98.880570023148209] [2.1954634340650157:98.051729248279386] [-1690.9010900630092:1231.6490948089122] [-1511.8091391656872:1106.7134824979451] [-672.6284392682735:589.85614023042251] [5.8099914732755016:2096.1047762312287] [4922.2621191479457:69828.550657794549] [4659.0429999999606:68466.85750000026] [3640.3057257531614:68094.201355129175] [0.0007798999407469167:0.52655440989586932] [4245.625:68690.904999999999] [4575.8900000000003:68164.790000000008] [4543.2649999999994:68107.627500000002] [4661:67988.050000000003] [3761.0999999999999:68805.5] [4519.2005799999997:67207.311119999998] [4796.4049999999997:67524.350000000006] [4999.26152:67919.496599999999] [3909.5366666666669:68660.793333333335] [4093.5633333333335:69135.893333333326] [3577.0733333333337:68595.306666666671] [-1:1] [0:2] none none none none none none
tree_sizes=3349 3475 3502 3500 3504 3513 3455 3495

Tree=0
num_leaves=31
num_cat=0
split_feature=15 19 19 17 3 19 15 7 7 16 19 19 25 26 19 13 19 11 19 13 19 3 19 2 23 19 19 17 24 19
split_gain=75.1243 168.152 110.068 88.4627 42.1481 85.3192 74.5033 39.7314 37.0688 36.7741 46.8979 35.8829 49.7819 33.903 33.1372 44.9647 32.1414 29.5737 28.5211 28.2025 50.2017 53.7887 42.3188 112.082 104.632 118.148 63.0962 59.5035 58.4391 94.9821
threshold=57499.220000000008 57773.605000000003 56320.195000000007 55898.383750000001 62005.451194854213 61040.055000000008 58898.530000000006 -11.834283744064576 462.12466585314183 60660.842500000006 62824.115000000005 58091.780000000006 56484.085000000006 1.0000000180025095e-35 61470.010000000002 59981.327786657137 59313.135000000002 61549.78387487647 56648.605000000003 54688.275910619523 54618.775000000001 54025.140777438981 48986.475000000006 49620.309745186656 47617.05000000001 47446.105000000003 47811.880000000012 47788.980000000003 47219.326666666682 46487.895000000011
decision_type=2 2 2 2 2 2 2 2 2 2 2 2 2 2 2 2 2 2 2 2 2 2 2 2 2 2 2 2 2 2
left_child=2 18 3 8 5 6 -3 14 19 -7 -11 12 -4 16 15 -6 -8 -18 -2 20 21 22 24 -24 25 28 -26 -28 29 -1
right_child=1 4 11 -5 7 9 13 -9 -10 10 -12 -13 -14 -15 -16 -17 17 -19 -20 -21 -22 -23 23 -25 26 -27 27 -29 -30 -31
leaf_value=0.36250811611839712 0.27078786885380507 0.37571392451433866 0.40303302814385511 0.32727632212316293 0.41971874251273306 0.42977748644001462 0.30759654797548042 0.32677772946935491 0.38885637118507288 0.36348718332873831 0.41726076512693067 0.42777646478097792 0.36594419085973312 0.32228374590347592 0.37312956761253696 0.30704987710986731 0.38163186173436897 0.30367256303332513 0.31702182061689715 0.33379725018490963 0.39203013379856949 0.32796807699700492 0.40302086015892946 0.36120372995559963 0.31752540514210864 0.40275938509486864 0.3909704019379569 0.34224756289918995 0.33181406732214203 0.39434540476448943
leaf_weight=19428.325412929058 44.763496667146683 211.71924099326134 168.4075334072113 175.42451396584511 10.888418108224867 45.731356054544449 26.132203459739685 174.69861942529678 136.95210331678391 133.08066576719284 58.313528090715408 51.296547532081604 195.50759625434875 169.61735764145851 136.22620877623558 47.42510998249054 82.26804792881012 14.275925964117048 130.90298214554787 83.719837009906769 146.63069719076157 111.06186470389366 236.15769052505493 498.44758450984955 189.21651023626328 185.34507268667221 80.81625884771347 278.98546841740608 152.43785351514816 237.1255499124527
leaf_count=80294 185 875 696 725 45 189 108 722 566 550 241 212 808 701 563 196 340 59 541 346 606 459 976 2060 782 766 334 1153 630 980
internal_value=0.362447 0.350696 0.363123 0.36264 0.357887 0.364763 0.353127 0.344086 0.362925 0.389496 0.379871 0.388626 0.383108 0.336766 0.359628 0.328088 0.356789 0.370104 0.30524 0.362761 0.362874 0.362674 0.362855 0.374647 0.362434 0.363025 0.340899 0.353191 0.362653 0.362892
internal_weight=23641.9 1286.04 22355.9 21940.6 1110.38 741.138 504.013 369.238 21765.2 237.126 191.394 415.212 363.915 292.294 194.54 58.3135 122.676 96.544 175.666 21628.3 21544.5 21397.9 21286.9 734.605 20552.3 20003.2 549.018 359.802 19817.9 19665.5
internal_count=97708 5315 92393 90677 4589 3063 2083 1526 89952 980 791 1716 1504 1208 804 241 507 399 726 89386 89040 88434 87975 3036 84939 82670 2269 1487 81904 81274
is_linear=0
shrinkage=1


Tree=1
num_leaves=31
num_cat=0
split_feature=4 0 19 19 18 4 3 19 0 7 26 9 19 24 8 19 15 19 21 19 13 1 0 19 15 24 19 2 19 23
split_gain=95.1075 67.9051 143.916 99.1199 77.9789 42.414 37.4868 69.9694 72.2934 41.2051 37.7152 32.1012 31.9088 38.4808 29.5693 29.3299 85.7588 32.4694 64.2795 45.723 86.8741 50.5021 38.939 37.6438 97.9518 68.4167 53.0655 40.5353 59.6764 52.625
threshold=72.61313585692514 57477.662415622828 57773.605000000003 56320.195000000007 55642.247500000005 27.757330124928753 62005.451194854213 61040.055000000008 58885.593476379814 31.695049382386063 1.0000000180025095e-35 8.7135990355565962 58091.780000000006 56815.163333333338 231.52744408423254 50302.540000000008 49944.610000000008 48986.475000000006 47453.380000000005 46487.895000000011 44976.898138634591 47127.597638905601 48539.934390997965 35703.710000000014 35711.73750000001 35074.82 34313.200000000004 33463.643606597892 32336.765000000003 31650.306666666667
decision_type=2 2 2 2 2 2 2 2 2 2 2 2 2 2 2 2 2 2 2 2 2 2 2 2 2 2 2 2 2 2
left_child=1 3 -3 4 5 -1 7 8 -4 -8 -10 14 13 -5 -7 16 17 18 19 20 23 -21 -19 25 -25 26 27 28 29 -13
right_child=-2 2 6 12 -6 11 9 -9 10 -11 -12 15 -14 -15 -16 -17 -18 22 -20 21 -22 -23 -24 24 -26 -27 -28 -29 -30 -31
leaf_value=-0.013195297518800109 0.017670481077702842 -0.053761129317727419 0.014395802166023087 0.037448994343613651 -0.0310647022815311 0.0010686524756766862 -0.0063389896705977229 0.024798965298047003 -0.0040128952414606135 -0.042304585367675035 -0.040221030810645292 -0.0046814293853476479 0.066076579197098639 0.0041008408805326751 0.015248060117141811 0.013027320043582442 -0.071300358463136107 0.071874799304934692 -0.028500064306436479 0.040927444966438846 -0.049348863212722055 -0.014401908057050326 0.0047874888384862192 0.064549420272051516 0.0012961964112384108 -0.048598476668922128 0.037153865663883755 -0.039075128560317557 0.03131609376086978 -0.044071517755416553
leaf_weight=600.38458812236786 735.76925279200077 176.49967730045319 197.94515903294086 166.02398377656937 205.25768855214119 15081.178489357233 241.57869029045105 223.19723875820637 125.87612602114677 118.80019724369049 167.7796802520752 2275.4232665896416 42.29325458407402 180.60882079601288 376.86342522501945 263.94563290476799 47.002480417490005 30.259214907884598 254.07238908112049 119.68983735144138 101.67598932981491 62.923548012971878 75.84002810716629 64.346899136900902 1253.5117100179195 90.724445655941963 74.522347778081894 87.590729743242264 111.29251046478748 88.074656426906586
leaf_count=2481 3043 723 820 691 844 62330 997 927 520 488 689 9404 177 747 1559 1092 194 126 1048 497 420 260 315 266 5181 375 308 362 460 364
internal_value=-2.413e-05 -0.000592523 -0.0119158 6.20171e-05 -0.000395483 -9.65614e-05 -0.00504653 0.0015826 -0.00895812 -0.0181952 -0.0247003 0.000287832 0.0250759 0.0200733 0.00141434 -0.00319428 -0.00409815 -0.00342465 -0.0040576 -0.00262331 -0.0037015 0.0218625 0.0239206 -0.00255423 0.00438465 -0.00590677 -0.00443793 -0.00564756 -0.00446445 -0.00614928
internal_weight=23641 22905.2 1251.68 21653.5 21264.6 21059.3 1075.18 714.798 491.601 360.379 293.656 20458.9 388.926 346.633 15458 5000.9 4736.95 4689.95 4583.85 4329.78 4147.16 182.613 106.099 4045.49 1317.86 2727.63 2636.9 2562.38 2474.79 2363.5
internal_count=97708 94665 5164 89501 87886 87042 4441 2956 2029 1485 1209 84561 1615 1438 63889 20672 19580 19386 18945 17897 17140 757 441 16720 5447 11273 10898 10590 10228 9768
is_linear=0
shrinkage=0.05


Tree=2
num_leaves=31
num_cat=0
split_feature=15 19 19 2 19 1 19 19 23 19 24 19 17 0 19 19 3 19 21 19 1 0 19 2 7 19 19 23 1 19
split_gain=61.2881 135.204 91.3003 73.5375 63.2614 140.202 56.577 48.3233 79.8781 83.8058 65.8962 92.0379 81.1488 63.2158 47.1114 46.936 71.6241 100.87 83.5274 77.6847 219.133 114.274 77.5346 178.278 68.9786 49.0712 46.3748 147.841 72.6635 51.3704
threshold=57499.220000000008 57773.605000000003 56320.195000000007 54675.583062806712 50302.540000000008 50213.122580763396 54618.775000000001 48986.475000000006 47816.740000000013 47446.105000000003 47219.326666666682 46487.895000000011 46244.336250000008 48967.495507439911 47811.880000000012 45155.035000000011 42917.281861474883 41954.090000000004 41505.235000000008 39034.845000000008 38865.485204119257 39417.765495578795 37142.660000000011 36847.059178546937 -54.136940670055985 40092.80000000001 35335.660000000011 34910.535000000011 35972.794236436886 33729.465000000004
decision_type=2 2 2 2 2 2 2 2 2 2 2 2 2 2 2 2 2 2 2 2 2 2 2 2 2 2 2 2 2 2
left_child=2 -2 3 4 5 7 -5 8 9 10 11 12 15 -9 -10 16 17 18 19 20 22 -21 23 26 -23 -26 27 29 -28 -1
right_child=1 -3 -4 6 -6 -7 -8 13 14 -11 -12 -13 -14 -15 -16 -17 -18 -19 -20 21 -22 24 -24 -25 25 -27 28 -29 -30 -31
leaf_value=-1.4405476610078596e-05 -0.051007089443888425 -0.0041312533216354384 0.0239341220276631 -0.051948728544329185 0.017277397017244261 -0.058294063555013868 -0.0089632147338857514 0.049398607548279932 -0.045848084712853836 0.029332488717158097 -0.029501610990225399 0.031100098053625642 -0.032279280519048353 0.0013861791819163242 -0.010364729695970073 0.025579814623118775 -0.016591602093213208 0.025130663942836962 -0.033648136204478284 0.042029834245757618 -0.048518567700198217 0.037642649133063422 0.018161466096643528 -0.047638191482589166 -0.02694543948418425 0.0061960271192476914 0.037614733129507569 -0.051659338066220334 -0.0071378195187548864 0.02012542989231824
leaf_weight=15190.05798625946 178.53783416748047 1111.3949859291315 411.12730678915977 111.21490916609764 549.15224355459213 102.33720818161964 245.57735794782639 115.25800494849682 131.59500056505203 249.90004906058311 185.05061958730221 242.31809990108013 191.66783154010773 169.20451593399048 323.51231932640076 183.54178024828434 616.49014289677143 414.15417827665806 180.71881738305092 270.62905512750149 231.79151517152786 116.62839436531067 594.77384012937546 195.82068026065826 169.28698261082172 328.29513202607632 205.93750731647015 137.55662648379803 162.09636332094669 323.36244910955429
leaf_count=62781 726 4589 1716 456 2275 421 1010 482 539 1038 760 1010 790 701 1333 758 2548 1713 747 1119 958 482 2460 809 700 1358 854 567 670 1338
internal_value=-2.21057e-05 -0.0106193 0.000589537 0.000152048 0.000524266 8.68362e-05 -0.0223621 0.000372294 9.02804e-05 0.000557222 0.000196596 0.000474786 9.4468e-05 0.0208398 -0.0206248 0.000415619 0.000174278 0.000732344 0.00017429 0.000515262 -0.000234758 0.0149601 0.000431039 -0.000219328 0.00303286 -0.00507934 0.000360333 -5.22073e-05 0.017904 0.00040539
internal_weight=23639 1289.93 22349.1 21937.9 21581.1 21032 356.792 20929.6 20645.2 20190.1 19940.2 19755.1 19512.8 284.463 455.107 19321.1 19137.6 18521.1 18107 17926.2 17041.4 884.84 16809.6 16214.8 614.211 497.582 16019 15651 368.034 15513.4
internal_count=97708 5315 92393 90677 89211 86936 1466 86515 85332 83460 82422 81662 80652 1183 1872 79862 79104 76556 74843 74096 70437 3659 69479 67019 2540 2058 66210 64686 1524 64119
is_linear=0
shrinkage=0.05


Tree=3
num_leaves=31
num_cat=0
split_feature=0 19 19 17 19 25 1 19 19 24 16 0 19 19 18 19 25 19 23 19 23 19 17 17 23 19 22 19 21 19
split_gain=54.6859 124.514 85.1984 69.1841 30.8376 39.091 30.3254 52.7565 34.9051 84.1331 67.4315 35.1163 42.1106 38.6236 30.3991 29.2549 78.5903 34.1575 132.629 86.1405 75.363 144.886 76.4054 69.0069 59.2225 42.3141 51.2079 98.8208 80.5715 71.0879
threshold=57477.662415622828 57486.935000000005 56320.195000000007 55898.383750000001 58091.780000000006 56484.085000000006 65000.216894100842 64953.380000000012 61040.055000000008 61170.581666666687 60660.842500000006 58885.593476379814 59313.135000000002 58526.530000000006 56717.825000000004 54618.775000000001 54455.405000000006 49882.000000000007 49199.321666666678 48535.56500000001 47100.650000000009 46487.895000000011 46244.336250000008 49180.425000000003 48766.465000000004 45155.035000000011 42770.576750000015 41954.090000000004 41505.235000000008 39194.310000000005
decision_type=2 2 2 2 2 2 2 2 2 2 2 2 2 2 2 2 2 2 2 2 2 2 2 2 2 2 2 2 2 2
left_child=2 -2 3 15 5 -4 7 8 9 11 -10 13 -13 14 -3 16 17 18 19 20 21 22 25 -19 -21 26 27 28 29 -1
right_child=1 6 4 -5 -6 -7 -8 -9 10 -11 -12 12 -14 -15 -16 -17 -18 23 -20 24 -22 -23 -24 -25 -26 -27 -28 -29 -30 -31
leaf_value=-0.00018348055503068466 -0.055813931912874343 -0.050391196355895201 0.036371980275981139 -0.031072586900443167 0.06288540873052044 0.0031775730473493761 -0.03205752529039705 0.065511374283063931 0.064338154241618581 -0.059665210322909147 -6.7576659760079419e-05 -0.040299332935516123 -0.00099075947044158382 0.030433710939274095 0.0043288729839729588 0.018644931569890253 -0.057409133890194003 0.053815572915429849 -0.038569072265851927 0.046326630841030517 -0.017087934256583139 0.034660610438756519 -0.031205854358184716 0.0050045150821810963 -0.00088369836185812293 0.024312672314869332 -0.013249666369469918 0.027021922537757249 -0.032880079479697212 0.015137452279771474
leaf_weight=17126.52916790545 133.04367230832577 33.431411281228065 165.04360467195511 176.07285217940807 44.029000774025917 191.7216360270977 93.621047019958496 27.866666451096535 45.428634092211723 79.983260482549667 385.54173079133034 113.84146811068058 169.69143295288086 113.92802676558495 105.39935740828514 217.42072609066963 59.014307677745819 86.118571445345879 219.98694072663784 171.26480367779732 619.68051496148109 307.72217740118504 193.18770609796047 454.87116786837578 108.51945635676384 183.17286717891693 685.77092291414738 348.90599481761456 182.68933717906475 792.13983562588692
leaf_count=70791 538 137 696 718 188 797 384 115 191 327 1594 465 698 473 435 902 242 360 904 717 2548 1290 792 1883 450 760 2829 1449 751 3284
internal_value=-1.98169e-05 -0.00998162 0.000560828 0.000143368 0.0234059 0.0185337 -0.00476426 -0.00238755 -0.00419431 -0.0118279 0.00672144 -0.00469333 -0.0167736 0.00885771 -0.0088481 0.000395989 0.000211784 0.000370088 4.96081e-05 0.000459636 8.2449e-05 0.000619285 8.24329e-05 0.0127746 0.0280152 0.000395309 0.000166368 0.000665024 0.000156991 0.00049382
internal_weight=23635.6 1301.78 22333.9 21933.1 400.794 356.765 1168.73 1075.11 1047.25 616.275 430.97 536.292 283.533 252.759 138.831 21757 21539.6 21480.6 20939.6 20719.6 20439.8 19820.1 19512.4 540.99 279.784 19319.2 19136 18450.3 18101.4 17918.7
internal_count=97708 5357 92351 90670 1681 1493 4819 4435 4320 2535 1785 2208 1163 1045 572 89952 89050 88808 86565 85661 84494 81946 80656 2243 1167 79864 79104 76275 74826 74075
is_linear=0
shrinkage=0.05


Tree=4
num_leaves=31
num_cat=0
split_feature=4 0 19 19 3 19 19 23 19 16 19 1 23 23 24 19 3 19 25 19 23 19 12 19 16 19 25 19 7 1
split_gain=82.4495 49.9288 107.873 74.6003 59.5861 62.6343 51.3667 87.6582 80.8528 62.196 66.7324 51.9751 47.1353 43.8721 42.2665 69.467 49.8998 84.0399 75.5332 52.9748 69.7286 42.8269 145.333 89.5783 88.9191 70.1577 70.5222 44.8954 44.5261 42.9152
threshold=72.61313585692514 57477.662415622828 57486.935000000005 56320.195000000007 54025.140777438981 54618.775000000001 49882.000000000007 49199.321666666678 48535.56500000001 47693.390000000007 47446.105000000003 49522.786851806217 48766.465000000004 55918.816666666673 47219.326666666682 46487.895000000011 42917.281861474883 42192.115000000013 42086.290000000008 43701.485000000008 43992.145000000011 40092.80000000001 39172.535500000202 38889.015000000007 40419.995000000003 39421.650000000001 39706.170000000006 41305.000000000007 -23.413289926478225 38865.485204119257
decision_type=2 2 2 2 2 2 2 2 2 2 2 2 2 2 2 2 2 2 2 2 2 2 2 2 2 2 2 2 2 2
left_child=1 3 -3 4 6 -6 7 8 9 10 14 -8 -10 -7 15 16 17 18 21 -18 -21 22 23 29 -23 -24 -27 28 -26 -1
right_child=-2 2 -4 -5 5 13 11 -9 12 -11 -12 -13 -14 -15 -16 -17 19 -19 -20 20 -22 24 25 -25 27 26 -28 -29 -30 -31
leaf_value=-0.000137866634283589 0.016499263504870621 -0.053362898698447542 -0.0052589003500768871 0.021891108929752753 -0.040467529337547888 0.013721663090985707 0.055953573297241745 -0.033161135008083709 0.043998934561361724 -0.021908561176429427 0.030261722530575394 0.0093364102471648527 0.0010558674040013554 -0.027996550964807101 -0.025584175999969701 0.027354029756089887 -0.025902327349338262 0.02535213761598451 -0.058785236677712863 0.045884204529222393 -0.0082106578032684948 0.04129779389018344 -0.05099682291518657 0.030951801054154522 0.010884912007710665 0.024759299636840031 -0.034498496873610444 0.013807588984312214 -0.042338063183143856 -0.038388183221048415
leaf_weight=16250.99008436501 732.12960395216942 129.99748568236828 1126.1189838498831 382.8657032251358 187.28133314847946 160.40535818040371 68.695331484079361 202.01346488296986 163.37726517021656 331.37125498056412 179.74136453866959 461.34029170870781 104.94650274515152 103.80104321241379 164.47278979420662 227.19957590103149 384.90610517561436 324.5649112612009 55.078336715698242 67.183400124311447 525.79029847681522 189.727320343256 202.18090268969536 232.40273451805115 66.606275513768196 86.759523019194603 119.17608331143856 230.38505452871323 95.842011034488678 73.662363588809967
leaf_count=67167 3043 523 4641 1615 763 663 290 826 691 1356 751 1916 435 424 671 960 1583 1353 227 277 2165 790 831 968 275 360 492 953 397 302
internal_value=-1.79204e-05 -0.000546012 -0.0102373 1.64542e-05 -0.000377482 -0.0183479 1.24284e-05 -0.000389203 -5.94431e-05 -0.000428747 -6.32946e-05 0.0153782 0.0272031 -0.00266853 -0.000345757 -0.000128794 -0.000459077 0.000140869 -0.000323982 -0.0114578 -0.00208176 -0.000140486 -0.000598215 0.000128347 0.0131894 -0.0300744 -0.00953352 -0.000386168 -0.0205158 -0.000310465
internal_weight=23631 22898.9 1256.12 21642.8 21259.9 451.488 20808.4 20278.4 20076.4 19808 19476.7 530.036 268.324 264.206 19296.9 19132.5 18905.3 17927.4 17602.8 977.88 592.974 17547.7 16965.2 16557.1 582.561 408.117 205.936 392.833 162.448 16324.7
internal_count=97708 94665 5164 89501 87886 1850 86036 83830 83004 81878 80522 2206 1126 1087 79771 79100 78140 74115 72762 4025 2442 72535 70120 68437 2415 1683 852 1625 672 67469
is_linear=0
shrinkage=0.05


Tree=5
num_leaves=31
num_cat=0
split_feature=1 19 18 19 19 15 19 15 19 24 19 18 19 24 19 22 19 17 19 24 23 19 0 19 23 19 19 19 18 19
split_gain=33.2788 47.1612 27.4545 93.2093 84.086 51.6502 55.8865 45.5272 68.6356 39.2002 68.1227 76.2507 40.5823 44.3885 67.6873 72.4951 53.7254 72.0847 56.9454 196.358 115.185 64.0571 187.872 71.7628 94.8515 72.7742 60.0456 58.9115 55.1022 61.7905
threshold=65000.216894100842 64953.380000000012 49067.37750000001 49200.010000000002 49517.155000000006 48983.785000000011 48535.56500000001 47631.905000000006 47446.105000000003 47219.326666666682 46487.895000000011 46486.305000000008 45647.610000000008 44422.770000000004 43701.485000000008 42770.576750000015 41954.090000000004 41558.137500000004 39034.845000000008 39001.893333333333 39629.995000000003 37142.660000000011 36244.744933685623 35703.710000000014 34910.535000000011 34611.090000000004 36239.470000000008 40092.80000000001 34054.942500000012 29985.600000000002
decision_type=2 2 2 2 2 2 2 2 2 2 2 2 2 2 2 2 2 2 2 2 2 2 2 2 2 2 2 2 2 2
left_child=1 2 3 5 -4 6 7 8 9 10 11 12 13 14 15 16 17 18 19 21 -20 22 23 24 25 28 -24 -22 29 -1
right_child=-2 -3 4 -5 -6 -7 -8 -9 -10 -11 -12 -13 -14 -15 -16 -17 -18 -19 20 -21 27 -23 26 -25 -26 -27 -28 -29 -30 -31
leaf_value=0.00015835176155425438 -0.029925295870532484 0.064028447474987274 -0.034220272248090843 0.037995467788817266 -0.0019427666507183861 -0.039974673949293958 0.029681422404372694 -0.019012071816940902 0.033887579273466736 -0.02497267391300298 0.027504597356742145 -0.03473241972707003 0.026410847197179749 -0.02149587285322295 0.029706012768656465 -0.021540714172942038 0.021319763957778987 -0.029366259976990883 0.036990155600824935 -0.047043180940733967 -0.024123367657165856 0.016595590364990108 -0.066626966638002411 0.030451548139767654 -0.03629417571939552 0.040638879867544102 -0.021108027241371327 0.010952717459551085 -0.025590317268831098 0.013440751589951061
leaf_weight=14249.430954948068 91.678634956479073 28.956698372960091 219.11313344538212 167.10693410038948 2549.6940445303917 78.514288246631622 164.51690420508385 296.96102626621723 154.67913834750652 150.46178217232227 233.28491522371769 153.88706307113171 151.13714323937893 228.70858858525753 198.52860227227211 370.50928618013859 313.48746480047703 200.56889066100121 321.84318326413631 217.65780541300774 180.40385065972805 614.7822505235672 117.96039699018002 202.81244397163391 173.05683323740959 114.52261587977409 187.78505177795887 355.7901216596365 197.74903726577759 932.93294732272625
leaf_count=58897 374 121 894 709 10545 322 695 1213 652 612 992 628 627 942 824 1519 1313 823 1350 890 743 2549 484 845 710 477 772 1480 817 3859
internal_value=0.00014068 0.00025784 0.000179254 0.000803879 -0.00449709 0.000501623 0.000656771 0.000421767 0.000710005 0.000451697 0.000645714 0.000324121 0.000603212 0.000399834 0.000664097 0.000356617 0.000798011 0.000441936 0.000776558 0.00014255 0.0133444 0.000754207 0.000152151 0.000900056 0.000517523 0.000928667 -0.0386698 -0.000848722 0.000632979 0.000974535
internal_weight=23618.5 23526.8 23497.9 20729.1 2768.81 20562 20483.5 20318.9 20022 19867.3 19716.8 19483.6 19329.7 19178.5 18949.8 18751.3 18380.8 18067.3 17866.7 17008.7 858.037 16791 16176.3 15870.5 15667.7 15494.6 305.745 536.194 15380.1 15182.4
internal_count=97678 97304 97183 85744 11439 85035 84713 84018 82805 82153 81541 80549 79921 79294 78352 77528 76009 74696 73873 70300 3573 69410 66861 65605 64760 64050 1256 2223 63573 62756
is_linear=0
shrinkage=0.05


Tree=6
num_leaves=31
num_cat=0
split_feature=1 19 2 19 19 1 3 0 19 18 19 10 19 3 19 18 19 1 20 15 8 20 0 16 19 1 19 1 3 15
split_gain=29.9142 43.2014 25.2716 109.977 78.7225 53.9493 39.9085 32.3144 83.36 46.2183 36.9236 34.0028 32.2871 52.3164 31.055 55.3926 46.6957 133.509 82.3098 37.8172 34.0298 35.143 33.0402 29.9544 26.009 53.1089 25.9789 45.7995 28.2581 25.8438
threshold=65000.216894100842 64953.380000000012 6854.9981849629903 7082.3100000000004 6857.2600000000011 7133.8107313284791 7156.2646503720589 6648.7275953519684 6410.2200000000012 6154.9950000000008 6651.380000000001 55.854470167139283 7164.0900000000011 7241.7141450902891 7275.0750000000016 7441.9525000000003 8102.9700000000003 8103.0230575069518 8088.2585000000008 7232.9225000000006 1.0000000180025095e-35 7298.7763700000005 7315.2588460679262 8155.107500000001 6158.1200000000008 5369.6761487646609 7436.3250000000016 7503.2642090804657 7461.2695902322612 9085.1550000000007
decision_type=2 2 2 2 2 2 2 2 2 2 2 2 2 2 2 2 2 2 2 2 2 2 2 2 2 2 2 2 2 2
left_child=1 2 4 6 7 -5 -4 8 9 24 -9 -12 -7 -14 19 20 18 -18 26 -15 -16 22 -22 -20 25 -1 -17 28 -28 -19
right_child=-2 -3 3 5 -6 12 -8 10 -10 -11 11 -13 13 14 15 16 17 29 23 -21 21 -23 -24 -25 -26 -27 27 -29 -30 -31
leaf_value=0.024745324676260453 -0.02831490373726463 0.061713123274448917 -0.022568755336779031 0.034942073430783711 0.062845428847239815 -0.02758432411857813 -0.07129931578031537 -0.062373754456343716 0.053219882662227685 -0.030893884853462918 0.012378424515057301 -0.061786937085448572 0.025758620981593025 0.0059859493667315748 0.050443897801010773 -0.036477193047752904 0.064646341241069077 0.0068046296927717041 -0.036758299954987764 -0.045951433955811298 0.025365726132989531 0.028742046286077183 -0.05955138292926071 -0.09919351596493263 0.04933803063907282 -0.042381846966367348 0.074518514814053569 -0.0075899450604113988 -0.0077716162407361891 -0.00041961984465718977
leaf_weight=89.05341836810112 92.038478747010231 28.551227167248726 148.56215296685696 111.4975504130125 64.0831238925457 105.0074308514595 58.5826196372509 33.633341103792191 90.459359884262085 92.451288625597954 80.805586129426956 19.109116539359093 198.53670448064804 62.181471735239029 82.988766029477119 63.888276323676109 80.239377573132515 1319.9145054221153 50.579330623149872 80.321742072701454 19.355459541082382 85.834801346063614 28.063256919384003 30.975421369075775 38.204166635870934 44.035304620862007 29.272976875305176 426.54195995628834 16.209198325872421 19941.024712815881
leaf_count=368 374 121 614 461 265 434 242 139 374 382 334 79 821 257 343 264 332 5456 209 332 80 355 116 128 158 182 121 1763 67 82507
internal_value=0.000134685 0.000246015 0.000171308 -8.30491e-05 0.0107448 0.000247428 -0.0363502 0.00389962 0.0118021 -0.00240348 -0.0170597 -0.00180602 7.64202e-05 0.000205421 -2.19012e-05 0.000127618 -0.000120372 0.000271825 -0.0136756 -0.0232885 0.0253101 0.00965699 -0.0248898 -0.0604719 0.0129735 0.00253484 -0.00655422 -0.00250416 0.0451915 2.88736e-05
internal_weight=23612 23520 23491.4 22939.6 551.835 22732.4 207.145 487.752 354.204 263.744 133.548 99.9147 22620.9 22515.9 22317.4 22174.9 21958.6 21341.2 617.467 142.503 216.242 133.254 47.4187 81.5548 171.293 133.089 535.912 472.024 45.4822 21260.9
internal_count=97678 97304 97183 94902 2281 94046 856 2016 1464 1090 552 413 93585 93151 92330 91741 90847 88295 2552 589 894 551 196 337 708 550 2215 1951 188 87963
is_linear=0
shrinkage=0.05


Tree=7
num_leaves=31
num_cat=0
split_feature=12 19 1 13 19 0 19 19 25 0 9 19 19 2 19 19 2 19 19 25 19 25 19 17 19 10 19 3 19 1
split_gain=27.2492 35.0921 52.444 47.6804 57.6967 54.5137 97.4913 84.6428 52.7776 45.7746 38.996 35.9206 35.5599 70.4948 53.3516 35.3868 34.3618 91.0295 75.7965 52.7229 69.0752 57.5659 118.448 72.8557 48.5989 40.9722 38.6912 39.1306 60.3273 93.2964
threshold=64989.086500000274 62824.115000000005 62791.340735717815 60486.943587580317 60649.880000000012 57477.662415622828 57773.605000000003 57225.895000000011 56781.623333333344 58885.593476379814 62.887226239990447 61040.055000000008 55924.090000000004 54675.583062806712 54618.775000000001 54618.775000000001 49934.659260490494 49200.010000000002 49517.155000000006 48856.030000000006 48535.56500000001 46966.138333333336 46487.895000000011 46244.336250000008 47260.540000000001 148.74459854771456 45647.610000000008 42917.281861474883 41548.955000000009 41557.326033880752
decision_type=2 2 2 2 2 2 2 2 2 2 2 2 2 2 2 2 2 2 2 2 2 2 2 2 2 2 2 2 2 2
left_child=1 3 -3 4 5 7 -7 8 12 -8 -6 -5 13 14 16 -15 17 19 -18 20 21 22 23 26 25 -23 27 28 29 -1
right_child=-2 2 -4 11 10 6 9 -9 -10 -11 -12 -13 -14 15 -16 -17 18 -19 -20 -21 -22 24 -24 -25 -26 -27 -28 -29 -30 -31
leaf_value=0.0005685217036366638 -0.027035406673969305 0.066876047097902958 0.0063929831063017362 -0.045885019832031956 0.051624996138105242 -0.045056852286822185 0.015256227505637 0.034645255640641498 -0.038980929143531948 -0.017234616401043162 -0.013246869410486879 -0.0081180623001364631 0.020334457884932475 -0.046698618830033782 0.039957816225752646 -0.010186324949104295 -0.05609423069301888 0.031384893184855413 -0.0040904950021026067 -0.030905337716160292 0.033354882997671718 0.03145420349854252 0.032059634217501902 -0.030199636296841012 -0.0052283162666175781 -0.043679388750640362 0.028534979483221735 -0.011334545988801355 0.016857291102620603 -0.053592655722509479
leaf_weight=17829.576022192836 91.962291821837425 47.901455372571945 142.33690977096558 91.978336215019226 89.345738112926483 183.64687012135983 208.94319921731949 180.44161321222782 85.351615190505981 225.28526572883129 31.274786680936813 199.55387192964554 221.74869805574417 111.19865664839745 85.467348977923393 164.56809809803963 82.849766582250595 238.86934389173985 454.17317882180214 134.12599968910217 159.17566902935505 20.293096423149109 297.57252398133278 194.17920850217342 409.84981299936771 171.4296401143074 122.99371035397053 684.87467850744724 569.49117587506771 79.867430239915848
leaf_count=73742 373 201 590 374 373 738 869 766 353 920 130 823 932 449 359 677 335 1014 1879 547 677 83 1272 789 1683 697 515 2810 2382 326
internal_value=0.000128638 0.000234856 0.0216224 6.04422e-05 0.000314735 0.000133193 -0.0145168 0.000539141 0.000260894 -0.00160059 0.0348049 -0.0200335 0.000412914 0.000210371 0.000532045 -0.0249093 0.000374949 0.000695647 -0.0121134 0.000341051 0.000545096 0.000288841 0.000752283 0.000274063 -0.0149483 -0.0357268 0.000580871 0.000401461 0.000836427 0.000326989
internal_weight=23610.3 23518.4 190.238 23328.1 23036.6 22916 617.875 22298.1 22117.7 434.228 120.621 291.532 22032.3 21810.6 21534.8 275.767 21449.3 20912.3 537.023 20673.4 20539.3 20380.1 19778.6 19481 601.573 191.723 19286.8 19163.8 18478.9 17909.4
internal_count=97678 97305 791 96514 95317 94814 2527 92287 91521 1789 503 1197 91168 90236 89110 1126 88751 86537 2214 85523 84976 84299 81836 80564 2463 780 79775 79260 76450 74068
is_linear=0
shrinkage=0.05


end of trees

feature_importances:
chikou_span=106
ema_21=15
ema_9=13
pivot_point=13
ema_200=10
tenkan_sen=9
resistance_1=9
senkou_a=8
support_1=8
ema_50=7
senkou_b=7
macd=5
kijun_sen=5
bb_lower=4
rsi_14=3
fib_50=3
macd_signal=2
macd_hist=2
atr_14=2
bb_middle=2
fib_618=2
fib_382=2
regime_trend=2
bb_upper=1

parameters:
[boosting: gbdt]
[objective: binary]
[metric: auc]
[tree_learner: serial]
[device_type: cpu]
[data_sample_strategy: bagging]
[data: ]
[valid: ]
[num_iterations: 1000]
[learning_rate: 0.05]
[num_leaves: 31]
[num_threads: 0]
[seed: 0]
[deterministic: 0]
[force_col_wise: 0]
[force_row_wise: 0]
[histogram_pool_size: -1]
[max_depth: -1]
[min_data_in_leaf: 20]
[min_sum_hessian_in_leaf: 0.001]
[bagging_fraction: 0.8]
[pos_bagging_fraction: 1]
[neg_bagging_fraction: 1]
[bagging_freq: 5]
[bagging_seed: 3]
[bagging_by_query: 0]
[feature_fraction: 0.8]
[feature_fraction_bynode: 1]
[feature_fraction_seed: 2]
[extra_trees: 0]
[extra_seed: 6]
[early_stopping_round: 0]
[early_stopping_min_delta: 0]
[first_metric_only: 0]
[max_delta_step: 0]
[lambda_l1: 0]
[lambda_l2: 0]
[linear_lambda: 0]
[min_gain_to_split: 0]
[drop_rate: 0.1]
[max_drop: 50]
[skip_drop: 0.5]
[xgboost_dart_mode: 0]
[uniform_drop: 0]
[drop_seed: 4]
[top_rate: 0.2]
[other_rate: 0.1]
[min_data_per_group: 100]
[max_cat_threshold: 32]
[cat_l2: 10]
[cat_smooth: 10]
[max_cat_to_onehot: 4]
[top_k: 20]
[monotone_constraints: ]
[monotone_constraints_method: basic]
[monotone_penalty: 0]
[feature_contri: ]
[forcedsplits_filename: ]
[refit_decay_rate: 0.9]
[cegb_tradeoff: 1]
[cegb_penalty_split: 0]
[cegb_penalty_feature_lazy: ]
[cegb_penalty_feature_coupled: ]
[path_smooth: 0]
[interaction_constraints: ]
[verbosity: -1]
[saved_feature_importance_type: 0]
[use_quantized_grad: 0]
[num_grad_quant_bins: 4]
[quant_train_renew_leaf: 0]
[stochastic_rounding: 1]
[linear_tree: 0]
[max_bin: 255]
[max_bin_by_feature: ]
[min_data_in_bin: 3]
[bin_construct_sample_cnt: 200000]
[data_random_seed: 1]
[is_enable_sparse: 1]
[enable_bundle: 1]
[use_missing: 1]
[zero_as_missing: 0]
[feature_pre_filter: 1]
[pre_partition: 0]
[two_round: 0]
[header: 0]
[label_column: ]
[weight_column: ]
[group_column: ]
[ignore_column: ]
[categorical_feature: ]
[forcedbins_filename: ]
[precise_float_parser: 0]
[parser_config_file: ]
[objective_seed: 5]
[num_class: 1]
[is_unbalance: 0]
[scale_pos_weight: 1]
[sigmoid: 1]
[boost_from_average: 1]
[reg_sqrt: 0]
[alpha: 0.9]
[fair_c: 1]
[poisson_max_delta_step: 0.7]
[tweedie_variance_power: 1.5]
[lambdarank_truncation_level: 30]
[lambdarank_norm: 1]
[label_gain: ]
[lambdarank_position_bias_regularization: 0]
[eval_at: ]
[multi_error_top_k: 1]
[auc_mu_weights: ]
[num_machines: 1]
[local_listen_port: 12400]
[time_out: 120]
[machine_list_filename: ]
[machines: ]
[gpu_platform_id: -1]
[gpu_device_id: -1]
[gpu_use_dp: 0]
[num_gpu: 1]

end of parameters

pandas_categorical:[]
